SVM-light Version V6.02
0 # kernel type
3 # kernel parameter -d 
1 # kernel parameter -g 
1 # kernel parameter -s 
1 # kernel parameter -r 
empty# kernel parameter -u 
744 # highest feature index 
12665 # number of training documents 
85 # number of support vectors plus 1 
-1.3158282 # threshold b, each following line is a SV (starting with alpha*y)
-7.683007426127906e-007 179:10 180:17 181:17 182:17 183:11 203:4 204:38 205:123 206:188 207:226 208:253 209:253 210:254 211:228 212:154 213:43 214:5 230:12 231:132 232:253 233:253 234:253 235:253 236:232 237:221 238:243 239:253 240:253 241:253 242:154 243:16 258:105 259:253 260:253 261:245 262:193 263:110 264:18 265:2 266:185 267:253 268:253 269:253 270:253 271:169 272:19 285:73 286:243 287:253 288:229 289:85 293:69 294:254 295:253 296:253 297:231 298:228 299:253 300:212 301:29 312:26 313:244 314:253 315:216 316:33 321:82 322:254 323:253 324:168 325:18 326:16 327:154 328:253 329:186 330:9 340:212 341:253 342:239 343:32 349:109 350:254 351:190 352:7 355:5 356:176 357:253 358:112 368:254 369:253 370:128 377:82 378:254 379:105 384:46 385:246 386:248 387:31 396:254 397:237 398:2 405:29 406:227 407:152 413:149 414:253 415:90 424:255 425:182 434:59 435:193 436:103 441:66 442:254 443:145 452:254 453:154 463:29 464:66 469:71 470:253 471:203 480:219 481:215 497:147 498:253 499:253 508:72 509:249 510:72 524:37 525:222 526:253 527:179 536:5 537:204 538:240 539:81 551:38 552:221 553:253 554:253 555:50 565:21 566:203 567:248 568:173 569:116 570:50 571:50 572:4 573:32 576:37 577:113 578:170 579:233 580:253 581:224 582:129 583:2 594:14 595:107 596:223 597:253 598:253 599:253 600:223 601:242 602:222 603:221 604:245 605:253 606:253 607:223 608:150 609:48 624:12 625:24 626:96 627:127 628:187 629:187 630:188 631:182 632:132 633:106 634:66 635:12 #
3.6525495423866889e-007 153:44 154:158 155:57 157:255 158:254 159:254 160:19 181:236 182:253 183:105 185:208 186:136 187:88 188:11 208:19 209:254 210:253 211:39 236:127 237:254 238:253 239:39 264:156 265:255 266:254 267:39 292:97 293:254 294:235 295:21 320:144 321:254 322:196 348:156 349:254 350:136 376:162 377:255 378:83 381:50 382:110 383:194 384:19 404:234 405:254 406:58 409:254 410:247 411:214 412:16 431:68 432:250 433:254 434:58 437:87 438:33 459:136 460:253 461:218 462:23 487:167 488:254 489:103 515:215 516:253 517:79 542:34 543:247 544:253 545:79 570:112 571:253 572:253 573:6 597:2 598:176 599:254 600:145 607:5 608:2 625:80 626:253 627:253 628:85 635:59 636:19 653:51 654:212 655:194 656:15 663:101 664:19 682:6 691:185 692:19 #
-3.5081805075103609e-007 146:8 147:201 148:253 149:145 152:32 153:96 154:148 155:192 156:255 157:222 158:211 159:211 160:229 161:237 162:69 163:22 174:43 175:252 176:122 177:92 179:103 180:237 181:252 182:196 183:168 184:63 185:16 188:27 189:81 190:231 191:168 192:28 202:139 203:217 204:12 205:6 206:153 207:250 208:152 209:73 210:7 218:16 219:181 220:186 221:4 230:218 231:196 232:7 233:91 234:252 235:70 247:42 248:196 249:138 258:253 259:168 260:18 261:212 262:59 276:81 277:252 286:254 287:168 288:128 289:172 304:64 305:253 314:253 315:168 316:127 317:84 332:64 333:252 342:253 343:168 344:28 345:77 360:64 361:252 370:253 371:189 372:6 388:64 389:252 398:165 399:252 400:21 416:152 417:252 426:148 427:253 428:21 443:31 444:218 445:129 454:148 455:252 456:100 471:127 472:252 473:42 482:48 483:247 484:126 498:16 499:226 500:194 501:4 511:190 512:152 525:11 526:206 527:247 528:98 539:190 540:249 541:70 553:219 554:252 555:99 567:116 568:250 569:145 579:55 580:192 581:247 582:53 596:153 597:237 598:146 606:131 607:232 608:252 609:53 624:19 625:157 626:252 627:171 628:48 629:22 630:22 631:22 632:101 633:232 634:240 635:178 636:21 653:21 654:172 655:253 656:252 657:252 658:252 659:252 660:253 661:205 662:51 683:42 684:121 685:147 686:147 687:147 688:42 689:11 #
7.3046797662118974e-007 129:2 130:106 131:255 132:135 156:2 157:105 158:253 159:249 160:117 184:106 185:253 186:248 187:118 211:24 212:254 213:249 214:118 238:27 239:153 240:254 241:142 266:110 267:253 268:245 269:26 293:33 294:215 295:253 296:104 321:143 322:253 323:207 349:218 350:253 351:81 376:139 377:252 378:149 379:1 403:39 404:232 405:254 406:139 431:73 432:253 433:244 434:21 459:91 460:253 461:156 487:194 488:253 489:76 515:136 516:253 517:123 543:194 544:253 545:156 571:194 572:253 573:156 599:194 600:253 601:193 602:9 627:194 628:253 629:253 630:133 655:79 656:253 657:253 658:87 #
-1.4152215732967375e-007 153:63 154:222 155:254 156:255 157:254 158:196 159:8 178:5 179:97 180:248 181:252 182:254 183:172 184:6 185:37 186:235 187:80 206:155 207:240 208:242 209:143 210:143 211:27 214:119 215:188 233:55 234:241 235:106 236:15 242:72 243:245 244:26 260:5 261:203 262:161 263:5 270:12 271:233 272:39 288:97 289:238 290:25 299:198 300:96 315:14 316:227 317:125 327:156 328:159 343:43 344:244 345:34 355:156 356:169 371:139 372:169 383:156 384:169 399:169 400:123 411:156 412:169 427:170 428:92 439:157 440:169 455:169 456:91 467:187 468:155 483:170 484:75 494:15 495:236 496:76 511:169 512:91 522:94 523:243 524:23 539:169 540:91 549:16 550:208 551:160 567:170 568:131 577:127 578:235 579:29 595:127 596:231 597:41 604:105 605:248 606:94 623:7 624:176 625:196 626:16 630:7 631:121 632:252 633:137 652:29 653:218 654:201 655:84 656:72 657:123 658:228 659:237 660:109 661:4 681:43 682:200 683:254 684:254 685:237 686:124 687:33 #
6.8371039445360343e-007 125:29 126:161 127:255 128:181 129:2 152:9 153:127 154:253 155:253 156:253 157:116 179:4 180:180 181:253 182:249 183:249 184:253 185:172 206:4 207:126 208:253 209:220 210:79 211:192 212:253 213:172 234:38 235:253 236:247 237:113 239:192 240:253 241:172 262:38 263:253 264:235 265:66 267:192 268:253 269:172 290:13 291:168 292:240 293:197 295:192 296:253 297:172 320:55 321:63 323:192 324:253 325:148 351:192 352:237 353:38 378:16 379:207 380:179 406:32 407:223 408:179 434:63 435:253 436:179 462:63 463:253 464:179 490:63 491:253 492:179 496:77 497:88 498:49 518:9 519:201 520:179 522:78 523:199 524:249 525:253 526:141 547:192 548:244 549:223 550:248 551:253 552:214 553:103 554:17 572:21 573:106 574:197 575:248 576:253 577:253 578:165 579:42 580:15 595:64 596:112 597:112 598:112 599:194 600:239 601:253 602:253 603:253 604:165 605:42 606:3 623:143 624:253 625:253 626:253 627:253 628:253 629:227 630:135 631:42 632:3 651:73 652:141 653:177 654:208 655:171 656:105 657:4 #
1.6926744494035895e-006 126:106 127:255 128:67 153:4 154:173 155:253 156:176 181:24 182:253 183:253 184:176 209:24 210:253 211:253 212:143 237:121 238:253 239:253 240:59 264:6 265:241 266:253 267:228 268:34 272:13 273:107 274:30 292:6 293:253 294:253 295:194 299:15 300:244 301:253 302:70 320:73 321:253 322:253 323:194 327:130 328:253 329:253 330:70 348:199 349:253 350:253 351:120 355:185 356:253 357:253 358:70 375:75 376:250 377:253 378:244 379:59 383:185 384:253 385:242 386:54 403:107 404:253 405:253 406:176 411:91 412:185 413:115 431:107 432:253 433:253 434:94 440:5 441:14 459:214 460:253 461:253 462:94 486:148 487:253 488:253 489:230 490:2 514:207 515:253 516:253 517:160 541:14 542:216 543:253 544:252 545:91 569:72 570:253 571:253 572:247 597:110 598:253 599:253 600:209 625:189 626:253 627:253 628:27 653:189 654:253 655:154 656:1 #
-6.5683817854681949e-007 122:1 123:16 124:167 125:255 126:253 127:211 128:81 129:1 149:1 150:147 151:250 152:138 153:66 154:41 155:79 156:169 157:178 158:52 159:1 176:2 177:146 178:207 179:58 185:37 186:241 187:56 203:7 204:59 205:198 206:16 214:82 215:234 216:12 231:162 232:231 233:57 243:234 244:51 258:6 259:214 260:134 271:198 272:109 286:13 287:254 288:67 299:114 300:215 301:6 314:13 315:254 316:67 327:59 328:252 329:12 342:13 343:254 344:79 356:238 357:12 370:7 371:220 372:191 384:238 385:12 399:169 400:251 401:53 412:238 413:12 427:21 428:219 429:79 440:238 441:12 456:188 457:191 468:238 469:12 484:95 485:235 486:14 495:38 496:231 497:10 512:9 513:219 514:107 523:116 524:162 541:170 542:236 543:32 551:228 552:51 569:16 570:219 571:165 572:14 578:39 579:246 580:16 598:56 599:238 600:165 601:14 606:195 607:190 608:1 627:45 628:223 629:234 630:121 631:80 632:98 633:182 634:254 635:53 656:16 657:156 658:241 659:254 660:254 661:180 662:75 663:1 #
-2.9341421446478505e-007 126:25 127:220 128:205 129:122 130:47 154:109 155:254 156:254 157:254 158:245 159:135 182:188 183:254 184:254 185:246 186:56 187:25 210:188 211:254 212:254 213:181 237:62 238:249 239:225 240:248 241:150 265:217 266:254 267:88 268:149 269:150 292:72 293:243 294:222 296:132 297:150 320:242 321:254 322:69 324:132 325:206 347:42 348:249 349:219 350:10 352:132 353:244 375:155 376:254 377:62 380:132 381:209 402:19 403:254 404:240 405:28 408:157 409:150 430:69 431:254 432:148 435:84 436:240 437:150 458:151 459:254 460:30 463:199 464:254 465:146 485:32 486:238 487:254 488:9 490:92 491:254 492:254 493:56 513:48 514:254 515:238 516:7 518:188 519:254 520:218 521:4 541:48 542:254 543:169 545:3 546:193 547:254 548:139 569:48 570:254 571:169 573:92 574:254 575:255 576:56 597:48 598:254 599:251 600:42 601:239 602:254 603:134 604:1 625:7 626:168 627:254 628:226 629:254 630:162 631:14 654:44 655:254 656:232 657:114 658:17 #
-1.7974069217769223e-007 154:74 155:255 156:253 157:253 158:117 159:3 181:60 182:244 183:253 184:252 185:252 186:252 187:22 208:19 209:188 210:252 211:236 212:90 213:234 214:252 215:137 236:112 237:252 238:210 239:42 241:90 242:252 243:252 264:184 265:252 266:85 269:7 270:211 271:252 292:185 293:161 298:198 299:253 319:30 320:228 321:87 326:93 327:252 347:78 348:233 349:33 354:93 355:252 374:9 375:194 376:141 382:93 383:252 402:24 403:252 404:69 410:197 411:200 430:87 431:249 432:63 437:70 438:253 439:137 458:138 459:206 465:70 466:252 467:64 486:222 487:206 493:153 494:252 495:22 514:253 515:112 520:81 521:240 522:134 523:4 541:53 542:243 543:50 547:11 548:203 549:221 550:25 569:116 570:231 574:11 575:255 576:239 577:115 597:116 598:230 601:60 602:203 603:249 604:75 625:116 626:237 627:38 628:101 629:209 630:252 631:63 653:116 654:253 655:232 656:252 657:218 658:108 681:116 682:253 683:252 684:221 685:35 #
8.9499038527711939e-007 100:47 101:233 102:217 127:42 128:233 129:252 130:215 154:6 155:160 156:253 157:252 158:215 181:1 182:120 183:252 184:253 185:252 186:215 209:73 210:252 211:252 212:253 213:252 214:71 236:32 237:207 238:252 239:252 240:253 241:252 242:71 264:212 265:252 266:246 267:236 268:253 269:252 270:71 291:84 292:253 293:210 294:92 295:144 296:253 297:210 298:31 317:73 318:253 319:253 320:255 321:119 323:145 324:255 325:180 345:52 346:231 347:252 348:119 349:5 351:144 352:253 353:179 374:51 375:71 379:144 380:253 381:179 407:144 408:253 409:97 435:145 436:255 437:35 462:11 463:175 464:253 465:77 488:37 489:37 490:68 491:252 492:253 493:231 494:181 495:181 496:105 511:1 512:144 513:144 514:144 515:144 516:253 517:252 518:252 519:252 520:253 521:252 522:231 523:108 524:62 539:145 540:253 541:253 542:253 543:253 544:255 545:253 546:253 547:253 548:255 549:35 567:20 568:252 569:252 570:252 571:252 572:222 573:200 574:252 575:252 576:222 577:25 595:1 596:252 597:252 598:205 599:71 600:41 601:21 602:201 603:252 604:125 623:1 624:108 625:108 626:31 630:98 631:252 #
3.3302985867263958e-007 130:49 131:162 132:222 133:99 157:48 158:236 159:254 160:254 161:160 184:48 185:234 186:254 187:254 188:254 189:75 211:52 212:228 213:254 214:254 215:254 216:177 217:18 237:10 238:62 239:226 240:254 241:254 242:254 243:254 244:55 258:46 259:37 264:62 265:180 266:254 267:245 268:166 269:254 270:254 271:205 272:22 286:147 287:61 291:128 292:242 293:254 294:229 295:43 296:7 297:254 298:254 299:101 313:95 314:254 315:61 316:16 317:119 318:249 319:254 320:254 321:224 322:42 324:7 325:254 326:209 327:19 341:98 342:254 343:234 344:232 345:254 346:254 347:215 348:116 349:20 351:10 352:169 353:254 354:151 369:18 370:163 371:185 372:185 373:185 374:115 375:27 379:140 380:254 381:221 382:35 406:10 407:183 408:253 409:106 433:8 434:146 435:255 436:248 461:70 462:254 463:254 464:168 489:137 490:254 491:241 492:56 517:207 518:254 519:96 544:124 545:248 546:239 547:60 572:228 573:254 574:206 576:34 577:31 578:119 579:200 580:92 581:19 595:137 596:180 597:180 598:109 599:102 600:247 601:254 602:240 603:180 604:220 605:216 606:254 607:218 608:105 609:22 623:182 624:254 625:254 626:254 627:254 628:254 629:254 630:254 631:252 632:234 633:166 634:96 635:13 651:26 652:135 653:254 654:254 655:254 656:254 657:217 658:117 659:104 #
4.1544645219188496e-006 154:32 155:202 156:255 157:253 158:253 159:253 160:253 161:255 162:253 163:164 181:21 182:190 183:251 184:253 185:251 186:251 187:251 188:251 189:253 190:168 191:15 209:63 210:251 211:251 212:253 213:251 214:251 215:251 216:251 217:253 218:107 236:63 237:231 238:251 239:251 240:253 241:251 242:251 243:251 244:251 245:221 246:61 264:144 265:251 266:251 267:251 268:253 269:251 270:251 271:251 272:122 273:51 291:73 292:253 293:253 294:253 295:253 296:255 297:253 298:253 299:253 300:72 319:73 320:251 321:251 322:251 323:251 324:253 325:251 326:251 327:251 328:71 347:99 348:251 349:251 350:251 351:251 352:253 353:251 354:251 355:235 356:61 375:253 376:251 377:251 378:251 379:251 380:253 381:251 382:251 383:142 403:253 404:251 405:251 406:251 407:251 408:253 409:251 410:251 411:142 430:182 431:255 432:253 433:253 434:253 435:253 436:255 437:253 438:242 439:103 457:63 458:221 459:253 460:251 461:251 462:251 463:251 464:253 465:251 466:112 484:6 485:129 486:251 487:253 488:251 489:251 490:251 491:251 492:253 493:251 494:35 512:37 513:251 514:251 515:253 516:251 517:251 518:251 519:251 520:253 521:251 522:35 540:166 541:251 542:251 543:253 544:251 545:251 546:251 547:251 548:253 549:147 550:10 567:145 568:253 569:253 570:253 571:255 572:253 573:253 574:253 575:253 576:234 577:77 595:144 596:251 597:251 598:251 599:253 600:251 601:251 602:251 603:251 604:180 623:124 624:246 625:251 626:251 627:253 628:251 629:251 630:251 631:251 632:180 652:138 653:251 654:251 655:253 656:251 657:251 658:251 659:251 660:103 680:11 681:148 682:251 683:253 684:251 685:251 686:251 687:122 #
4.6923512716330344e-007 132:65 133:166 134:128 135:40 147:17 148:47 149:131 150:12 158:22 159:85 160:234 161:253 162:253 163:99 174:86 175:185 176:253 177:172 178:6 185:9 186:195 187:253 188:253 189:253 190:222 191:42 201:29 202:211 203:253 204:239 205:73 211:46 212:135 213:247 214:253 215:253 216:253 217:253 218:49 230:125 231:252 232:220 233:18 237:36 238:147 239:222 240:253 241:253 242:253 243:253 244:253 245:236 246:38 259:247 260:253 261:190 262:55 263:139 264:139 265:243 266:253 267:253 268:253 269:168 270:253 271:253 272:249 273:66 287:71 288:181 289:253 290:244 291:253 292:253 293:253 294:193 295:168 296:32 297:72 298:253 299:253 300:100 316:11 317:68 318:214 319:203 320:68 321:68 322:21 324:9 325:180 326:253 327:245 328:81 352:70 353:253 354:253 355:191 380:117 381:253 382:218 383:39 407:12 408:226 409:253 410:137 434:12 435:186 436:253 437:253 438:137 462:24 463:253 464:253 465:197 466:16 490:127 491:253 492:249 493:79 518:177 519:253 520:183 545:104 546:242 547:253 548:183 565:7 566:8 567:8 568:8 569:93 570:162 571:162 572:162 573:245 574:253 575:253 576:228 577:162 578:162 579:125 580:8 581:8 582:2 592:109 593:223 594:253 595:253 596:253 597:253 598:253 599:253 600:253 601:253 602:253 603:253 604:253 605:253 606:253 607:253 608:253 609:253 610:45 620:255 621:253 622:253 623:253 624:253 625:253 626:253 627:253 628:253 629:253 630:253 631:253 632:205 633:199 634:199 635:199 636:101 637:45 638:8 648:100 649:99 650:99 651:99 652:99 653:99 654:99 655:99 656:179 657:253 658:145 659:99 660:12 #
5.6737184968985721e-007 191:70 218:80 219:235 245:73 246:247 247:254 272:12 273:169 274:254 275:116 298:23 299:140 300:166 301:254 302:123 303:41 324:7 325:141 326:235 327:254 328:239 329:92 330:2 351:62 352:166 353:254 354:254 355:254 356:95 377:27 378:89 379:250 380:254 381:254 382:187 383:87 384:1 403:3 404:9 405:195 406:254 407:254 408:254 409:171 410:16 431:130 432:254 433:254 434:254 435:216 436:140 457:38 458:190 459:249 460:254 461:246 462:224 463:40 484:57 485:143 486:254 487:254 488:254 489:97 511:54 512:230 513:254 514:254 515:174 516:49 517:2 537:9 538:132 539:227 540:254 541:254 542:181 543:12 564:166 565:167 566:197 567:197 568:197 569:164 570:15 #
-1.1938834628923906e-006 154:8 155:157 156:236 157:32 182:157 183:252 184:252 185:210 186:14 209:150 210:253 211:252 212:252 213:252 214:95 236:43 237:239 238:253 239:252 240:252 241:252 242:147 263:9 264:187 265:252 266:253 267:252 268:252 269:252 270:147 291:22 292:253 293:253 294:168 295:199 296:253 297:253 298:86 319:101 320:252 321:252 322:27 323:85 324:252 325:205 326:11 347:180 348:252 349:199 351:85 352:252 353:189 374:57 375:246 376:252 377:77 379:28 380:239 381:189 402:85 403:252 404:226 405:24 407:36 408:241 409:215 410:18 429:8 430:201 431:253 432:84 435:71 436:250 437:243 438:35 457:123 458:252 459:236 460:21 463:64 464:247 465:189 485:148 486:252 487:178 491:85 492:252 493:136 513:148 514:252 515:126 518:38 519:171 520:247 521:63 541:192 542:252 543:38 546:148 547:252 548:231 569:255 570:253 571:21 573:36 574:210 575:253 576:109 597:253 598:252 599:21 600:22 601:225 602:253 603:189 604:5 625:156 626:252 627:190 628:237 629:252 630:223 631:40 653:148 654:252 655:252 656:252 657:199 658:35 681:42 682:226 683:252 684:182 685:24 #
2.0576292675359402e-006 130:63 131:176 132:90 157:10 158:178 159:253 160:243 161:50 185:60 186:252 187:253 188:252 189:133 207:7 208:26 212:7 213:178 214:252 215:253 216:195 217:19 234:48 235:165 236:239 237:63 240:135 241:252 242:252 243:253 244:167 261:114 262:159 263:253 264:225 266:51 267:159 268:253 269:253 270:253 271:255 272:106 289:253 290:252 291:252 292:233 293:163 294:238 295:252 296:252 297:252 298:252 299:106 300:3 317:253 318:252 319:252 320:252 321:252 322:253 323:252 324:252 325:252 326:252 345:146 346:233 347:252 348:233 349:223 350:162 351:84 352:215 353:252 354:252 374:38 375:112 376:37 379:48 380:227 381:252 382:173 407:85 408:253 409:253 410:112 435:85 436:252 437:226 438:12 463:194 464:252 465:114 491:225 492:252 493:84 519:225 520:220 521:37 546:51 547:238 548:196 565:29 566:85 567:85 568:85 569:85 570:85 571:85 572:85 573:85 574:159 575:252 576:246 577:225 578:225 579:226 580:72 593:85 594:252 595:252 596:252 597:253 598:252 599:252 600:252 601:252 602:253 603:252 604:252 605:252 606:252 607:196 608:130 621:76 622:223 623:242 624:252 625:253 626:252 627:252 628:252 629:252 630:253 631:242 632:223 633:129 634:84 651:75 652:112 653:112 654:112 655:142 656:236 657:112 658:112 659:74 #
-6.0743534469083578e-006 153:57 154:252 155:248 181:157 182:254 183:252 184:112 209:157 210:254 211:254 212:197 213:108 214:59 236:52 237:233 238:254 239:254 240:254 241:254 242:229 243:38 264:146 265:254 266:254 267:254 268:254 269:254 270:254 271:49 292:231 293:254 294:254 295:254 296:254 297:254 298:254 299:49 319:78 320:244 321:254 322:254 323:254 324:254 325:254 326:254 327:49 347:140 348:254 349:254 350:254 351:254 352:254 353:254 354:254 355:49 375:140 376:254 377:254 378:203 379:103 380:254 381:254 382:254 383:49 403:140 404:254 405:254 406:11 407:9 408:254 409:254 410:254 411:49 431:140 432:254 433:147 434:3 435:122 436:254 437:254 438:175 439:16 459:140 460:254 461:98 463:173 464:254 465:254 466:139 486:38 487:226 488:254 489:98 491:173 492:254 493:252 494:126 514:50 515:254 516:254 517:98 519:173 520:254 521:230 542:50 543:254 544:254 545:98 546:68 547:239 548:254 549:96 570:50 571:254 572:254 573:179 574:172 575:254 576:254 577:65 598:39 599:229 600:254 601:254 602:254 603:254 604:254 605:65 627:140 628:254 629:254 630:254 631:254 632:196 633:27 655:100 656:248 657:254 658:254 659:198 660:10 684:125 685:254 686:201 687:29 #
-7.5196780585362599e-007 127:27 128:120 129:255 130:254 131:45 155:184 156:253 157:253 158:253 159:217 160:31 182:55 183:252 184:253 185:253 186:253 187:253 188:83 209:18 210:192 211:253 212:253 213:253 214:253 215:253 216:83 236:5 237:238 238:253 239:253 240:253 241:253 242:253 243:253 244:170 245:19 264:2 265:114 266:253 267:253 268:253 269:253 270:253 271:253 272:134 273:11 292:3 293:189 294:253 295:253 296:211 297:247 298:253 299:244 300:44 320:74 321:253 322:253 323:243 324:134 325:253 326:253 327:207 347:27 348:214 349:253 350:253 351:125 352:175 353:253 354:253 355:85 374:4 375:144 376:253 377:253 378:253 379:155 380:230 381:253 382:253 383:25 402:99 403:253 404:253 405:253 406:213 407:253 408:253 409:253 410:191 411:6 429:59 430:239 431:253 432:250 433:87 434:19 435:250 436:253 437:248 438:105 457:176 458:253 459:253 460:212 462:135 463:253 464:253 465:186 484:38 485:249 486:253 487:246 488:85 490:202 491:253 492:243 493:62 512:204 513:253 514:253 515:191 516:2 517:100 518:239 519:253 520:133 539:50 540:243 541:253 542:253 543:136 544:212 545:253 546:253 547:165 548:7 566:25 567:232 568:253 569:253 570:253 571:253 572:253 573:253 574:199 575:37 594:84 595:253 596:253 597:253 598:253 599:253 600:251 601:119 602:8 622:140 623:253 624:253 625:253 626:226 627:171 628:91 650:56 651:253 652:253 653:224 654:80 #
-4.5169297781667067e-007 149:93 150:254 151:113 152:131 153:166 154:63 176:98 177:240 178:253 179:253 180:253 181:253 182:174 183:11 203:8 204:226 205:253 206:253 207:253 208:253 209:253 210:254 211:56 212:6 231:64 232:240 233:182 234:253 235:253 236:253 237:253 238:254 239:253 240:89 260:70 261:56 262:148 263:253 264:253 265:253 266:254 267:253 268:234 269:119 290:134 291:253 292:253 293:253 294:254 295:253 296:253 297:218 298:127 317:16 318:198 319:253 320:253 321:253 322:254 323:253 324:253 325:253 326:178 345:172 346:253 347:253 348:253 349:253 350:254 351:253 352:253 353:253 354:249 355:70 373:179 374:253 375:253 376:253 377:138 378:139 379:253 380:253 381:253 382:253 383:162 401:179 402:253 403:253 404:253 405:192 406:43 407:227 408:253 409:253 410:253 411:162 429:181 430:254 431:254 432:254 433:254 435:149 436:254 437:254 438:254 439:224 457:179 458:253 459:253 460:242 461:105 463:60 464:253 465:253 466:253 467:230 468:29 485:171 486:253 487:253 488:211 489:15 490:104 491:160 492:253 493:253 494:253 495:251 496:112 513:30 514:253 515:253 516:253 517:253 518:254 519:225 520:211 521:253 522:253 523:223 541:4 542:148 543:253 544:253 545:253 546:254 547:246 548:243 549:253 550:253 551:223 570:134 571:253 572:253 573:253 574:254 575:253 576:253 577:253 578:253 579:117 598:64 599:166 600:253 601:253 602:254 603:253 604:253 605:253 606:213 607:35 627:59 628:232 629:253 630:255 631:253 632:253 633:253 634:37 656:168 657:226 658:254 659:253 660:224 661:208 662:24 684:19 685:43 686:166 687:217 688:37 #
-3.0136950008221544e-006 125:89 126:255 127:254 128:151 129:8 153:88 154:253 155:253 156:253 157:134 181:88 182:253 183:253 184:253 185:200 209:88 210:253 211:253 212:253 213:200 237:88 238:253 239:253 240:253 241:200 264:5 265:168 266:253 267:253 268:253 269:200 291:11 292:156 293:253 294:253 295:253 296:253 297:205 298:13 319:106 320:253 321:253 322:253 323:253 324:253 325:253 326:122 346:1 347:111 348:253 349:250 350:244 351:252 352:253 353:214 354:33 374:88 375:253 376:253 377:165 379:246 380:253 381:200 402:202 403:253 404:253 405:165 407:246 408:253 409:235 410:81 429:120 430:251 431:253 432:250 433:120 435:246 436:253 437:201 438:4 457:124 458:253 459:253 460:244 463:246 464:253 465:200 485:12 486:207 487:253 488:250 489:115 490:150 491:252 492:253 493:248 494:110 514:202 515:253 516:244 518:167 519:253 520:253 521:225 522:59 542:202 543:253 544:245 545:36 546:179 547:253 548:253 549:54 570:202 571:253 572:253 573:253 574:253 575:253 576:185 577:14 598:202 599:253 600:253 601:253 602:253 603:253 604:104 626:202 627:253 628:253 629:253 630:253 631:226 632:65 654:62 655:78 656:205 657:253 658:137 659:56 #
1.0563587354765137e-006 128:67 129:244 130:56 155:64 156:244 157:171 158:7 182:26 183:239 184:227 185:37 209:17 210:196 211:254 212:160 237:75 238:254 239:254 240:7 264:7 265:193 266:254 267:169 292:85 293:254 294:234 295:20 301:70 302:86 303:67 319:5 320:192 321:254 322:114 327:17 328:197 329:252 330:254 331:197 347:65 348:254 349:226 350:20 355:76 356:254 357:241 358:225 359:106 375:114 376:254 377:197 383:48 384:107 385:37 402:30 403:237 404:255 405:79 430:131 431:254 432:178 433:1 457:3 458:180 459:254 460:130 485:138 486:254 487:213 488:25 513:170 514:254 515:124 540:15 541:238 542:250 543:43 551:34 552:16 568:135 569:254 570:140 579:76 580:143 596:198 597:254 598:92 607:76 608:252 609:101 624:198 625:254 626:18 635:76 636:254 637:130 652:94 653:225 654:12 663:76 664:236 665:30 #
4.6643170723658222e-006 152:63 153:253 154:78 180:63 181:254 182:202 208:121 209:254 210:202 236:167 237:254 238:202 242:164 243:58 263:2 264:176 265:254 266:192 270:240 271:248 272:88 291:46 292:254 293:254 294:99 298:180 299:254 300:234 319:121 320:254 321:250 322:12 326:17 327:221 328:234 347:121 348:254 349:249 355:182 356:234 375:165 376:254 377:204 382:27 383:243 384:234 402:15 403:230 404:254 405:145 410:53 411:254 412:234 430:74 431:254 432:254 433:105 438:176 439:254 440:234 458:175 459:254 460:219 461:18 466:240 467:254 468:72 486:177 487:254 488:192 494:240 495:159 496:7 513:4 514:187 515:254 516:179 522:210 523:5 541:27 542:254 543:254 544:88 550:102 569:128 570:255 571:247 572:45 597:235 598:254 599:211 625:235 626:254 627:134 653:235 654:254 655:134 681:107 682:255 683:134 #
2.1120815817590597e-006 156:64 157:154 158:103 159:1 184:196 185:254 186:254 187:5 211:78 212:240 213:254 214:254 215:5 237:9 238:109 239:241 240:254 241:254 242:215 243:4 265:74 266:254 267:254 268:254 269:214 270:27 292:9 293:197 294:254 295:254 296:254 297:102 319:11 320:245 321:254 322:254 323:254 324:144 325:18 346:15 347:187 348:254 349:254 350:254 351:197 352:22 373:17 374:128 375:254 376:254 377:254 378:225 379:23 401:163 402:254 403:254 404:254 405:211 406:93 427:14 428:121 429:244 430:254 431:254 432:252 433:71 455:36 456:254 457:254 458:254 459:254 460:88 471:77 472:185 473:61 482:15 483:204 484:254 485:254 486:254 487:144 488:1 499:84 500:254 501:252 510:137 511:254 512:254 513:254 514:202 515:12 527:84 528:254 529:255 538:192 539:254 540:254 541:241 542:79 555:84 556:254 557:254 566:137 567:254 568:254 569:216 570:22 583:84 584:254 585:168 594:37 595:222 596:254 597:89 611:84 612:221 613:36 623:21 624:35 625:9 639:12 640:21 #
3.3046415032930442e-007 155:6 156:122 157:171 158:19 177:74 178:191 179:50 183:131 184:254 185:254 186:75 205:37 206:248 207:227 208:121 209:121 210:212 211:248 212:254 213:250 214:62 234:85 235:219 236:254 237:254 238:238 239:205 240:254 241:142 263:6 264:9 265:9 266:8 267:204 268:254 269:59 294:48 295:247 296:146 297:4 322:175 323:250 324:56 349:16 350:244 351:167 376:2 377:128 378:254 379:48 404:20 405:254 406:222 407:16 432:126 433:254 434:65 459:43 460:246 461:217 462:8 464:7 465:10 466:10 467:10 468:61 469:107 470:107 471:107 472:103 487:144 488:254 489:194 490:169 491:169 492:227 493:254 494:254 495:254 496:254 497:254 498:208 499:182 500:77 511:29 512:133 513:144 514:231 515:254 516:254 517:254 518:254 519:254 520:228 521:216 522:139 523:120 524:106 525:24 526:9 537:66 538:185 539:240 540:254 541:252 542:250 543:193 544:153 545:123 546:57 547:57 548:19 565:188 566:187 567:152 568:91 569:48 #
-5.1751064762509994e-007 150:65 151:179 152:254 153:254 154:255 155:196 156:79 157:7 177:8 178:219 179:170 180:106 181:45 182:54 183:119 184:228 185:184 186:16 205:149 206:123 207:1 212:14 213:184 214:218 215:5 233:236 234:45 241:11 242:217 243:145 260:89 261:227 262:6 270:40 271:241 272:27 288:180 289:120 299:193 300:150 315:55 316:230 317:36 327:65 328:243 329:12 343:120 344:174 355:30 356:253 357:85 371:177 372:104 383:30 384:253 385:89 398:5 399:211 400:38 411:30 412:253 413:89 426:46 427:235 428:18 439:31 440:254 441:90 454:90 455:208 467:30 468:253 469:89 482:90 483:235 484:18 495:30 496:253 497:41 510:90 511:208 523:30 524:242 525:12 538:90 539:221 540:9 551:97 552:193 566:16 567:254 568:30 579:157 580:194 594:3 595:204 596:91 607:241 608:153 623:120 624:223 625:5 634:5 635:254 636:71 651:11 652:195 653:145 661:35 662:150 663:240 664:24 680:40 681:228 682:144 683:5 686:53 687:154 688:224 689:246 690:253 691:115 #
8.3177811747857256e-008 129:17 130:201 131:241 132:21 156:16 157:192 158:254 159:138 184:200 185:254 186:209 187:3 211:33 212:252 213:254 214:85 238:6 239:158 240:254 241:198 242:8 266:83 267:255 268:254 269:62 293:9 294:203 295:254 296:211 297:8 321:110 322:254 323:254 324:41 348:30 349:215 350:254 351:212 352:3 376:167 377:254 378:254 379:92 403:7 404:201 405:254 406:213 407:11 431:76 432:254 433:254 434:84 459:199 460:254 461:170 486:39 487:240 488:254 489:145 514:106 515:254 516:235 517:58 541:3 542:184 543:254 544:192 545:63 546:104 547:5 569:27 570:255 571:254 572:234 573:241 574:254 575:95 597:27 598:254 599:254 600:254 601:254 602:227 603:29 625:27 626:255 627:254 628:240 629:152 630:36 653:16 654:223 655:248 656:71 #
-3.3523516434275004e-008 124:60 125:225 126:23 151:7 152:234 153:171 154:161 179:142 180:241 181:217 182:245 183:194 184:74 206:4 207:240 208:173 209:68 210:31 211:116 212:205 213:91 214:1 234:156 235:200 240:44 241:229 242:66 261:10 262:226 263:50 269:88 270:194 271:15 289:42 290:234 291:10 298:174 299:88 317:172 318:136 326:81 327:211 328:17 345:193 346:52 354:3 355:204 356:38 373:193 374:38 383:193 384:86 400:11 401:237 402:39 411:140 412:146 428:16 429:255 430:38 439:117 440:192 456:16 457:255 458:38 467:117 468:192 484:16 485:217 486:2 495:168 496:90 512:4 513:199 514:29 522:24 523:240 524:38 541:193 542:38 550:177 551:179 552:6 569:191 570:136 577:97 578:219 579:46 597:79 598:233 599:21 604:77 605:238 606:75 626:184 627:197 628:55 629:27 630:57 631:162 632:204 633:66 654:6 655:124 656:231 657:243 658:246 659:140 660:12 #
-1.4842622949810913e-006 130:136 131:255 132:254 133:130 157:137 158:253 159:227 160:254 161:159 184:84 185:252 186:215 187:44 188:254 189:159 211:45 212:230 213:247 214:77 215:71 216:254 217:159 239:143 240:246 241:112 243:104 244:254 245:108 266:64 267:234 268:173 271:104 272:242 273:6 292:111 293:229 294:249 295:254 296:89 298:5 299:195 300:222 319:93 320:250 321:254 322:254 323:205 324:6 326:69 327:254 328:137 346:46 347:228 348:229 349:172 350:254 351:133 354:153 355:250 356:56 373:11 374:190 375:254 376:121 377:129 378:254 379:133 381:37 382:245 383:163 401:132 402:254 403:215 404:32 405:129 406:254 407:133 409:126 410:250 411:98 428:21 429:220 430:246 431:71 433:129 434:254 435:133 436:66 437:243 438:161 456:161 457:254 458:158 461:56 462:249 463:188 464:209 465:231 466:50 483:93 484:250 485:218 486:33 490:173 491:254 492:251 493:98 511:192 512:254 513:100 517:12 518:165 519:254 520:165 538:61 539:251 540:227 541:13 544:10 545:167 546:254 547:198 548:142 549:19 566:159 567:254 568:127 571:8 572:169 573:254 574:187 575:13 594:159 595:254 596:106 597:8 598:77 599:221 600:254 601:158 602:13 622:158 623:254 624:234 625:247 626:254 627:251 628:188 629:12 650:24 651:216 652:254 653:254 654:205 655:48 #
3.4493660922982782e-006 125:191 126:255 127:255 128:255 129:191 130:64 152:64 153:255 154:255 155:255 156:255 157:255 158:128 180:128 181:255 182:255 183:255 184:255 185:255 186:255 208:255 209:255 210:255 211:255 212:255 213:255 214:255 236:255 237:255 238:255 239:255 240:255 241:255 242:255 263:128 264:255 265:255 266:255 267:255 268:255 269:255 270:255 291:128 292:255 293:255 294:255 295:255 296:255 297:255 298:255 319:128 320:255 321:255 322:255 323:255 324:255 325:255 326:255 347:128 348:255 349:255 350:255 351:255 352:255 353:255 354:255 374:64 375:255 376:255 377:255 378:255 379:255 380:255 381:255 382:255 402:191 403:255 404:255 405:255 406:255 407:255 408:255 409:255 410:191 430:255 431:255 432:255 433:255 434:255 435:255 436:255 437:255 438:128 457:128 458:255 459:255 460:255 461:255 462:255 463:255 464:255 465:191 485:191 486:255 487:255 488:255 489:255 490:255 491:255 492:255 493:128 513:255 514:255 515:255 516:255 517:255 518:255 519:255 520:255 521:128 541:255 542:255 543:255 544:255 545:255 546:255 547:255 548:255 549:128 569:255 570:255 571:255 572:255 573:255 574:255 575:255 576:255 577:128 597:64 598:255 599:255 600:255 601:255 602:255 603:255 604:255 605:64 626:191 627:255 628:255 629:255 630:255 631:255 632:64 655:128 656:191 657:255 658:255 659:64 #
-2.6094716627703854e-007 155:10 156:151 157:255 158:254 159:199 160:41 182:12 183:180 184:249 185:189 186:103 187:126 188:222 189:21 209:12 210:148 211:236 212:214 213:137 214:17 216:232 217:35 236:36 237:186 238:247 239:83 240:251 241:244 242:171 243:2 244:232 245:35 263:8 264:182 265:248 266:128 267:18 268:132 269:74 270:254 271:16 272:49 273:8 291:89 292:254 293:158 297:3 298:221 299:134 300:1 318:3 319:201 320:204 321:6 326:109 327:254 328:22 346:123 347:254 348:70 354:30 355:249 356:47 373:42 374:249 375:174 376:1 383:246 384:111 401:128 402:249 403:49 411:246 412:189 428:5 429:207 430:171 439:246 440:127 456:43 457:254 458:149 466:35 467:249 468:74 484:126 485:254 486:67 494:83 495:252 496:22 512:126 513:239 514:22 522:169 523:128 540:126 541:231 549:5 550:251 551:11 568:126 569:236 570:14 576:4 577:151 578:254 579:9 596:112 597:254 598:112 603:5 604:149 605:253 606:126 607:2 624:20 625:220 626:232 627:46 630:5 631:149 632:252 633:128 653:67 654:222 655:233 656:167 657:103 658:161 659:247 660:160 682:33 683:164 684:252 685:254 686:238 687:55 #
-3.724690047583614e-007 126:37 127:145 128:197 129:194 130:94 153:50 154:232 155:254 156:254 157:254 158:251 159:75 180:12 181:221 182:248 183:99 184:27 185:115 186:253 187:112 207:36 208:218 209:248 210:66 214:246 215:112 235:182 236:254 237:100 241:72 242:253 243:104 262:34 263:252 264:177 265:8 266:2 267:9 268:73 269:173 270:252 271:21 289:7 290:201 291:254 292:46 293:46 294:169 295:254 296:254 297:254 298:233 299:15 317:66 318:254 319:158 320:38 321:242 322:254 323:254 324:254 325:254 326:254 327:135 344:14 345:221 346:254 347:27 348:229 349:254 350:227 351:90 352:188 353:128 354:195 355:180 372:23 373:254 374:164 375:73 376:254 377:183 378:32 380:23 381:11 382:157 383:199 384:7 400:86 401:253 402:71 403:115 404:254 405:47 410:157 411:229 412:19 428:99 429:246 431:161 432:254 433:31 438:157 439:163 455:26 456:240 457:181 459:97 460:254 461:129 462:3 466:221 467:112 483:36 484:254 485:128 487:24 488:186 489:254 490:165 493:83 494:252 495:52 511:36 512:254 513:122 516:2 517:56 518:20 520:27 521:222 522:166 523:1 539:36 540:254 541:175 547:4 548:128 549:237 550:46 567:18 568:227 569:247 570:27 574:5 575:150 576:254 577:128 596:151 597:254 598:238 599:149 600:117 601:164 602:212 603:254 604:202 605:46 624:14 625:223 626:254 627:254 628:254 629:254 630:253 631:197 632:18 653:33 654:165 655:165 656:248 657:175 658:82 #
-3.4408285620607545e-006 128:255 129:191 130:128 155:64 156:255 157:255 158:255 159:128 160:64 184:255 185:255 186:255 187:255 188:191 212:128 213:255 214:255 215:255 216:255 217:128 239:64 240:255 241:255 242:191 243:255 244:255 245:128 266:64 267:255 268:255 269:255 271:255 272:255 273:128 293:191 294:255 295:255 296:255 297:255 298:191 299:255 300:255 301:64 320:128 321:255 322:255 323:255 324:255 325:255 326:255 327:255 328:191 347:128 348:255 349:255 350:255 351:255 352:255 353:255 354:255 355:255 356:128 375:191 376:255 377:255 378:255 379:255 380:255 381:255 382:255 383:191 402:191 403:255 404:255 405:255 406:255 407:255 408:255 409:255 410:255 430:255 431:255 432:255 433:255 434:255 435:255 436:255 437:255 438:191 457:128 458:255 459:255 460:255 461:255 462:255 463:255 464:255 465:191 484:64 485:255 486:255 487:255 488:255 489:255 490:255 491:255 492:255 493:64 512:128 513:255 514:255 515:255 516:255 517:255 518:255 519:255 540:128 541:255 542:255 543:255 544:255 545:255 546:255 547:255 568:128 569:255 570:255 571:255 572:255 573:255 574:255 575:64 596:64 597:255 598:255 599:255 600:255 601:255 602:128 625:128 626:255 627:255 628:255 629:64 654:191 655:255 656:64 #
-4.0293577255052647e-007 129:47 130:109 131:212 132:253 133:192 134:15 156:42 157:233 158:252 159:252 160:252 161:253 162:159 183:47 184:221 185:253 186:252 187:252 188:252 189:237 190:71 209:1 210:125 211:221 212:252 213:253 214:252 215:252 216:252 217:62 236:63 237:171 238:252 239:252 240:252 241:253 242:252 243:252 244:252 264:144 265:253 266:252 267:252 268:252 269:253 270:252 271:252 272:252 291:6 292:160 293:253 294:252 295:252 296:252 297:253 298:252 299:252 300:252 319:120 320:252 321:253 322:252 323:252 324:252 325:253 326:252 327:252 328:168 346:73 347:253 348:253 349:255 350:253 351:253 352:253 353:255 354:253 355:253 356:108 374:197 375:252 376:252 377:253 378:252 379:252 380:252 381:253 382:252 383:241 384:77 400:1 401:99 402:242 403:252 404:252 405:232 406:252 407:252 408:252 409:253 410:252 411:112 428:1 429:252 430:252 431:252 432:168 433:47 434:232 435:252 436:252 437:253 438:252 439:71 456:145 457:253 458:253 459:237 460:62 462:218 463:253 464:253 465:255 466:253 467:72 483:73 484:237 485:252 486:231 487:71 490:217 491:252 492:252 493:253 494:252 495:71 511:181 512:252 513:252 514:179 517:99 518:242 519:252 520:252 521:237 522:174 523:20 539:181 540:252 541:252 542:179 543:21 544:144 545:253 546:252 547:252 548:252 549:62 567:182 568:253 569:253 570:211 571:212 572:253 573:255 574:253 575:217 595:139 596:252 597:252 598:252 599:252 600:252 601:253 602:189 603:71 623:32 624:215 625:252 626:252 627:252 628:252 629:217 630:30 652:1 653:108 654:232 655:231 656:108 #
-8.1039653775848099e-007 189:111 190:235 191:148 192:45 213:6 214:214 215:214 216:214 217:246 218:254 219:254 220:157 238:46 239:82 240:119 241:195 242:254 243:254 244:254 245:254 246:245 247:113 248:61 265:62 266:239 267:254 268:254 269:254 270:254 271:254 272:254 273:254 274:120 291:8 292:14 293:174 294:254 295:254 296:254 297:254 298:254 299:254 300:254 301:221 302:42 318:79 319:195 320:254 321:254 322:254 323:254 324:254 325:254 326:254 327:254 328:254 329:254 330:141 346:152 347:254 348:254 349:254 350:254 351:254 352:254 353:254 354:254 355:254 356:218 357:144 358:43 373:13 374:188 375:254 376:254 377:254 378:206 379:254 380:254 381:254 382:254 383:113 384:18 400:16 401:95 402:254 403:254 404:254 405:192 406:141 407:218 408:179 409:253 410:185 411:85 428:157 429:254 430:254 431:254 432:233 433:65 434:179 435:254 436:254 437:221 454:11 455:70 456:233 457:254 458:253 459:155 460:137 461:245 462:255 463:254 464:221 465:39 482:98 483:254 484:254 485:254 486:159 487:79 488:252 489:254 490:254 491:227 492:39 510:164 511:254 512:254 513:220 514:14 515:254 516:254 517:254 518:254 519:138 537:113 538:254 539:254 540:254 541:234 542:187 543:254 544:254 545:254 546:132 547:4 565:162 566:254 567:254 568:254 569:254 570:254 571:254 572:254 573:131 574:7 593:222 594:254 595:254 596:254 597:254 598:254 599:222 600:58 601:6 621:35 622:241 623:254 624:254 625:249 626:130 627:37 650:89 651:96 652:96 653:83 #
6.4463265981810649e-007 188:176 189:208 200:187 201:197 202:11 215:94 216:248 217:125 228:176 229:255 230:36 242:11 243:234 244:243 256:217 257:233 258:16 270:135 271:254 272:119 284:217 285:145 297:37 298:243 299:238 300:21 312:217 313:104 325:129 326:253 327:114 340:208 341:21 352:53 353:254 354:243 355:21 368:145 380:115 381:254 382:119 396:84 407:16 408:233 409:254 410:78 435:58 436:253 437:181 438:5 463:171 464:254 465:115 491:254 492:211 493:11 518:115 519:254 520:171 546:217 547:233 548:26 573:47 574:254 575:187 601:171 602:253 603:42 628:63 629:254 630:191 656:145 657:254 658:46 684:176 685:176 712:197 713:73 #
-1.3577750959544307e-007 158:29 159:114 160:170 161:226 162:170 163:29 185:29 186:255 187:255 188:255 189:198 190:255 191:114 212:29 213:255 214:255 215:226 216:86 217:29 218:226 219:141 237:57 238:86 239:141 240:226 241:226 242:114 246:170 247:198 263:57 264:141 265:226 266:255 267:255 268:255 269:170 274:141 275:226 290:141 291:226 292:255 293:141 294:141 295:255 296:226 297:114 302:226 303:170 316:57 317:198 318:255 319:141 320:57 322:170 323:255 324:86 330:226 331:114 343:57 344:226 345:255 346:86 350:255 351:141 357:114 358:255 359:86 371:226 372:255 373:29 377:86 378:255 379:86 385:170 386:198 398:226 399:226 400:29 405:170 406:198 412:170 413:255 414:57 425:114 426:255 427:86 433:114 434:141 439:29 440:255 441:226 452:29 453:226 454:198 461:141 462:170 467:170 468:255 469:86 480:114 481:255 482:86 489:114 490:170 494:170 495:255 496:114 508:226 509:170 517:86 518:198 520:29 521:198 522:255 523:198 536:255 537:170 546:114 547:29 548:198 549:255 550:170 564:255 565:170 574:57 575:226 576:226 577:114 592:198 593:198 600:29 601:170 602:255 603:170 604:29 620:114 621:255 622:170 623:57 626:29 627:114 628:226 629:255 630:170 631:29 649:170 650:255 651:226 652:226 653:255 654:255 655:255 656:198 657:86 678:57 679:170 680:170 681:170 682:141 683:57 #
1.6430294784734543e-006 72:102 73:239 74:57 92:18 93:16 98:6 99:114 100:244 101:254 102:137 120:154 121:214 122:92 123:92 124:92 125:159 126:200 127:254 128:254 129:254 130:124 148:227 149:254 150:254 151:254 152:254 153:254 154:244 155:149 156:80 157:254 158:148 176:45 177:179 178:239 179:231 180:230 181:163 182:73 184:41 185:246 186:148 206:25 207:3 212:27 213:242 214:148 240:62 241:251 242:148 269:229 270:69 297:207 298:150 325:236 326:190 353:236 354:143 381:236 382:53 409:236 410:53 437:236 438:53 465:236 466:53 493:236 494:53 510:1 511:40 512:102 513:56 514:5 515:4 516:5 517:4 519:4 520:35 521:243 522:54 538:117 539:254 540:254 541:254 542:254 543:220 544:254 545:225 546:164 547:238 548:254 549:254 550:217 551:136 552:119 553:164 554:164 555:70 566:222 567:254 568:254 569:254 570:254 571:254 572:254 573:254 574:254 575:254 576:254 577:254 578:254 579:254 580:255 581:254 582:254 583:221 594:138 595:193 596:159 597:158 598:158 599:194 600:194 601:158 602:86 603:158 604:158 605:158 606:158 607:95 608:99 609:101 610:158 611:101 #
6.462491949771011e-007 129:24 130:150 131:233 132:38 155:14 156:89 157:253 158:254 159:254 160:71 182:78 183:203 184:254 185:254 186:254 187:232 188:77 189:54 190:8 208:12 209:155 210:240 211:254 212:223 213:76 214:254 215:254 216:254 217:254 218:68 234:3 235:101 236:216 237:254 238:227 239:122 240:26 241:110 242:254 243:254 244:254 245:184 246:100 261:46 262:222 263:254 264:254 265:179 266:48 269:181 270:254 271:254 272:146 273:6 287:2 288:145 289:248 290:254 291:182 292:111 293:4 296:3 297:250 298:254 299:206 300:3 314:6 315:144 316:254 317:254 318:171 324:125 325:254 326:252 327:80 341:6 342:142 343:254 344:179 345:95 346:4 351:61 352:246 353:254 354:150 369:64 370:254 371:177 372:14 379:124 380:254 381:246 382:32 397:108 398:97 399:15 406:24 407:226 408:254 409:116 434:177 435:255 436:254 437:5 462:196 463:254 464:99 465:1 489:3 490:199 491:254 492:79 517:129 518:254 519:254 520:23 545:178 546:254 547:192 548:8 549:3 550:43 572:11 573:198 574:254 575:128 576:66 577:130 578:225 594:137 595:202 596:106 597:84 598:84 599:84 600:112 601:254 602:254 603:254 604:254 605:212 606:151 622:172 623:254 624:254 625:254 626:254 627:254 628:254 629:254 630:254 631:254 632:162 633:75 650:12 651:106 652:177 653:254 654:254 655:254 656:235 657:135 658:100 659:17 660:2 #
8.7312991467366387e-007 100:120 101:188 102:11 127:123 128:245 129:254 130:35 154:177 155:253 156:254 157:254 158:35 180:103 181:201 182:255 183:94 184:159 185:254 186:35 205:22 206:54 207:137 208:244 209:254 210:126 211:2 212:149 213:254 214:35 231:8 232:187 233:231 234:254 235:254 236:225 237:71 240:149 241:228 242:18 259:11 260:204 261:236 262:188 263:73 264:15 268:149 269:237 270:24 289:21 296:149 297:201 324:149 325:201 352:149 353:140 380:149 381:114 408:149 409:114 436:149 437:114 464:167 465:114 492:237 493:114 520:225 521:114 540:23 541:14 548:149 549:183 565:36 566:157 567:193 568:245 569:224 570:193 571:193 572:132 573:132 574:76 575:106 576:223 577:241 578:118 579:24 593:158 594:254 595:254 596:254 597:254 598:250 599:252 600:254 601:254 602:254 603:254 604:254 605:254 606:254 607:220 608:184 609:172 610:3 621:74 622:85 623:79 624:79 625:79 626:44 627:60 628:82 629:106 630:79 631:79 632:79 633:79 634:109 635:121 636:236 637:254 638:70 #
2.3311781992826668e-006 130:103 131:227 132:254 133:80 157:40 158:231 159:253 160:253 161:80 184:40 185:224 186:253 187:253 188:205 189:8 211:39 212:224 213:253 214:253 215:253 216:157 238:36 239:227 240:253 241:253 242:253 243:164 244:14 265:39 266:222 267:255 268:253 269:253 270:165 271:14 292:5 293:164 294:253 295:255 296:253 297:167 298:13 319:5 320:122 321:253 322:253 323:254 324:185 325:10 347:41 348:253 349:253 350:253 351:254 352:69 375:112 376:253 377:253 378:253 379:191 380:6 402:118 403:255 404:254 405:254 406:254 430:187 431:253 432:253 433:253 434:126 457:61 458:247 459:253 460:253 461:121 462:13 485:180 486:253 487:253 488:245 489:73 512:22 513:215 514:253 515:253 516:226 540:109 541:253 542:253 543:253 544:246 545:107 568:193 569:253 570:253 571:253 572:253 573:249 574:174 596:30 597:206 598:253 599:253 600:253 601:174 602:93 625:68 626:253 627:253 628:253 629:248 630:70 653:32 654:218 655:253 656:253 657:246 658:57 #
-6.1334630811420521e-007 235:56 236:58 237:58 238:95 239:58 240:58 241:5 261:12 262:94 263:250 264:254 265:254 266:254 267:254 268:254 269:220 270:177 271:94 272:3 287:32 288:145 289:217 290:254 291:254 292:254 293:254 294:254 295:222 296:254 297:254 298:254 299:254 300:175 301:20 314:94 315:224 316:254 317:254 318:254 319:54 320:9 321:9 322:128 323:194 324:254 325:213 326:53 327:201 328:250 329:209 330:54 341:36 342:237 343:248 344:155 345:100 346:254 347:24 350:9 351:32 352:139 353:116 356:39 357:207 358:99 369:159 370:254 371:163 373:17 374:200 375:139 385:100 386:187 397:177 398:254 399:72 402:5 403:1 413:1 414:147 415:228 416:36 425:213 426:254 427:109 442:13 443:226 444:140 453:159 454:254 455:225 456:32 471:159 472:224 481:36 482:220 483:254 484:221 485:54 499:226 500:165 510:74 511:223 512:254 513:250 514:133 515:87 516:9 525:4 526:98 527:231 528:56 539:31 540:160 541:254 542:254 543:254 544:248 545:169 546:115 547:41 551:21 552:88 553:203 554:254 555:98 568:6 569:33 570:189 571:216 572:219 573:254 574:254 575:244 576:231 577:231 578:231 579:238 580:219 581:214 582:58 583:3 600:5 601:57 602:57 603:100 604:153 605:137 606:94 607:57 608:6 #
-9.9049648334044555e-007 124:18 125:76 126:66 127:175 128:224 129:159 130:17 151:4 152:148 153:245 154:146 155:63 156:73 157:197 158:121 179:72 180:253 181:174 185:24 186:201 187:53 207:180 208:238 209:31 214:83 215:205 216:20 234:10 235:229 236:183 237:2 243:188 244:80 262:101 263:254 264:48 271:159 272:80 290:174 291:243 292:117 299:125 300:115 318:174 319:84 320:118 321:20 327:120 328:95 346:244 347:63 355:178 356:80 373:50 374:254 375:63 383:188 384:129 401:80 402:255 403:63 411:214 412:75 429:20 430:242 431:16 438:28 439:244 457:65 458:241 459:12 466:64 467:188 485:125 486:254 487:63 494:84 495:173 513:35 514:254 515:63 522:192 523:149 542:175 543:118 549:53 550:250 551:40 570:139 571:205 572:6 576:4 577:142 578:179 598:28 599:241 600:111 601:6 604:87 605:229 606:31 627:170 628:253 629:181 630:119 631:173 632:227 633:65 655:17 656:134 657:173 658:223 659:144 660:33 #
-4.4887809952725299e-007 150:2 151:59 152:229 153:255 154:154 178:123 179:253 180:253 181:253 182:239 183:184 184:175 185:59 205:166 206:245 207:181 208:139 209:244 210:253 211:253 212:253 213:221 214:73 215:1 233:77 234:11 237:233 238:253 239:180 240:157 241:239 242:253 243:29 264:65 265:248 266:213 267:14 269:88 270:253 271:153 292:87 293:253 294:148 297:58 298:251 299:226 320:154 321:243 322:35 326:185 327:243 328:50 347:38 348:240 349:237 354:98 355:253 356:81 375:103 376:253 377:230 382:98 383:253 384:81 403:157 404:253 405:106 410:98 411:253 412:81 431:157 432:222 433:14 438:98 439:253 440:81 458:11 459:248 460:167 466:153 467:253 468:81 486:109 487:253 488:167 493:40 494:237 495:247 496:62 514:227 515:253 516:79 521:102 522:253 523:97 542:227 543:253 544:59 548:24 549:213 550:253 551:10 570:227 571:253 572:59 575:24 576:208 577:253 578:253 579:10 598:227 599:253 600:103 602:23 603:204 604:253 605:229 606:110 607:2 626:153 627:253 628:215 629:95 630:211 631:253 632:251 633:123 654:4 655:185 656:253 657:253 658:253 659:253 660:126 683:44 684:228 685:253 686:184 687:106 688:3 #
-8.4453944820223322e-007 124:9 125:85 126:211 127:255 128:218 129:136 130:29 131:1 151:136 152:203 153:253 154:253 155:253 156:253 157:253 158:253 159:96 160:15 178:61 179:244 180:253 181:223 182:181 183:82 184:82 185:127 186:224 187:253 188:192 189:19 206:123 207:253 208:216 209:29 214:145 215:253 216:253 217:189 218:20 233:25 234:223 235:253 236:129 241:34 242:239 243:253 244:253 245:253 246:70 261:72 262:253 263:253 264:24 268:33 269:217 270:253 271:193 272:43 273:216 274:175 289:72 290:253 291:151 292:1 295:2 296:192 297:253 298:195 299:63 300:14 301:207 302:190 303:2 317:72 318:253 319:81 322:4 323:132 324:253 325:253 326:23 329:166 330:253 331:53 345:145 346:253 347:29 349:4 350:77 351:253 352:241 353:167 354:9 356:19 357:221 358:212 359:20 373:189 374:253 375:29 377:24 378:253 379:253 380:149 384:30 385:253 386:106 400:42 401:239 402:226 403:20 404:41 405:201 406:253 407:172 408:14 411:4 412:153 413:253 414:70 428:98 429:253 430:164 432:168 433:253 434:238 435:48 439:112 440:253 441:169 442:12 456:171 457:253 458:164 459:101 460:247 461:253 462:159 466:51 467:240 468:226 469:8 484:171 485:253 486:164 487:225 488:253 489:224 490:2 493:49 494:240 495:247 496:158 512:171 513:253 514:216 515:241 516:253 517:99 520:46 521:187 522:253 523:110 540:171 541:253 542:253 543:253 544:170 547:34 548:165 549:253 550:157 551:2 568:171 569:253 570:253 571:253 572:129 573:7 574:140 575:232 576:233 577:144 578:7 596:133 597:253 598:253 599:253 600:76 601:154 602:253 603:234 604:119 624:33 625:228 626:253 627:253 628:237 629:253 630:237 631:62 653:79 654:253 655:253 656:251 657:125 658:14 #
5.4841162557695548e-007 158:9 159:13 160:198 161:255 162:254 163:23 186:170 187:252 188:252 189:252 190:252 191:22 213:23 214:181 215:252 216:252 217:252 218:252 219:22 239:26 240:49 241:176 242:252 243:252 244:252 245:252 246:252 247:22 267:133 268:252 269:252 270:252 271:252 272:252 273:252 274:252 275:22 294:36 295:167 296:252 297:252 298:252 299:252 300:252 301:252 302:189 303:16 321:37 322:165 323:252 324:252 325:252 326:252 327:252 328:252 329:183 330:23 348:38 349:164 350:252 351:252 352:252 353:252 354:252 355:252 356:177 357:29 375:37 376:164 377:252 378:252 379:252 380:252 381:252 382:252 383:173 384:34 401:30 402:122 403:165 404:252 405:252 406:252 407:252 408:252 409:252 410:170 411:37 429:61 430:252 431:252 432:252 433:252 434:252 435:252 436:252 437:169 438:39 456:29 457:171 458:252 459:252 460:252 461:252 462:252 463:252 464:168 465:41 482:16 483:157 484:176 485:252 486:252 487:252 488:252 489:252 490:252 491:169 492:41 510:25 511:252 512:252 513:252 514:252 515:252 516:252 517:252 518:170 519:39 538:25 539:252 540:252 541:252 542:252 543:252 544:252 545:173 546:37 566:25 567:252 568:252 569:252 570:252 571:252 572:177 573:34 594:25 595:252 596:252 597:252 598:252 599:183 600:29 621:11 622:221 623:252 624:252 625:252 626:252 627:167 649:2 650:45 651:252 652:252 653:252 654:186 655:15 678:25 679:252 680:252 681:194 682:7 #
2.2762526311948184e-008 157:41 158:203 162:21 185:183 186:20 189:41 190:141 212:163 213:254 214:91 217:255 218:151 239:82 240:243 241:253 242:50 245:253 246:111 266:62 267:214 268:253 269:123 273:183 274:20 294:183 295:253 296:212 321:72 322:253 323:224 324:61 349:193 350:252 351:122 376:163 377:254 378:192 403:21 404:223 405:253 406:151 413:123 414:122 431:132 432:253 433:203 434:20 441:254 442:151 458:41 459:253 460:252 461:61 469:192 470:50 485:11 486:173 487:254 488:192 513:51 514:252 515:253 516:70 540:21 541:214 542:253 543:82 568:142 569:253 570:130 595:72 596:253 597:183 623:152 624:252 625:61 651:123 652:81 665:72 666:131 693:253 694:151 #
-2.0645387383652245e-007 156:9 157:168 158:184 180:41 181:148 182:177 183:116 184:164 185:253 186:231 207:5 208:193 209:253 210:253 211:254 212:253 213:253 214:231 235:12 236:253 237:253 238:234 239:135 240:247 241:253 242:231 263:84 264:253 265:253 266:33 268:105 269:253 270:231 291:74 292:253 293:192 294:7 296:67 297:253 298:231 319:122 320:253 321:176 324:72 325:253 326:231 347:103 348:253 349:176 352:158 353:253 354:212 375:12 376:253 377:176 380:148 381:253 382:121 403:12 404:253 405:176 408:177 409:253 410:121 431:123 432:254 433:177 435:5 436:188 437:254 438:107 459:170 460:253 461:176 463:34 464:253 465:253 466:10 487:122 488:253 489:176 491:34 492:253 493:253 494:10 515:180 516:253 517:176 519:149 520:253 521:201 522:5 543:232 544:253 545:128 546:25 547:255 548:253 549:129 571:232 572:253 573:176 574:149 575:254 576:230 577:29 599:232 600:253 601:247 602:251 603:253 604:83 627:232 628:253 629:253 630:253 631:134 655:150 656:253 657:253 658:137 683:21 684:191 685:110 686:5 #
-1.5095454148421652e-006 156:29 157:141 158:170 159:198 160:255 161:141 182:29 183:170 184:255 185:255 186:255 187:255 188:255 189:255 190:29 209:141 210:255 211:255 212:114 213:86 214:255 215:255 216:255 217:226 218:141 236:114 237:255 238:198 239:57 240:86 241:255 242:255 243:141 244:29 245:198 246:170 263:29 264:255 265:170 267:57 268:255 269:255 270:141 273:198 274:226 291:114 292:226 294:57 295:255 296:226 297:141 300:29 301:255 302:170 320:114 321:57 322:226 323:226 324:141 328:29 329:226 330:57 348:29 349:198 350:255 351:114 355:29 356:170 357:198 376:114 377:255 378:198 383:29 384:255 385:86 403:141 404:255 405:226 411:226 412:198 430:29 431:255 432:255 433:86 438:29 439:255 440:170 457:29 458:198 459:255 460:141 461:29 466:141 467:255 468:114 485:141 486:255 487:198 494:226 495:255 496:29 512:114 513:255 514:226 521:114 522:255 523:57 539:86 540:255 541:226 547:29 548:198 549:255 550:114 567:255 568:255 569:29 575:226 576:255 577:170 594:170 595:255 596:114 601:114 602:198 603:255 604:141 621:57 622:255 623:170 627:29 628:198 629:255 630:255 631:114 649:170 650:255 651:141 652:86 653:114 654:170 655:255 656:255 657:198 658:86 676:29 677:255 678:255 679:255 680:255 681:255 682:255 683:226 684:141 #
-3.9632860953843267e-006 129:19 130:117 131:128 156:19 157:225 158:252 159:139 184:117 185:252 186:252 187:139 211:51 212:241 213:252 214:252 215:139 238:10 239:179 240:255 241:253 242:253 243:28 266:160 267:252 268:209 269:196 270:252 271:28 293:45 294:240 295:252 296:134 297:234 298:186 299:6 320:13 321:194 322:252 323:151 324:41 325:252 326:68 347:13 348:154 349:247 350:134 351:140 352:92 353:253 354:56 375:113 376:247 377:103 378:28 379:47 380:166 381:214 382:19 402:29 403:210 404:187 407:89 408:253 409:109 430:185 431:252 432:63 435:163 436:228 437:9 457:70 458:253 459:140 462:60 463:241 464:151 484:19 485:225 486:252 487:65 490:197 491:227 512:29 513:252 514:186 515:6 517:82 518:240 519:139 540:128 541:252 542:68 544:26 545:243 546:214 547:28 568:154 569:253 570:56 571:63 572:204 573:253 574:56 596:253 597:252 598:187 599:206 600:247 601:121 602:19 624:165 625:252 626:252 627:252 628:100 652:41 653:252 654:214 655:90 #
2.6300839711977661e-006 154:38 155:222 156:253 157:253 182:131 183:252 184:252 185:252 209:26 210:231 211:252 212:252 213:173 237:128 238:252 239:252 240:252 241:252 264:79 265:253 266:252 267:252 268:252 269:173 291:13 292:191 293:255 294:253 295:253 296:253 297:174 318:67 319:181 320:252 321:215 322:195 323:252 324:252 325:127 345:51 346:209 347:252 348:220 349:110 350:85 351:252 352:252 353:112 372:76 373:243 374:252 375:217 376:37 378:85 379:252 380:252 381:112 400:191 401:252 402:220 403:37 406:85 407:252 408:252 409:112 427:63 428:255 429:253 430:56 434:85 435:253 436:253 437:112 455:15 456:106 457:27 458:6 462:85 463:252 464:252 465:112 490:85 491:252 492:252 493:112 518:85 519:252 520:252 521:112 546:85 547:252 548:252 549:112 574:85 575:253 576:240 577:63 599:10 600:85 601:85 602:219 603:252 604:233 605:38 627:138 628:252 629:253 630:252 631:252 632:252 633:221 634:111 655:75 656:252 657:253 658:252 659:252 660:252 661:252 662:126 683:13 684:112 685:174 686:204 687:112 688:112 689:112 #
2.9926358016926054e-007 153:32 154:185 155:255 156:103 181:133 182:253 183:253 184:194 208:112 209:242 210:253 211:253 212:246 213:45 235:15 236:236 237:253 238:253 239:253 240:253 241:156 263:167 264:253 265:253 266:150 267:242 268:253 269:156 290:44 291:247 292:253 293:205 294:6 295:238 296:253 297:156 318:70 319:253 320:253 321:199 323:238 324:253 325:156 345:9 346:231 347:253 348:253 349:199 351:238 352:253 353:156 373:65 374:253 375:253 376:245 377:56 379:238 380:253 381:156 401:120 402:253 403:253 404:168 407:238 408:253 409:218 410:7 429:205 430:253 431:253 432:90 435:238 436:253 437:253 438:10 457:70 458:232 459:112 460:2 463:238 464:253 465:253 466:10 491:238 492:253 493:253 494:10 519:238 520:253 521:253 522:10 547:238 548:253 549:253 550:22 575:238 576:253 577:253 578:119 603:148 604:253 605:253 606:119 631:130 632:253 633:253 634:119 659:130 660:253 661:253 662:119 687:130 688:253 689:253 690:72 #
3.1679005418375444e-006 127:84 128:195 129:78 155:146 156:254 157:178 182:31 183:237 184:254 185:139 210:160 211:254 212:254 213:85 237:71 238:248 239:254 240:254 241:85 264:3 265:193 266:254 267:254 268:254 269:92 292:127 293:254 294:254 295:222 296:254 297:178 319:76 320:239 321:254 322:134 323:133 324:254 325:157 346:52 347:249 348:254 349:197 350:14 351:132 352:254 353:85 373:50 374:234 375:254 376:208 377:41 379:132 380:254 381:85 400:30 401:237 402:254 403:215 404:28 407:132 408:254 409:85 428:6 429:139 430:122 431:15 435:132 436:254 437:85 463:132 464:254 465:85 491:132 492:254 493:85 519:132 520:248 521:38 547:139 548:167 549:6 550:51 575:226 576:223 577:201 578:206 599:55 600:57 601:92 602:211 603:253 604:254 605:188 606:49 625:10 626:189 627:252 628:254 629:254 630:255 631:254 632:120 633:13 653:5 654:66 655:191 656:159 657:159 658:219 659:155 660:15 #
-2.1938893720198412e-006 153:36 154:219 155:255 156:238 157:33 181:155 182:254 183:243 184:254 185:135 208:65 209:245 210:254 211:130 212:247 213:219 236:178 237:254 238:254 239:139 240:235 241:244 263:10 264:214 265:231 266:231 267:213 268:244 269:244 291:89 292:254 293:136 294:137 295:254 296:254 297:244 319:171 320:254 321:110 322:91 323:254 324:254 325:187 347:211 348:254 349:103 350:8 351:217 352:217 353:25 374:18 375:225 376:227 377:10 379:142 380:241 381:37 402:72 403:254 404:154 407:77 408:254 409:52 430:149 431:254 432:77 435:77 436:254 437:94 458:214 459:254 460:77 463:77 464:254 465:148 486:245 487:250 488:64 491:77 492:254 493:148 514:245 515:234 519:77 520:254 521:109 541:25 542:247 543:171 547:140 548:254 549:52 569:87 570:254 571:138 574:65 575:246 576:214 577:5 597:85 598:253 599:213 601:58 602:204 603:254 604:134 626:245 627:247 628:128 629:214 630:254 631:204 632:7 654:183 655:254 656:254 657:254 658:197 659:51 682:13 683:149 684:254 685:144 686:35 #
-2.2908108640414159e-006 127:24 128:212 129:156 130:1 155:167 156:220 157:240 158:4 182:70 183:238 184:68 185:158 186:67 187:12 209:6 210:173 211:120 213:107 214:225 215:225 216:118 237:100 238:212 239:18 241:20 242:32 243:50 244:97 264:34 265:223 266:85 270:3 271:159 272:43 292:125 293:173 294:2 298:89 299:154 319:60 320:231 321:61 326:170 327:22 347:121 348:177 353:43 354:175 374:12 375:205 376:81 381:171 382:85 402:90 403:182 408:35 409:207 410:15 429:16 430:205 431:77 436:137 437:106 457:61 458:186 459:1 463:33 464:219 465:16 485:90 486:179 491:161 492:108 513:142 514:127 518:30 519:243 520:54 541:142 542:127 545:4 546:145 547:204 548:7 569:208 570:101 573:83 574:234 575:62 597:205 598:170 599:1 600:94 601:246 602:152 625:69 626:248 627:180 628:254 629:181 630:5 653:3 654:158 655:255 656:161 657:7 #
-2.7193832294932799e-007 156:62 157:176 158:254 159:254 160:255 161:150 162:11 182:20 183:139 184:245 185:253 186:253 187:233 188:109 189:223 190:107 209:23 210:204 211:243 212:224 213:234 214:171 215:23 217:60 218:243 219:47 236:23 237:203 238:253 239:78 240:12 241:27 246:217 247:61 263:20 264:204 265:253 266:253 267:181 268:39 274:152 275:144 291:171 292:254 293:254 294:254 295:234 296:78 302:69 303:235 318:171 319:252 320:245 321:159 322:43 323:13 330:37 331:235 344:3 345:133 346:254 347:232 348:121 358:115 359:235 372:64 373:253 374:242 375:68 386:128 387:228 399:14 400:218 401:253 402:59 414:192 415:80 427:121 428:254 429:169 441:62 442:230 443:39 455:217 456:253 457:72 469:229 470:145 482:47 483:248 484:237 485:11 496:108 497:242 498:31 510:132 511:253 512:228 523:7 524:234 525:89 538:235 539:253 540:209 550:7 551:181 552:136 553:5 566:236 567:254 568:241 569:21 577:37 578:177 579:117 594:235 595:240 596:214 597:72 604:103 605:204 606:68 622:113 623:253 624:240 625:72 629:29 630:37 631:98 632:182 633:31 650:12 651:218 652:253 653:182 654:110 655:160 656:199 657:240 658:202 659:52 679:49 680:201 681:253 682:254 683:201 684:149 685:67 #
1.403158993221941e-007 158:105 159:192 160:30 185:116 186:253 187:252 188:47 212:41 213:232 214:253 215:210 216:11 239:15 240:225 241:252 242:243 243:82 266:36 267:162 268:252 269:252 270:124 293:8 294:157 295:253 296:253 297:253 298:45 321:157 322:252 323:252 324:252 325:173 347:6 348:66 349:253 350:252 351:252 352:252 353:147 374:6 375:155 376:252 377:243 378:210 379:252 380:252 381:121 402:153 403:252 404:208 405:79 406:128 407:252 408:199 409:7 427:36 428:105 429:227 430:253 431:199 432:62 434:191 435:253 436:128 453:8 454:155 455:242 456:253 457:252 458:166 459:21 461:32 462:237 463:245 464:56 481:110 482:252 483:244 484:170 485:47 486:2 489:148 490:252 491:222 509:7 510:84 511:49 517:253 518:252 519:100 544:89 545:253 546:252 547:21 572:107 573:255 574:253 575:21 600:141 601:253 602:252 603:21 628:211 629:253 630:245 631:19 656:185 657:253 658:189 659:6 684:62 685:253 686:173 687:12 #
-2.124667496117532e-007 96:25 97:232 98:216 99:11 124:41 125:254 126:213 127:9 152:66 153:254 154:114 179:7 180:189 181:254 182:5 207:86 208:254 209:254 210:5 234:4 235:144 236:250 237:248 238:95 262:64 263:192 264:59 265:195 266:194 267:17 290:181 291:64 293:49 294:252 295:202 296:68 317:134 318:142 322:136 323:254 324:241 325:68 344:12 345:222 346:66 350:1 351:128 352:254 353:253 354:156 355:26 372:142 373:152 374:5 379:1 380:136 381:254 382:254 383:220 384:33 399:16 400:216 401:30 409:152 410:254 411:254 412:225 413:13 426:1 427:116 428:105 437:18 438:134 439:253 440:254 441:113 442:4 454:11 455:254 456:35 467:158 468:254 469:254 470:92 482:11 483:254 484:74 495:25 496:208 497:255 498:244 499:9 510:82 511:254 512:66 524:81 525:254 526:226 527:7 538:58 539:254 540:134 551:81 552:173 553:182 554:63 566:11 567:254 568:216 569:29 577:36 578:128 579:238 580:164 581:13 594:9 595:221 596:254 597:219 598:77 599:46 600:46 601:46 602:65 603:147 604:211 605:183 606:79 607:9 623:14 624:149 625:254 626:233 627:254 628:254 629:138 630:154 631:74 632:42 #
-1.0712943781399006e-006 215:20 216:69 217:141 218:211 219:245 220:222 221:124 241:83 242:121 243:223 244:254 245:213 246:143 247:67 248:25 266:22 267:112 268:235 269:254 270:254 271:217 272:50 273:11 292:5 293:74 294:225 295:254 296:226 297:164 298:78 299:5 301:30 319:41 320:171 321:254 322:246 323:71 324:19 327:114 328:195 329:121 346:43 347:228 348:254 349:213 350:67 353:11 354:141 355:242 356:118 357:9 372:1 373:83 374:226 375:253 376:194 377:15 380:3 381:174 382:253 383:48 400:123 401:254 402:228 403:102 408:121 409:246 410:90 427:37 428:249 429:222 430:34 434:3 435:163 436:244 437:172 454:27 455:229 456:234 457:31 462:167 463:254 464:140 465:2 482:127 483:254 484:103 488:6 489:115 490:245 491:136 492:13 510:164 511:254 512:10 516:85 517:254 518:181 519:6 538:181 539:254 540:10 542:9 543:109 544:246 545:177 546:12 566:101 567:254 568:173 569:83 570:181 571:249 572:135 573:9 594:35 595:239 596:255 597:254 598:254 599:154 623:28 624:136 625:140 626:87 627:11 #
-2.639571110464067e-007 124:1 125:125 126:242 127:144 128:155 129:13 151:11 152:141 153:253 154:232 155:177 156:248 157:176 158:4 178:10 179:169 180:253 181:124 184:32 185:206 186:174 187:2 206:31 207:254 208:182 213:34 214:205 215:119 233:9 234:196 235:226 236:14 242:54 243:195 244:2 260:2 261:100 262:244 263:54 271:167 272:57 288:27 289:254 290:191 291:20 299:34 300:205 301:13 316:166 317:252 318:54 328:234 329:27 344:184 345:181 356:167 357:100 372:184 373:67 384:150 385:100 400:184 401:67 412:150 413:100 428:184 429:67 440:80 441:117 456:184 457:67 468:167 469:183 484:184 485:67 496:225 497:156 512:163 513:142 523:153 524:253 525:60 540:51 541:232 542:17 550:107 551:245 552:122 553:2 568:7 569:214 570:143 571:17 577:135 578:243 579:172 580:2 597:23 598:236 599:143 600:41 602:63 603:145 604:231 605:253 606:141 607:13 626:78 627:236 628:251 629:247 630:253 631:255 632:254 633:123 634:1 655:40 656:164 657:254 658:241 659:128 660:16 661:1 #
1.7481827850364084e-007 127:73 128:249 129:162 154:72 155:244 156:254 157:76 158:10 181:71 182:242 183:254 184:220 185:254 186:86 208:72 209:248 210:251 211:131 212:89 213:254 214:181 235:108 236:243 237:250 238:108 240:44 241:254 242:173 262:140 263:243 264:227 265:100 268:113 269:254 270:86 289:108 290:251 291:230 292:101 296:233 297:254 298:86 316:28 317:243 318:186 319:40 324:236 325:246 326:15 344:121 345:254 346:75 351:55 352:249 353:214 372:53 373:41 374:1 378:3 379:147 380:254 381:94 406:15 407:254 408:252 409:50 434:81 435:254 436:211 462:164 463:254 464:69 489:39 490:245 491:254 492:19 517:35 518:241 519:225 520:12 545:26 546:232 547:214 548:9 568:50 569:67 573:51 574:254 575:139 596:191 597:224 598:144 599:68 600:68 601:174 602:254 603:128 604:85 605:164 606:164 607:139 624:69 625:245 626:255 627:255 628:255 629:255 630:254 631:254 632:255 633:255 634:232 635:151 653:45 654:119 655:202 656:254 657:254 658:176 659:158 660:158 661:82 662:21 #
-5.093278022367925e-007 186:9 187:77 188:182 189:239 190:169 191:15 212:16 213:94 214:229 215:255 216:155 217:191 218:213 219:152 239:102 240:226 241:122 242:38 243:118 244:6 245:9 246:98 247:210 263:2 264:57 265:202 266:225 267:111 268:5 274:99 275:170 291:156 292:243 293:106 294:14 302:159 303:144 316:5 317:100 318:214 319:115 320:12 329:68 330:248 331:59 343:35 344:181 345:205 346:11 356:11 357:225 358:138 370:76 371:208 372:91 373:9 383:9 384:183 385:196 386:7 397:25 398:240 399:80 411:145 412:230 413:31 424:8 425:158 426:117 437:29 438:148 439:230 440:60 452:106 453:229 454:9 464:37 465:189 466:223 467:31 480:193 481:124 490:19 491:103 492:217 493:160 494:25 508:210 509:67 517:89 518:215 519:236 520:72 536:224 537:179 538:2 542:25 543:149 544:237 545:237 546:141 547:14 564:140 565:254 566:163 567:135 568:134 569:188 570:246 571:193 572:106 573:19 592:6 593:94 594:164 595:164 596:164 597:155 598:50 599:1 #
-5.1954809992449808e-007 155:51 156:159 157:253 158:253 159:253 160:255 161:90 181:10 182:163 183:238 184:252 185:252 186:252 187:252 188:253 189:243 190:50 208:13 209:156 210:252 211:253 212:252 213:252 214:214 215:195 216:253 217:252 218:55 235:73 236:187 237:252 238:252 239:253 240:252 241:245 242:74 244:237 245:252 246:149 261:79 262:141 263:240 264:252 265:252 266:252 267:253 268:252 269:118 272:113 273:252 274:195 288:92 289:253 290:255 291:253 292:165 293:75 294:253 295:255 296:215 297:31 300:114 301:253 302:196 315:51 316:243 317:252 318:215 319:42 320:25 321:181 322:252 323:253 324:121 328:113 329:252 330:195 343:88 344:252 345:220 346:31 348:57 349:252 350:252 351:228 352:21 356:88 357:246 358:195 371:197 372:217 373:37 375:10 376:156 377:252 378:252 379:126 384:76 385:243 386:195 399:165 400:37 403:163 404:252 405:252 406:173 412:113 413:252 414:195 431:226 432:253 433:240 434:63 440:176 441:253 442:56 458:147 459:249 460:252 461:176 467:48 468:253 469:129 470:6 485:111 486:253 487:252 488:208 489:19 494:23 495:227 496:253 497:27 512:4 513:153 514:253 515:252 516:102 521:38 522:178 523:252 524:178 525:9 540:107 541:252 542:253 543:204 544:25 549:135 550:252 551:173 552:63 567:26 568:207 569:253 570:255 571:27 575:51 576:238 577:253 578:240 579:63 595:57 596:252 597:252 598:215 599:18 600:19 601:85 602:163 603:238 604:252 605:201 606:24 623:57 624:252 625:252 626:166 627:104 628:209 629:252 630:252 631:253 632:201 633:74 651:51 652:242 653:252 654:253 655:252 656:252 657:249 658:145 659:84 660:9 680:91 681:252 682:253 683:252 684:141 685:99 #
-7.2519145737277802e-007 149:84 150:202 151:79 152:35 153:177 154:123 158:36 159:48 160:48 161:44 177:84 178:254 179:254 180:231 181:254 182:253 183:177 184:134 185:198 186:241 187:254 188:254 189:241 190:31 205:38 206:229 207:254 208:254 209:254 210:254 211:254 212:254 213:254 214:254 215:254 216:254 217:254 218:192 219:6 234:88 235:254 236:254 237:254 238:254 239:254 240:254 241:172 242:171 243:171 244:197 245:254 246:254 247:36 261:43 262:237 263:254 264:254 265:254 266:196 267:20 268:20 269:1 272:39 273:231 274:254 275:142 289:84 290:254 291:255 292:254 293:254 294:145 301:96 302:254 303:244 316:3 317:179 318:254 319:254 320:254 321:254 322:237 323:7 329:12 330:216 331:253 332:82 344:37 345:254 346:254 347:237 348:247 349:254 350:254 351:99 358:146 359:254 360:94 372:125 373:254 374:254 375:139 376:95 377:254 378:254 379:143 386:68 387:254 388:94 400:162 401:254 402:254 403:181 404:121 405:254 406:254 407:202 414:27 415:233 416:157 427:37 428:249 429:254 430:254 431:181 432:121 433:254 434:254 435:202 443:219 444:114 455:154 456:254 457:254 458:254 459:223 460:240 461:254 462:254 463:84 470:39 471:239 472:94 483:198 484:254 485:254 486:254 487:254 488:254 489:254 490:170 497:8 498:175 499:254 500:94 511:198 512:254 513:254 514:254 515:254 516:254 517:208 518:26 524:10 525:178 526:254 527:232 528:6 539:198 540:254 541:254 542:254 543:232 544:170 545:25 551:55 552:205 553:254 554:254 555:66 567:189 568:254 569:220 570:44 571:18 577:21 578:136 579:243 580:254 581:253 582:135 583:4 595:70 596:252 597:254 598:201 599:68 600:41 601:68 602:68 603:90 604:172 605:253 606:254 607:254 608:254 609:135 624:198 625:254 626:254 627:254 628:240 629:254 630:254 631:254 632:254 633:254 634:247 635:188 636:66 637:4 652:52 653:188 654:254 655:254 656:254 657:254 658:254 659:254 660:254 661:181 662:23 681:16 682:142 683:150 684:242 685:254 686:167 687:129 688:46 689:1 #
-2.8397493556878774e-007 181:32 182:91 183:173 184:231 185:193 186:172 187:159 188:18 208:85 209:249 210:254 211:254 212:253 213:243 214:245 215:254 216:157 217:3 235:113 236:248 237:254 238:254 239:255 240:244 241:49 242:30 243:183 244:254 245:33 262:39 263:247 264:254 265:254 266:254 267:243 268:244 269:103 271:41 272:225 273:70 290:42 291:235 292:254 293:254 294:200 295:32 296:154 297:133 300:131 301:115 319:114 320:254 321:215 322:17 324:140 325:32 328:147 329:183 346:28 347:229 348:239 349:60 356:213 357:177 374:98 375:254 376:120 384:213 385:115 401:12 402:220 403:200 404:2 411:39 412:251 413:64 429:95 430:254 431:64 439:121 440:238 441:22 456:2 457:181 458:205 466:12 467:223 468:149 484:33 485:254 486:115 494:92 495:254 496:118 512:41 513:223 514:11 522:149 523:236 524:24 540:126 541:213 549:57 550:241 551:112 567:12 568:224 569:199 576:22 577:205 578:214 579:10 595:12 596:224 597:130 603:2 604:155 605:249 606:86 624:197 625:149 631:143 632:254 633:138 652:149 653:223 654:32 657:20 658:172 659:254 660:143 661:7 680:29 681:240 682:230 683:156 684:156 685:238 686:254 687:172 688:5 709:60 710:161 711:254 712:254 713:176 714:119 715:3 #
-8.2950174665540343e-008 161:43 162:77 163:44 189:141 190:254 191:241 213:17 214:7 215:44 216:8 217:141 218:254 219:236 238:30 239:75 241:67 242:196 243:254 244:43 245:141 246:232 247:53 265:31 266:215 267:252 268:82 270:193 271:254 272:188 273:124 274:52 292:32 293:220 294:254 295:254 296:232 297:30 298:69 299:254 300:254 301:5 320:126 321:254 322:254 323:254 324:234 325:32 326:28 327:254 328:254 329:5 340:7 347:180 348:244 349:254 350:254 351:244 352:53 354:134 355:254 356:254 357:5 368:86 374:55 375:233 376:254 377:254 378:254 379:209 381:63 382:251 383:254 384:232 385:4 401:9 402:234 403:254 404:249 405:162 406:77 407:27 409:137 410:254 411:254 412:112 428:7 429:171 430:254 431:247 432:126 435:77 436:202 437:252 438:254 439:137 440:3 456:108 457:254 458:254 459:142 461:13 462:146 463:249 464:254 465:254 466:222 467:62 484:190 485:254 486:254 487:134 488:106 489:217 490:254 491:254 492:254 493:217 494:27 511:5 512:197 513:254 514:254 515:254 516:254 517:254 518:254 519:254 520:248 521:94 539:44 540:254 541:254 542:254 543:254 544:254 545:255 546:254 547:221 548:99 567:44 568:254 569:254 570:254 571:254 572:254 573:232 574:66 575:21 595:1 596:86 597:211 598:222 599:222 600:161 601:4 #
-1.1742554207992429e-006 98:129 99:254 100:71 125:34 126:222 127:253 128:71 152:35 153:218 154:253 155:197 156:4 180:132 181:253 182:253 183:74 184:49 185:126 208:209 209:253 210:177 211:40 212:53 213:249 214:76 235:75 236:248 237:253 238:58 240:34 241:225 242:130 263:196 264:253 265:253 266:58 269:176 270:214 291:215 292:253 293:231 294:40 297:176 298:214 319:215 320:253 321:181 325:176 326:214 347:215 348:253 349:181 353:176 354:224 355:24 375:215 376:253 377:151 381:176 382:253 383:91 402:67 403:243 404:253 405:51 409:176 410:253 411:91 430:28 431:227 432:253 433:51 436:10 437:190 438:226 439:28 459:215 460:253 461:51 464:53 465:253 466:214 487:215 488:253 489:68 492:53 493:253 494:214 515:215 516:253 517:189 518:6 519:7 520:140 521:253 522:214 543:215 544:253 545:253 546:58 547:69 548:253 549:253 550:136 571:141 572:253 573:253 574:168 575:225 576:253 577:221 578:37 599:39 600:226 601:253 602:253 603:253 604:252 605:76 628:39 629:227 630:253 631:253 632:133 #
3.6349902885530382e-006 186:7 187:170 188:170 189:7 214:91 215:253 216:254 217:23 240:7 241:91 242:245 243:253 244:146 245:4 268:136 269:253 270:253 271:253 294:7 295:170 296:255 297:254 298:254 299:136 321:9 322:132 323:253 324:178 325:245 326:232 327:6 348:15 349:166 350:253 351:202 352:86 353:253 354:221 376:195 377:253 378:202 379:19 380:104 381:253 382:71 402:41 403:229 404:254 405:165 406:17 407:26 408:254 409:207 429:60 430:224 431:253 432:124 433:11 435:93 436:254 437:73 456:141 457:249 458:251 459:128 462:62 463:224 464:197 465:4 482:9 483:159 484:254 485:236 486:79 490:149 491:253 492:118 510:17 511:235 512:210 513:50 517:47 518:254 519:228 539:84 540:9 545:130 546:253 547:143 573:180 574:242 575:38 600:51 601:247 602:162 628:128 629:254 630:46 656:144 657:210 658:4 684:70 685:206 712:70 713:173 #
1.3841123354685358e-007 161:11 162:51 163:51 164:10 188:82 189:132 190:250 191:250 192:130 216:202 217:252 218:250 219:250 220:250 243:123 244:241 245:252 246:250 247:250 248:250 268:41 269:92 270:252 271:252 272:252 273:255 274:252 275:252 276:212 295:62 296:221 297:252 298:250 299:250 300:250 301:252 302:210 303:149 304:29 323:151 324:250 325:252 326:250 327:250 328:250 329:222 330:60 349:41 350:202 351:231 352:250 353:252 354:250 355:250 356:88 357:40 376:41 377:254 378:252 379:252 380:252 381:254 382:232 383:202 384:40 402:41 403:102 404:221 405:252 406:250 407:250 408:250 409:232 410:90 429:31 430:191 431:250 432:250 433:252 434:250 435:250 436:250 437:80 457:213 458:250 459:250 460:250 461:252 462:250 463:250 464:88 483:31 484:213 485:254 486:252 487:252 488:252 489:244 490:202 491:80 510:41 511:191 512:250 513:252 514:250 515:250 516:250 517:121 537:31 538:191 539:250 540:250 541:252 542:250 543:250 544:128 565:51 566:250 567:250 568:250 569:252 570:169 571:49 572:10 593:254 594:252 595:252 596:252 597:244 598:121 621:252 622:250 623:250 624:169 625:121 649:252 650:250 651:159 652:20 677:49 678:49 679:20 #
7.3858601817985454e-007 185:32 186:171 187:61 212:7 213:183 214:253 215:180 240:146 241:253 242:253 243:195 266:10 267:129 268:247 269:253 270:237 271:53 294:209 295:253 296:253 297:253 298:155 320:47 321:231 322:255 323:254 324:254 325:254 326:96 346:2 347:118 348:235 349:253 350:241 351:250 352:253 353:212 354:9 373:49 374:129 375:253 376:253 377:253 378:30 379:214 380:253 381:117 400:16 401:209 402:253 403:253 404:216 405:41 406:32 407:235 408:253 409:64 428:135 429:254 430:253 431:154 432:27 434:97 435:253 436:192 437:5 456:38 457:196 458:142 462:217 463:254 464:78 489:46 490:254 491:236 492:42 516:13 517:183 518:254 519:106 544:55 545:253 546:222 547:18 572:174 573:253 574:157 599:49 600:246 601:254 602:38 627:18 628:238 629:253 630:38 655:109 656:253 657:154 682:8 683:205 684:253 685:58 711:71 712:215 713:14 #
-7.4911453300306292e-007 129:29 130:103 131:198 132:101 156:49 157:235 158:254 159:254 160:209 183:105 184:234 185:254 186:247 187:144 188:56 210:95 211:252 212:254 213:215 214:75 238:181 239:254 240:254 241:254 242:188 265:65 266:251 267:211 268:168 269:254 270:178 292:30 293:231 294:230 295:28 296:208 297:254 298:65 319:12 320:181 321:254 322:118 323:35 324:249 325:254 326:56 347:73 348:254 349:213 350:6 351:40 352:254 353:249 354:46 375:143 376:254 377:119 379:40 380:254 381:224 403:185 404:211 405:6 407:82 408:254 409:224 429:9 430:164 431:250 432:121 435:126 436:254 437:212 457:66 458:254 459:209 460:6 462:6 463:170 464:254 465:128 485:104 486:254 487:130 490:82 491:254 492:239 493:29 513:188 514:249 515:44 517:21 518:212 519:254 520:146 540:24 541:244 542:194 544:4 545:121 546:254 547:190 548:12 568:51 569:250 570:130 572:120 573:254 574:238 575:50 596:70 597:254 598:192 599:115 600:246 601:253 602:116 624:22 625:211 626:254 627:254 628:254 629:174 653:21 654:181 655:235 656:133 #
-1.0300945167841887e-006 154:53 155:221 156:203 157:88 158:95 159:95 160:71 182:61 183:194 184:254 185:254 186:217 187:141 188:86 209:22 210:207 211:230 212:140 213:217 214:184 215:11 236:2 237:183 238:192 239:52 241:93 242:254 243:92 263:25 264:196 265:193 266:12 269:8 270:209 271:176 290:25 291:207 292:237 293:41 298:131 299:248 300:44 317:25 318:207 319:227 320:57 326:62 327:254 328:122 344:4 345:193 346:252 347:57 354:11 355:215 356:176 372:141 373:252 374:128 383:124 384:246 385:45 399:19 400:231 401:128 411:93 412:254 413:61 427:111 428:241 429:30 439:36 440:255 441:61 455:195 456:210 467:121 468:254 469:61 483:228 484:107 495:144 496:217 497:25 510:35 511:242 512:35 522:43 523:234 524:92 538:62 539:244 540:29 550:177 551:178 552:8 566:62 567:226 568:17 577:99 578:214 579:38 594:13 595:233 596:44 603:17 604:129 605:234 606:80 623:155 624:207 625:24 629:13 630:76 631:228 632:222 633:67 651:15 652:191 653:218 654:106 655:15 656:67 657:202 658:246 659:135 660:29 681:108 682:236 683:254 684:251 685:79 #
-7.7842310958963139e-008 148:7 149:147 150:249 151:205 152:154 153:75 155:24 156:24 157:3 158:38 176:68 177:235 178:76 182:136 183:254 184:254 185:207 186:136 204:214 205:127 209:116 210:209 211:54 212:45 213:152 214:236 215:57 231:26 232:239 233:21 236:49 237:212 238:40 242:162 243:227 244:14 259:70 260:238 264:109 265:123 270:14 271:244 272:109 287:70 288:173 292:155 293:58 299:109 300:192 315:70 316:161 320:73 321:31 327:26 328:237 329:66 343:70 344:170 356:159 357:169 371:70 372:238 384:100 385:209 399:70 400:238 412:62 413:248 414:21 427:70 428:239 440:63 441:255 442:69 455:70 456:238 468:13 469:242 470:69 483:51 484:250 485:54 496:55 497:248 498:30 512:247 513:113 524:67 525:218 540:212 541:197 551:6 552:180 553:169 568:86 569:224 570:10 579:100 580:254 581:85 596:15 597:252 598:136 606:13 607:232 608:167 609:1 625:104 626:237 627:100 633:39 634:208 635:183 636:11 653:7 654:120 655:238 656:175 657:92 658:55 659:55 660:116 661:225 662:208 663:11 682:6 683:49 684:165 685:254 686:254 687:255 688:240 689:155 690:10 #
1.4065441318113228e-007 68:14 69:216 70:48 96:137 97:254 98:133 99:2 124:115 125:254 126:254 127:49 152:54 153:254 154:254 155:111 180:63 181:156 182:189 183:111 208:149 209:175 210:178 211:111 236:169 237:46 238:178 239:111 264:242 265:40 266:134 267:190 291:28 292:164 294:114 295:206 318:14 319:219 320:51 322:124 323:116 346:25 347:254 348:9 350:119 351:146 374:91 375:195 376:3 378:83 379:111 401:44 402:192 403:40 406:38 407:103 434:35 435:103 462:110 463:111 490:178 491:111 493:15 494:22 495:39 496:39 497:39 498:24 516:5 517:5 518:180 519:222 520:161 521:219 522:229 523:254 524:254 525:250 526:115 541:16 542:77 543:164 544:251 545:254 546:254 547:242 548:187 549:158 550:91 551:91 552:91 553:9 569:156 570:255 571:254 572:255 573:255 574:163 575:28 597:251 598:254 599:254 600:254 601:130 602:19 #
8.2984750665129871e-007 68:15 69:245 70:59 96:126 97:254 98:219 99:11 124:150 125:254 126:254 127:102 151:114 152:252 153:254 154:254 155:162 177:26 178:131 179:249 180:254 181:254 182:254 183:119 202:8 203:179 204:226 205:234 206:254 207:254 208:254 209:254 210:254 211:195 230:18 231:254 232:254 233:254 234:254 235:254 236:254 237:254 238:254 239:195 258:18 259:254 260:254 261:254 262:254 263:254 264:243 265:254 266:254 267:195 286:15 287:238 288:254 289:254 290:220 291:163 292:51 293:184 294:254 295:233 296:37 315:119 316:139 317:107 318:14 321:60 322:254 323:255 324:87 349:17 350:226 351:254 352:177 378:46 379:226 380:242 381:169 382:9 407:126 408:254 409:254 410:76 435:2 436:192 437:254 438:252 439:72 456:21 457:119 458:108 459:30 460:30 461:28 464:92 465:254 466:254 467:250 468:62 483:7 484:188 485:254 486:254 487:254 488:254 489:246 490:166 491:166 492:234 493:254 494:254 495:254 496:203 497:166 498:81 499:33 511:27 512:233 513:254 514:254 515:254 516:254 517:254 518:254 519:254 520:254 521:254 522:254 523:254 524:254 525:254 526:254 527:232 528:112 540:172 541:254 542:254 543:254 544:254 545:254 546:254 547:254 548:254 549:254 550:254 551:254 552:254 553:254 554:254 555:254 556:153 568:24 569:152 570:172 571:243 572:254 573:254 574:254 575:254 576:254 577:254 578:254 579:254 580:254 581:254 582:254 583:221 584:93 597:5 598:4 599:15 600:20 601:135 602:135 603:135 604:172 605:154 606:135 607:135 608:205 609:254 610:168 611:36 #
-3.2838002020516509e-007 125:5 126:141 127:184 128:115 153:120 154:214 155:189 156:188 157:102 180:45 181:251 182:163 184:8 185:197 186:39 208:151 209:243 210:30 213:62 214:212 215:103 235:32 236:245 237:147 242:142 243:207 244:20 263:156 264:245 265:12 271:142 272:72 290:3 291:200 292:111 299:141 300:95 318:59 319:247 320:28 327:141 328:107 346:114 347:165 355:141 356:130 374:133 375:99 383:200 384:71 402:216 403:28 410:29 411:255 412:20 429:64 430:213 431:4 438:120 439:187 457:71 458:141 465:13 466:237 467:49 485:79 486:141 493:131 494:218 513:141 514:141 520:72 521:245 522:77 541:130 542:142 547:31 548:219 549:186 550:8 569:71 570:187 571:2 574:28 575:219 576:198 577:22 597:36 598:254 599:99 601:54 602:229 603:186 604:22 626:160 627:249 628:240 629:249 630:218 631:28 654:31 655:199 656:238 657:128 658:19 #
-1.1270308931195749e-007 180:11 181:25 182:89 183:145 184:71 185:83 186:19 206:30 207:141 208:199 209:253 210:254 211:253 212:253 213:253 214:201 215:37 216:25 232:64 233:169 234:238 235:253 236:253 237:253 238:254 239:253 240:253 241:253 242:253 243:253 244:225 245:124 246:5 259:123 260:233 261:253 262:253 263:230 264:193 265:222 266:254 267:253 268:253 269:253 270:253 271:224 272:253 273:253 274:136 275:3 285:7 286:91 287:234 288:253 289:253 290:153 291:37 293:214 294:254 295:246 296:163 297:60 298:60 299:32 300:60 301:191 302:253 303:46 313:65 314:253 315:253 316:163 317:48 318:9 321:242 322:250 323:95 329:65 330:246 331:173 340:52 341:187 342:253 343:165 344:10 348:42 349:247 350:138 358:230 359:253 368:133 369:253 370:238 371:48 376:110 377:253 378:70 386:121 387:253 396:133 397:242 398:56 404:57 405:248 406:117 414:225 415:253 424:192 425:230 433:244 434:123 441:5 442:232 443:254 452:203 453:229 461:173 462:192 463:11 469:109 470:253 471:172 480:179 481:229 489:46 490:237 491:183 496:71 497:240 498:253 499:11 508:133 509:245 510:88 518:45 519:88 520:46 523:38 524:215 525:253 526:157 527:4 536:102 537:227 538:243 539:90 549:12 550:90 551:236 552:253 553:184 554:7 565:53 566:253 567:242 568:194 569:102 570:73 571:73 572:7 574:39 575:85 576:194 577:205 578:253 579:253 580:153 581:37 593:5 594:123 595:225 596:253 597:253 598:253 599:253 600:210 601:206 602:232 603:253 604:253 605:253 606:233 607:133 608:9 623:24 624:65 625:156 626:235 627:253 628:253 629:253 630:250 631:156 632:156 633:76 634:27 654:19 655:24 656:24 657:24 658:23 #
-1.8172955646007754e-007 148:32 149:73 150:163 151:79 152:37 174:32 175:178 176:243 177:253 178:254 179:253 180:244 181:157 182:55 201:11 202:225 203:247 204:177 205:127 206:36 207:75 208:222 209:253 210:253 211:102 212:16 229:144 230:253 231:107 236:21 237:223 238:253 239:254 240:222 241:122 242:37 257:228 258:233 259:23 265:44 266:253 267:105 268:156 269:240 270:248 271:148 272:33 285:255 286:109 293:19 294:228 297:46 298:162 299:233 300:228 301:96 313:254 314:108 321:2 322:12 327:45 328:166 329:245 330:105 341:254 342:153 357:144 358:248 359:92 369:215 370:202 371:3 385:12 386:186 387:223 388:31 397:163 398:253 399:36 414:95 415:253 416:136 425:137 426:254 427:127 443:141 444:163 453:31 454:243 455:185 456:12 471:57 472:247 482:144 483:253 484:100 499:97 500:240 510:32 511:237 512:223 513:38 527:109 528:162 539:152 540:253 541:194 554:14 555:193 556:162 568:141 569:254 570:170 571:5 581:16 582:163 583:248 584:84 596:8 597:115 598:254 599:217 600:92 608:36 609:194 610:225 611:87 626:121 627:224 628:248 629:211 630:128 631:128 632:128 633:95 634:128 635:192 636:241 637:167 638:63 655:12 656:100 657:144 658:209 659:235 660:235 661:250 662:245 663:202 664:87 665:4 689:62 690:41 #
1.1150661687499187e-007 126:213 127:101 154:212 155:235 156:11 182:212 183:172 209:33 210:238 211:78 237:54 238:254 239:77 246:46 265:87 266:254 267:77 274:28 293:149 294:243 295:32 301:85 302:82 321:230 322:235 329:61 330:37 349:246 350:204 356:4 357:175 358:17 376:66 377:252 378:139 384:5 385:115 386:6 405:246 406:61 413:169 414:24 432:60 433:252 434:43 441:169 442:24 460:87 461:254 462:43 469:169 470:113 487:1 488:166 489:232 490:25 497:63 498:111 515:25 516:254 517:201 526:33 543:25 544:255 545:201 571:25 572:254 573:201 599:50 600:254 601:139 627:121 628:254 629:106 655:85 656:254 657:106 #
-3.3583751715254996e-007 130:2 131:78 132:64 133:43 134:1 158:106 159:254 160:254 161:254 162:48 184:8 185:121 186:241 187:254 188:195 189:209 190:139 191:1 211:13 212:173 213:226 214:168 215:57 216:26 217:34 218:231 219:45 238:71 239:198 240:143 241:27 246:156 247:90 264:15 265:129 266:227 267:112 274:73 275:130 291:15 292:168 293:235 294:85 302:110 303:216 318:34 319:202 320:211 321:46 330:177 331:158 345:15 346:168 347:139 348:17 357:41 358:248 359:40 372:27 373:208 374:119 375:1 385:145 386:179 387:3 399:26 400:184 401:119 411:5 412:73 413:194 414:37 426:50 427:212 428:120 439:190 440:199 441:39 453:13 454:214 455:120 465:12 466:131 467:172 468:30 480:2 481:128 482:192 491:38 492:76 493:204 494:174 495:28 508:9 509:246 510:50 518:55 519:147 520:168 521:165 522:10 536:136 537:195 543:13 544:76 545:182 546:241 547:187 548:58 564:255 565:155 570:32 571:135 572:254 573:235 574:113 575:10 592:212 593:207 594:66 595:66 596:80 597:190 598:243 599:194 600:114 601:17 620:40 621:254 622:254 623:254 624:242 625:164 626:80 627:2 648:1 649:8 650:8 651:8 652:7 #
-2.6794518040074674e-007 124:5 125:197 126:255 127:249 128:94 129:5 152:78 153:254 154:182 155:170 156:244 157:154 158:17 180:211 181:224 182:34 184:75 185:212 186:219 207:33 208:237 209:78 213:19 214:222 215:107 235:180 236:228 237:12 242:111 243:188 244:3 262:30 263:248 264:106 270:10 271:254 272:24 290:143 291:254 292:43 298:10 299:254 300:44 317:21 318:242 319:202 320:8 326:47 327:254 328:127 345:56 346:254 347:74 354:10 355:254 356:215 373:138 374:254 375:9 382:10 383:254 384:160 400:26 401:232 402:216 403:5 410:10 411:254 412:120 428:58 429:254 430:167 438:10 439:254 440:120 456:58 457:254 458:151 466:10 467:254 468:103 484:58 485:254 486:72 494:50 495:254 496:24 512:58 513:254 514:99 522:106 523:233 524:17 540:28 541:234 542:213 543:5 549:23 550:220 551:181 569:141 570:254 571:11 576:2 577:121 578:253 579:106 597:59 598:254 599:200 600:28 603:30 604:160 605:254 606:156 625:3 626:61 627:249 628:230 629:158 630:184 631:238 632:254 633:189 634:6 655:80 656:237 657:254 658:254 659:212 660:128 661:5 #
1.8586999849345609e-007 158:128 159:253 160:66 184:8 185:154 186:247 187:108 212:121 213:254 214:176 239:70 240:254 241:186 242:9 266:39 267:233 268:233 269:12 294:151 295:254 296:111 321:76 322:252 323:208 324:2 349:124 350:254 351:119 376:18 377:226 378:197 379:5 404:109 405:254 406:154 431:5 432:192 433:241 434:44 459:117 460:254 461:139 487:183 488:254 489:87 515:183 516:254 517:43 543:183 544:254 545:43 571:183 572:226 573:20 599:145 600:223 601:17 627:87 628:254 629:43 655:87 656:255 657:43 683:87 684:254 685:43 #
1.1400504911380924e-007 158:110 159:150 160:253 161:170 184:73 185:217 186:253 187:252 188:241 189:221 211:11 212:191 213:252 214:253 215:241 216:102 217:41 239:155 240:252 241:252 242:191 243:77 266:47 267:232 268:252 269:189 270:83 294:233 295:252 296:220 297:15 321:105 322:253 323:241 324:102 348:21 349:206 350:253 351:179 375:32 376:212 377:253 378:255 379:35 403:73 404:252 405:252 406:119 407:5 431:176 432:252 433:148 459:217 460:252 461:108 486:110 487:253 488:253 489:108 513:1 514:232 515:252 516:252 517:108 541:1 542:252 543:252 544:252 545:108 569:1 570:169 571:252 572:252 573:108 599:218 600:253 601:108 627:217 628:252 629:108 655:114 656:252 657:211 683:73 684:252 685:252 686:145 687:20 #
-6.5566345573091163e-008 156:23 157:132 158:180 159:254 160:254 161:135 162:25 178:14 179:104 180:234 181:234 182:185 183:133 184:237 185:253 186:253 187:206 188:157 189:241 190:204 191:29 205:17 206:174 207:253 208:253 209:253 210:253 211:253 212:171 213:40 214:40 215:21 217:105 218:253 219:116 232:17 233:173 234:253 235:253 236:253 237:253 238:253 239:171 240:17 245:20 246:182 247:243 248:103 260:95 261:253 262:216 263:124 264:253 265:238 266:170 267:16 274:54 275:243 276:232 287:58 288:237 289:253 290:116 291:253 292:253 293:135 303:179 304:232 315:167 316:253 317:225 318:144 319:253 320:186 321:3 331:179 332:243 333:60 343:234 344:220 345:38 346:23 347:203 348:70 359:45 360:253 361:175 370:106 371:251 372:177 375:15 387:42 388:253 389:253 398:154 399:253 400:140 415:42 416:253 417:216 426:254 427:253 428:40 443:68 444:249 445:94 454:254 455:253 456:40 470:7 471:187 472:232 482:254 483:253 484:40 497:3 498:68 499:252 500:151 510:254 511:253 512:40 525:83 526:253 527:144 538:254 539:253 540:40 553:138 554:228 555:45 566:254 567:253 568:85 579:41 580:213 581:222 582:55 594:118 595:248 596:196 597:15 605:7 606:140 607:226 608:228 609:55 623:234 624:253 625:196 626:86 627:17 631:34 632:68 633:187 634:252 635:212 636:51 651:88 652:217 653:253 654:253 655:196 656:158 657:158 658:158 659:236 660:253 661:225 662:93 680:35 681:116 682:209 683:253 684:253 685:253 686:253 687:253 688:152 689:41 #
