SVM-light Version V6.02
0 # kernel type
3 # kernel parameter -d 
1 # kernel parameter -g 
1 # kernel parameter -s 
1 # kernel parameter -r 
empty# kernel parameter -u 
744 # highest feature index 
12665 # number of training documents 
2382 # number of support vectors plus 1 
-0.56271056 # threshold b, each following line is a SV (starting with alpha*y)
-1.0000000000000001e-009 130:29 131:147 132:53 158:42 159:233 160:223 161:15 162:1 187:118 188:217 189:252 190:127 191:28 203:5 204:145 205:223 206:109 216:47 217:252 218:252 219:203 220:31 231:33 232:252 233:252 234:243 235:84 244:9 245:168 246:252 247:252 248:103 258:32 259:210 260:252 261:252 262:236 263:56 273:63 274:244 275:252 276:182 286:60 287:252 288:252 289:225 290:56 302:185 303:252 304:252 313:46 314:182 315:252 316:252 317:150 330:116 331:252 332:225 341:253 342:252 343:252 344:181 345:12 358:238 359:252 360:103 369:255 370:253 371:253 372:133 384:13 385:183 386:253 387:253 388:104 397:253 398:252 399:239 400:23 411:18 412:83 413:252 414:252 415:241 416:79 425:253 426:252 427:237 428:8 438:8 439:173 440:252 441:252 442:252 443:198 453:253 454:252 455:252 456:132 465:78 466:182 467:252 468:252 469:252 470:209 471:31 481:209 482:252 483:252 484:238 485:179 486:75 487:75 488:4 489:58 490:75 491:136 492:223 493:242 494:252 495:252 496:243 497:177 498:115 509:31 510:203 511:252 512:252 513:252 514:252 515:252 516:182 517:235 518:252 519:253 520:252 521:252 522:252 523:243 524:108 538:60 539:252 540:252 541:252 542:252 543:252 544:252 545:252 546:252 547:253 548:252 549:252 550:188 551:83 566:4 567:14 568:85 569:189 570:252 571:252 572:252 573:236 574:162 575:163 576:40 577:14 578:8 597:18 598:59 599:59 600:59 601:48 #
-1.0000000000000001e-009 145:10 146:254 147:254 148:254 149:254 150:175 151:130 152:107 153:5 173:136 174:253 175:253 176:253 177:253 178:253 179:253 180:253 181:227 182:104 201:254 202:253 203:173 204:111 205:111 206:111 207:132 208:235 209:248 210:226 211:143 212:143 213:143 214:143 215:143 216:26 229:254 230:253 231:111 237:120 238:253 239:253 240:253 241:253 242:253 243:253 244:212 245:98 246:2 257:254 258:253 259:111 265:180 266:246 267:189 268:99 269:99 270:99 271:216 272:253 273:253 274:33 285:254 286:253 287:111 293:180 294:191 299:34 300:216 301:253 302:213 303:26 313:254 314:253 315:132 321:180 322:170 328:34 329:216 330:253 331:155 332:1 341:254 342:253 343:235 349:57 350:22 357:34 358:241 359:253 360:91 369:254 370:253 371:235 386:208 387:253 388:156 397:163 398:253 399:235 414:112 415:253 416:253 425:130 426:253 427:249 428:80 442:27 443:245 444:253 453:130 454:253 455:253 456:141 470:88 471:251 472:253 481:30 482:253 483:253 484:228 498:212 499:253 500:253 509:5 510:213 511:253 512:237 513:34 526:236 527:253 528:150 538:31 539:253 540:253 541:216 542:34 553:136 554:251 555:253 556:23 566:2 567:156 568:253 569:253 570:155 571:34 580:88 581:250 582:253 583:149 584:1 595:23 596:210 597:253 598:253 599:216 600:86 607:91 608:224 609:253 610:207 611:19 624:23 625:210 626:253 627:253 628:250 629:147 630:85 632:88 633:151 634:236 635:251 636:253 637:207 638:19 653:23 654:152 655:253 656:253 657:253 658:251 659:242 660:251 661:253 662:253 663:253 664:207 665:19 682:1 683:27 684:129 685:156 686:253 687:253 688:253 689:253 690:253 691:147 692:18 #
-1.0000000000000001e-009 152:99 153:192 154:192 155:255 156:218 157:99 178:148 179:208 180:249 181:241 182:192 183:218 184:252 185:249 186:138 187:7 206:178 207:252 208:252 209:111 211:99 212:240 213:252 214:252 215:29 234:178 235:252 236:209 237:31 240:60 241:252 242:252 243:29 261:67 262:243 263:252 264:119 268:7 269:173 270:252 271:182 272:22 289:75 290:252 291:252 292:14 297:164 298:252 299:252 300:74 317:75 318:252 319:252 320:14 325:164 326:252 327:252 328:74 345:75 346:252 347:252 348:14 353:164 354:252 355:252 356:74 373:189 374:252 375:252 376:14 381:164 382:252 383:252 384:74 401:223 402:252 403:252 404:14 409:76 410:252 411:252 412:74 429:224 430:253 431:253 432:14 437:9 438:198 439:253 440:135 457:101 458:252 459:252 460:14 466:120 467:252 468:186 485:75 486:252 487:252 488:14 493:1 494:128 495:252 496:82 513:75 514:252 515:252 516:14 521:15 522:252 523:252 524:222 541:53 542:230 543:252 544:14 549:15 550:252 551:252 552:222 570:178 571:252 572:32 577:15 578:252 579:252 580:117 598:178 599:252 600:162 605:95 606:252 607:252 608:74 626:127 627:252 628:194 629:21 631:151 632:238 633:247 634:209 635:31 636:4 654:7 655:137 656:223 657:207 658:193 659:253 660:252 661:214 662:31 684:37 685:129 686:252 687:253 688:128 689:36 #
-1.0000000000000001e-009 128:64 129:191 130:255 131:64 154:64 155:191 156:255 157:255 158:255 159:255 160:64 182:191 183:255 184:255 185:255 186:255 187:255 188:128 209:255 210:255 211:255 212:255 213:255 214:255 215:255 216:128 236:64 237:255 238:255 239:255 240:255 241:255 242:255 243:255 244:128 263:64 264:191 265:255 266:255 267:255 268:255 269:64 270:255 271:255 272:128 291:191 292:255 293:255 294:255 295:255 296:64 297:128 298:255 299:255 300:128 318:64 319:255 320:255 321:255 322:255 323:64 325:128 326:255 327:255 328:128 346:255 347:255 348:255 349:255 350:64 353:255 354:255 355:255 356:128 373:64 374:255 375:255 376:255 377:191 380:64 381:255 382:255 383:255 401:191 402:255 403:255 404:191 408:255 409:255 410:255 411:191 428:128 429:255 430:255 431:191 435:64 436:255 437:255 438:255 456:255 457:255 458:255 459:128 463:191 464:255 465:255 466:255 483:64 484:255 485:255 486:255 487:128 490:128 491:255 492:255 493:255 494:191 511:128 512:255 513:255 514:255 517:128 518:255 519:255 520:255 521:255 522:64 539:128 540:255 541:255 542:191 544:128 545:255 546:255 547:255 548:255 549:128 567:191 568:255 569:255 570:255 571:255 572:255 573:255 574:255 575:255 576:255 595:64 596:255 597:255 598:255 599:255 600:255 601:255 602:255 603:255 624:191 625:255 626:255 627:255 628:255 629:255 630:191 652:64 653:128 654:255 655:255 656:255 657:64 #
-1.0000000000000001e-009 126:128 127:255 128:255 129:64 153:191 154:255 155:255 156:255 157:255 158:64 180:64 181:255 182:255 183:191 184:191 185:255 186:191 208:128 209:255 210:255 211:64 213:255 214:255 215:64 236:191 237:255 238:191 241:191 242:255 243:191 263:128 264:255 265:255 269:64 270:255 271:255 291:255 292:255 293:191 298:255 299:255 319:255 320:255 326:191 327:255 346:191 347:255 348:128 354:255 355:255 374:255 375:255 376:64 382:255 383:255 401:128 402:255 403:191 409:191 410:255 411:255 429:191 430:255 431:128 436:64 437:255 438:255 439:255 457:255 458:255 464:191 465:255 466:255 467:128 484:128 485:255 486:255 491:191 492:255 493:255 494:128 512:255 513:255 514:255 518:128 519:255 520:255 521:191 540:255 541:255 542:128 545:64 546:255 547:255 548:255 549:64 568:255 569:255 570:128 572:64 573:255 574:255 575:255 576:128 596:255 597:255 598:191 599:128 600:255 601:255 602:255 603:64 624:191 625:255 626:255 627:255 628:255 629:255 630:64 652:64 653:191 654:255 655:255 656:191 657:64 #
1.0000000000000001e-009 123:207 124:208 125:18 151:206 152:253 153:144 179:206 180:253 181:212 182:7 207:206 208:253 209:253 210:11 235:206 236:253 237:253 238:11 263:206 264:253 265:253 266:104 291:206 292:253 293:253 294:132 319:206 320:253 321:253 322:236 347:118 348:238 349:253 350:253 351:53 376:218 377:253 378:253 379:122 404:155 405:254 406:254 407:185 432:88 433:251 434:253 435:242 461:230 462:253 463:242 489:230 490:253 491:245 492:21 517:230 518:253 519:254 520:137 545:230 546:253 547:254 548:229 573:131 574:253 575:254 576:249 577:130 578:29 601:16 602:244 603:254 604:253 605:239 606:52 630:190 631:254 632:253 633:217 658:64 659:196 660:242 661:56 #
-1.0000000000000001e-009 102:117 103:190 104:19 157:3 158:156 159:115 160:20 183:4 184:70 185:191 186:254 187:243 188:36 210:30 211:97 212:254 213:254 214:254 215:189 237:31 238:215 239:254 240:254 241:250 242:254 243:92 264:53 265:220 266:254 267:250 268:133 269:117 270:254 271:148 291:68 292:241 293:254 294:223 295:107 297:99 298:254 299:189 318:53 319:250 320:254 321:251 322:106 325:8 326:245 327:221 328:21 345:31 346:220 347:254 348:251 349:112 354:245 355:254 356:66 373:159 374:254 375:254 376:67 382:245 383:254 384:151 400:132 401:253 402:254 403:200 404:11 410:235 411:254 412:142 428:190 429:254 430:222 431:20 438:208 439:254 440:43 455:36 456:242 457:254 458:118 465:38 466:248 467:229 468:27 483:44 484:254 485:254 486:97 493:202 494:254 495:189 511:72 512:254 513:250 514:56 519:6 520:91 521:239 522:254 523:161 539:62 540:254 541:254 542:141 546:82 547:163 548:254 549:254 550:188 551:14 567:20 568:219 569:254 570:233 571:141 572:141 573:211 574:254 575:254 576:254 577:186 578:7 596:137 597:247 598:254 599:254 600:254 601:254 602:254 603:179 604:76 605:15 625:85 626:146 627:183 628:254 629:185 630:60 631:3 #
-1.0000000000000001e-009 156:89 157:222 158:253 159:253 160:255 161:211 162:17 183:162 184:219 185:252 186:252 187:252 188:253 189:252 190:183 209:26 210:122 211:253 212:252 213:252 214:227 215:79 216:137 217:252 218:234 219:33 236:26 237:109 238:242 239:253 240:235 241:160 242:102 244:13 245:211 246:252 247:98 264:122 265:252 266:252 267:137 268:60 272:13 273:211 274:221 275:25 290:3 291:118 292:253 293:245 294:126 300:87 301:253 302:184 318:45 319:252 320:252 321:139 328:138 329:244 330:98 345:85 346:222 347:252 348:202 349:13 355:53 356:222 357:153 373:168 374:253 375:231 376:58 383:95 384:243 385:71 400:85 401:240 402:253 403:231 404:37 410:43 411:230 412:128 413:8 427:7 428:212 429:253 430:244 431:253 432:79 438:104 439:253 440:106 455:91 456:252 457:231 458:50 459:113 460:149 465:45 466:236 467:157 482:13 483:203 484:252 485:189 492:45 493:172 494:227 495:69 510:26 511:221 512:252 513:96 519:9 520:142 521:227 522:102 538:151 539:252 540:168 541:2 547:24 548:231 549:48 565:3 566:170 567:253 568:98 593:24 594:252 595:252 596:45 600:13 601:140 602:161 603:127 609:9 610:13 621:17 622:227 623:252 624:102 625:70 626:132 627:184 628:203 629:252 630:252 631:32 637:13 638:19 650:120 651:252 652:252 653:252 654:253 655:252 656:252 657:176 658:45 678:26 679:168 680:252 681:252 682:253 683:178 684:54 685:14 #
1.0000000000000001e-009 124:153 125:235 126:42 152:152 153:254 154:209 155:49 180:146 181:253 182:254 183:100 184:1 209:218 210:254 211:254 212:27 237:218 238:254 239:254 240:133 265:218 266:254 267:254 268:216 293:218 294:254 295:254 296:216 321:218 322:254 323:254 324:216 349:197 350:254 351:254 352:216 377:29 378:254 379:254 380:231 381:57 405:29 406:254 407:254 408:254 409:150 433:29 434:254 435:254 436:254 437:150 461:29 462:254 463:254 464:254 465:150 489:29 490:254 491:254 492:254 493:150 517:65 518:254 519:254 520:254 521:150 545:218 546:254 547:254 548:254 549:150 572:108 573:244 574:254 575:254 576:254 577:150 600:152 601:254 602:254 603:254 604:218 605:5 628:152 629:254 630:254 631:254 632:125 656:152 657:254 658:254 659:254 660:27 #
-1.0000000000000001e-009 206:16 207:162 208:197 209:232 210:233 211:232 212:232 213:232 214:144 215:110 216:6 230:27 233:126 234:232 235:252 236:252 237:252 238:227 239:226 240:252 241:236 242:242 243:253 244:189 245:41 257:80 258:158 260:177 261:253 262:252 263:244 264:103 265:59 266:25 267:24 268:86 269:31 270:79 271:147 272:226 273:214 285:191 286:109 287:64 288:253 289:247 290:131 291:9 300:173 301:253 302:227 303:25 312:32 313:173 314:5 315:99 316:252 317:97 328:57 329:246 330:252 331:200 340:192 341:246 342:63 343:111 344:231 357:223 358:252 359:252 368:253 369:252 370:21 385:153 386:252 387:252 396:253 397:252 398:21 413:232 414:252 415:252 424:254 425:253 426:21 440:15 441:237 442:253 443:236 452:253 453:252 454:100 468:85 469:252 470:252 471:112 480:253 481:252 482:189 483:42 496:137 497:252 498:221 499:21 508:102 509:237 510:252 511:170 512:37 523:64 524:206 525:247 526:141 537:67 538:244 539:252 540:235 541:132 549:27 550:150 551:253 552:252 553:99 566:54 567:142 568:253 569:255 570:253 571:200 572:148 573:148 574:148 575:148 576:148 577:218 578:253 579:230 580:97 595:16 596:63 597:168 598:231 599:252 600:252 601:252 602:253 603:252 604:252 605:252 606:182 607:27 626:16 627:21 628:21 629:21 630:127 631:126 632:118 633:21 634:4 #
-1.0000000000000001e-009 183:32 184:201 185:209 186:7 210:3 211:147 212:255 213:254 214:34 238:16 239:246 240:254 241:254 242:93 267:46 268:115 269:249 270:137 294:90 295:205 296:203 297:210 298:169 320:16 321:134 322:227 323:116 324:46 325:169 326:169 347:5 348:182 349:206 350:23 353:169 354:169 375:123 376:209 377:22 381:169 382:169 402:63 403:241 404:55 409:170 410:156 429:5 430:221 431:131 436:7 437:235 438:75 457:98 458:216 459:7 464:137 465:242 466:23 485:170 486:132 491:73 492:254 493:129 513:238 514:48 518:40 519:241 520:218 521:9 541:174 542:199 543:66 544:48 545:129 546:238 547:190 548:27 569:105 570:252 571:254 572:254 573:252 574:150 575:7 598:71 599:131 600:105 601:44 710:10 711:136 #
1.0000000000000001e-009 132:65 133:166 134:128 135:40 147:17 148:47 149:131 150:12 158:22 159:85 160:234 161:253 162:253 163:99 174:86 175:185 176:253 177:172 178:6 185:9 186:195 187:253 188:253 189:253 190:222 191:42 201:29 202:211 203:253 204:239 205:73 211:46 212:135 213:247 214:253 215:253 216:253 217:253 218:49 230:125 231:252 232:220 233:18 237:36 238:147 239:222 240:253 241:253 242:253 243:253 244:253 245:236 246:38 259:247 260:253 261:190 262:55 263:139 264:139 265:243 266:253 267:253 268:253 269:168 270:253 271:253 272:249 273:66 287:71 288:181 289:253 290:244 291:253 292:253 293:253 294:193 295:168 296:32 297:72 298:253 299:253 300:100 316:11 317:68 318:214 319:203 320:68 321:68 322:21 324:9 325:180 326:253 327:245 328:81 352:70 353:253 354:253 355:191 380:117 381:253 382:218 383:39 407:12 408:226 409:253 410:137 434:12 435:186 436:253 437:253 438:137 462:24 463:253 464:253 465:197 466:16 490:127 491:253 492:249 493:79 518:177 519:253 520:183 545:104 546:242 547:253 548:183 565:7 566:8 567:8 568:8 569:93 570:162 571:162 572:162 573:245 574:253 575:253 576:228 577:162 578:162 579:125 580:8 581:8 582:2 592:109 593:223 594:253 595:253 596:253 597:253 598:253 599:253 600:253 601:253 602:253 603:253 604:253 605:253 606:253 607:253 608:253 609:253 610:45 620:255 621:253 622:253 623:253 624:253 625:253 626:253 627:253 628:253 629:253 630:253 631:253 632:205 633:199 634:199 635:199 636:101 637:45 638:8 648:100 649:99 650:99 651:99 652:99 653:99 654:99 655:99 656:179 657:253 658:145 659:99 660:12 #
-1.0000000000000001e-009 231:39 232:99 233:155 234:56 235:56 236:29 258:151 259:236 260:252 261:252 262:252 263:252 264:226 265:163 286:253 287:252 288:252 289:252 290:252 291:244 292:247 293:249 294:231 295:39 296:5 302:1 303:5 314:253 315:252 316:235 317:103 318:99 319:22 320:48 321:165 322:222 323:252 324:198 325:66 330:108 331:192 332:40 342:253 343:252 344:72 350:20 351:161 352:253 353:206 354:14 358:8 359:222 360:204 361:24 370:253 371:194 372:6 380:110 381:252 382:182 383:5 387:107 388:252 389:128 398:255 399:253 400:58 409:115 410:253 411:10 413:12 414:38 415:210 416:253 417:191 426:100 427:252 428:179 429:3 437:20 438:77 439:3 440:29 441:118 442:252 443:252 444:252 445:142 454:6 455:189 456:252 457:153 458:100 459:22 460:44 461:18 462:133 463:161 464:44 465:44 466:83 467:205 468:228 469:243 470:252 471:252 472:145 473:25 483:36 484:163 485:242 486:252 487:244 488:247 489:244 490:252 491:252 492:248 493:247 494:251 495:250 496:230 497:182 498:172 499:10 500:3 513:56 514:197 515:197 516:224 517:228 518:252 519:228 520:198 521:212 522:206 523:84 544:26 545:31 546:55 547:31 549:15 550:10 #
1.0000000000000001e-009 96:2 97:55 98:255 99:133 100:5 124:44 125:253 126:253 127:253 128:222 129:30 152:19 153:208 154:253 155:253 156:253 157:55 179:4 180:25 181:181 182:253 183:253 184:253 185:116 202:20 203:149 204:14 206:20 207:125 208:253 209:253 210:253 211:253 212:253 213:55 230:130 231:253 232:201 233:101 234:218 235:253 236:253 237:253 238:253 239:253 240:253 241:55 258:130 259:253 260:253 261:253 262:253 263:253 264:253 265:253 266:253 267:253 268:253 269:55 286:215 287:253 288:253 289:253 290:253 291:253 292:253 293:253 294:253 295:253 296:253 297:140 314:227 315:253 316:253 317:253 318:253 319:253 320:253 321:253 322:253 323:253 324:253 325:151 342:130 343:253 344:249 345:228 346:215 347:113 348:68 349:195 350:253 351:253 352:253 353:86 370:35 371:185 372:210 373:65 374:24 377:67 378:233 379:253 380:253 381:235 382:71 400:143 401:202 406:180 407:253 408:253 409:253 410:172 427:11 428:192 429:228 434:140 435:253 436:253 437:253 438:198 439:14 455:3 456:22 457:39 462:10 463:155 464:253 465:253 466:253 467:145 491:63 492:253 493:253 494:253 495:166 519:38 520:229 521:253 522:253 523:166 524:86 525:12 541:11 542:93 544:19 545:106 546:194 547:230 548:248 549:253 550:253 551:245 552:250 553:184 554:218 555:175 556:106 557:3 569:80 570:251 571:236 572:239 573:253 574:253 575:253 576:253 577:253 578:253 579:253 580:253 581:253 582:253 583:253 584:253 585:60 597:149 598:253 599:253 600:253 601:253 602:253 603:253 604:253 605:253 606:253 607:253 608:253 609:253 610:253 611:253 612:253 613:248 625:16 626:129 627:129 628:129 629:129 630:129 631:129 632:129 633:129 634:129 635:129 636:129 637:129 638:129 639:129 640:129 641:129 #
-1.0000000000000001e-009 153:57 154:252 155:248 181:157 182:254 183:252 184:112 209:157 210:254 211:254 212:197 213:108 214:59 236:52 237:233 238:254 239:254 240:254 241:254 242:229 243:38 264:146 265:254 266:254 267:254 268:254 269:254 270:254 271:49 292:231 293:254 294:254 295:254 296:254 297:254 298:254 299:49 319:78 320:244 321:254 322:254 323:254 324:254 325:254 326:254 327:49 347:140 348:254 349:254 350:254 351:254 352:254 353:254 354:254 355:49 375:140 376:254 377:254 378:203 379:103 380:254 381:254 382:254 383:49 403:140 404:254 405:254 406:11 407:9 408:254 409:254 410:254 411:49 431:140 432:254 433:147 434:3 435:122 436:254 437:254 438:175 439:16 459:140 460:254 461:98 463:173 464:254 465:254 466:139 486:38 487:226 488:254 489:98 491:173 492:254 493:252 494:126 514:50 515:254 516:254 517:98 519:173 520:254 521:230 542:50 543:254 544:254 545:98 546:68 547:239 548:254 549:96 570:50 571:254 572:254 573:179 574:172 575:254 576:254 577:65 598:39 599:229 600:254 601:254 602:254 603:254 604:254 605:65 627:140 628:254 629:254 630:254 631:254 632:196 633:27 655:100 656:248 657:254 658:254 659:198 660:10 684:125 685:254 686:201 687:29 #
-1.0000000000000001e-009 125:89 126:255 127:254 128:151 129:8 153:88 154:253 155:253 156:253 157:134 181:88 182:253 183:253 184:253 185:200 209:88 210:253 211:253 212:253 213:200 237:88 238:253 239:253 240:253 241:200 264:5 265:168 266:253 267:253 268:253 269:200 291:11 292:156 293:253 294:253 295:253 296:253 297:205 298:13 319:106 320:253 321:253 322:253 323:253 324:253 325:253 326:122 346:1 347:111 348:253 349:250 350:244 351:252 352:253 353:214 354:33 374:88 375:253 376:253 377:165 379:246 380:253 381:200 402:202 403:253 404:253 405:165 407:246 408:253 409:235 410:81 429:120 430:251 431:253 432:250 433:120 435:246 436:253 437:201 438:4 457:124 458:253 459:253 460:244 463:246 464:253 465:200 485:12 486:207 487:253 488:250 489:115 490:150 491:252 492:253 493:248 494:110 514:202 515:253 516:244 518:167 519:253 520:253 521:225 522:59 542:202 543:253 544:245 545:36 546:179 547:253 548:253 549:54 570:202 571:253 572:253 573:253 574:253 575:253 576:185 577:14 598:202 599:253 600:253 601:253 602:253 603:253 604:104 626:202 627:253 628:253 629:253 630:253 631:226 632:65 654:62 655:78 656:205 657:253 658:137 659:56 #
-1.0000000000000001e-009 152:24 153:161 154:204 155:151 156:19 179:31 180:193 181:234 182:196 183:254 184:152 206:11 207:186 208:185 209:5 210:5 211:148 212:240 213:21 234:169 235:254 236:201 237:105 239:76 240:249 241:32 262:248 263:249 264:221 265:60 267:22 268:243 269:97 290:248 291:98 296:222 297:108 318:242 319:27 324:201 325:108 345:4 346:191 352:140 353:146 373:64 374:197 380:172 381:143 401:38 402:204 408:183 409:197 429:55 430:186 436:142 437:177 457:64 458:201 464:136 465:162 485:38 486:182 492:167 493:108 514:151 515:10 520:152 521:167 542:178 543:31 548:224 549:126 570:143 571:85 575:61 576:254 577:101 598:17 599:212 603:128 604:237 605:17 627:216 628:26 631:196 632:177 655:152 656:170 657:64 658:129 659:229 660:14 683:23 684:239 685:254 686:252 687:106 #
-1.0000000000000001e-009 149:93 150:254 151:113 152:131 153:166 154:63 176:98 177:240 178:253 179:253 180:253 181:253 182:174 183:11 203:8 204:226 205:253 206:253 207:253 208:253 209:253 210:254 211:56 212:6 231:64 232:240 233:182 234:253 235:253 236:253 237:253 238:254 239:253 240:89 260:70 261:56 262:148 263:253 264:253 265:253 266:254 267:253 268:234 269:119 290:134 291:253 292:253 293:253 294:254 295:253 296:253 297:218 298:127 317:16 318:198 319:253 320:253 321:253 322:254 323:253 324:253 325:253 326:178 345:172 346:253 347:253 348:253 349:253 350:254 351:253 352:253 353:253 354:249 355:70 373:179 374:253 375:253 376:253 377:138 378:139 379:253 380:253 381:253 382:253 383:162 401:179 402:253 403:253 404:253 405:192 406:43 407:227 408:253 409:253 410:253 411:162 429:181 430:254 431:254 432:254 433:254 435:149 436:254 437:254 438:254 439:224 457:179 458:253 459:253 460:242 461:105 463:60 464:253 465:253 466:253 467:230 468:29 485:171 486:253 487:253 488:211 489:15 490:104 491:160 492:253 493:253 494:253 495:251 496:112 513:30 514:253 515:253 516:253 517:253 518:254 519:225 520:211 521:253 522:253 523:223 541:4 542:148 543:253 544:253 545:253 546:254 547:246 548:243 549:253 550:253 551:223 570:134 571:253 572:253 573:253 574:254 575:253 576:253 577:253 578:253 579:117 598:64 599:166 600:253 601:253 602:254 603:253 604:253 605:253 606:213 607:35 627:59 628:232 629:253 630:255 631:253 632:253 633:253 634:37 656:168 657:226 658:254 659:253 660:224 661:208 662:24 684:19 685:43 686:166 687:217 688:37 #
-1.0000000000000001e-009 98:129 99:254 100:71 125:34 126:222 127:253 128:71 152:35 153:218 154:253 155:197 156:4 180:132 181:253 182:253 183:74 184:49 185:126 208:209 209:253 210:177 211:40 212:53 213:249 214:76 235:75 236:248 237:253 238:58 240:34 241:225 242:130 263:196 264:253 265:253 266:58 269:176 270:214 291:215 292:253 293:231 294:40 297:176 298:214 319:215 320:253 321:181 325:176 326:214 347:215 348:253 349:181 353:176 354:224 355:24 375:215 376:253 377:151 381:176 382:253 383:91 402:67 403:243 404:253 405:51 409:176 410:253 411:91 430:28 431:227 432:253 433:51 436:10 437:190 438:226 439:28 459:215 460:253 461:51 464:53 465:253 466:214 487:215 488:253 489:68 492:53 493:253 494:214 515:215 516:253 517:189 518:6 519:7 520:140 521:253 522:214 543:215 544:253 545:253 546:58 547:69 548:253 549:253 550:136 571:141 572:253 573:253 574:168 575:225 576:253 577:221 578:37 599:39 600:226 601:253 602:253 603:253 604:252 605:76 628:39 629:227 630:253 631:253 632:133 #
1.0000000000000001e-009 156:64 157:154 158:103 159:1 184:196 185:254 186:254 187:5 211:78 212:240 213:254 214:254 215:5 237:9 238:109 239:241 240:254 241:254 242:215 243:4 265:74 266:254 267:254 268:254 269:214 270:27 292:9 293:197 294:254 295:254 296:254 297:102 319:11 320:245 321:254 322:254 323:254 324:144 325:18 346:15 347:187 348:254 349:254 350:254 351:197 352:22 373:17 374:128 375:254 376:254 377:254 378:225 379:23 401:163 402:254 403:254 404:254 405:211 406:93 427:14 428:121 429:244 430:254 431:254 432:252 433:71 455:36 456:254 457:254 458:254 459:254 460:88 471:77 472:185 473:61 482:15 483:204 484:254 485:254 486:254 487:144 488:1 499:84 500:254 501:252 510:137 511:254 512:254 513:254 514:202 515:12 527:84 528:254 529:255 538:192 539:254 540:254 541:241 542:79 555:84 556:254 557:254 566:137 567:254 568:254 569:216 570:22 583:84 584:254 585:168 594:37 595:222 596:254 597:89 611:84 612:221 613:36 623:21 624:35 625:9 639:12 640:21 #
1.0000000000000001e-009 128:67 129:244 130:56 155:64 156:244 157:171 158:7 182:26 183:239 184:227 185:37 209:17 210:196 211:254 212:160 237:75 238:254 239:254 240:7 264:7 265:193 266:254 267:169 292:85 293:254 294:234 295:20 301:70 302:86 303:67 319:5 320:192 321:254 322:114 327:17 328:197 329:252 330:254 331:197 347:65 348:254 349:226 350:20 355:76 356:254 357:241 358:225 359:106 375:114 376:254 377:197 383:48 384:107 385:37 402:30 403:237 404:255 405:79 430:131 431:254 432:178 433:1 457:3 458:180 459:254 460:130 485:138 486:254 487:213 488:25 513:170 514:254 515:124 540:15 541:238 542:250 543:43 551:34 552:16 568:135 569:254 570:140 579:76 580:143 596:198 597:254 598:92 607:76 608:252 609:101 624:198 625:254 626:18 635:76 636:254 637:130 652:94 653:225 654:12 663:76 664:236 665:30 #
1.0000000000000001e-009 154:32 155:202 156:255 157:253 158:253 159:253 160:253 161:255 162:253 163:164 181:21 182:190 183:251 184:253 185:251 186:251 187:251 188:251 189:253 190:168 191:15 209:63 210:251 211:251 212:253 213:251 214:251 215:251 216:251 217:253 218:107 236:63 237:231 238:251 239:251 240:253 241:251 242:251 243:251 244:251 245:221 246:61 264:144 265:251 266:251 267:251 268:253 269:251 270:251 271:251 272:122 273:51 291:73 292:253 293:253 294:253 295:253 296:255 297:253 298:253 299:253 300:72 319:73 320:251 321:251 322:251 323:251 324:253 325:251 326:251 327:251 328:71 347:99 348:251 349:251 350:251 351:251 352:253 353:251 354:251 355:235 356:61 375:253 376:251 377:251 378:251 379:251 380:253 381:251 382:251 383:142 403:253 404:251 405:251 406:251 407:251 408:253 409:251 410:251 411:142 430:182 431:255 432:253 433:253 434:253 435:253 436:255 437:253 438:242 439:103 457:63 458:221 459:253 460:251 461:251 462:251 463:251 464:253 465:251 466:112 484:6 485:129 486:251 487:253 488:251 489:251 490:251 491:251 492:253 493:251 494:35 512:37 513:251 514:251 515:253 516:251 517:251 518:251 519:251 520:253 521:251 522:35 540:166 541:251 542:251 543:253 544:251 545:251 546:251 547:251 548:253 549:147 550:10 567:145 568:253 569:253 570:253 571:255 572:253 573:253 574:253 575:253 576:234 577:77 595:144 596:251 597:251 598:251 599:253 600:251 601:251 602:251 603:251 604:180 623:124 624:246 625:251 626:251 627:253 628:251 629:251 630:251 631:251 632:180 652:138 653:251 654:251 655:253 656:251 657:251 658:251 659:251 660:103 680:11 681:148 682:251 683:253 684:251 685:251 686:251 687:122 #
1.0000000000000001e-009 152:63 153:253 154:78 180:63 181:254 182:202 208:121 209:254 210:202 236:167 237:254 238:202 242:164 243:58 263:2 264:176 265:254 266:192 270:240 271:248 272:88 291:46 292:254 293:254 294:99 298:180 299:254 300:234 319:121 320:254 321:250 322:12 326:17 327:221 328:234 347:121 348:254 349:249 355:182 356:234 375:165 376:254 377:204 382:27 383:243 384:234 402:15 403:230 404:254 405:145 410:53 411:254 412:234 430:74 431:254 432:254 433:105 438:176 439:254 440:234 458:175 459:254 460:219 461:18 466:240 467:254 468:72 486:177 487:254 488:192 494:240 495:159 496:7 513:4 514:187 515:254 516:179 522:210 523:5 541:27 542:254 543:254 544:88 550:102 569:128 570:255 571:247 572:45 597:235 598:254 599:211 625:235 626:254 627:134 653:235 654:254 655:134 681:107 682:255 683:134 #
1.0000000000000001e-009 159:13 160:67 161:200 162:254 163:255 164:115 185:55 186:132 187:154 188:253 189:253 190:253 191:253 192:253 212:2 213:110 214:253 215:253 216:253 217:253 218:253 219:253 220:106 240:95 241:253 242:253 243:253 244:253 245:253 246:253 247:216 248:46 267:90 268:241 269:253 270:253 271:253 272:253 273:253 274:221 275:58 293:17 294:90 295:236 296:253 297:253 298:253 299:253 300:244 301:101 302:36 320:51 321:229 322:253 323:253 324:253 325:253 326:253 327:237 328:93 346:12 347:151 348:212 349:253 350:253 351:253 352:253 353:253 354:253 355:94 373:16 374:46 375:253 376:253 377:253 378:253 379:253 380:253 381:241 382:98 383:3 400:29 401:183 402:253 403:253 404:253 405:253 406:253 407:253 408:168 409:94 427:6 428:188 429:253 430:253 431:253 432:253 433:253 434:253 435:151 436:10 455:38 456:253 457:253 458:253 459:253 460:253 461:248 462:144 463:10 482:55 483:220 484:253 485:253 486:253 487:253 488:253 489:147 510:132 511:253 512:253 513:253 514:253 515:253 516:151 517:12 537:62 538:244 539:253 540:253 541:253 542:249 543:142 544:7 565:150 566:253 567:253 568:253 569:253 570:234 593:255 594:253 595:253 596:253 597:253 598:234 621:212 622:253 623:253 624:253 625:253 626:234 649:67 650:253 651:253 652:253 653:253 654:234 677:17 678:65 679:212 680:253 681:253 682:94 #
-1.0000000000000001e-009 189:111 190:235 191:148 192:45 213:6 214:214 215:214 216:214 217:246 218:254 219:254 220:157 238:46 239:82 240:119 241:195 242:254 243:254 244:254 245:254 246:245 247:113 248:61 265:62 266:239 267:254 268:254 269:254 270:254 271:254 272:254 273:254 274:120 291:8 292:14 293:174 294:254 295:254 296:254 297:254 298:254 299:254 300:254 301:221 302:42 318:79 319:195 320:254 321:254 322:254 323:254 324:254 325:254 326:254 327:254 328:254 329:254 330:141 346:152 347:254 348:254 349:254 350:254 351:254 352:254 353:254 354:254 355:254 356:218 357:144 358:43 373:13 374:188 375:254 376:254 377:254 378:206 379:254 380:254 381:254 382:254 383:113 384:18 400:16 401:95 402:254 403:254 404:254 405:192 406:141 407:218 408:179 409:253 410:185 411:85 428:157 429:254 430:254 431:254 432:233 433:65 434:179 435:254 436:254 437:221 454:11 455:70 456:233 457:254 458:253 459:155 460:137 461:245 462:255 463:254 464:221 465:39 482:98 483:254 484:254 485:254 486:159 487:79 488:252 489:254 490:254 491:227 492:39 510:164 511:254 512:254 513:220 514:14 515:254 516:254 517:254 518:254 519:138 537:113 538:254 539:254 540:254 541:234 542:187 543:254 544:254 545:254 546:132 547:4 565:162 566:254 567:254 568:254 569:254 570:254 571:254 572:254 573:131 574:7 593:222 594:254 595:254 596:254 597:254 598:254 599:222 600:58 601:6 621:35 622:241 623:254 624:254 625:249 626:130 627:37 650:89 651:96 652:96 653:83 #
-1.0000000000000001e-009 129:19 130:117 131:128 156:19 157:225 158:252 159:139 184:117 185:252 186:252 187:139 211:51 212:241 213:252 214:252 215:139 238:10 239:179 240:255 241:253 242:253 243:28 266:160 267:252 268:209 269:196 270:252 271:28 293:45 294:240 295:252 296:134 297:234 298:186 299:6 320:13 321:194 322:252 323:151 324:41 325:252 326:68 347:13 348:154 349:247 350:134 351:140 352:92 353:253 354:56 375:113 376:247 377:103 378:28 379:47 380:166 381:214 382:19 402:29 403:210 404:187 407:89 408:253 409:109 430:185 431:252 432:63 435:163 436:228 437:9 457:70 458:253 459:140 462:60 463:241 464:151 484:19 485:225 486:252 487:65 490:197 491:227 512:29 513:252 514:186 515:6 517:82 518:240 519:139 540:128 541:252 542:68 544:26 545:243 546:214 547:28 568:154 569:253 570:56 571:63 572:204 573:253 574:56 596:253 597:252 598:187 599:206 600:247 601:121 602:19 624:165 625:252 626:252 627:252 628:100 652:41 653:252 654:214 655:90 #
-1.0000000000000001e-009 128:255 129:191 130:128 155:64 156:255 157:255 158:255 159:128 160:64 184:255 185:255 186:255 187:255 188:191 212:128 213:255 214:255 215:255 216:255 217:128 239:64 240:255 241:255 242:191 243:255 244:255 245:128 266:64 267:255 268:255 269:255 271:255 272:255 273:128 293:191 294:255 295:255 296:255 297:255 298:191 299:255 300:255 301:64 320:128 321:255 322:255 323:255 324:255 325:255 326:255 327:255 328:191 347:128 348:255 349:255 350:255 351:255 352:255 353:255 354:255 355:255 356:128 375:191 376:255 377:255 378:255 379:255 380:255 381:255 382:255 383:191 402:191 403:255 404:255 405:255 406:255 407:255 408:255 409:255 410:255 430:255 431:255 432:255 433:255 434:255 435:255 436:255 437:255 438:191 457:128 458:255 459:255 460:255 461:255 462:255 463:255 464:255 465:191 484:64 485:255 486:255 487:255 488:255 489:255 490:255 491:255 492:255 493:64 512:128 513:255 514:255 515:255 516:255 517:255 518:255 519:255 540:128 541:255 542:255 543:255 544:255 545:255 546:255 547:255 568:128 569:255 570:255 571:255 572:255 573:255 574:255 575:64 596:64 597:255 598:255 599:255 600:255 601:255 602:128 625:128 626:255 627:255 628:255 629:64 654:191 655:255 656:64 #
-1.0000000000000001e-009 161:43 162:77 163:44 189:141 190:254 191:241 213:17 214:7 215:44 216:8 217:141 218:254 219:236 238:30 239:75 241:67 242:196 243:254 244:43 245:141 246:232 247:53 265:31 266:215 267:252 268:82 270:193 271:254 272:188 273:124 274:52 292:32 293:220 294:254 295:254 296:232 297:30 298:69 299:254 300:254 301:5 320:126 321:254 322:254 323:254 324:234 325:32 326:28 327:254 328:254 329:5 340:7 347:180 348:244 349:254 350:254 351:244 352:53 354:134 355:254 356:254 357:5 368:86 374:55 375:233 376:254 377:254 378:254 379:209 381:63 382:251 383:254 384:232 385:4 401:9 402:234 403:254 404:249 405:162 406:77 407:27 409:137 410:254 411:254 412:112 428:7 429:171 430:254 431:247 432:126 435:77 436:202 437:252 438:254 439:137 440:3 456:108 457:254 458:254 459:142 461:13 462:146 463:249 464:254 465:254 466:222 467:62 484:190 485:254 486:254 487:134 488:106 489:217 490:254 491:254 492:254 493:217 494:27 511:5 512:197 513:254 514:254 515:254 516:254 517:254 518:254 519:254 520:248 521:94 539:44 540:254 541:254 542:254 543:254 544:254 545:255 546:254 547:221 548:99 567:44 568:254 569:254 570:254 571:254 572:254 573:232 574:66 575:21 595:1 596:86 597:211 598:222 599:222 600:161 601:4 #
-1.0000000000000001e-009 215:20 216:69 217:141 218:211 219:245 220:222 221:124 241:83 242:121 243:223 244:254 245:213 246:143 247:67 248:25 266:22 267:112 268:235 269:254 270:254 271:217 272:50 273:11 292:5 293:74 294:225 295:254 296:226 297:164 298:78 299:5 301:30 319:41 320:171 321:254 322:246 323:71 324:19 327:114 328:195 329:121 346:43 347:228 348:254 349:213 350:67 353:11 354:141 355:242 356:118 357:9 372:1 373:83 374:226 375:253 376:194 377:15 380:3 381:174 382:253 383:48 400:123 401:254 402:228 403:102 408:121 409:246 410:90 427:37 428:249 429:222 430:34 434:3 435:163 436:244 437:172 454:27 455:229 456:234 457:31 462:167 463:254 464:140 465:2 482:127 483:254 484:103 488:6 489:115 490:245 491:136 492:13 510:164 511:254 512:10 516:85 517:254 518:181 519:6 538:181 539:254 540:10 542:9 543:109 544:246 545:177 546:12 566:101 567:254 568:173 569:83 570:181 571:249 572:135 573:9 594:35 595:239 596:255 597:254 598:254 599:154 623:28 624:136 625:140 626:87 627:11 #
1.0000000000000001e-009 125:255 126:255 127:255 150:255 151:255 152:255 153:255 154:255 155:255 178:255 179:255 180:255 181:255 182:255 183:255 184:255 206:255 207:255 208:255 209:255 210:255 211:255 212:255 234:255 235:255 236:255 237:255 238:255 239:255 240:255 241:255 262:255 263:255 264:255 265:255 266:255 267:255 268:255 269:255 290:255 291:255 292:255 293:255 294:255 295:255 296:255 297:255 318:255 319:255 320:255 321:255 322:255 323:255 324:255 346:255 347:255 348:255 349:255 350:255 351:255 375:255 376:255 377:255 378:255 379:255 380:255 381:255 402:255 403:255 404:255 405:255 406:255 407:255 408:255 409:255 430:255 431:255 432:255 433:255 434:255 435:255 436:255 437:255 458:255 459:255 460:255 461:255 462:255 463:255 464:255 465:255 466:255 486:255 487:255 488:255 489:255 490:255 491:255 492:255 493:255 494:255 515:255 516:255 517:255 518:255 519:255 520:255 521:255 522:255 543:255 544:255 545:255 546:255 547:255 548:255 549:255 550:255 571:255 572:255 573:255 574:255 575:255 576:255 577:255 578:255 600:255 601:255 602:255 603:255 604:255 605:255 606:255 629:255 630:255 631:255 632:255 633:255 634:255 658:255 659:255 660:255 661:255 #
1.0000000000000001e-009 97:155 98:201 124:45 125:236 126:252 127:95 152:153 153:252 154:252 155:247 156:67 180:184 181:252 182:252 183:253 184:92 207:95 208:246 209:252 210:252 211:253 212:92 234:34 235:253 236:253 237:253 238:253 239:255 240:92 260:17 261:99 262:212 263:252 264:252 265:252 266:252 267:253 268:92 288:176 289:252 290:253 291:252 292:252 293:252 294:252 295:253 296:92 316:207 317:252 318:253 319:252 320:252 321:210 322:252 323:253 324:92 344:113 345:242 346:253 347:252 348:136 349:97 350:252 351:253 352:143 373:53 374:116 375:42 378:168 379:255 380:253 381:69 406:116 407:253 408:252 409:141 434:84 435:253 436:252 437:183 463:253 464:252 465:240 466:37 491:201 492:252 493:252 494:150 519:22 520:245 521:253 522:211 523:13 542:110 543:140 544:47 545:47 546:47 547:47 548:178 549:252 550:252 551:117 569:85 570:253 571:252 572:252 573:252 574:252 575:253 576:252 577:252 578:252 579:252 580:174 581:57 597:116 598:253 599:252 600:252 601:252 602:252 603:253 604:252 605:252 606:252 607:252 608:253 609:206 625:116 626:253 627:252 628:252 629:252 630:252 631:253 632:252 633:252 634:252 635:252 636:253 637:206 #
1.0000000000000001e-009 98:18 99:210 100:253 101:83 126:141 127:253 128:252 129:126 153:68 154:249 155:253 156:252 157:126 180:41 181:225 182:252 183:227 184:252 185:126 208:171 209:252 210:208 211:148 212:252 213:126 235:146 236:253 237:216 238:18 239:166 240:253 241:214 262:68 263:237 264:245 265:82 267:253 268:252 269:126 289:9 290:245 291:252 292:126 295:253 296:252 297:126 317:132 318:253 319:169 320:7 323:253 324:252 325:126 344:54 345:246 346:236 347:37 351:253 352:252 353:126 371:4 372:183 373:253 374:45 379:255 380:253 381:127 399:22 400:252 401:173 407:253 408:252 409:126 427:11 428:170 429:29 434:9 435:253 436:252 437:126 462:106 463:253 464:252 465:126 490:106 491:253 492:252 493:82 519:255 520:253 521:127 547:253 548:252 549:126 569:194 570:233 571:153 572:119 573:22 574:22 575:253 576:252 577:180 578:22 579:110 580:66 581:15 597:185 598:253 599:252 600:252 601:252 602:252 603:253 604:252 605:252 606:252 607:252 608:253 609:168 625:18 626:104 627:147 628:200 629:252 630:164 631:147 632:147 633:147 634:147 635:59 636:42 637:28 #
1.0000000000000001e-009 154:38 155:222 156:253 157:253 182:131 183:252 184:252 185:252 209:26 210:231 211:252 212:252 213:173 237:128 238:252 239:252 240:252 241:252 264:79 265:253 266:252 267:252 268:252 269:173 291:13 292:191 293:255 294:253 295:253 296:253 297:174 318:67 319:181 320:252 321:215 322:195 323:252 324:252 325:127 345:51 346:209 347:252 348:220 349:110 350:85 351:252 352:252 353:112 372:76 373:243 374:252 375:217 376:37 378:85 379:252 380:252 381:112 400:191 401:252 402:220 403:37 406:85 407:252 408:252 409:112 427:63 428:255 429:253 430:56 434:85 435:253 436:253 437:112 455:15 456:106 457:27 458:6 462:85 463:252 464:252 465:112 490:85 491:252 492:252 493:112 518:85 519:252 520:252 521:112 546:85 547:252 548:252 549:112 574:85 575:253 576:240 577:63 599:10 600:85 601:85 602:219 603:252 604:233 605:38 627:138 628:252 629:253 630:252 631:252 632:252 633:221 634:111 655:75 656:252 657:253 658:252 659:252 660:252 661:252 662:126 683:13 684:112 685:174 686:204 687:112 688:112 689:112 #
1.0000000000000001e-009 152:86 153:253 154:253 155:253 178:126 179:226 180:234 181:252 182:252 183:252 184:226 185:24 206:140 207:253 208:252 209:252 210:252 211:252 212:253 213:27 234:140 235:253 236:252 237:252 238:252 239:252 240:253 241:27 262:140 263:253 264:252 265:252 266:252 267:252 268:253 269:27 290:141 291:255 292:253 293:253 294:253 295:253 296:255 297:128 298:25 318:140 319:253 320:252 321:252 322:252 323:252 324:253 325:252 326:55 346:140 347:253 348:252 349:252 350:252 351:252 352:253 353:252 354:55 374:126 375:237 376:252 377:252 378:252 379:252 380:253 381:252 382:55 403:113 404:252 405:252 406:252 407:252 408:253 409:252 410:55 431:114 432:253 433:253 434:253 435:253 436:255 437:253 438:253 439:84 459:113 460:252 461:252 462:252 463:252 464:253 465:252 466:252 467:84 487:25 488:122 489:252 490:252 491:252 492:253 493:252 494:252 495:84 516:85 517:252 518:252 519:252 520:253 521:252 522:252 523:84 544:85 545:252 546:252 547:252 548:253 549:252 550:252 551:84 571:51 572:159 573:253 574:253 575:253 576:255 577:253 578:253 579:84 599:113 600:252 601:252 602:252 603:252 604:253 605:252 606:252 607:139 608:38 627:88 628:214 629:252 630:252 631:252 632:253 633:252 634:208 635:195 636:87 656:76 657:230 658:252 659:252 660:225 661:223 662:49 685:57 686:252 687:252 #
-1.0000000000000001e-009 120:32 121:97 122:157 123:156 124:89 125:28 147:37 148:229 149:254 150:254 151:252 152:234 153:224 154:140 175:109 176:254 177:254 178:236 179:87 181:42 182:183 183:136 202:110 203:248 204:254 205:201 206:15 210:99 211:250 212:235 213:205 214:137 215:62 230:193 231:254 232:238 233:58 238:99 239:171 240:186 241:185 242:155 243:231 244:136 245:53 257:120 258:254 259:254 260:192 265:25 266:209 267:76 268:8 269:30 272:159 273:238 274:71 285:156 286:254 287:254 288:34 293:6 294:24 301:125 302:242 303:69 313:156 314:254 315:199 316:6 329:6 330:200 331:226 332:18 341:156 342:246 343:55 358:124 359:254 360:58 369:156 370:246 371:48 386:79 387:254 388:133 397:195 398:247 399:71 414:79 415:255 416:179 425:156 426:254 427:175 442:79 443:254 444:254 453:127 454:254 455:175 470:79 471:254 472:223 481:5 482:203 483:187 484:3 498:94 499:254 500:155 510:80 511:254 512:147 513:23 525:8 526:206 527:254 528:155 539:61 540:250 541:217 553:103 554:254 555:255 556:96 568:104 569:241 570:193 571:35 572:6 579:16 580:140 581:248 582:254 583:235 584:32 597:30 598:176 599:242 600:200 601:124 602:79 603:79 604:79 605:79 606:94 607:236 608:254 609:254 610:229 611:111 627:62 628:184 629:220 630:254 631:255 632:254 633:254 634:254 635:254 636:230 637:161 638:13 657:9 658:58 659:81 660:148 661:58 662:96 663:58 664:23 #
-1.0000000000000001e-009 146:8 147:201 148:253 149:145 152:32 153:96 154:148 155:192 156:255 157:222 158:211 159:211 160:229 161:237 162:69 163:22 174:43 175:252 176:122 177:92 179:103 180:237 181:252 182:196 183:168 184:63 185:16 188:27 189:81 190:231 191:168 192:28 202:139 203:217 204:12 205:6 206:153 207:250 208:152 209:73 210:7 218:16 219:181 220:186 221:4 230:218 231:196 232:7 233:91 234:252 235:70 247:42 248:196 249:138 258:253 259:168 260:18 261:212 262:59 276:81 277:252 286:254 287:168 288:128 289:172 304:64 305:253 314:253 315:168 316:127 317:84 332:64 333:252 342:253 343:168 344:28 345:77 360:64 361:252 370:253 371:189 372:6 388:64 389:252 398:165 399:252 400:21 416:152 417:252 426:148 427:253 428:21 443:31 444:218 445:129 454:148 455:252 456:100 471:127 472:252 473:42 482:48 483:247 484:126 498:16 499:226 500:194 501:4 511:190 512:152 525:11 526:206 527:247 528:98 539:190 540:249 541:70 553:219 554:252 555:99 567:116 568:250 569:145 579:55 580:192 581:247 582:53 596:153 597:237 598:146 606:131 607:232 608:252 609:53 624:19 625:157 626:252 627:171 628:48 629:22 630:22 631:22 632:101 633:232 634:240 635:178 636:21 653:21 654:172 655:253 656:252 657:252 658:252 659:252 660:253 661:205 662:51 683:42 684:121 685:147 686:147 687:147 688:42 689:11 #
-1.0000000000000001e-009 124:128 125:255 126:255 127:255 128:191 129:128 130:64 151:128 152:255 153:255 154:255 155:255 156:255 157:255 158:255 159:128 176:64 177:191 178:128 179:255 180:255 181:255 182:191 183:128 184:128 185:255 186:255 187:255 188:191 204:191 205:255 206:255 207:255 208:255 209:255 210:255 214:64 215:191 216:255 217:191 231:255 232:255 233:255 234:128 235:64 244:191 245:255 246:128 257:64 258:255 259:255 260:255 261:128 273:191 274:255 275:64 285:128 286:255 287:255 288:128 302:255 303:191 313:128 314:255 315:191 330:64 331:255 332:64 341:191 342:255 343:64 359:191 360:191 369:255 370:255 387:128 388:255 397:191 398:255 415:128 416:255 425:128 426:255 443:128 444:255 453:128 454:255 470:64 471:255 472:255 481:128 482:255 483:128 498:191 499:255 500:128 510:191 511:255 512:64 525:191 526:255 527:255 539:255 540:255 541:191 551:128 552:191 553:255 554:255 555:128 567:64 568:255 569:255 570:255 571:191 572:128 573:128 575:128 576:128 577:191 578:255 579:255 580:255 581:255 582:128 596:128 597:255 598:255 599:255 600:255 601:255 602:255 603:255 604:255 605:255 606:255 607:255 608:191 609:64 626:128 627:191 628:255 629:255 630:255 631:255 632:255 633:255 634:255 635:128 657:64 658:128 659:128 660:128 661:64 #
-1.0000000000000001e-009 152:8 153:36 154:96 155:35 178:12 179:52 180:222 181:253 182:253 183:225 184:38 185:16 186:77 187:161 188:136 189:42 190:6 205:95 206:199 207:253 208:253 209:253 210:253 211:254 212:232 213:230 214:253 215:253 216:254 217:238 218:200 219:31 232:76 233:251 234:254 235:253 236:241 237:205 238:253 239:254 240:253 241:253 242:253 243:253 244:254 245:253 246:253 247:180 259:55 260:237 261:253 262:249 263:129 264:13 265:89 266:253 267:254 268:243 269:134 270:95 271:95 272:70 273:95 274:199 275:249 276:40 286:2 287:210 288:254 289:249 290:50 293:198 294:249 295:154 296:45 303:213 304:179 314:77 315:253 316:245 317:53 321:214 322:128 331:36 332:246 342:190 343:253 344:86 349:95 360:238 369:34 370:245 371:206 372:14 377:10 388:238 397:170 398:253 399:52 415:40 416:247 425:225 426:162 443:69 444:254 453:199 454:63 471:177 472:228 481:226 482:12 498:69 499:247 500:148 509:238 524:4 525:158 526:247 527:237 528:22 537:163 551:25 552:215 553:253 554:238 555:31 565:175 566:98 577:8 578:61 579:145 580:255 581:254 582:72 593:81 594:245 595:150 596:42 597:32 599:24 600:26 601:28 602:57 603:112 604:146 605:222 606:253 607:253 608:202 609:83 610:12 621:3 622:172 623:253 624:253 625:253 626:207 627:241 628:244 629:247 630:253 631:254 632:253 633:229 634:185 635:77 636:15 650:4 651:111 652:189 653:249 654:254 655:253 656:253 657:253 658:213 659:135 660:101 661:16 681:15 682:95 683:60 684:40 685:16 686:6 #
-1.0000000000000001e-009 179:10 180:17 181:17 182:17 183:11 203:4 204:38 205:123 206:188 207:226 208:253 209:253 210:254 211:228 212:154 213:43 214:5 230:12 231:132 232:253 233:253 234:253 235:253 236:232 237:221 238:243 239:253 240:253 241:253 242:154 243:16 258:105 259:253 260:253 261:245 262:193 263:110 264:18 265:2 266:185 267:253 268:253 269:253 270:253 271:169 272:19 285:73 286:243 287:253 288:229 289:85 293:69 294:254 295:253 296:253 297:231 298:228 299:253 300:212 301:29 312:26 313:244 314:253 315:216 316:33 321:82 322:254 323:253 324:168 325:18 326:16 327:154 328:253 329:186 330:9 340:212 341:253 342:239 343:32 349:109 350:254 351:190 352:7 355:5 356:176 357:253 358:112 368:254 369:253 370:128 377:82 378:254 379:105 384:46 385:246 386:248 387:31 396:254 397:237 398:2 405:29 406:227 407:152 413:149 414:253 415:90 424:255 425:182 434:59 435:193 436:103 441:66 442:254 443:145 452:254 453:154 463:29 464:66 469:71 470:253 471:203 480:219 481:215 497:147 498:253 499:253 508:72 509:249 510:72 524:37 525:222 526:253 527:179 536:5 537:204 538:240 539:81 551:38 552:221 553:253 554:253 555:50 565:21 566:203 567:248 568:173 569:116 570:50 571:50 572:4 573:32 576:37 577:113 578:170 579:233 580:253 581:224 582:129 583:2 594:14 595:107 596:223 597:253 598:253 599:253 600:223 601:242 602:222 603:221 604:245 605:253 606:253 607:223 608:150 609:48 624:12 625:24 626:96 627:127 628:187 629:187 630:188 631:182 632:132 633:106 634:66 635:12 #
1.0000000000000001e-009 158:9 159:13 160:198 161:255 162:254 163:23 186:170 187:252 188:252 189:252 190:252 191:22 213:23 214:181 215:252 216:252 217:252 218:252 219:22 239:26 240:49 241:176 242:252 243:252 244:252 245:252 246:252 247:22 267:133 268:252 269:252 270:252 271:252 272:252 273:252 274:252 275:22 294:36 295:167 296:252 297:252 298:252 299:252 300:252 301:252 302:189 303:16 321:37 322:165 323:252 324:252 325:252 326:252 327:252 328:252 329:183 330:23 348:38 349:164 350:252 351:252 352:252 353:252 354:252 355:252 356:177 357:29 375:37 376:164 377:252 378:252 379:252 380:252 381:252 382:252 383:173 384:34 401:30 402:122 403:165 404:252 405:252 406:252 407:252 408:252 409:252 410:170 411:37 429:61 430:252 431:252 432:252 433:252 434:252 435:252 436:252 437:169 438:39 456:29 457:171 458:252 459:252 460:252 461:252 462:252 463:252 464:168 465:41 482:16 483:157 484:176 485:252 486:252 487:252 488:252 489:252 490:252 491:169 492:41 510:25 511:252 512:252 513:252 514:252 515:252 516:252 517:252 518:170 519:39 538:25 539:252 540:252 541:252 542:252 543:252 544:252 545:173 546:37 566:25 567:252 568:252 569:252 570:252 571:252 572:177 573:34 594:25 595:252 596:252 597:252 598:252 599:183 600:29 621:11 622:221 623:252 624:252 625:252 626:252 627:167 649:2 650:45 651:252 652:252 653:252 654:186 655:15 678:25 679:252 680:252 681:194 682:7 #
1.0000000000000001e-009 131:141 132:255 133:253 134:196 158:151 159:240 160:253 161:252 162:195 184:176 185:197 186:234 187:252 188:253 189:252 190:195 211:170 212:243 213:252 214:252 215:252 216:253 217:195 218:65 239:253 240:252 241:252 242:252 243:252 244:253 245:167 265:13 266:113 267:255 268:253 269:253 270:253 271:253 272:204 273:94 291:29 292:85 293:104 294:252 295:253 296:252 297:252 298:252 299:204 300:94 319:85 320:252 321:252 322:252 323:253 324:252 325:252 326:214 327:87 346:13 347:104 348:252 349:252 350:252 351:253 352:252 353:252 354:84 374:113 375:252 376:252 377:252 378:252 379:253 380:252 381:252 382:84 401:141 402:255 403:253 404:253 405:253 406:253 407:255 408:253 409:56 428:151 429:240 430:253 431:252 432:252 433:252 434:252 435:253 436:51 437:6 456:169 457:252 458:253 459:252 460:252 461:252 462:252 463:56 464:6 484:169 485:252 486:253 487:252 488:252 489:252 490:252 511:111 512:215 513:252 514:253 515:252 516:252 517:236 518:112 539:198 540:253 541:253 542:255 543:253 544:228 545:126 566:76 567:215 568:252 569:252 570:253 571:252 572:195 594:225 595:252 596:252 597:252 598:253 599:233 600:152 622:200 623:246 624:252 625:252 626:253 627:167 651:197 652:252 653:252 654:253 655:167 #
1.0000000000000001e-009 159:68 160:253 161:253 162:156 186:91 187:215 188:252 189:252 190:225 213:35 214:227 215:252 216:252 217:252 218:235 219:40 240:91 241:227 242:252 243:252 244:252 245:252 246:252 247:106 267:68 268:215 269:252 270:252 271:252 272:252 273:252 274:231 275:22 293:3 294:125 295:253 296:252 297:252 298:252 299:252 300:252 301:243 302:108 321:106 322:252 323:253 324:252 325:252 326:252 327:252 328:252 329:121 348:32 349:213 350:252 351:253 352:252 353:252 354:252 355:245 356:127 357:29 375:24 376:213 377:252 378:252 379:253 380:252 381:252 382:252 383:178 403:111 404:252 405:252 406:252 407:253 408:252 409:252 410:139 411:25 430:118 431:253 432:253 433:253 434:253 435:255 436:253 437:209 438:21 457:121 458:249 459:252 460:252 461:252 462:252 463:253 464:150 465:8 484:73 485:247 486:252 487:252 488:252 489:252 490:252 491:209 492:21 512:193 513:252 514:252 515:252 516:252 517:252 518:252 519:21 539:180 540:244 541:252 542:252 543:252 544:252 545:213 546:115 567:226 568:252 569:252 570:252 571:252 572:246 573:84 594:95 595:244 596:252 597:252 598:252 599:245 600:120 622:240 623:252 624:252 625:252 626:246 627:120 650:162 651:252 652:252 653:248 654:118 678:51 679:238 680:252 681:115 #
1.0000000000000001e-009 157:41 158:239 159:253 160:132 161:54 183:28 184:117 185:210 186:251 187:251 188:251 189:231 211:59 212:251 213:251 214:251 215:251 216:251 217:245 218:121 238:150 239:239 240:251 241:251 242:251 243:251 244:251 245:232 246:13 266:76 267:253 268:251 269:251 270:251 271:251 272:251 273:156 292:49 293:155 294:229 295:253 296:251 297:251 298:251 299:190 300:96 301:15 319:2 320:31 321:162 322:251 323:253 324:251 325:251 326:248 327:141 347:20 348:251 349:251 350:251 351:253 352:251 353:251 354:212 374:85 375:145 376:251 377:251 378:251 379:253 380:251 381:156 382:98 402:155 403:251 404:251 405:251 406:251 407:253 408:251 409:211 410:14 428:10 429:133 430:253 431:253 432:253 433:253 434:253 435:255 436:253 437:77 456:39 457:251 458:251 459:251 460:251 461:251 462:251 463:253 464:196 465:41 484:174 485:251 486:251 487:251 488:251 489:251 490:251 491:253 492:134 511:162 512:249 513:251 514:251 515:251 516:251 517:251 518:251 519:207 520:31 538:46 539:204 540:251 541:251 542:251 543:251 544:251 545:251 546:251 547:230 548:83 566:45 567:96 568:240 569:251 570:251 571:251 572:251 573:251 574:130 575:74 594:100 595:214 596:248 597:251 598:251 599:219 600:37 601:37 602:9 622:117 623:251 624:251 625:251 626:202 627:26 650:117 651:251 652:251 653:251 654:96 678:117 679:251 680:220 681:57 682:22 #
1.0000000000000001e-009 129:21 130:152 131:233 132:254 133:91 157:61 158:253 159:252 160:253 161:131 184:31 185:233 186:254 187:253 188:255 189:71 212:92 213:252 214:253 215:252 216:253 217:111 239:21 240:132 241:253 242:254 243:253 244:244 245:122 267:102 268:253 269:252 270:253 271:252 272:223 273:20 294:51 295:253 296:254 297:253 298:254 299:253 300:62 322:213 323:252 324:253 325:252 326:253 327:212 328:20 348:31 349:152 350:254 351:253 352:254 353:253 354:224 355:61 376:173 377:252 378:253 379:252 380:253 381:252 382:203 403:123 404:254 405:253 406:254 407:253 408:254 409:253 430:62 431:223 432:253 433:252 434:253 435:252 436:233 437:151 456:31 457:132 458:254 459:253 460:254 461:253 462:254 463:253 464:183 483:82 484:233 485:252 486:253 487:252 488:253 489:252 490:253 491:171 492:20 510:51 511:193 512:254 513:253 514:254 515:253 516:254 517:253 518:203 519:61 538:193 539:252 540:253 541:252 542:253 543:252 544:253 545:252 546:102 566:255 567:253 568:255 569:253 570:254 571:253 572:254 573:213 594:253 595:252 596:253 597:252 598:253 599:252 600:192 601:30 622:193 623:253 624:255 625:253 626:244 627:122 628:41 650:30 651:172 652:253 653:212 654:81 #
-1.0000000000000001e-009 127:27 128:120 129:255 130:254 131:45 155:184 156:253 157:253 158:253 159:217 160:31 182:55 183:252 184:253 185:253 186:253 187:253 188:83 209:18 210:192 211:253 212:253 213:253 214:253 215:253 216:83 236:5 237:238 238:253 239:253 240:253 241:253 242:253 243:253 244:170 245:19 264:2 265:114 266:253 267:253 268:253 269:253 270:253 271:253 272:134 273:11 292:3 293:189 294:253 295:253 296:211 297:247 298:253 299:244 300:44 320:74 321:253 322:253 323:243 324:134 325:253 326:253 327:207 347:27 348:214 349:253 350:253 351:125 352:175 353:253 354:253 355:85 374:4 375:144 376:253 377:253 378:253 379:155 380:230 381:253 382:253 383:25 402:99 403:253 404:253 405:253 406:213 407:253 408:253 409:253 410:191 411:6 429:59 430:239 431:253 432:250 433:87 434:19 435:250 436:253 437:248 438:105 457:176 458:253 459:253 460:212 462:135 463:253 464:253 465:186 484:38 485:249 486:253 487:246 488:85 490:202 491:253 492:243 493:62 512:204 513:253 514:253 515:191 516:2 517:100 518:239 519:253 520:133 539:50 540:243 541:253 542:253 543:136 544:212 545:253 546:253 547:165 548:7 566:25 567:232 568:253 569:253 570:253 571:253 572:253 573:253 574:199 575:37 594:84 595:253 596:253 597:253 598:253 599:253 600:251 601:119 602:8 622:140 623:253 624:253 625:253 626:226 627:171 628:91 650:56 651:253 652:253 653:224 654:80 #
-1.0000000000000001e-009 129:47 130:109 131:212 132:253 133:192 134:15 156:42 157:233 158:252 159:252 160:252 161:253 162:159 183:47 184:221 185:253 186:252 187:252 188:252 189:237 190:71 209:1 210:125 211:221 212:252 213:253 214:252 215:252 216:252 217:62 236:63 237:171 238:252 239:252 240:252 241:253 242:252 243:252 244:252 264:144 265:253 266:252 267:252 268:252 269:253 270:252 271:252 272:252 291:6 292:160 293:253 294:252 295:252 296:252 297:253 298:252 299:252 300:252 319:120 320:252 321:253 322:252 323:252 324:252 325:253 326:252 327:252 328:168 346:73 347:253 348:253 349:255 350:253 351:253 352:253 353:255 354:253 355:253 356:108 374:197 375:252 376:252 377:253 378:252 379:252 380:252 381:253 382:252 383:241 384:77 400:1 401:99 402:242 403:252 404:252 405:232 406:252 407:252 408:252 409:253 410:252 411:112 428:1 429:252 430:252 431:252 432:168 433:47 434:232 435:252 436:252 437:253 438:252 439:71 456:145 457:253 458:253 459:237 460:62 462:218 463:253 464:253 465:255 466:253 467:72 483:73 484:237 485:252 486:231 487:71 490:217 491:252 492:252 493:253 494:252 495:71 511:181 512:252 513:252 514:179 517:99 518:242 519:252 520:252 521:237 522:174 523:20 539:181 540:252 541:252 542:179 543:21 544:144 545:253 546:252 547:252 548:252 549:62 567:182 568:253 569:253 570:211 571:212 572:253 573:255 574:253 575:217 595:139 596:252 597:252 598:252 599:252 600:252 601:253 602:189 603:71 623:32 624:215 625:252 626:252 627:252 628:252 629:217 630:30 652:1 653:108 654:232 655:231 656:108 #
-1.0000000000000001e-009 129:3 130:82 131:254 132:254 133:255 134:255 135:32 156:56 157:83 158:252 159:252 160:252 161:252 162:252 163:32 182:57 183:100 184:227 185:252 186:252 187:252 188:252 189:252 190:252 191:32 210:144 211:252 212:252 213:252 214:252 215:252 216:252 217:252 218:252 219:32 237:73 238:215 239:252 240:252 241:252 242:252 243:252 244:252 245:252 246:252 247:32 264:62 265:222 266:252 267:252 268:252 269:252 270:252 271:252 272:252 273:252 274:252 275:32 290:1 291:12 292:86 293:252 294:252 295:252 296:252 297:252 298:252 299:252 300:252 301:252 302:80 303:3 318:50 319:252 320:252 321:252 322:252 323:252 324:252 325:252 326:252 327:252 328:252 329:225 330:54 346:232 347:252 348:252 349:252 350:252 351:198 352:239 353:252 354:252 355:252 356:252 357:98 373:88 374:241 375:252 376:252 377:252 378:252 379:76 380:210 381:252 382:252 383:252 384:199 385:55 400:95 401:229 402:252 403:252 404:252 405:252 406:170 407:133 408:234 409:252 410:252 411:252 412:130 427:94 428:226 429:252 430:252 431:252 432:252 433:174 434:33 435:177 436:252 437:252 438:252 439:190 440:40 455:133 456:252 457:252 458:252 459:252 460:188 461:117 462:210 463:240 464:252 465:252 466:252 467:164 481:6 482:110 483:248 484:252 485:252 486:252 487:252 488:250 489:247 490:252 491:252 492:252 493:250 494:181 495:6 508:8 509:108 510:252 511:252 512:252 513:252 514:252 515:252 516:252 517:252 518:252 519:252 520:252 521:230 536:34 537:252 538:252 539:252 540:252 541:252 542:252 543:252 544:252 545:252 546:252 547:252 548:252 549:152 564:34 565:252 566:252 567:252 568:252 569:252 570:252 571:252 572:252 573:252 574:252 575:167 576:130 577:5 592:34 593:252 594:252 595:252 596:252 597:252 598:252 599:252 600:252 601:252 602:164 603:30 620:34 621:252 622:252 623:252 624:252 625:252 626:252 627:252 628:194 629:65 630:28 648:5 649:90 650:252 651:252 652:252 653:252 654:252 655:213 656:22 #
-1.0000000000000001e-009 43:90 44:246 45:117 72:45 73:2 208:1 209:90 210:216 211:244 212:191 213:64 214:3 235:14 236:118 237:254 238:254 239:254 240:254 241:254 242:175 243:9 263:142 264:254 265:254 266:254 267:254 268:254 269:254 270:254 271:89 290:5 291:221 292:254 293:255 294:254 295:255 296:254 297:254 298:255 299:117 318:134 319:254 320:254 321:254 322:254 323:254 324:254 325:254 326:254 327:207 345:41 346:248 347:254 348:254 349:255 350:181 351:239 352:254 353:254 354:254 355:207 372:82 373:241 374:254 375:254 376:236 377:114 378:6 379:106 380:254 381:254 382:254 383:207 400:150 401:254 402:254 403:253 404:147 407:101 408:254 409:254 410:254 411:207 428:208 429:254 430:254 431:161 434:60 435:238 436:254 437:254 438:255 439:207 456:208 457:254 458:254 459:134 460:31 461:76 462:234 463:254 464:254 465:254 466:254 467:185 484:208 485:254 486:254 487:248 488:229 489:254 490:254 491:254 492:254 493:254 494:147 495:25 512:208 513:254 514:254 515:254 516:254 517:254 518:254 519:254 520:254 521:167 522:22 540:106 541:254 542:254 543:254 544:254 545:254 546:254 547:254 548:110 549:1 568:48 569:135 570:249 571:254 572:254 573:254 574:163 575:92 576:2 #
-1.0000000000000001e-009 132:13 133:202 134:249 135:58 158:19 159:202 160:250 161:255 162:248 163:57 186:108 187:254 188:254 189:254 190:184 191:6 213:164 214:239 215:254 216:254 217:168 218:8 239:23 240:193 241:247 242:254 243:254 244:254 245:117 267:174 268:254 269:254 270:254 271:254 272:241 273:51 294:167 295:245 296:254 297:254 298:254 299:254 300:241 301:51 321:168 322:244 323:254 324:227 325:69 326:144 327:254 328:165 329:19 347:25 348:180 349:244 350:254 351:238 352:88 353:53 354:211 355:254 356:124 374:48 375:206 376:254 377:254 378:204 379:45 380:28 381:187 382:254 383:229 384:23 401:23 402:174 403:245 404:254 405:200 406:48 408:40 409:235 410:254 411:124 429:193 430:254 431:254 432:130 433:51 435:43 436:198 437:254 438:158 439:26 455:58 456:174 457:247 458:254 459:195 460:54 463:150 464:254 465:255 466:125 483:75 484:248 485:254 486:207 487:62 490:132 491:233 492:254 493:136 494:28 510:61 511:202 512:254 513:254 514:112 515:14 516:51 517:164 518:234 519:254 520:153 521:28 538:140 539:250 540:254 541:127 542:13 543:67 544:187 545:254 546:255 547:150 548:78 566:186 567:254 568:254 569:147 570:151 571:239 572:254 573:254 574:216 575:80 594:186 595:254 596:254 597:254 598:254 599:254 600:254 601:214 602:82 622:186 623:254 624:254 625:254 626:254 627:249 628:140 629:84 650:186 651:254 652:254 653:254 654:139 655:19 #
1.0000000000000001e-009 72:102 73:239 74:57 92:18 93:16 98:6 99:114 100:244 101:254 102:137 120:154 121:214 122:92 123:92 124:92 125:159 126:200 127:254 128:254 129:254 130:124 148:227 149:254 150:254 151:254 152:254 153:254 154:244 155:149 156:80 157:254 158:148 176:45 177:179 178:239 179:231 180:230 181:163 182:73 184:41 185:246 186:148 206:25 207:3 212:27 213:242 214:148 240:62 241:251 242:148 269:229 270:69 297:207 298:150 325:236 326:190 353:236 354:143 381:236 382:53 409:236 410:53 437:236 438:53 465:236 466:53 493:236 494:53 510:1 511:40 512:102 513:56 514:5 515:4 516:5 517:4 519:4 520:35 521:243 522:54 538:117 539:254 540:254 541:254 542:254 543:220 544:254 545:225 546:164 547:238 548:254 549:254 550:217 551:136 552:119 553:164 554:164 555:70 566:222 567:254 568:254 569:254 570:254 571:254 572:254 573:254 574:254 575:254 576:254 577:254 578:254 579:254 580:255 581:254 582:254 583:221 594:138 595:193 596:159 597:158 598:158 599:194 600:194 601:158 602:86 603:158 604:158 605:158 606:158 607:95 608:99 609:101 610:158 611:101 #
1.0000000000000001e-009 100:120 101:188 102:11 127:123 128:245 129:254 130:35 154:177 155:253 156:254 157:254 158:35 180:103 181:201 182:255 183:94 184:159 185:254 186:35 205:22 206:54 207:137 208:244 209:254 210:126 211:2 212:149 213:254 214:35 231:8 232:187 233:231 234:254 235:254 236:225 237:71 240:149 241:228 242:18 259:11 260:204 261:236 262:188 263:73 264:15 268:149 269:237 270:24 289:21 296:149 297:201 324:149 325:201 352:149 353:140 380:149 381:114 408:149 409:114 436:149 437:114 464:167 465:114 492:237 493:114 520:225 521:114 540:23 541:14 548:149 549:183 565:36 566:157 567:193 568:245 569:224 570:193 571:193 572:132 573:132 574:76 575:106 576:223 577:241 578:118 579:24 593:158 594:254 595:254 596:254 597:254 598:250 599:252 600:254 601:254 602:254 603:254 604:254 605:254 606:254 607:220 608:184 609:172 610:3 621:74 622:85 623:79 624:79 625:79 626:44 627:60 628:82 629:106 630:79 631:79 632:79 633:79 634:109 635:121 636:236 637:254 638:70 #
1.0000000000000001e-009 68:15 69:245 70:59 96:126 97:254 98:219 99:11 124:150 125:254 126:254 127:102 151:114 152:252 153:254 154:254 155:162 177:26 178:131 179:249 180:254 181:254 182:254 183:119 202:8 203:179 204:226 205:234 206:254 207:254 208:254 209:254 210:254 211:195 230:18 231:254 232:254 233:254 234:254 235:254 236:254 237:254 238:254 239:195 258:18 259:254 260:254 261:254 262:254 263:254 264:243 265:254 266:254 267:195 286:15 287:238 288:254 289:254 290:220 291:163 292:51 293:184 294:254 295:233 296:37 315:119 316:139 317:107 318:14 321:60 322:254 323:255 324:87 349:17 350:226 351:254 352:177 378:46 379:226 380:242 381:169 382:9 407:126 408:254 409:254 410:76 435:2 436:192 437:254 438:252 439:72 456:21 457:119 458:108 459:30 460:30 461:28 464:92 465:254 466:254 467:250 468:62 483:7 484:188 485:254 486:254 487:254 488:254 489:246 490:166 491:166 492:234 493:254 494:254 495:254 496:203 497:166 498:81 499:33 511:27 512:233 513:254 514:254 515:254 516:254 517:254 518:254 519:254 520:254 521:254 522:254 523:254 524:254 525:254 526:254 527:232 528:112 540:172 541:254 542:254 543:254 544:254 545:254 546:254 547:254 548:254 549:254 550:254 551:254 552:254 553:254 554:254 555:254 556:153 568:24 569:152 570:172 571:243 572:254 573:254 574:254 575:254 576:254 577:254 578:254 579:254 580:254 581:254 582:254 583:221 584:93 597:5 598:4 599:15 600:20 601:135 602:135 603:135 604:172 605:154 606:135 607:135 608:205 609:254 610:168 611:36 #
1.0000000000000001e-009 131:85 132:181 133:58 157:77 158:199 159:252 160:254 161:245 175:151 176:155 183:21 184:132 185:250 186:254 187:254 188:254 189:190 202:44 203:240 204:109 209:79 210:132 211:239 212:254 213:254 214:254 215:254 216:249 217:69 230:106 231:254 232:185 233:99 234:99 235:99 236:200 237:248 238:254 239:254 240:188 241:72 242:167 243:254 244:241 258:68 259:245 260:254 261:254 262:254 263:254 264:254 265:254 266:236 267:139 268:11 269:12 270:192 271:254 272:194 287:35 288:153 289:198 290:228 291:169 292:135 293:39 294:31 297:33 298:254 299:238 300:17 317:15 318:31 325:141 326:254 327:127 352:69 353:236 354:247 355:75 380:170 381:254 382:194 407:11 408:190 409:247 410:75 435:140 436:254 437:222 462:10 463:191 464:254 465:130 490:53 491:254 492:248 493:77 518:137 519:254 520:215 545:51 546:227 547:254 548:151 549:27 550:27 551:27 552:25 564:10 565:20 566:20 567:71 568:151 569:151 570:151 571:151 572:151 573:228 574:254 575:254 576:254 577:254 578:255 579:254 580:241 592:192 593:254 594:254 595:254 596:254 597:254 598:254 599:254 600:254 601:254 602:254 603:254 604:252 605:241 606:241 607:163 608:105 620:243 621:248 622:248 623:248 624:248 625:248 626:248 627:248 628:250 629:254 630:226 631:117 632:99 656:32 657:221 658:134 #
1.0000000000000001e-009 127:84 128:195 129:78 155:146 156:254 157:178 182:31 183:237 184:254 185:139 210:160 211:254 212:254 213:85 237:71 238:248 239:254 240:254 241:85 264:3 265:193 266:254 267:254 268:254 269:92 292:127 293:254 294:254 295:222 296:254 297:178 319:76 320:239 321:254 322:134 323:133 324:254 325:157 346:52 347:249 348:254 349:197 350:14 351:132 352:254 353:85 373:50 374:234 375:254 376:208 377:41 379:132 380:254 381:85 400:30 401:237 402:254 403:215 404:28 407:132 408:254 409:85 428:6 429:139 430:122 431:15 435:132 436:254 437:85 463:132 464:254 465:85 491:132 492:254 493:85 519:132 520:248 521:38 547:139 548:167 549:6 550:51 575:226 576:223 577:201 578:206 599:55 600:57 601:92 602:211 603:253 604:254 605:188 606:49 625:10 626:189 627:252 628:254 629:254 630:255 631:254 632:120 633:13 653:5 654:66 655:191 656:159 657:159 658:219 659:155 660:15 #
-1.0000000000000001e-009 123:26 124:187 125:254 126:254 127:186 128:26 150:13 151:214 152:254 153:219 154:236 155:253 156:155 157:5 177:5 178:145 179:253 180:205 181:21 182:38 183:221 184:254 185:31 205:80 206:253 207:185 211:184 212:254 213:115 232:19 233:237 234:239 235:25 239:93 240:254 241:115 260:70 261:253 262:179 267:93 268:254 269:115 288:78 289:253 290:137 295:101 296:254 297:211 298:30 316:161 317:253 318:104 323:184 324:254 325:253 326:137 344:187 345:254 346:46 351:185 352:254 353:254 354:203 355:19 372:254 373:210 374:4 378:13 379:222 380:254 381:253 382:253 383:119 400:254 401:206 406:74 407:253 408:254 409:253 410:253 411:160 428:254 429:206 434:207 435:253 436:161 437:211 438:253 439:160 456:255 457:207 462:208 463:228 465:81 466:254 467:161 484:169 485:249 486:42 490:95 491:40 493:130 494:253 495:160 512:161 513:253 514:122 521:147 522:253 523:85 540:95 541:253 542:205 549:230 550:236 551:19 568:26 569:214 570:245 571:69 576:128 577:254 578:171 597:89 598:253 599:245 600:114 601:5 603:34 604:212 605:244 606:79 625:9 626:129 627:246 628:254 629:211 630:207 631:240 632:239 633:87 655:50 656:161 657:245 658:253 659:185 660:59 #
-1.0000000000000001e-009 153:36 154:219 155:255 156:238 157:33 181:155 182:254 183:243 184:254 185:135 208:65 209:245 210:254 211:130 212:247 213:219 236:178 237:254 238:254 239:139 240:235 241:244 263:10 264:214 265:231 266:231 267:213 268:244 269:244 291:89 292:254 293:136 294:137 295:254 296:254 297:244 319:171 320:254 321:110 322:91 323:254 324:254 325:187 347:211 348:254 349:103 350:8 351:217 352:217 353:25 374:18 375:225 376:227 377:10 379:142 380:241 381:37 402:72 403:254 404:154 407:77 408:254 409:52 430:149 431:254 432:77 435:77 436:254 437:94 458:214 459:254 460:77 463:77 464:254 465:148 486:245 487:250 488:64 491:77 492:254 493:148 514:245 515:234 519:77 520:254 521:109 541:25 542:247 543:171 547:140 548:254 549:52 569:87 570:254 571:138 574:65 575:246 576:214 577:5 597:85 598:253 599:213 601:58 602:204 603:254 604:134 626:245 627:247 628:128 629:214 630:254 631:204 632:7 654:183 655:254 656:254 657:254 658:197 659:51 682:13 683:149 684:254 685:144 686:35 #
-1.0000000000000001e-009 95:56 96:158 97:254 98:254 123:134 124:253 125:253 126:253 150:2 151:134 152:238 153:161 154:253 155:9 178:30 179:182 180:120 181:222 182:253 183:149 205:67 206:228 207:253 208:182 209:90 210:178 211:106 212:133 233:84 234:227 235:88 236:4 240:174 241:169 261:149 262:164 263:56 268:60 269:246 270:72 289:149 290:8 296:39 297:222 298:247 299:168 317:149 325:47 326:229 327:191 328:14 345:149 354:120 355:253 356:74 383:164 384:136 411:58 412:206 439:5 440:154 467:146 468:223 494:36 495:233 496:223 520:8 521:128 522:200 523:232 524:117 541:80 547:135 548:163 549:253 550:133 551:36 552:35 568:43 569:231 570:133 571:90 572:90 573:90 574:178 575:164 576:238 577:248 578:87 596:99 597:248 598:253 599:253 600:253 601:253 602:253 603:196 604:232 605:196 625:180 626:210 627:253 628:253 629:253 630:253 631:255 632:105 #
-1.0000000000000001e-009 156:9 157:168 158:184 180:41 181:148 182:177 183:116 184:164 185:253 186:231 207:5 208:193 209:253 210:253 211:254 212:253 213:253 214:231 235:12 236:253 237:253 238:234 239:135 240:247 241:253 242:231 263:84 264:253 265:253 266:33 268:105 269:253 270:231 291:74 292:253 293:192 294:7 296:67 297:253 298:231 319:122 320:253 321:176 324:72 325:253 326:231 347:103 348:253 349:176 352:158 353:253 354:212 375:12 376:253 377:176 380:148 381:253 382:121 403:12 404:253 405:176 408:177 409:253 410:121 431:123 432:254 433:177 435:5 436:188 437:254 438:107 459:170 460:253 461:176 463:34 464:253 465:253 466:10 487:122 488:253 489:176 491:34 492:253 493:253 494:10 515:180 516:253 517:176 519:149 520:253 521:201 522:5 543:232 544:253 545:128 546:25 547:255 548:253 549:129 571:232 572:253 573:176 574:149 575:254 576:230 577:29 599:232 600:253 601:247 602:251 603:253 604:83 627:232 628:253 629:253 630:253 631:134 655:150 656:253 657:253 658:137 683:21 684:191 685:110 686:5 #
-1.0000000000000001e-009 126:67 127:254 128:140 154:199 155:254 156:249 157:105 158:3 181:78 182:254 183:254 184:254 185:254 186:92 208:19 209:232 210:254 211:162 212:254 213:254 214:113 236:46 237:254 238:124 239:40 240:254 241:254 242:60 263:5 264:202 265:254 267:38 268:254 269:254 270:18 291:57 292:254 293:254 295:12 296:214 297:254 298:85 319:57 320:254 321:141 324:198 325:254 326:57 347:137 348:250 349:58 352:198 353:254 354:18 375:186 376:225 380:198 381:254 382:18 402:54 403:251 404:226 408:199 409:179 430:85 431:254 432:128 436:198 437:143 458:124 459:251 460:36 463:16 464:221 465:139 486:179 487:197 491:129 492:251 493:60 513:18 514:248 515:197 518:37 519:241 520:191 541:62 542:254 543:197 546:150 547:254 548:73 569:114 570:254 571:130 573:99 574:255 575:241 576:38 597:114 598:254 599:171 600:113 601:251 602:240 603:63 625:103 626:254 627:254 628:254 629:243 630:63 653:5 654:131 655:194 656:149 657:41 #
1.0000000000000001e-009 130:49 131:162 132:222 133:99 157:48 158:236 159:254 160:254 161:160 184:48 185:234 186:254 187:254 188:254 189:75 211:52 212:228 213:254 214:254 215:254 216:177 217:18 237:10 238:62 239:226 240:254 241:254 242:254 243:254 244:55 258:46 259:37 264:62 265:180 266:254 267:245 268:166 269:254 270:254 271:205 272:22 286:147 287:61 291:128 292:242 293:254 294:229 295:43 296:7 297:254 298:254 299:101 313:95 314:254 315:61 316:16 317:119 318:249 319:254 320:254 321:224 322:42 324:7 325:254 326:209 327:19 341:98 342:254 343:234 344:232 345:254 346:254 347:215 348:116 349:20 351:10 352:169 353:254 354:151 369:18 370:163 371:185 372:185 373:185 374:115 375:27 379:140 380:254 381:221 382:35 406:10 407:183 408:253 409:106 433:8 434:146 435:255 436:248 461:70 462:254 463:254 464:168 489:137 490:254 491:241 492:56 517:207 518:254 519:96 544:124 545:248 546:239 547:60 572:228 573:254 574:206 576:34 577:31 578:119 579:200 580:92 581:19 595:137 596:180 597:180 598:109 599:102 600:247 601:254 602:240 603:180 604:220 605:216 606:254 607:218 608:105 609:22 623:182 624:254 625:254 626:254 627:254 628:254 629:254 630:254 631:252 632:234 633:166 634:96 635:13 651:26 652:135 653:254 654:254 655:254 656:254 657:217 658:117 659:104 #
1.0000000000000001e-009 130:103 131:227 132:254 133:80 157:40 158:231 159:253 160:253 161:80 184:40 185:224 186:253 187:253 188:205 189:8 211:39 212:224 213:253 214:253 215:253 216:157 238:36 239:227 240:253 241:253 242:253 243:164 244:14 265:39 266:222 267:255 268:253 269:253 270:165 271:14 292:5 293:164 294:253 295:255 296:253 297:167 298:13 319:5 320:122 321:253 322:253 323:254 324:185 325:10 347:41 348:253 349:253 350:253 351:254 352:69 375:112 376:253 377:253 378:253 379:191 380:6 402:118 403:255 404:254 405:254 406:254 430:187 431:253 432:253 433:253 434:126 457:61 458:247 459:253 460:253 461:121 462:13 485:180 486:253 487:253 488:245 489:73 512:22 513:215 514:253 515:253 516:226 540:109 541:253 542:253 543:253 544:246 545:107 568:193 569:253 570:253 571:253 572:253 573:249 574:174 596:30 597:206 598:253 599:253 600:253 601:174 602:93 625:68 626:253 627:253 628:253 629:248 630:70 653:32 654:218 655:253 656:253 657:246 658:57 #
1.0000000000000001e-009 186:7 187:170 188:170 189:7 214:91 215:253 216:254 217:23 240:7 241:91 242:245 243:253 244:146 245:4 268:136 269:253 270:253 271:253 294:7 295:170 296:255 297:254 298:254 299:136 321:9 322:132 323:253 324:178 325:245 326:232 327:6 348:15 349:166 350:253 351:202 352:86 353:253 354:221 376:195 377:253 378:202 379:19 380:104 381:253 382:71 402:41 403:229 404:254 405:165 406:17 407:26 408:254 409:207 429:60 430:224 431:253 432:124 433:11 435:93 436:254 437:73 456:141 457:249 458:251 459:128 462:62 463:224 464:197 465:4 482:9 483:159 484:254 485:236 486:79 490:149 491:253 492:118 510:17 511:235 512:210 513:50 517:47 518:254 519:228 539:84 540:9 545:130 546:253 547:143 573:180 574:242 575:38 600:51 601:247 602:162 628:128 629:254 630:46 656:144 657:210 658:4 684:70 685:206 712:70 713:173 #
1.0000000000000001e-009 130:63 131:176 132:90 157:10 158:178 159:253 160:243 161:50 185:60 186:252 187:253 188:252 189:133 207:7 208:26 212:7 213:178 214:252 215:253 216:195 217:19 234:48 235:165 236:239 237:63 240:135 241:252 242:252 243:253 244:167 261:114 262:159 263:253 264:225 266:51 267:159 268:253 269:253 270:253 271:255 272:106 289:253 290:252 291:252 292:233 293:163 294:238 295:252 296:252 297:252 298:252 299:106 300:3 317:253 318:252 319:252 320:252 321:252 322:253 323:252 324:252 325:252 326:252 345:146 346:233 347:252 348:233 349:223 350:162 351:84 352:215 353:252 354:252 374:38 375:112 376:37 379:48 380:227 381:252 382:173 407:85 408:253 409:253 410:112 435:85 436:252 437:226 438:12 463:194 464:252 465:114 491:225 492:252 493:84 519:225 520:220 521:37 546:51 547:238 548:196 565:29 566:85 567:85 568:85 569:85 570:85 571:85 572:85 573:85 574:159 575:252 576:246 577:225 578:225 579:226 580:72 593:85 594:252 595:252 596:252 597:253 598:252 599:252 600:252 601:252 602:253 603:252 604:252 605:252 606:252 607:196 608:130 621:76 622:223 623:242 624:252 625:253 626:252 627:252 628:252 629:252 630:253 631:242 632:223 633:129 634:84 651:75 652:112 653:112 654:112 655:142 656:236 657:112 658:112 659:74 #
1.0000000000000001e-009 129:24 130:150 131:233 132:38 155:14 156:89 157:253 158:254 159:254 160:71 182:78 183:203 184:254 185:254 186:254 187:232 188:77 189:54 190:8 208:12 209:155 210:240 211:254 212:223 213:76 214:254 215:254 216:254 217:254 218:68 234:3 235:101 236:216 237:254 238:227 239:122 240:26 241:110 242:254 243:254 244:254 245:184 246:100 261:46 262:222 263:254 264:254 265:179 266:48 269:181 270:254 271:254 272:146 273:6 287:2 288:145 289:248 290:254 291:182 292:111 293:4 296:3 297:250 298:254 299:206 300:3 314:6 315:144 316:254 317:254 318:171 324:125 325:254 326:252 327:80 341:6 342:142 343:254 344:179 345:95 346:4 351:61 352:246 353:254 354:150 369:64 370:254 371:177 372:14 379:124 380:254 381:246 382:32 397:108 398:97 399:15 406:24 407:226 408:254 409:116 434:177 435:255 436:254 437:5 462:196 463:254 464:99 465:1 489:3 490:199 491:254 492:79 517:129 518:254 519:254 520:23 545:178 546:254 547:192 548:8 549:3 550:43 572:11 573:198 574:254 575:128 576:66 577:130 578:225 594:137 595:202 596:106 597:84 598:84 599:84 600:112 601:254 602:254 603:254 604:254 605:212 606:151 622:172 623:254 624:254 625:254 626:254 627:254 628:254 629:254 630:254 631:254 632:162 633:75 650:12 651:106 652:177 653:254 654:254 655:254 656:235 657:135 658:100 659:17 660:2 #
-1.0000000000000001e-009 158:29 159:114 160:170 161:226 162:170 163:29 185:29 186:255 187:255 188:255 189:198 190:255 191:114 212:29 213:255 214:255 215:226 216:86 217:29 218:226 219:141 237:57 238:86 239:141 240:226 241:226 242:114 246:170 247:198 263:57 264:141 265:226 266:255 267:255 268:255 269:170 274:141 275:226 290:141 291:226 292:255 293:141 294:141 295:255 296:226 297:114 302:226 303:170 316:57 317:198 318:255 319:141 320:57 322:170 323:255 324:86 330:226 331:114 343:57 344:226 345:255 346:86 350:255 351:141 357:114 358:255 359:86 371:226 372:255 373:29 377:86 378:255 379:86 385:170 386:198 398:226 399:226 400:29 405:170 406:198 412:170 413:255 414:57 425:114 426:255 427:86 433:114 434:141 439:29 440:255 441:226 452:29 453:226 454:198 461:141 462:170 467:170 468:255 469:86 480:114 481:255 482:86 489:114 490:170 494:170 495:255 496:114 508:226 509:170 517:86 518:198 520:29 521:198 522:255 523:198 536:255 537:170 546:114 547:29 548:198 549:255 550:170 564:255 565:170 574:57 575:226 576:226 577:114 592:198 593:198 600:29 601:170 602:255 603:170 604:29 620:114 621:255 622:170 623:57 626:29 627:114 628:226 629:255 630:170 631:29 649:170 650:255 651:226 652:226 653:255 654:255 655:255 656:198 657:86 678:57 679:170 680:170 681:170 682:141 683:57 #
-1.0000000000000001e-009 122:4 123:111 124:132 125:190 126:132 127:133 128:64 129:11 150:85 151:252 152:252 153:252 154:252 155:253 156:252 157:237 158:145 159:53 178:193 179:252 180:238 181:164 182:96 183:96 184:164 185:221 186:252 187:229 188:113 205:64 206:233 207:252 208:75 213:12 214:164 215:238 216:228 217:55 233:181 234:252 235:203 236:27 242:12 243:198 244:252 245:228 246:26 260:38 261:235 262:197 263:12 269:28 270:204 271:252 272:252 273:252 274:36 287:13 288:174 289:252 290:180 296:9 297:166 298:252 299:162 300:82 301:236 302:76 315:37 316:252 317:252 318:133 324:128 325:252 326:234 327:45 329:205 330:155 343:37 344:252 345:252 346:60 351:11 352:242 353:236 354:117 357:205 358:243 359:21 371:37 372:252 373:194 374:3 379:243 380:252 381:158 385:205 386:252 387:23 399:157 400:253 401:72 405:58 406:248 407:255 408:165 412:39 413:231 414:156 427:157 428:252 429:72 433:121 434:252 435:252 436:98 440:73 441:252 442:144 454:4 455:170 456:252 457:72 460:78 461:243 462:252 463:224 468:90 469:252 470:36 482:25 483:252 484:252 485:72 488:217 489:252 490:252 491:40 495:64 496:233 497:252 498:36 510:25 511:252 512:252 513:72 515:61 516:242 517:252 518:223 522:12 523:198 524:252 525:162 526:10 538:25 539:252 540:252 541:72 543:177 544:252 545:221 546:37 549:11 550:164 551:252 552:197 553:12 566:17 567:220 568:252 569:112 571:79 572:167 573:38 576:49 577:166 578:252 579:191 580:62 595:111 596:252 597:244 598:98 603:160 604:237 605:252 606:187 607:45 623:21 624:216 625:252 626:245 627:229 628:126 629:218 630:229 631:253 632:242 633:127 634:8 652:8 653:98 654:224 655:252 656:252 657:252 658:252 659:132 660:62 #
-1.0000000000000001e-009 129:29 130:103 131:198 132:101 156:49 157:235 158:254 159:254 160:209 183:105 184:234 185:254 186:247 187:144 188:56 210:95 211:252 212:254 213:215 214:75 238:181 239:254 240:254 241:254 242:188 265:65 266:251 267:211 268:168 269:254 270:178 292:30 293:231 294:230 295:28 296:208 297:254 298:65 319:12 320:181 321:254 322:118 323:35 324:249 325:254 326:56 347:73 348:254 349:213 350:6 351:40 352:254 353:249 354:46 375:143 376:254 377:119 379:40 380:254 381:224 403:185 404:211 405:6 407:82 408:254 409:224 429:9 430:164 431:250 432:121 435:126 436:254 437:212 457:66 458:254 459:209 460:6 462:6 463:170 464:254 465:128 485:104 486:254 487:130 490:82 491:254 492:239 493:29 513:188 514:249 515:44 517:21 518:212 519:254 520:146 540:24 541:244 542:194 544:4 545:121 546:254 547:190 548:12 568:51 569:250 570:130 572:120 573:254 574:238 575:50 596:70 597:254 598:192 599:115 600:246 601:253 602:116 624:22 625:211 626:254 627:254 628:254 629:174 653:21 654:181 655:235 656:133 #
-1.0000000000000001e-009 130:136 131:255 132:254 133:130 157:137 158:253 159:227 160:254 161:159 184:84 185:252 186:215 187:44 188:254 189:159 211:45 212:230 213:247 214:77 215:71 216:254 217:159 239:143 240:246 241:112 243:104 244:254 245:108 266:64 267:234 268:173 271:104 272:242 273:6 292:111 293:229 294:249 295:254 296:89 298:5 299:195 300:222 319:93 320:250 321:254 322:254 323:205 324:6 326:69 327:254 328:137 346:46 347:228 348:229 349:172 350:254 351:133 354:153 355:250 356:56 373:11 374:190 375:254 376:121 377:129 378:254 379:133 381:37 382:245 383:163 401:132 402:254 403:215 404:32 405:129 406:254 407:133 409:126 410:250 411:98 428:21 429:220 430:246 431:71 433:129 434:254 435:133 436:66 437:243 438:161 456:161 457:254 458:158 461:56 462:249 463:188 464:209 465:231 466:50 483:93 484:250 485:218 486:33 490:173 491:254 492:251 493:98 511:192 512:254 513:100 517:12 518:165 519:254 520:165 538:61 539:251 540:227 541:13 544:10 545:167 546:254 547:198 548:142 549:19 566:159 567:254 568:127 571:8 572:169 573:254 574:187 575:13 594:159 595:254 596:106 597:8 598:77 599:221 600:254 601:158 602:13 622:158 623:254 624:234 625:247 626:254 627:251 628:188 629:12 650:24 651:216 652:254 653:254 654:205 655:48 #
-1.0000000000000001e-009 129:8 130:196 131:242 132:48 157:129 158:254 159:254 160:89 184:145 185:247 186:254 187:254 188:89 211:22 212:225 213:254 214:221 215:255 216:89 238:21 239:195 240:254 241:215 242:134 243:244 244:58 266:60 267:254 268:214 269:27 270:131 271:175 293:24 294:211 295:253 296:45 298:189 299:104 320:3 321:169 322:254 323:166 325:64 326:240 347:1 348:118 349:254 350:217 351:22 353:114 354:243 375:6 376:254 377:254 378:112 381:114 382:243 403:43 404:254 405:186 406:18 409:205 410:151 430:41 431:229 432:254 433:95 436:125 437:251 438:80 458:108 459:254 460:180 461:9 464:214 465:151 466:1 485:5 486:225 487:251 488:55 491:137 492:254 493:136 513:90 514:254 515:235 518:35 519:230 520:243 521:20 541:167 542:254 543:108 546:82 547:254 548:82 569:208 570:254 571:11 573:61 574:233 575:254 576:41 597:208 598:254 599:149 600:202 601:235 602:235 603:135 604:9 625:161 626:254 627:254 628:254 629:254 630:148 653:6 654:172 655:252 656:135 657:61 658:5 #
1.0000000000000001e-009 126:106 127:255 128:67 153:4 154:173 155:253 156:176 181:24 182:253 183:253 184:176 209:24 210:253 211:253 212:143 237:121 238:253 239:253 240:59 264:6 265:241 266:253 267:228 268:34 272:13 273:107 274:30 292:6 293:253 294:253 295:194 299:15 300:244 301:253 302:70 320:73 321:253 322:253 323:194 327:130 328:253 329:253 330:70 348:199 349:253 350:253 351:120 355:185 356:253 357:253 358:70 375:75 376:250 377:253 378:244 379:59 383:185 384:253 385:242 386:54 403:107 404:253 405:253 406:176 411:91 412:185 413:115 431:107 432:253 433:253 434:94 440:5 441:14 459:214 460:253 461:253 462:94 486:148 487:253 488:253 489:230 490:2 514:207 515:253 516:253 517:160 541:14 542:216 543:253 544:252 545:91 569:72 570:253 571:253 572:247 597:110 598:253 599:253 600:209 625:189 626:253 627:253 628:27 653:189 654:253 655:154 656:1 #
1.0000000000000001e-009 100:47 101:233 102:217 127:42 128:233 129:252 130:215 154:6 155:160 156:253 157:252 158:215 181:1 182:120 183:252 184:253 185:252 186:215 209:73 210:252 211:252 212:253 213:252 214:71 236:32 237:207 238:252 239:252 240:253 241:252 242:71 264:212 265:252 266:246 267:236 268:253 269:252 270:71 291:84 292:253 293:210 294:92 295:144 296:253 297:210 298:31 317:73 318:253 319:253 320:255 321:119 323:145 324:255 325:180 345:52 346:231 347:252 348:119 349:5 351:144 352:253 353:179 374:51 375:71 379:144 380:253 381:179 407:144 408:253 409:97 435:145 436:255 437:35 462:11 463:175 464:253 465:77 488:37 489:37 490:68 491:252 492:253 493:231 494:181 495:181 496:105 511:1 512:144 513:144 514:144 515:144 516:253 517:252 518:252 519:252 520:253 521:252 522:231 523:108 524:62 539:145 540:253 541:253 542:253 543:253 544:255 545:253 546:253 547:253 548:255 549:35 567:20 568:252 569:252 570:252 571:252 572:222 573:200 574:252 575:252 576:222 577:25 595:1 596:252 597:252 598:205 599:71 600:41 601:21 602:201 603:252 604:125 623:1 624:108 625:108 626:31 630:98 631:252 #
1.0000000000000001e-009 155:6 156:122 157:171 158:19 177:74 178:191 179:50 183:131 184:254 185:254 186:75 205:37 206:248 207:227 208:121 209:121 210:212 211:248 212:254 213:250 214:62 234:85 235:219 236:254 237:254 238:238 239:205 240:254 241:142 263:6 264:9 265:9 266:8 267:204 268:254 269:59 294:48 295:247 296:146 297:4 322:175 323:250 324:56 349:16 350:244 351:167 376:2 377:128 378:254 379:48 404:20 405:254 406:222 407:16 432:126 433:254 434:65 459:43 460:246 461:217 462:8 464:7 465:10 466:10 467:10 468:61 469:107 470:107 471:107 472:103 487:144 488:254 489:194 490:169 491:169 492:227 493:254 494:254 495:254 496:254 497:254 498:208 499:182 500:77 511:29 512:133 513:144 514:231 515:254 516:254 517:254 518:254 519:254 520:228 521:216 522:139 523:120 524:106 525:24 526:9 537:66 538:185 539:240 540:254 541:252 542:250 543:193 544:153 545:123 546:57 547:57 548:19 565:188 566:187 567:152 568:91 569:48 #
1.0000000000000001e-009 153:44 154:158 155:57 157:255 158:254 159:254 160:19 181:236 182:253 183:105 185:208 186:136 187:88 188:11 208:19 209:254 210:253 211:39 236:127 237:254 238:253 239:39 264:156 265:255 266:254 267:39 292:97 293:254 294:235 295:21 320:144 321:254 322:196 348:156 349:254 350:136 376:162 377:255 378:83 381:50 382:110 383:194 384:19 404:234 405:254 406:58 409:254 410:247 411:214 412:16 431:68 432:250 433:254 434:58 437:87 438:33 459:136 460:253 461:218 462:23 487:167 488:254 489:103 515:215 516:253 517:79 542:34 543:247 544:253 545:79 570:112 571:253 572:253 573:6 597:2 598:176 599:254 600:145 607:5 608:2 625:80 626:253 627:253 628:85 635:59 636:19 653:51 654:212 655:194 656:15 663:101 664:19 682:6 691:185 692:19 #
1.0000000000000001e-009 153:32 154:185 155:255 156:103 181:133 182:253 183:253 184:194 208:112 209:242 210:253 211:253 212:246 213:45 235:15 236:236 237:253 238:253 239:253 240:253 241:156 263:167 264:253 265:253 266:150 267:242 268:253 269:156 290:44 291:247 292:253 293:205 294:6 295:238 296:253 297:156 318:70 319:253 320:253 321:199 323:238 324:253 325:156 345:9 346:231 347:253 348:253 349:199 351:238 352:253 353:156 373:65 374:253 375:253 376:245 377:56 379:238 380:253 381:156 401:120 402:253 403:253 404:168 407:238 408:253 409:218 410:7 429:205 430:253 431:253 432:90 435:238 436:253 437:253 438:10 457:70 458:232 459:112 460:2 463:238 464:253 465:253 466:10 491:238 492:253 493:253 494:10 519:238 520:253 521:253 522:10 547:238 548:253 549:253 550:22 575:238 576:253 577:253 578:119 603:148 604:253 605:253 606:119 631:130 632:253 633:253 634:119 659:130 660:253 661:253 662:119 687:130 688:253 689:253 690:72 #
-1.0000000000000001e-009 150:26 151:213 152:254 153:176 154:57 178:54 179:253 180:253 181:253 182:247 183:57 206:174 207:253 208:243 209:214 210:253 211:242 212:11 234:128 235:228 236:235 237:107 238:215 239:254 240:159 241:9 263:174 264:253 265:250 266:123 267:219 268:253 269:132 291:174 292:253 293:253 294:120 295:96 296:251 297:159 318:37 319:228 320:253 321:253 322:120 324:241 325:224 326:49 346:54 347:253 348:253 349:253 350:190 352:145 353:250 354:173 374:54 375:253 376:238 377:114 378:191 381:228 382:219 383:31 402:125 403:253 404:226 406:64 409:157 410:253 411:53 430:125 431:254 432:228 437:95 438:254 439:53 458:54 459:253 460:226 465:94 466:253 467:53 486:174 487:253 488:226 493:94 494:253 495:53 514:145 515:253 516:226 521:94 522:253 523:53 542:54 543:253 544:226 549:200 550:253 551:53 570:43 571:236 572:246 573:107 576:108 577:247 578:236 579:42 599:174 600:253 601:242 602:19 603:20 604:243 605:253 606:151 627:86 628:243 629:253 630:204 631:206 632:253 633:194 634:15 656:82 657:248 658:253 659:255 660:247 661:81 685:70 686:190 687:191 688:69 #
1.0000000000000001e-009 188:176 189:208 200:187 201:197 202:11 215:94 216:248 217:125 228:176 229:255 230:36 242:11 243:234 244:243 256:217 257:233 258:16 270:135 271:254 272:119 284:217 285:145 297:37 298:243 299:238 300:21 312:217 313:104 325:129 326:253 327:114 340:208 341:21 352:53 353:254 354:243 355:21 368:145 380:115 381:254 382:119 396:84 407:16 408:233 409:254 410:78 435:58 436:253 437:181 438:5 463:171 464:254 465:115 491:254 492:211 493:11 518:115 519:254 520:171 546:217 547:233 548:26 573:47 574:254 575:187 601:171 602:253 603:42 628:63 629:254 630:191 656:145 657:254 658:46 684:176 685:176 712:197 713:73 #
-1.0000000000000001e-009 127:24 128:212 129:156 130:1 155:167 156:220 157:240 158:4 182:70 183:238 184:68 185:158 186:67 187:12 209:6 210:173 211:120 213:107 214:225 215:225 216:118 237:100 238:212 239:18 241:20 242:32 243:50 244:97 264:34 265:223 266:85 270:3 271:159 272:43 292:125 293:173 294:2 298:89 299:154 319:60 320:231 321:61 326:170 327:22 347:121 348:177 353:43 354:175 374:12 375:205 376:81 381:171 382:85 402:90 403:182 408:35 409:207 410:15 429:16 430:205 431:77 436:137 437:106 457:61 458:186 459:1 463:33 464:219 465:16 485:90 486:179 491:161 492:108 513:142 514:127 518:30 519:243 520:54 541:142 542:127 545:4 546:145 547:204 548:7 569:208 570:101 573:83 574:234 575:62 597:205 598:170 599:1 600:94 601:246 602:152 625:69 626:248 627:180 628:254 629:181 630:5 653:3 654:158 655:255 656:161 657:7 #
1.0000000000000001e-009 128:33 129:164 130:255 131:255 132:167 155:3 156:132 157:253 158:253 159:253 160:166 183:127 184:253 185:253 186:253 187:247 188:94 210:5 211:187 212:253 213:253 214:253 215:160 237:6 238:135 239:253 240:253 241:253 242:229 243:43 265:44 266:253 267:253 268:253 269:253 270:55 292:7 293:140 294:253 295:253 296:253 297:208 298:19 320:123 321:253 322:253 323:253 324:241 325:89 347:7 348:182 349:253 350:253 351:253 352:191 374:7 375:146 376:253 377:253 378:253 379:253 380:101 402:25 403:253 404:253 405:253 406:253 407:177 408:17 414:170 415:192 416:192 417:9 429:6 430:153 431:253 432:253 433:253 434:239 435:52 442:49 443:55 444:55 445:3 457:59 458:253 459:253 460:253 461:239 462:79 485:143 486:253 487:253 488:253 489:210 512:5 513:183 514:253 515:253 516:253 517:104 540:13 541:253 542:253 543:253 544:172 545:11 568:13 569:253 570:253 571:253 572:93 596:7 597:204 598:253 599:253 600:242 601:215 602:112 603:172 604:91 625:143 626:253 627:253 628:253 629:253 630:253 631:169 632:36 653:12 654:141 655:253 656:253 657:232 658:105 659:2 #
-1.0000000000000001e-009 126:25 127:220 128:205 129:122 130:47 154:109 155:254 156:254 157:254 158:245 159:135 182:188 183:254 184:254 185:246 186:56 187:25 210:188 211:254 212:254 213:181 237:62 238:249 239:225 240:248 241:150 265:217 266:254 267:88 268:149 269:150 292:72 293:243 294:222 296:132 297:150 320:242 321:254 322:69 324:132 325:206 347:42 348:249 349:219 350:10 352:132 353:244 375:155 376:254 377:62 380:132 381:209 402:19 403:254 404:240 405:28 408:157 409:150 430:69 431:254 432:148 435:84 436:240 437:150 458:151 459:254 460:30 463:199 464:254 465:146 485:32 486:238 487:254 488:9 490:92 491:254 492:254 493:56 513:48 514:254 515:238 516:7 518:188 519:254 520:218 521:4 541:48 542:254 543:169 545:3 546:193 547:254 548:139 569:48 570:254 571:169 573:92 574:254 575:255 576:56 597:48 598:254 599:251 600:42 601:239 602:254 603:134 604:1 625:7 626:168 627:254 628:226 629:254 630:162 631:14 654:44 655:254 656:232 657:114 658:17 #
1.0000000000000001e-009 124:39 125:229 126:123 129:47 130:216 152:79 153:254 154:189 157:47 158:215 180:79 181:254 182:251 183:62 185:47 186:215 208:79 209:254 210:255 211:65 213:47 214:215 236:146 237:254 238:195 239:7 241:47 242:215 264:194 265:254 266:189 269:47 270:101 291:29 292:225 293:254 294:245 295:55 297:7 298:13 319:86 320:254 321:254 322:234 323:45 325:15 326:134 347:123 348:254 349:254 350:85 353:47 354:215 375:216 376:255 377:254 378:58 381:47 382:215 403:216 404:254 405:254 406:58 409:47 410:185 431:216 432:254 433:254 434:58 437:13 438:24 459:216 460:254 461:254 462:58 465:9 466:16 487:216 488:254 489:254 490:58 493:47 494:105 515:216 516:254 517:254 518:58 521:47 522:215 543:216 544:255 545:254 546:72 549:47 550:215 571:216 572:255 573:254 574:189 577:47 578:215 599:216 600:254 601:254 602:192 603:4 605:47 606:215 627:213 628:254 629:254 630:219 631:30 633:47 634:215 655:42 656:231 657:254 658:122 661:47 662:215 #
-1.0000000000000001e-009 151:101 152:113 153:207 154:253 155:192 156:75 177:48 178:147 179:249 180:252 181:252 182:252 183:253 184:243 185:50 204:23 205:227 206:253 207:252 208:252 209:230 210:55 211:56 212:199 213:87 232:29 233:252 234:253 235:252 236:252 237:129 240:76 241:227 242:72 260:29 261:252 262:253 263:252 264:252 265:84 269:197 270:223 289:141 290:255 291:253 292:253 293:162 297:57 298:253 299:174 317:15 318:90 319:243 320:233 321:56 325:38 326:224 327:252 347:225 348:195 354:59 355:252 356:111 374:76 375:243 376:202 377:10 382:29 383:252 384:153 385:3 402:113 403:252 404:252 405:84 410:13 411:189 412:253 413:27 430:114 431:253 432:253 433:84 439:141 440:255 441:27 458:12 459:228 460:252 461:130 467:140 468:253 469:27 487:225 488:252 489:223 494:7 495:165 496:253 497:27 515:225 516:252 517:223 522:123 523:252 524:253 525:27 543:225 544:252 545:239 546:63 550:169 551:252 552:253 553:27 571:226 572:253 573:253 574:112 577:57 578:253 579:253 580:204 581:15 599:72 600:233 601:252 602:237 603:163 604:9 605:57 606:252 607:252 608:94 628:88 629:252 630:252 631:253 632:203 633:209 634:252 635:141 656:19 657:99 658:239 659:253 660:252 661:252 662:249 663:99 686:63 687:174 688:252 689:220 690:99 #
1.0000000000000001e-009 210:64 211:128 212:255 213:191 237:128 238:255 239:255 240:255 241:255 264:128 265:255 266:255 267:255 268:255 269:255 292:255 293:255 294:255 295:128 296:255 297:255 318:128 319:255 320:255 321:191 322:64 323:64 324:255 325:255 345:64 346:255 347:255 348:255 349:64 351:191 352:255 353:128 372:64 373:255 374:255 375:255 376:191 379:255 380:255 381:128 400:255 401:255 402:255 403:191 407:255 408:255 409:64 428:128 429:255 430:191 435:255 436:255 457:128 463:255 464:191 490:64 491:255 492:128 518:128 519:255 520:128 546:255 547:255 548:128 573:128 574:255 575:255 576:128 601:128 602:255 603:255 604:128 629:128 630:255 631:255 658:191 659:255 686:128 687:255 714:128 715:255 716:64 742:64 743:191 744:64 #
-1.0000000000000001e-009 124:110 125:253 126:202 127:73 128:99 129:253 130:253 131:182 152:109 153:251 154:253 155:251 156:251 157:251 158:251 159:77 180:15 181:164 182:253 183:251 184:251 185:251 186:225 210:253 211:251 212:251 213:251 214:71 237:130 238:253 239:251 240:251 241:251 242:71 264:110 265:253 266:255 267:253 268:253 269:253 270:72 291:21 292:190 293:251 294:253 295:251 296:251 297:251 298:71 318:21 319:197 320:251 321:251 322:253 323:251 324:251 325:251 326:71 346:144 347:251 348:251 349:251 350:221 351:205 352:251 353:251 354:71 374:144 375:251 376:251 377:251 378:103 379:221 380:251 381:251 382:71 401:73 402:253 403:253 404:221 405:51 406:73 407:253 408:253 409:253 410:72 429:176 430:251 431:251 432:142 434:73 435:251 436:251 437:251 438:71 457:253 458:251 459:251 460:142 462:73 463:251 464:251 465:157 466:10 484:79 485:253 486:251 487:251 488:142 490:73 491:251 492:251 493:142 512:180 513:253 514:251 515:251 516:142 518:202 519:251 520:225 521:41 540:182 541:255 542:253 543:227 544:42 545:53 546:255 547:253 548:216 568:77 569:253 570:251 571:251 572:205 573:221 574:253 575:251 576:215 597:98 598:251 599:251 600:251 601:251 602:253 603:230 604:55 625:42 626:205 627:251 628:251 629:251 630:253 631:107 654:144 655:251 656:251 657:251 658:201 659:30 #
-1.0000000000000001e-009 186:9 187:77 188:182 189:239 190:169 191:15 212:16 213:94 214:229 215:255 216:155 217:191 218:213 219:152 239:102 240:226 241:122 242:38 243:118 244:6 245:9 246:98 247:210 263:2 264:57 265:202 266:225 267:111 268:5 274:99 275:170 291:156 292:243 293:106 294:14 302:159 303:144 316:5 317:100 318:214 319:115 320:12 329:68 330:248 331:59 343:35 344:181 345:205 346:11 356:11 357:225 358:138 370:76 371:208 372:91 373:9 383:9 384:183 385:196 386:7 397:25 398:240 399:80 411:145 412:230 413:31 424:8 425:158 426:117 437:29 438:148 439:230 440:60 452:106 453:229 454:9 464:37 465:189 466:223 467:31 480:193 481:124 490:19 491:103 492:217 493:160 494:25 508:210 509:67 517:89 518:215 519:236 520:72 536:224 537:179 538:2 542:25 543:149 544:237 545:237 546:141 547:14 564:140 565:254 566:163 567:135 568:134 569:188 570:246 571:193 572:106 573:19 592:6 593:94 594:164 595:164 596:164 597:155 598:50 599:1 #
-1.0000000000000001e-009 130:2 131:78 132:64 133:43 134:1 158:106 159:254 160:254 161:254 162:48 184:8 185:121 186:241 187:254 188:195 189:209 190:139 191:1 211:13 212:173 213:226 214:168 215:57 216:26 217:34 218:231 219:45 238:71 239:198 240:143 241:27 246:156 247:90 264:15 265:129 266:227 267:112 274:73 275:130 291:15 292:168 293:235 294:85 302:110 303:216 318:34 319:202 320:211 321:46 330:177 331:158 345:15 346:168 347:139 348:17 357:41 358:248 359:40 372:27 373:208 374:119 375:1 385:145 386:179 387:3 399:26 400:184 401:119 411:5 412:73 413:194 414:37 426:50 427:212 428:120 439:190 440:199 441:39 453:13 454:214 455:120 465:12 466:131 467:172 468:30 480:2 481:128 482:192 491:38 492:76 493:204 494:174 495:28 508:9 509:246 510:50 518:55 519:147 520:168 521:165 522:10 536:136 537:195 543:13 544:76 545:182 546:241 547:187 548:58 564:255 565:155 570:32 571:135 572:254 573:235 574:113 575:10 592:212 593:207 594:66 595:66 596:80 597:190 598:243 599:194 600:114 601:17 620:40 621:254 622:254 623:254 624:242 625:164 626:80 627:2 648:1 649:8 650:8 651:8 652:7 #
-1.0000000000000001e-009 188:3 189:41 190:80 191:80 192:66 193:4 213:21 214:89 215:149 216:230 217:230 218:223 219:171 220:153 221:228 239:43 240:164 241:238 242:215 243:122 244:47 245:10 248:9 249:19 264:6 265:90 266:186 267:232 268:151 269:68 270:10 291:57 292:215 293:235 294:122 295:18 304:7 305:4 317:17 318:176 319:249 320:105 321:19 331:7 332:88 333:5 343:3 344:60 345:218 346:163 347:43 359:86 360:43 371:61 372:247 373:144 386:44 387:161 398:43 399:233 400:119 413:65 414:107 415:12 426:134 427:212 428:7 440:49 441:173 442:11 454:254 455:67 466:20 467:128 468:132 469:14 482:232 483:72 493:30 494:172 495:151 496:3 510:255 511:55 518:13 519:88 520:190 521:204 522:66 523:1 538:204 539:209 540:53 541:41 542:38 543:46 544:32 545:128 546:232 547:197 548:91 549:3 566:20 567:159 568:254 569:250 570:248 571:230 572:139 573:84 574:33 595:1 596:4 597:4 598:4 599:3 #
-1.0000000000000001e-009 156:29 157:141 158:170 159:198 160:255 161:141 182:29 183:170 184:255 185:255 186:255 187:255 188:255 189:255 190:29 209:141 210:255 211:255 212:114 213:86 214:255 215:255 216:255 217:226 218:141 236:114 237:255 238:198 239:57 240:86 241:255 242:255 243:141 244:29 245:198 246:170 263:29 264:255 265:170 267:57 268:255 269:255 270:141 273:198 274:226 291:114 292:226 294:57 295:255 296:226 297:141 300:29 301:255 302:170 320:114 321:57 322:226 323:226 324:141 328:29 329:226 330:57 348:29 349:198 350:255 351:114 355:29 356:170 357:198 376:114 377:255 378:198 383:29 384:255 385:86 403:141 404:255 405:226 411:226 412:198 430:29 431:255 432:255 433:86 438:29 439:255 440:170 457:29 458:198 459:255 460:141 461:29 466:141 467:255 468:114 485:141 486:255 487:198 494:226 495:255 496:29 512:114 513:255 514:226 521:114 522:255 523:57 539:86 540:255 541:226 547:29 548:198 549:255 550:114 567:255 568:255 569:29 575:226 576:255 577:170 594:170 595:255 596:114 601:114 602:198 603:255 604:141 621:57 622:255 623:170 627:29 628:198 629:255 630:255 631:114 649:170 650:255 651:141 652:86 653:114 654:170 655:255 656:255 657:198 658:86 676:29 677:255 678:255 679:255 680:255 681:255 682:255 683:226 684:141 #
