SVM-light Version V6.02
0 # kernel type
3 # kernel parameter -d 
1 # kernel parameter -g 
1 # kernel parameter -s 
1 # kernel parameter -r 
empty# kernel parameter -u 
744 # highest feature index 
12665 # number of training documents 
93 # number of support vectors plus 1 
-1.1301204 # threshold b, each following line is a SV (starting with alpha*y)
2.6513787354292003e-007 158:105 159:192 160:30 185:116 186:253 187:252 188:47 212:41 213:232 214:253 215:210 216:11 239:15 240:225 241:252 242:243 243:82 266:36 267:162 268:252 269:252 270:124 293:8 294:157 295:253 296:253 297:253 298:45 321:157 322:252 323:252 324:252 325:173 347:6 348:66 349:253 350:252 351:252 352:252 353:147 374:6 375:155 376:252 377:243 378:210 379:252 380:252 381:121 402:153 403:252 404:208 405:79 406:128 407:252 408:199 409:7 427:36 428:105 429:227 430:253 431:199 432:62 434:191 435:253 436:128 453:8 454:155 455:242 456:253 457:252 458:166 459:21 461:32 462:237 463:245 464:56 481:110 482:252 483:244 484:170 485:47 486:2 489:148 490:252 491:222 509:7 510:84 511:49 517:253 518:252 519:100 544:89 545:253 546:252 547:21 572:107 573:255 574:253 575:21 600:141 601:253 602:252 603:21 628:211 629:253 630:245 631:19 656:185 657:253 658:189 659:6 684:62 685:253 686:173 687:12 #
9.9999999999999995e-007 153:44 154:158 155:57 157:255 158:254 159:254 160:19 181:236 182:253 183:105 185:208 186:136 187:88 188:11 208:19 209:254 210:253 211:39 236:127 237:254 238:253 239:39 264:156 265:255 266:254 267:39 292:97 293:254 294:235 295:21 320:144 321:254 322:196 348:156 349:254 350:136 376:162 377:255 378:83 381:50 382:110 383:194 384:19 404:234 405:254 406:58 409:254 410:247 411:214 412:16 431:68 432:250 433:254 434:58 437:87 438:33 459:136 460:253 461:218 462:23 487:167 488:254 489:103 515:215 516:253 517:79 542:34 543:247 544:253 545:79 570:112 571:253 572:253 573:6 597:2 598:176 599:254 600:145 607:5 608:2 625:80 626:253 627:253 628:85 635:59 636:19 653:51 654:212 655:194 656:15 663:101 664:19 682:6 691:185 692:19 #
-4.0464457273541467e-007 122:4 123:111 124:132 125:190 126:132 127:133 128:64 129:11 150:85 151:252 152:252 153:252 154:252 155:253 156:252 157:237 158:145 159:53 178:193 179:252 180:238 181:164 182:96 183:96 184:164 185:221 186:252 187:229 188:113 205:64 206:233 207:252 208:75 213:12 214:164 215:238 216:228 217:55 233:181 234:252 235:203 236:27 242:12 243:198 244:252 245:228 246:26 260:38 261:235 262:197 263:12 269:28 270:204 271:252 272:252 273:252 274:36 287:13 288:174 289:252 290:180 296:9 297:166 298:252 299:162 300:82 301:236 302:76 315:37 316:252 317:252 318:133 324:128 325:252 326:234 327:45 329:205 330:155 343:37 344:252 345:252 346:60 351:11 352:242 353:236 354:117 357:205 358:243 359:21 371:37 372:252 373:194 374:3 379:243 380:252 381:158 385:205 386:252 387:23 399:157 400:253 401:72 405:58 406:248 407:255 408:165 412:39 413:231 414:156 427:157 428:252 429:72 433:121 434:252 435:252 436:98 440:73 441:252 442:144 454:4 455:170 456:252 457:72 460:78 461:243 462:252 463:224 468:90 469:252 470:36 482:25 483:252 484:252 485:72 488:217 489:252 490:252 491:40 495:64 496:233 497:252 498:36 510:25 511:252 512:252 513:72 515:61 516:242 517:252 518:223 522:12 523:198 524:252 525:162 526:10 538:25 539:252 540:252 541:72 543:177 544:252 545:221 546:37 549:11 550:164 551:252 552:197 553:12 566:17 567:220 568:252 569:112 571:79 572:167 573:38 576:49 577:166 578:252 579:191 580:62 595:111 596:252 597:244 598:98 603:160 604:237 605:252 606:187 607:45 623:21 624:216 625:252 626:245 627:229 628:126 629:218 630:229 631:253 632:242 633:127 634:8 652:8 653:98 654:224 655:252 656:252 657:252 658:252 659:132 660:62 #
1.4174086808680105e-007 157:41 158:203 162:21 185:183 186:20 189:41 190:141 212:163 213:254 214:91 217:255 218:151 239:82 240:243 241:253 242:50 245:253 246:111 266:62 267:214 268:253 269:123 273:183 274:20 294:183 295:253 296:212 321:72 322:253 323:224 324:61 349:193 350:252 351:122 376:163 377:254 378:192 403:21 404:223 405:253 406:151 413:123 414:122 431:132 432:253 433:203 434:20 441:254 442:151 458:41 459:253 460:252 461:61 469:192 470:50 485:11 486:173 487:254 488:192 513:51 514:252 515:253 516:70 540:21 541:214 542:253 543:82 568:142 569:253 570:130 595:72 596:253 597:183 623:152 624:252 625:61 651:123 652:81 665:72 666:131 693:253 694:151 #
-9.0954727120941639e-008 148:7 149:147 150:249 151:205 152:154 153:75 155:24 156:24 157:3 158:38 176:68 177:235 178:76 182:136 183:254 184:254 185:207 186:136 204:214 205:127 209:116 210:209 211:54 212:45 213:152 214:236 215:57 231:26 232:239 233:21 236:49 237:212 238:40 242:162 243:227 244:14 259:70 260:238 264:109 265:123 270:14 271:244 272:109 287:70 288:173 292:155 293:58 299:109 300:192 315:70 316:161 320:73 321:31 327:26 328:237 329:66 343:70 344:170 356:159 357:169 371:70 372:238 384:100 385:209 399:70 400:238 412:62 413:248 414:21 427:70 428:239 440:63 441:255 442:69 455:70 456:238 468:13 469:242 470:69 483:51 484:250 485:54 496:55 497:248 498:30 512:247 513:113 524:67 525:218 540:212 541:197 551:6 552:180 553:169 568:86 569:224 570:10 579:100 580:254 581:85 596:15 597:252 598:136 606:13 607:232 608:167 609:1 625:104 626:237 627:100 633:39 634:208 635:183 636:11 653:7 654:120 655:238 656:175 657:92 658:55 659:55 660:116 661:225 662:208 663:11 682:6 683:49 684:165 685:254 686:254 687:255 688:240 689:155 690:10 #
1.4671752839640386e-007 161:11 162:51 163:51 164:10 188:82 189:132 190:250 191:250 192:130 216:202 217:252 218:250 219:250 220:250 243:123 244:241 245:252 246:250 247:250 248:250 268:41 269:92 270:252 271:252 272:252 273:255 274:252 275:252 276:212 295:62 296:221 297:252 298:250 299:250 300:250 301:252 302:210 303:149 304:29 323:151 324:250 325:252 326:250 327:250 328:250 329:222 330:60 349:41 350:202 351:231 352:250 353:252 354:250 355:250 356:88 357:40 376:41 377:254 378:252 379:252 380:252 381:254 382:232 383:202 384:40 402:41 403:102 404:221 405:252 406:250 407:250 408:250 409:232 410:90 429:31 430:191 431:250 432:250 433:252 434:250 435:250 436:250 437:80 457:213 458:250 459:250 460:250 461:252 462:250 463:250 464:88 483:31 484:213 485:254 486:252 487:252 488:252 489:244 490:202 491:80 510:41 511:191 512:250 513:252 514:250 515:250 516:250 517:121 537:31 538:191 539:250 540:250 541:252 542:250 543:250 544:128 565:51 566:250 567:250 568:250 569:252 570:169 571:49 572:10 593:254 594:252 595:252 596:252 597:244 598:121 621:252 622:250 623:250 624:169 625:121 649:252 650:250 651:159 652:20 677:49 678:49 679:20 #
-9.3258861588093996e-007 130:136 131:255 132:254 133:130 157:137 158:253 159:227 160:254 161:159 184:84 185:252 186:215 187:44 188:254 189:159 211:45 212:230 213:247 214:77 215:71 216:254 217:159 239:143 240:246 241:112 243:104 244:254 245:108 266:64 267:234 268:173 271:104 272:242 273:6 292:111 293:229 294:249 295:254 296:89 298:5 299:195 300:222 319:93 320:250 321:254 322:254 323:205 324:6 326:69 327:254 328:137 346:46 347:228 348:229 349:172 350:254 351:133 354:153 355:250 356:56 373:11 374:190 375:254 376:121 377:129 378:254 379:133 381:37 382:245 383:163 401:132 402:254 403:215 404:32 405:129 406:254 407:133 409:126 410:250 411:98 428:21 429:220 430:246 431:71 433:129 434:254 435:133 436:66 437:243 438:161 456:161 457:254 458:158 461:56 462:249 463:188 464:209 465:231 466:50 483:93 484:250 485:218 486:33 490:173 491:254 492:251 493:98 511:192 512:254 513:100 517:12 518:165 519:254 520:165 538:61 539:251 540:227 541:13 544:10 545:167 546:254 547:198 548:142 549:19 566:159 567:254 568:127 571:8 572:169 573:254 574:187 575:13 594:159 595:254 596:106 597:8 598:77 599:221 600:254 601:158 602:13 622:158 623:254 624:234 625:247 626:254 627:251 628:188 629:12 650:24 651:216 652:254 653:254 654:205 655:48 #
-4.31715140824523e-007 124:110 125:253 126:202 127:73 128:99 129:253 130:253 131:182 152:109 153:251 154:253 155:251 156:251 157:251 158:251 159:77 180:15 181:164 182:253 183:251 184:251 185:251 186:225 210:253 211:251 212:251 213:251 214:71 237:130 238:253 239:251 240:251 241:251 242:71 264:110 265:253 266:255 267:253 268:253 269:253 270:72 291:21 292:190 293:251 294:253 295:251 296:251 297:251 298:71 318:21 319:197 320:251 321:251 322:253 323:251 324:251 325:251 326:71 346:144 347:251 348:251 349:251 350:221 351:205 352:251 353:251 354:71 374:144 375:251 376:251 377:251 378:103 379:221 380:251 381:251 382:71 401:73 402:253 403:253 404:221 405:51 406:73 407:253 408:253 409:253 410:72 429:176 430:251 431:251 432:142 434:73 435:251 436:251 437:251 438:71 457:253 458:251 459:251 460:142 462:73 463:251 464:251 465:157 466:10 484:79 485:253 486:251 487:251 488:142 490:73 491:251 492:251 493:142 512:180 513:253 514:251 515:251 516:142 518:202 519:251 520:225 521:41 540:182 541:255 542:253 543:227 544:42 545:53 546:255 547:253 548:216 568:77 569:253 570:251 571:251 572:205 573:221 574:253 575:251 576:215 597:98 598:251 599:251 600:251 601:251 602:253 603:230 604:55 625:42 626:205 627:251 628:251 629:251 630:253 631:107 654:144 655:251 656:251 657:251 658:201 659:30 #
-8.8639288255035019e-008 146:26 147:136 148:168 149:97 157:10 158:121 159:131 160:49 174:163 175:254 176:254 177:253 178:106 184:49 185:204 186:254 187:254 188:246 189:100 201:24 202:219 203:254 204:79 205:154 206:136 211:118 212:250 213:254 214:254 215:254 216:254 217:246 218:71 229:135 230:254 231:234 232:9 233:8 234:6 237:13 238:186 239:252 240:254 241:148 242:13 243:20 244:162 245:254 246:214 247:21 257:168 258:254 259:129 264:14 265:188 266:254 267:222 268:78 269:4 272:13 273:162 274:254 275:128 285:247 286:254 287:74 292:151 293:254 294:179 295:25 301:50 302:254 303:183 313:254 314:254 315:8 320:224 321:227 322:26 329:2 330:169 331:252 332:46 341:255 342:254 343:8 348:177 349:232 350:95 351:9 358:96 359:254 360:82 369:254 370:254 371:8 376:66 377:165 378:206 379:110 386:96 387:254 388:111 397:254 398:254 399:8 407:13 414:21 415:241 416:96 425:254 426:254 427:22 443:163 444:180 453:213 454:254 455:135 471:91 472:254 481:128 482:254 483:189 484:2 499:102 500:254 509:74 510:253 511:254 512:60 526:1 527:185 528:254 538:206 539:254 540:214 541:52 554:9 555:254 556:187 566:47 567:239 568:254 569:215 570:50 581:12 582:167 583:252 584:70 595:20 596:207 597:254 598:237 599:166 600:53 601:7 608:12 609:159 610:253 611:178 624:20 625:146 626:247 627:254 628:254 629:215 630:166 631:96 632:96 633:96 634:96 635:131 636:211 637:246 638:95 654:19 655:97 656:210 657:249 658:253 659:254 660:254 661:254 662:252 663:242 664:163 665:71 686:70 687:82 688:82 689:82 690:46 #
-2.4224568593661934e-007 126:37 127:145 128:197 129:194 130:94 153:50 154:232 155:254 156:254 157:254 158:251 159:75 180:12 181:221 182:248 183:99 184:27 185:115 186:253 187:112 207:36 208:218 209:248 210:66 214:246 215:112 235:182 236:254 237:100 241:72 242:253 243:104 262:34 263:252 264:177 265:8 266:2 267:9 268:73 269:173 270:252 271:21 289:7 290:201 291:254 292:46 293:46 294:169 295:254 296:254 297:254 298:233 299:15 317:66 318:254 319:158 320:38 321:242 322:254 323:254 324:254 325:254 326:254 327:135 344:14 345:221 346:254 347:27 348:229 349:254 350:227 351:90 352:188 353:128 354:195 355:180 372:23 373:254 374:164 375:73 376:254 377:183 378:32 380:23 381:11 382:157 383:199 384:7 400:86 401:253 402:71 403:115 404:254 405:47 410:157 411:229 412:19 428:99 429:246 431:161 432:254 433:31 438:157 439:163 455:26 456:240 457:181 459:97 460:254 461:129 462:3 466:221 467:112 483:36 484:254 485:128 487:24 488:186 489:254 490:165 493:83 494:252 495:52 511:36 512:254 513:122 516:2 517:56 518:20 520:27 521:222 522:166 523:1 539:36 540:254 541:175 547:4 548:128 549:237 550:46 567:18 568:227 569:247 570:27 574:5 575:150 576:254 577:128 596:151 597:254 598:238 599:149 600:117 601:164 602:212 603:254 604:202 605:46 624:14 625:223 626:254 627:254 628:254 629:254 630:253 631:197 632:18 653:33 654:165 655:165 656:248 657:175 658:82 #
-5.2464965924580871e-008 151:8 152:157 153:247 154:252 155:247 156:247 157:247 158:172 159:120 160:4 177:3 178:128 179:235 180:163 181:57 182:48 184:5 185:74 186:111 187:224 188:184 189:8 204:4 205:168 206:225 207:40 215:24 216:194 217:148 232:160 233:235 234:41 244:27 245:205 246:75 247:3 258:56 259:84 260:238 261:99 273:30 274:242 275:56 286:180 287:254 288:136 302:171 303:140 313:8 314:244 315:213 316:8 330:93 331:220 332:5 341:62 342:254 343:147 358:66 359:254 360:8 369:6 370:232 371:71 386:5 387:239 388:8 398:180 399:144 414:43 415:248 416:8 426:100 427:177 442:67 443:255 444:8 454:94 455:247 456:46 470:45 471:196 472:3 482:10 483:226 484:139 498:101 499:111 511:151 512:176 525:8 526:215 527:16 539:94 540:247 541:53 553:111 554:161 555:3 567:12 568:208 569:146 580:58 581:227 582:33 596:70 597:248 598:81 606:8 607:125 608:236 609:80 624:4 625:162 626:241 627:114 628:7 633:57 634:188 635:254 636:114 637:4 653:8 654:128 655:244 656:218 657:156 658:77 659:130 660:161 661:250 662:186 663:32 664:3 683:7 684:82 685:166 686:225 687:225 688:166 689:56 690:2 #
-8.5840149264476447e-007 152:24 153:161 154:204 155:151 156:19 179:31 180:193 181:234 182:196 183:254 184:152 206:11 207:186 208:185 209:5 210:5 211:148 212:240 213:21 234:169 235:254 236:201 237:105 239:76 240:249 241:32 262:248 263:249 264:221 265:60 267:22 268:243 269:97 290:248 291:98 296:222 297:108 318:242 319:27 324:201 325:108 345:4 346:191 352:140 353:146 373:64 374:197 380:172 381:143 401:38 402:204 408:183 409:197 429:55 430:186 436:142 437:177 457:64 458:201 464:136 465:162 485:38 486:182 492:167 493:108 514:151 515:10 520:152 521:167 542:178 543:31 548:224 549:126 570:143 571:85 575:61 576:254 577:101 598:17 599:212 603:128 604:237 605:17 627:216 628:26 631:196 632:177 655:152 656:170 657:64 658:129 659:229 660:14 683:23 684:239 685:254 686:252 687:106 #
9.9999999999999995e-007 154:32 155:202 156:255 157:253 158:253 159:253 160:253 161:255 162:253 163:164 181:21 182:190 183:251 184:253 185:251 186:251 187:251 188:251 189:253 190:168 191:15 209:63 210:251 211:251 212:253 213:251 214:251 215:251 216:251 217:253 218:107 236:63 237:231 238:251 239:251 240:253 241:251 242:251 243:251 244:251 245:221 246:61 264:144 265:251 266:251 267:251 268:253 269:251 270:251 271:251 272:122 273:51 291:73 292:253 293:253 294:253 295:253 296:255 297:253 298:253 299:253 300:72 319:73 320:251 321:251 322:251 323:251 324:253 325:251 326:251 327:251 328:71 347:99 348:251 349:251 350:251 351:251 352:253 353:251 354:251 355:235 356:61 375:253 376:251 377:251 378:251 379:251 380:253 381:251 382:251 383:142 403:253 404:251 405:251 406:251 407:251 408:253 409:251 410:251 411:142 430:182 431:255 432:253 433:253 434:253 435:253 436:255 437:253 438:242 439:103 457:63 458:221 459:253 460:251 461:251 462:251 463:251 464:253 465:251 466:112 484:6 485:129 486:251 487:253 488:251 489:251 490:251 491:251 492:253 493:251 494:35 512:37 513:251 514:251 515:253 516:251 517:251 518:251 519:251 520:253 521:251 522:35 540:166 541:251 542:251 543:253 544:251 545:251 546:251 547:251 548:253 549:147 550:10 567:145 568:253 569:253 570:253 571:255 572:253 573:253 574:253 575:253 576:234 577:77 595:144 596:251 597:251 598:251 599:253 600:251 601:251 602:251 603:251 604:180 623:124 624:246 625:251 626:251 627:253 628:251 629:251 630:251 631:251 632:180 652:138 653:251 654:251 655:253 656:251 657:251 658:251 659:251 660:103 680:11 681:148 682:251 683:253 684:251 685:251 686:251 687:122 #
3.7490542286399984e-007 132:65 133:166 134:128 135:40 147:17 148:47 149:131 150:12 158:22 159:85 160:234 161:253 162:253 163:99 174:86 175:185 176:253 177:172 178:6 185:9 186:195 187:253 188:253 189:253 190:222 191:42 201:29 202:211 203:253 204:239 205:73 211:46 212:135 213:247 214:253 215:253 216:253 217:253 218:49 230:125 231:252 232:220 233:18 237:36 238:147 239:222 240:253 241:253 242:253 243:253 244:253 245:236 246:38 259:247 260:253 261:190 262:55 263:139 264:139 265:243 266:253 267:253 268:253 269:168 270:253 271:253 272:249 273:66 287:71 288:181 289:253 290:244 291:253 292:253 293:253 294:193 295:168 296:32 297:72 298:253 299:253 300:100 316:11 317:68 318:214 319:203 320:68 321:68 322:21 324:9 325:180 326:253 327:245 328:81 352:70 353:253 354:253 355:191 380:117 381:253 382:218 383:39 407:12 408:226 409:253 410:137 434:12 435:186 436:253 437:253 438:137 462:24 463:253 464:253 465:197 466:16 490:127 491:253 492:249 493:79 518:177 519:253 520:183 545:104 546:242 547:253 548:183 565:7 566:8 567:8 568:8 569:93 570:162 571:162 572:162 573:245 574:253 575:253 576:228 577:162 578:162 579:125 580:8 581:8 582:2 592:109 593:223 594:253 595:253 596:253 597:253 598:253 599:253 600:253 601:253 602:253 603:253 604:253 605:253 606:253 607:253 608:253 609:253 610:45 620:255 621:253 622:253 623:253 624:253 625:253 626:253 627:253 628:253 629:253 630:253 631:253 632:205 633:199 634:199 635:199 636:101 637:45 638:8 648:100 649:99 650:99 651:99 652:99 653:99 654:99 655:99 656:179 657:253 658:145 659:99 660:12 #
2.0838673879807429e-007 131:85 132:181 133:58 157:77 158:199 159:252 160:254 161:245 175:151 176:155 183:21 184:132 185:250 186:254 187:254 188:254 189:190 202:44 203:240 204:109 209:79 210:132 211:239 212:254 213:254 214:254 215:254 216:249 217:69 230:106 231:254 232:185 233:99 234:99 235:99 236:200 237:248 238:254 239:254 240:188 241:72 242:167 243:254 244:241 258:68 259:245 260:254 261:254 262:254 263:254 264:254 265:254 266:236 267:139 268:11 269:12 270:192 271:254 272:194 287:35 288:153 289:198 290:228 291:169 292:135 293:39 294:31 297:33 298:254 299:238 300:17 317:15 318:31 325:141 326:254 327:127 352:69 353:236 354:247 355:75 380:170 381:254 382:194 407:11 408:190 409:247 410:75 435:140 436:254 437:222 462:10 463:191 464:254 465:130 490:53 491:254 492:248 493:77 518:137 519:254 520:215 545:51 546:227 547:254 548:151 549:27 550:27 551:27 552:25 564:10 565:20 566:20 567:71 568:151 569:151 570:151 571:151 572:151 573:228 574:254 575:254 576:254 577:254 578:255 579:254 580:241 592:192 593:254 594:254 595:254 596:254 597:254 598:254 599:254 600:254 601:254 602:254 603:254 604:252 605:241 606:241 607:163 608:105 620:243 621:248 622:248 623:248 624:248 625:248 626:248 627:248 628:250 629:254 630:226 631:117 632:99 656:32 657:221 658:134 #
1.6977177880822019e-008 96:2 97:55 98:255 99:133 100:5 124:44 125:253 126:253 127:253 128:222 129:30 152:19 153:208 154:253 155:253 156:253 157:55 179:4 180:25 181:181 182:253 183:253 184:253 185:116 202:20 203:149 204:14 206:20 207:125 208:253 209:253 210:253 211:253 212:253 213:55 230:130 231:253 232:201 233:101 234:218 235:253 236:253 237:253 238:253 239:253 240:253 241:55 258:130 259:253 260:253 261:253 262:253 263:253 264:253 265:253 266:253 267:253 268:253 269:55 286:215 287:253 288:253 289:253 290:253 291:253 292:253 293:253 294:253 295:253 296:253 297:140 314:227 315:253 316:253 317:253 318:253 319:253 320:253 321:253 322:253 323:253 324:253 325:151 342:130 343:253 344:249 345:228 346:215 347:113 348:68 349:195 350:253 351:253 352:253 353:86 370:35 371:185 372:210 373:65 374:24 377:67 378:233 379:253 380:253 381:235 382:71 400:143 401:202 406:180 407:253 408:253 409:253 410:172 427:11 428:192 429:228 434:140 435:253 436:253 437:253 438:198 439:14 455:3 456:22 457:39 462:10 463:155 464:253 465:253 466:253 467:145 491:63 492:253 493:253 494:253 495:166 519:38 520:229 521:253 522:253 523:166 524:86 525:12 541:11 542:93 544:19 545:106 546:194 547:230 548:248 549:253 550:253 551:245 552:250 553:184 554:218 555:175 556:106 557:3 569:80 570:251 571:236 572:239 573:253 574:253 575:253 576:253 577:253 578:253 579:253 580:253 581:253 582:253 583:253 584:253 585:60 597:149 598:253 599:253 600:253 601:253 602:253 603:253 604:253 605:253 606:253 607:253 608:253 609:253 610:253 611:253 612:253 613:248 625:16 626:129 627:129 628:129 629:129 630:129 631:129 632:129 633:129 634:129 635:129 636:129 637:129 638:129 639:129 640:129 641:129 #
9.9999999999999995e-007 130:63 131:176 132:90 157:10 158:178 159:253 160:243 161:50 185:60 186:252 187:253 188:252 189:133 207:7 208:26 212:7 213:178 214:252 215:253 216:195 217:19 234:48 235:165 236:239 237:63 240:135 241:252 242:252 243:253 244:167 261:114 262:159 263:253 264:225 266:51 267:159 268:253 269:253 270:253 271:255 272:106 289:253 290:252 291:252 292:233 293:163 294:238 295:252 296:252 297:252 298:252 299:106 300:3 317:253 318:252 319:252 320:252 321:252 322:253 323:252 324:252 325:252 326:252 345:146 346:233 347:252 348:233 349:223 350:162 351:84 352:215 353:252 354:252 374:38 375:112 376:37 379:48 380:227 381:252 382:173 407:85 408:253 409:253 410:112 435:85 436:252 437:226 438:12 463:194 464:252 465:114 491:225 492:252 493:84 519:225 520:220 521:37 546:51 547:238 548:196 565:29 566:85 567:85 568:85 569:85 570:85 571:85 572:85 573:85 574:159 575:252 576:246 577:225 578:225 579:226 580:72 593:85 594:252 595:252 596:252 597:253 598:252 599:252 600:252 601:252 602:253 603:252 604:252 605:252 606:252 607:196 608:130 621:76 622:223 623:242 624:252 625:253 626:252 627:252 628:252 629:252 630:253 631:242 632:223 633:129 634:84 651:75 652:112 653:112 654:112 655:142 656:236 657:112 658:112 659:74 #
-9.9999999999999995e-007 153:57 154:252 155:248 181:157 182:254 183:252 184:112 209:157 210:254 211:254 212:197 213:108 214:59 236:52 237:233 238:254 239:254 240:254 241:254 242:229 243:38 264:146 265:254 266:254 267:254 268:254 269:254 270:254 271:49 292:231 293:254 294:254 295:254 296:254 297:254 298:254 299:49 319:78 320:244 321:254 322:254 323:254 324:254 325:254 326:254 327:49 347:140 348:254 349:254 350:254 351:254 352:254 353:254 354:254 355:49 375:140 376:254 377:254 378:203 379:103 380:254 381:254 382:254 383:49 403:140 404:254 405:254 406:11 407:9 408:254 409:254 410:254 411:49 431:140 432:254 433:147 434:3 435:122 436:254 437:254 438:175 439:16 459:140 460:254 461:98 463:173 464:254 465:254 466:139 486:38 487:226 488:254 489:98 491:173 492:254 493:252 494:126 514:50 515:254 516:254 517:98 519:173 520:254 521:230 542:50 543:254 544:254 545:98 546:68 547:239 548:254 549:96 570:50 571:254 572:254 573:179 574:172 575:254 576:254 577:65 598:39 599:229 600:254 601:254 602:254 603:254 604:254 605:65 627:140 628:254 629:254 630:254 631:254 632:196 633:27 655:100 656:248 657:254 658:254 659:198 660:10 684:125 685:254 686:201 687:29 #
-9.9999999999999995e-007 127:27 128:120 129:255 130:254 131:45 155:184 156:253 157:253 158:253 159:217 160:31 182:55 183:252 184:253 185:253 186:253 187:253 188:83 209:18 210:192 211:253 212:253 213:253 214:253 215:253 216:83 236:5 237:238 238:253 239:253 240:253 241:253 242:253 243:253 244:170 245:19 264:2 265:114 266:253 267:253 268:253 269:253 270:253 271:253 272:134 273:11 292:3 293:189 294:253 295:253 296:211 297:247 298:253 299:244 300:44 320:74 321:253 322:253 323:243 324:134 325:253 326:253 327:207 347:27 348:214 349:253 350:253 351:125 352:175 353:253 354:253 355:85 374:4 375:144 376:253 377:253 378:253 379:155 380:230 381:253 382:253 383:25 402:99 403:253 404:253 405:253 406:213 407:253 408:253 409:253 410:191 411:6 429:59 430:239 431:253 432:250 433:87 434:19 435:250 436:253 437:248 438:105 457:176 458:253 459:253 460:212 462:135 463:253 464:253 465:186 484:38 485:249 486:253 487:246 488:85 490:202 491:253 492:243 493:62 512:204 513:253 514:253 515:191 516:2 517:100 518:239 519:253 520:133 539:50 540:243 541:253 542:253 543:136 544:212 545:253 546:253 547:165 548:7 566:25 567:232 568:253 569:253 570:253 571:253 572:253 573:253 574:199 575:37 594:84 595:253 596:253 597:253 598:253 599:253 600:251 601:119 602:8 622:140 623:253 624:253 625:253 626:226 627:171 628:91 650:56 651:253 652:253 653:224 654:80 #
-7.0444504623396873e-007 149:93 150:254 151:113 152:131 153:166 154:63 176:98 177:240 178:253 179:253 180:253 181:253 182:174 183:11 203:8 204:226 205:253 206:253 207:253 208:253 209:253 210:254 211:56 212:6 231:64 232:240 233:182 234:253 235:253 236:253 237:253 238:254 239:253 240:89 260:70 261:56 262:148 263:253 264:253 265:253 266:254 267:253 268:234 269:119 290:134 291:253 292:253 293:253 294:254 295:253 296:253 297:218 298:127 317:16 318:198 319:253 320:253 321:253 322:254 323:253 324:253 325:253 326:178 345:172 346:253 347:253 348:253 349:253 350:254 351:253 352:253 353:253 354:249 355:70 373:179 374:253 375:253 376:253 377:138 378:139 379:253 380:253 381:253 382:253 383:162 401:179 402:253 403:253 404:253 405:192 406:43 407:227 408:253 409:253 410:253 411:162 429:181 430:254 431:254 432:254 433:254 435:149 436:254 437:254 438:254 439:224 457:179 458:253 459:253 460:242 461:105 463:60 464:253 465:253 466:253 467:230 468:29 485:171 486:253 487:253 488:211 489:15 490:104 491:160 492:253 493:253 494:253 495:251 496:112 513:30 514:253 515:253 516:253 517:253 518:254 519:225 520:211 521:253 522:253 523:223 541:4 542:148 543:253 544:253 545:253 546:254 547:246 548:243 549:253 550:253 551:223 570:134 571:253 572:253 573:253 574:254 575:253 576:253 577:253 578:253 579:117 598:64 599:166 600:253 601:253 602:254 603:253 604:253 605:253 606:213 607:35 627:59 628:232 629:253 630:255 631:253 632:253 633:253 634:37 656:168 657:226 658:254 659:253 660:224 661:208 662:24 684:19 685:43 686:166 687:217 688:37 #
-9.9999999999999995e-007 125:89 126:255 127:254 128:151 129:8 153:88 154:253 155:253 156:253 157:134 181:88 182:253 183:253 184:253 185:200 209:88 210:253 211:253 212:253 213:200 237:88 238:253 239:253 240:253 241:200 264:5 265:168 266:253 267:253 268:253 269:200 291:11 292:156 293:253 294:253 295:253 296:253 297:205 298:13 319:106 320:253 321:253 322:253 323:253 324:253 325:253 326:122 346:1 347:111 348:253 349:250 350:244 351:252 352:253 353:214 354:33 374:88 375:253 376:253 377:165 379:246 380:253 381:200 402:202 403:253 404:253 405:165 407:246 408:253 409:235 410:81 429:120 430:251 431:253 432:250 433:120 435:246 436:253 437:201 438:4 457:124 458:253 459:253 460:244 463:246 464:253 465:200 485:12 486:207 487:253 488:250 489:115 490:150 491:252 492:253 493:248 494:110 514:202 515:253 516:244 518:167 519:253 520:253 521:225 522:59 542:202 543:253 544:245 545:36 546:179 547:253 548:253 549:54 570:202 571:253 572:253 573:253 574:253 575:253 576:185 577:14 598:202 599:253 600:253 601:253 602:253 603:253 604:104 626:202 627:253 628:253 629:253 630:253 631:226 632:65 654:62 655:78 656:205 657:253 658:137 659:56 #
9.9999999999999995e-007 128:67 129:244 130:56 155:64 156:244 157:171 158:7 182:26 183:239 184:227 185:37 209:17 210:196 211:254 212:160 237:75 238:254 239:254 240:7 264:7 265:193 266:254 267:169 292:85 293:254 294:234 295:20 301:70 302:86 303:67 319:5 320:192 321:254 322:114 327:17 328:197 329:252 330:254 331:197 347:65 348:254 349:226 350:20 355:76 356:254 357:241 358:225 359:106 375:114 376:254 377:197 383:48 384:107 385:37 402:30 403:237 404:255 405:79 430:131 431:254 432:178 433:1 457:3 458:180 459:254 460:130 485:138 486:254 487:213 488:25 513:170 514:254 515:124 540:15 541:238 542:250 543:43 551:34 552:16 568:135 569:254 570:140 579:76 580:143 596:198 597:254 598:92 607:76 608:252 609:101 624:198 625:254 626:18 635:76 636:254 637:130 652:94 653:225 654:12 663:76 664:236 665:30 #
9.9999999999999995e-007 152:63 153:253 154:78 180:63 181:254 182:202 208:121 209:254 210:202 236:167 237:254 238:202 242:164 243:58 263:2 264:176 265:254 266:192 270:240 271:248 272:88 291:46 292:254 293:254 294:99 298:180 299:254 300:234 319:121 320:254 321:250 322:12 326:17 327:221 328:234 347:121 348:254 349:249 355:182 356:234 375:165 376:254 377:204 382:27 383:243 384:234 402:15 403:230 404:254 405:145 410:53 411:254 412:234 430:74 431:254 432:254 433:105 438:176 439:254 440:234 458:175 459:254 460:219 461:18 466:240 467:254 468:72 486:177 487:254 488:192 494:240 495:159 496:7 513:4 514:187 515:254 516:179 522:210 523:5 541:27 542:254 543:254 544:88 550:102 569:128 570:255 571:247 572:45 597:235 598:254 599:211 625:235 626:254 627:134 653:235 654:254 655:134 681:107 682:255 683:134 #
9.9999999999999995e-007 156:64 157:154 158:103 159:1 184:196 185:254 186:254 187:5 211:78 212:240 213:254 214:254 215:5 237:9 238:109 239:241 240:254 241:254 242:215 243:4 265:74 266:254 267:254 268:254 269:214 270:27 292:9 293:197 294:254 295:254 296:254 297:102 319:11 320:245 321:254 322:254 323:254 324:144 325:18 346:15 347:187 348:254 349:254 350:254 351:197 352:22 373:17 374:128 375:254 376:254 377:254 378:225 379:23 401:163 402:254 403:254 404:254 405:211 406:93 427:14 428:121 429:244 430:254 431:254 432:252 433:71 455:36 456:254 457:254 458:254 459:254 460:88 471:77 472:185 473:61 482:15 483:204 484:254 485:254 486:254 487:144 488:1 499:84 500:254 501:252 510:137 511:254 512:254 513:254 514:202 515:12 527:84 528:254 529:255 538:192 539:254 540:254 541:241 542:79 555:84 556:254 557:254 566:137 567:254 568:254 569:216 570:22 583:84 584:254 585:168 594:37 595:222 596:254 597:89 611:84 612:221 613:36 623:21 624:35 625:9 639:12 640:21 #
5.2377878196609716e-007 155:6 156:122 157:171 158:19 177:74 178:191 179:50 183:131 184:254 185:254 186:75 205:37 206:248 207:227 208:121 209:121 210:212 211:248 212:254 213:250 214:62 234:85 235:219 236:254 237:254 238:238 239:205 240:254 241:142 263:6 264:9 265:9 266:8 267:204 268:254 269:59 294:48 295:247 296:146 297:4 322:175 323:250 324:56 349:16 350:244 351:167 376:2 377:128 378:254 379:48 404:20 405:254 406:222 407:16 432:126 433:254 434:65 459:43 460:246 461:217 462:8 464:7 465:10 466:10 467:10 468:61 469:107 470:107 471:107 472:103 487:144 488:254 489:194 490:169 491:169 492:227 493:254 494:254 495:254 496:254 497:254 498:208 499:182 500:77 511:29 512:133 513:144 514:231 515:254 516:254 517:254 518:254 519:254 520:228 521:216 522:139 523:120 524:106 525:24 526:9 537:66 538:185 539:240 540:254 541:252 542:250 543:193 544:153 545:123 546:57 547:57 548:19 565:188 566:187 567:152 568:91 569:48 #
-4.1946318830768074e-007 150:65 151:179 152:254 153:254 154:255 155:196 156:79 157:7 177:8 178:219 179:170 180:106 181:45 182:54 183:119 184:228 185:184 186:16 205:149 206:123 207:1 212:14 213:184 214:218 215:5 233:236 234:45 241:11 242:217 243:145 260:89 261:227 262:6 270:40 271:241 272:27 288:180 289:120 299:193 300:150 315:55 316:230 317:36 327:65 328:243 329:12 343:120 344:174 355:30 356:253 357:85 371:177 372:104 383:30 384:253 385:89 398:5 399:211 400:38 411:30 412:253 413:89 426:46 427:235 428:18 439:31 440:254 441:90 454:90 455:208 467:30 468:253 469:89 482:90 483:235 484:18 495:30 496:253 497:41 510:90 511:208 523:30 524:242 525:12 538:90 539:221 540:9 551:97 552:193 566:16 567:254 568:30 579:157 580:194 594:3 595:204 596:91 607:241 608:153 623:120 624:223 625:5 634:5 635:254 636:71 651:11 652:195 653:145 661:35 662:150 663:240 664:24 680:40 681:228 682:144 683:5 686:53 687:154 688:224 689:246 690:253 691:115 #
-2.5963458626567688e-007 96:25 97:232 98:216 99:11 124:41 125:254 126:213 127:9 152:66 153:254 154:114 179:7 180:189 181:254 182:5 207:86 208:254 209:254 210:5 234:4 235:144 236:250 237:248 238:95 262:64 263:192 264:59 265:195 266:194 267:17 290:181 291:64 293:49 294:252 295:202 296:68 317:134 318:142 322:136 323:254 324:241 325:68 344:12 345:222 346:66 350:1 351:128 352:254 353:253 354:156 355:26 372:142 373:152 374:5 379:1 380:136 381:254 382:254 383:220 384:33 399:16 400:216 401:30 409:152 410:254 411:254 412:225 413:13 426:1 427:116 428:105 437:18 438:134 439:253 440:254 441:113 442:4 454:11 455:254 456:35 467:158 468:254 469:254 470:92 482:11 483:254 484:74 495:25 496:208 497:255 498:244 499:9 510:82 511:254 512:66 524:81 525:254 526:226 527:7 538:58 539:254 540:134 551:81 552:173 553:182 554:63 566:11 567:254 568:216 569:29 577:36 578:128 579:238 580:164 581:13 594:9 595:221 596:254 597:219 598:77 599:46 600:46 601:46 602:65 603:147 604:211 605:183 606:79 607:9 623:14 624:149 625:254 626:233 627:254 628:254 629:138 630:154 631:74 632:42 #
-2.8562172540500144e-007 124:60 125:225 126:23 151:7 152:234 153:171 154:161 179:142 180:241 181:217 182:245 183:194 184:74 206:4 207:240 208:173 209:68 210:31 211:116 212:205 213:91 214:1 234:156 235:200 240:44 241:229 242:66 261:10 262:226 263:50 269:88 270:194 271:15 289:42 290:234 291:10 298:174 299:88 317:172 318:136 326:81 327:211 328:17 345:193 346:52 354:3 355:204 356:38 373:193 374:38 383:193 384:86 400:11 401:237 402:39 411:140 412:146 428:16 429:255 430:38 439:117 440:192 456:16 457:255 458:38 467:117 468:192 484:16 485:217 486:2 495:168 496:90 512:4 513:199 514:29 522:24 523:240 524:38 541:193 542:38 550:177 551:179 552:6 569:191 570:136 577:97 578:219 579:46 597:79 598:233 599:21 604:77 605:238 606:75 626:184 627:197 628:55 629:27 630:57 631:162 632:204 633:66 654:6 655:124 656:231 657:243 658:246 659:140 660:12 #
-2.2232046262918137e-007 186:9 187:77 188:182 189:239 190:169 191:15 212:16 213:94 214:229 215:255 216:155 217:191 218:213 219:152 239:102 240:226 241:122 242:38 243:118 244:6 245:9 246:98 247:210 263:2 264:57 265:202 266:225 267:111 268:5 274:99 275:170 291:156 292:243 293:106 294:14 302:159 303:144 316:5 317:100 318:214 319:115 320:12 329:68 330:248 331:59 343:35 344:181 345:205 346:11 356:11 357:225 358:138 370:76 371:208 372:91 373:9 383:9 384:183 385:196 386:7 397:25 398:240 399:80 411:145 412:230 413:31 424:8 425:158 426:117 437:29 438:148 439:230 440:60 452:106 453:229 454:9 464:37 465:189 466:223 467:31 480:193 481:124 490:19 491:103 492:217 493:160 494:25 508:210 509:67 517:89 518:215 519:236 520:72 536:224 537:179 538:2 542:25 543:149 544:237 545:237 546:141 547:14 564:140 565:254 566:163 567:135 568:134 569:188 570:246 571:193 572:106 573:19 592:6 593:94 594:164 595:164 596:164 597:155 598:50 599:1 #
9.9999999999999995e-007 125:191 126:255 127:255 128:255 129:191 130:64 152:64 153:255 154:255 155:255 156:255 157:255 158:128 180:128 181:255 182:255 183:255 184:255 185:255 186:255 208:255 209:255 210:255 211:255 212:255 213:255 214:255 236:255 237:255 238:255 239:255 240:255 241:255 242:255 263:128 264:255 265:255 266:255 267:255 268:255 269:255 270:255 291:128 292:255 293:255 294:255 295:255 296:255 297:255 298:255 319:128 320:255 321:255 322:255 323:255 324:255 325:255 326:255 347:128 348:255 349:255 350:255 351:255 352:255 353:255 354:255 374:64 375:255 376:255 377:255 378:255 379:255 380:255 381:255 382:255 402:191 403:255 404:255 405:255 406:255 407:255 408:255 409:255 410:191 430:255 431:255 432:255 433:255 434:255 435:255 436:255 437:255 438:128 457:128 458:255 459:255 460:255 461:255 462:255 463:255 464:255 465:191 485:191 486:255 487:255 488:255 489:255 490:255 491:255 492:255 493:128 513:255 514:255 515:255 516:255 517:255 518:255 519:255 520:255 521:128 541:255 542:255 543:255 544:255 545:255 546:255 547:255 548:255 549:128 569:255 570:255 571:255 572:255 573:255 574:255 575:255 576:255 577:128 597:64 598:255 599:255 600:255 601:255 602:255 603:255 604:255 605:64 626:191 627:255 628:255 629:255 630:255 631:255 632:64 655:128 656:191 657:255 658:255 659:64 #
3.8734139164215293e-008 127:13 128:204 129:253 130:253 131:103 154:19 155:194 156:253 157:252 158:252 159:252 182:85 183:252 184:253 185:252 186:252 187:252 210:85 211:252 212:253 213:252 214:252 215:252 237:7 238:204 239:253 240:255 241:253 242:253 243:253 265:82 266:252 267:252 268:253 269:252 270:252 271:252 293:169 294:252 295:252 296:253 297:252 298:252 299:214 321:169 322:252 323:252 324:253 325:252 326:252 327:139 348:41 349:253 350:253 351:253 352:254 353:253 354:206 355:13 376:216 377:252 378:252 379:252 380:253 381:252 382:168 404:253 405:252 406:252 407:252 408:253 409:252 410:168 430:38 431:163 432:253 433:252 434:252 435:252 436:253 437:252 438:68 457:45 458:178 459:253 460:254 461:253 462:253 463:253 464:254 465:184 484:7 485:187 486:252 487:252 488:253 489:252 490:252 491:252 492:247 493:65 512:66 513:252 514:252 515:252 516:253 517:252 518:252 519:252 520:187 540:241 541:252 542:252 543:252 544:253 545:252 546:252 547:252 548:13 568:254 569:253 570:253 571:253 572:254 573:253 574:253 575:241 596:253 597:252 598:252 599:252 600:253 601:252 602:196 603:47 624:128 625:252 626:252 627:252 628:253 629:252 630:80 652:16 653:215 654:252 655:252 656:253 657:102 658:6 #
-2.4910930733406684e-007 181:32 182:91 183:173 184:231 185:193 186:172 187:159 188:18 208:85 209:249 210:254 211:254 212:253 213:243 214:245 215:254 216:157 217:3 235:113 236:248 237:254 238:254 239:255 240:244 241:49 242:30 243:183 244:254 245:33 262:39 263:247 264:254 265:254 266:254 267:243 268:244 269:103 271:41 272:225 273:70 290:42 291:235 292:254 293:254 294:200 295:32 296:154 297:133 300:131 301:115 319:114 320:254 321:215 322:17 324:140 325:32 328:147 329:183 346:28 347:229 348:239 349:60 356:213 357:177 374:98 375:254 376:120 384:213 385:115 401:12 402:220 403:200 404:2 411:39 412:251 413:64 429:95 430:254 431:64 439:121 440:238 441:22 456:2 457:181 458:205 466:12 467:223 468:149 484:33 485:254 486:115 494:92 495:254 496:118 512:41 513:223 514:11 522:149 523:236 524:24 540:126 541:213 549:57 550:241 551:112 567:12 568:224 569:199 576:22 577:205 578:214 579:10 595:12 596:224 597:130 603:2 604:155 605:249 606:86 624:197 625:149 631:143 632:254 633:138 652:149 653:223 654:32 657:20 658:172 659:254 660:143 661:7 680:29 681:240 682:230 683:156 684:156 685:238 686:254 687:172 688:5 709:60 710:161 711:254 712:254 713:176 714:119 715:3 #
-9.9999999999999995e-007 128:255 129:191 130:128 155:64 156:255 157:255 158:255 159:128 160:64 184:255 185:255 186:255 187:255 188:191 212:128 213:255 214:255 215:255 216:255 217:128 239:64 240:255 241:255 242:191 243:255 244:255 245:128 266:64 267:255 268:255 269:255 271:255 272:255 273:128 293:191 294:255 295:255 296:255 297:255 298:191 299:255 300:255 301:64 320:128 321:255 322:255 323:255 324:255 325:255 326:255 327:255 328:191 347:128 348:255 349:255 350:255 351:255 352:255 353:255 354:255 355:255 356:128 375:191 376:255 377:255 378:255 379:255 380:255 381:255 382:255 383:191 402:191 403:255 404:255 405:255 406:255 407:255 408:255 409:255 410:255 430:255 431:255 432:255 433:255 434:255 435:255 436:255 437:255 438:191 457:128 458:255 459:255 460:255 461:255 462:255 463:255 464:255 465:191 484:64 485:255 486:255 487:255 488:255 489:255 490:255 491:255 492:255 493:64 512:128 513:255 514:255 515:255 516:255 517:255 518:255 519:255 540:128 541:255 542:255 543:255 544:255 545:255 546:255 547:255 568:128 569:255 570:255 571:255 572:255 573:255 574:255 575:64 596:64 597:255 598:255 599:255 600:255 601:255 602:128 625:128 626:255 627:255 628:255 629:64 654:191 655:255 656:64 #
4.402256764581453e-007 125:29 126:161 127:255 128:181 129:2 152:9 153:127 154:253 155:253 156:253 157:116 179:4 180:180 181:253 182:249 183:249 184:253 185:172 206:4 207:126 208:253 209:220 210:79 211:192 212:253 213:172 234:38 235:253 236:247 237:113 239:192 240:253 241:172 262:38 263:253 264:235 265:66 267:192 268:253 269:172 290:13 291:168 292:240 293:197 295:192 296:253 297:172 320:55 321:63 323:192 324:253 325:148 351:192 352:237 353:38 378:16 379:207 380:179 406:32 407:223 408:179 434:63 435:253 436:179 462:63 463:253 464:179 490:63 491:253 492:179 496:77 497:88 498:49 518:9 519:201 520:179 522:78 523:199 524:249 525:253 526:141 547:192 548:244 549:223 550:248 551:253 552:214 553:103 554:17 572:21 573:106 574:197 575:248 576:253 577:253 578:165 579:42 580:15 595:64 596:112 597:112 598:112 599:194 600:239 601:253 602:253 603:253 604:165 605:42 606:3 623:143 624:253 625:253 626:253 627:253 628:253 629:227 630:135 631:42 632:3 651:73 652:141 653:177 654:208 655:171 656:105 657:4 #
-9.9999999999999995e-007 189:111 190:235 191:148 192:45 213:6 214:214 215:214 216:214 217:246 218:254 219:254 220:157 238:46 239:82 240:119 241:195 242:254 243:254 244:254 245:254 246:245 247:113 248:61 265:62 266:239 267:254 268:254 269:254 270:254 271:254 272:254 273:254 274:120 291:8 292:14 293:174 294:254 295:254 296:254 297:254 298:254 299:254 300:254 301:221 302:42 318:79 319:195 320:254 321:254 322:254 323:254 324:254 325:254 326:254 327:254 328:254 329:254 330:141 346:152 347:254 348:254 349:254 350:254 351:254 352:254 353:254 354:254 355:254 356:218 357:144 358:43 373:13 374:188 375:254 376:254 377:254 378:206 379:254 380:254 381:254 382:254 383:113 384:18 400:16 401:95 402:254 403:254 404:254 405:192 406:141 407:218 408:179 409:253 410:185 411:85 428:157 429:254 430:254 431:254 432:233 433:65 434:179 435:254 436:254 437:221 454:11 455:70 456:233 457:254 458:253 459:155 460:137 461:245 462:255 463:254 464:221 465:39 482:98 483:254 484:254 485:254 486:159 487:79 488:252 489:254 490:254 491:227 492:39 510:164 511:254 512:254 513:220 514:14 515:254 516:254 517:254 518:254 519:138 537:113 538:254 539:254 540:254 541:234 542:187 543:254 544:254 545:254 546:132 547:4 565:162 566:254 567:254 568:254 569:254 570:254 571:254 572:254 573:131 574:7 593:222 594:254 595:254 596:254 597:254 598:254 599:222 600:58 601:6 621:35 622:241 623:254 624:254 625:249 626:130 627:37 650:89 651:96 652:96 653:83 #
8.1830344417832316e-007 188:176 189:208 200:187 201:197 202:11 215:94 216:248 217:125 228:176 229:255 230:36 242:11 243:234 244:243 256:217 257:233 258:16 270:135 271:254 272:119 284:217 285:145 297:37 298:243 299:238 300:21 312:217 313:104 325:129 326:253 327:114 340:208 341:21 352:53 353:254 354:243 355:21 368:145 380:115 381:254 382:119 396:84 407:16 408:233 409:254 410:78 435:58 436:253 437:181 438:5 463:171 464:254 465:115 491:254 492:211 493:11 518:115 519:254 520:171 546:217 547:233 548:26 573:47 574:254 575:187 601:171 602:253 603:42 628:63 629:254 630:191 656:145 657:254 658:46 684:176 685:176 712:197 713:73 #
-2.7764153894558646e-007 188:3 189:41 190:80 191:80 192:66 193:4 213:21 214:89 215:149 216:230 217:230 218:223 219:171 220:153 221:228 239:43 240:164 241:238 242:215 243:122 244:47 245:10 248:9 249:19 264:6 265:90 266:186 267:232 268:151 269:68 270:10 291:57 292:215 293:235 294:122 295:18 304:7 305:4 317:17 318:176 319:249 320:105 321:19 331:7 332:88 333:5 343:3 344:60 345:218 346:163 347:43 359:86 360:43 371:61 372:247 373:144 386:44 387:161 398:43 399:233 400:119 413:65 414:107 415:12 426:134 427:212 428:7 440:49 441:173 442:11 454:254 455:67 466:20 467:128 468:132 469:14 482:232 483:72 493:30 494:172 495:151 496:3 510:255 511:55 518:13 519:88 520:190 521:204 522:66 523:1 538:204 539:209 540:53 541:41 542:38 543:46 544:32 545:128 546:232 547:197 548:91 549:3 566:20 567:159 568:254 569:250 570:248 571:230 572:139 573:84 574:33 595:1 596:4 597:4 598:4 599:3 #
9.9999999999999995e-007 72:102 73:239 74:57 92:18 93:16 98:6 99:114 100:244 101:254 102:137 120:154 121:214 122:92 123:92 124:92 125:159 126:200 127:254 128:254 129:254 130:124 148:227 149:254 150:254 151:254 152:254 153:254 154:244 155:149 156:80 157:254 158:148 176:45 177:179 178:239 179:231 180:230 181:163 182:73 184:41 185:246 186:148 206:25 207:3 212:27 213:242 214:148 240:62 241:251 242:148 269:229 270:69 297:207 298:150 325:236 326:190 353:236 354:143 381:236 382:53 409:236 410:53 437:236 438:53 465:236 466:53 493:236 494:53 510:1 511:40 512:102 513:56 514:5 515:4 516:5 517:4 519:4 520:35 521:243 522:54 538:117 539:254 540:254 541:254 542:254 543:220 544:254 545:225 546:164 547:238 548:254 549:254 550:217 551:136 552:119 553:164 554:164 555:70 566:222 567:254 568:254 569:254 570:254 571:254 572:254 573:254 574:254 575:254 576:254 577:254 578:254 579:254 580:255 581:254 582:254 583:221 594:138 595:193 596:159 597:158 598:158 599:194 600:194 601:158 602:86 603:158 604:158 605:158 606:158 607:95 608:99 609:101 610:158 611:101 #
6.445628667689216e-007 129:24 130:150 131:233 132:38 155:14 156:89 157:253 158:254 159:254 160:71 182:78 183:203 184:254 185:254 186:254 187:232 188:77 189:54 190:8 208:12 209:155 210:240 211:254 212:223 213:76 214:254 215:254 216:254 217:254 218:68 234:3 235:101 236:216 237:254 238:227 239:122 240:26 241:110 242:254 243:254 244:254 245:184 246:100 261:46 262:222 263:254 264:254 265:179 266:48 269:181 270:254 271:254 272:146 273:6 287:2 288:145 289:248 290:254 291:182 292:111 293:4 296:3 297:250 298:254 299:206 300:3 314:6 315:144 316:254 317:254 318:171 324:125 325:254 326:252 327:80 341:6 342:142 343:254 344:179 345:95 346:4 351:61 352:246 353:254 354:150 369:64 370:254 371:177 372:14 379:124 380:254 381:246 382:32 397:108 398:97 399:15 406:24 407:226 408:254 409:116 434:177 435:255 436:254 437:5 462:196 463:254 464:99 465:1 489:3 490:199 491:254 492:79 517:129 518:254 519:254 520:23 545:178 546:254 547:192 548:8 549:3 550:43 572:11 573:198 574:254 575:128 576:66 577:130 578:225 594:137 595:202 596:106 597:84 598:84 599:84 600:112 601:254 602:254 603:254 604:254 605:212 606:151 622:172 623:254 624:254 625:254 626:254 627:254 628:254 629:254 630:254 631:254 632:162 633:75 650:12 651:106 652:177 653:254 654:254 655:254 656:235 657:135 658:100 659:17 660:2 #
8.6204141427411781e-007 100:120 101:188 102:11 127:123 128:245 129:254 130:35 154:177 155:253 156:254 157:254 158:35 180:103 181:201 182:255 183:94 184:159 185:254 186:35 205:22 206:54 207:137 208:244 209:254 210:126 211:2 212:149 213:254 214:35 231:8 232:187 233:231 234:254 235:254 236:225 237:71 240:149 241:228 242:18 259:11 260:204 261:236 262:188 263:73 264:15 268:149 269:237 270:24 289:21 296:149 297:201 324:149 325:201 352:149 353:140 380:149 381:114 408:149 409:114 436:149 437:114 464:167 465:114 492:237 493:114 520:225 521:114 540:23 541:14 548:149 549:183 565:36 566:157 567:193 568:245 569:224 570:193 571:193 572:132 573:132 574:76 575:106 576:223 577:241 578:118 579:24 593:158 594:254 595:254 596:254 597:254 598:250 599:252 600:254 601:254 602:254 603:254 604:254 605:254 606:254 607:220 608:184 609:172 610:3 621:74 622:85 623:79 624:79 625:79 626:44 627:60 628:82 629:106 630:79 631:79 632:79 633:79 634:109 635:121 636:236 637:254 638:70 #
-3.2541222053367063e-007 122:1 123:16 124:167 125:255 126:253 127:211 128:81 129:1 149:1 150:147 151:250 152:138 153:66 154:41 155:79 156:169 157:178 158:52 159:1 176:2 177:146 178:207 179:58 185:37 186:241 187:56 203:7 204:59 205:198 206:16 214:82 215:234 216:12 231:162 232:231 233:57 243:234 244:51 258:6 259:214 260:134 271:198 272:109 286:13 287:254 288:67 299:114 300:215 301:6 314:13 315:254 316:67 327:59 328:252 329:12 342:13 343:254 344:79 356:238 357:12 370:7 371:220 372:191 384:238 385:12 399:169 400:251 401:53 412:238 413:12 427:21 428:219 429:79 440:238 441:12 456:188 457:191 468:238 469:12 484:95 485:235 486:14 495:38 496:231 497:10 512:9 513:219 514:107 523:116 524:162 541:170 542:236 543:32 551:228 552:51 569:16 570:219 571:165 572:14 578:39 579:246 580:16 598:56 599:238 600:165 601:14 606:195 607:190 608:1 627:45 628:223 629:234 630:121 631:80 632:98 633:182 634:254 635:53 656:16 657:156 658:241 659:254 660:254 661:180 662:75 663:1 #
-1.3265520280505142e-008 152:8 153:36 154:96 155:35 178:12 179:52 180:222 181:253 182:253 183:225 184:38 185:16 186:77 187:161 188:136 189:42 190:6 205:95 206:199 207:253 208:253 209:253 210:253 211:254 212:232 213:230 214:253 215:253 216:254 217:238 218:200 219:31 232:76 233:251 234:254 235:253 236:241 237:205 238:253 239:254 240:253 241:253 242:253 243:253 244:254 245:253 246:253 247:180 259:55 260:237 261:253 262:249 263:129 264:13 265:89 266:253 267:254 268:243 269:134 270:95 271:95 272:70 273:95 274:199 275:249 276:40 286:2 287:210 288:254 289:249 290:50 293:198 294:249 295:154 296:45 303:213 304:179 314:77 315:253 316:245 317:53 321:214 322:128 331:36 332:246 342:190 343:253 344:86 349:95 360:238 369:34 370:245 371:206 372:14 377:10 388:238 397:170 398:253 399:52 415:40 416:247 425:225 426:162 443:69 444:254 453:199 454:63 471:177 472:228 481:226 482:12 498:69 499:247 500:148 509:238 524:4 525:158 526:247 527:237 528:22 537:163 551:25 552:215 553:253 554:238 555:31 565:175 566:98 577:8 578:61 579:145 580:255 581:254 582:72 593:81 594:245 595:150 596:42 597:32 599:24 600:26 601:28 602:57 603:112 604:146 605:222 606:253 607:253 608:202 609:83 610:12 621:3 622:172 623:253 624:253 625:253 626:207 627:241 628:244 629:247 630:253 631:254 632:253 633:229 634:185 635:77 636:15 650:4 651:111 652:189 653:249 654:254 655:253 656:253 657:253 658:213 659:135 660:101 661:16 681:15 682:95 683:60 684:40 685:16 686:6 #
-4.1059299063126599e-007 235:56 236:58 237:58 238:95 239:58 240:58 241:5 261:12 262:94 263:250 264:254 265:254 266:254 267:254 268:254 269:220 270:177 271:94 272:3 287:32 288:145 289:217 290:254 291:254 292:254 293:254 294:254 295:222 296:254 297:254 298:254 299:254 300:175 301:20 314:94 315:224 316:254 317:254 318:254 319:54 320:9 321:9 322:128 323:194 324:254 325:213 326:53 327:201 328:250 329:209 330:54 341:36 342:237 343:248 344:155 345:100 346:254 347:24 350:9 351:32 352:139 353:116 356:39 357:207 358:99 369:159 370:254 371:163 373:17 374:200 375:139 385:100 386:187 397:177 398:254 399:72 402:5 403:1 413:1 414:147 415:228 416:36 425:213 426:254 427:109 442:13 443:226 444:140 453:159 454:254 455:225 456:32 471:159 472:224 481:36 482:220 483:254 484:221 485:54 499:226 500:165 510:74 511:223 512:254 513:250 514:133 515:87 516:9 525:4 526:98 527:231 528:56 539:31 540:160 541:254 542:254 543:254 544:248 545:169 546:115 547:41 551:21 552:88 553:203 554:254 555:98 568:6 569:33 570:189 571:216 572:219 573:254 574:254 575:244 576:231 577:231 578:231 579:238 580:219 581:214 582:58 583:3 600:5 601:57 602:57 603:100 604:153 605:137 606:94 607:57 608:6 #
1.3145056372404531e-007 210:64 211:128 212:255 213:191 237:128 238:255 239:255 240:255 241:255 264:128 265:255 266:255 267:255 268:255 269:255 292:255 293:255 294:255 295:128 296:255 297:255 318:128 319:255 320:255 321:191 322:64 323:64 324:255 325:255 345:64 346:255 347:255 348:255 349:64 351:191 352:255 353:128 372:64 373:255 374:255 375:255 376:191 379:255 380:255 381:128 400:255 401:255 402:255 403:191 407:255 408:255 409:64 428:128 429:255 430:191 435:255 436:255 457:128 463:255 464:191 490:64 491:255 492:128 518:128 519:255 520:128 546:255 547:255 548:128 573:128 574:255 575:255 576:128 601:128 602:255 603:255 604:128 629:128 630:255 631:255 658:191 659:255 686:128 687:255 714:128 715:255 716:64 742:64 743:191 744:64 #
-2.4858988075581509e-007 129:8 130:196 131:242 132:48 157:129 158:254 159:254 160:89 184:145 185:247 186:254 187:254 188:89 211:22 212:225 213:254 214:221 215:255 216:89 238:21 239:195 240:254 241:215 242:134 243:244 244:58 266:60 267:254 268:214 269:27 270:131 271:175 293:24 294:211 295:253 296:45 298:189 299:104 320:3 321:169 322:254 323:166 325:64 326:240 347:1 348:118 349:254 350:217 351:22 353:114 354:243 375:6 376:254 377:254 378:112 381:114 382:243 403:43 404:254 405:186 406:18 409:205 410:151 430:41 431:229 432:254 433:95 436:125 437:251 438:80 458:108 459:254 460:180 461:9 464:214 465:151 466:1 485:5 486:225 487:251 488:55 491:137 492:254 493:136 513:90 514:254 515:235 518:35 519:230 520:243 521:20 541:167 542:254 543:108 546:82 547:254 548:82 569:208 570:254 571:11 573:61 574:233 575:254 576:41 597:208 598:254 599:149 600:202 601:235 602:235 603:135 604:9 625:161 626:254 627:254 628:254 629:254 630:148 653:6 654:172 655:252 656:135 657:61 658:5 #
8.4818576889633262e-007 158:9 159:13 160:198 161:255 162:254 163:23 186:170 187:252 188:252 189:252 190:252 191:22 213:23 214:181 215:252 216:252 217:252 218:252 219:22 239:26 240:49 241:176 242:252 243:252 244:252 245:252 246:252 247:22 267:133 268:252 269:252 270:252 271:252 272:252 273:252 274:252 275:22 294:36 295:167 296:252 297:252 298:252 299:252 300:252 301:252 302:189 303:16 321:37 322:165 323:252 324:252 325:252 326:252 327:252 328:252 329:183 330:23 348:38 349:164 350:252 351:252 352:252 353:252 354:252 355:252 356:177 357:29 375:37 376:164 377:252 378:252 379:252 380:252 381:252 382:252 383:173 384:34 401:30 402:122 403:165 404:252 405:252 406:252 407:252 408:252 409:252 410:170 411:37 429:61 430:252 431:252 432:252 433:252 434:252 435:252 436:252 437:169 438:39 456:29 457:171 458:252 459:252 460:252 461:252 462:252 463:252 464:168 465:41 482:16 483:157 484:176 485:252 486:252 487:252 488:252 489:252 490:252 491:169 492:41 510:25 511:252 512:252 513:252 514:252 515:252 516:252 517:252 518:170 519:39 538:25 539:252 540:252 541:252 542:252 543:252 544:252 545:173 546:37 566:25 567:252 568:252 569:252 570:252 571:252 572:177 573:34 594:25 595:252 596:252 597:252 598:252 599:183 600:29 621:11 622:221 623:252 624:252 625:252 626:252 627:167 649:2 650:45 651:252 652:252 653:252 654:186 655:15 678:25 679:252 680:252 681:194 682:7 #
-3.7096851346077724e-007 130:2 131:78 132:64 133:43 134:1 158:106 159:254 160:254 161:254 162:48 184:8 185:121 186:241 187:254 188:195 189:209 190:139 191:1 211:13 212:173 213:226 214:168 215:57 216:26 217:34 218:231 219:45 238:71 239:198 240:143 241:27 246:156 247:90 264:15 265:129 266:227 267:112 274:73 275:130 291:15 292:168 293:235 294:85 302:110 303:216 318:34 319:202 320:211 321:46 330:177 331:158 345:15 346:168 347:139 348:17 357:41 358:248 359:40 372:27 373:208 374:119 375:1 385:145 386:179 387:3 399:26 400:184 401:119 411:5 412:73 413:194 414:37 426:50 427:212 428:120 439:190 440:199 441:39 453:13 454:214 455:120 465:12 466:131 467:172 468:30 480:2 481:128 482:192 491:38 492:76 493:204 494:174 495:28 508:9 509:246 510:50 518:55 519:147 520:168 521:165 522:10 536:136 537:195 543:13 544:76 545:182 546:241 547:187 548:58 564:255 565:155 570:32 571:135 572:254 573:235 574:113 575:10 592:212 593:207 594:66 595:66 596:80 597:190 598:243 599:194 600:114 601:17 620:40 621:254 622:254 623:254 624:242 625:164 626:80 627:2 648:1 649:8 650:8 651:8 652:7 #
-9.9999999999999995e-007 156:9 157:168 158:184 180:41 181:148 182:177 183:116 184:164 185:253 186:231 207:5 208:193 209:253 210:253 211:254 212:253 213:253 214:231 235:12 236:253 237:253 238:234 239:135 240:247 241:253 242:231 263:84 264:253 265:253 266:33 268:105 269:253 270:231 291:74 292:253 293:192 294:7 296:67 297:253 298:231 319:122 320:253 321:176 324:72 325:253 326:231 347:103 348:253 349:176 352:158 353:253 354:212 375:12 376:253 377:176 380:148 381:253 382:121 403:12 404:253 405:176 408:177 409:253 410:121 431:123 432:254 433:177 435:5 436:188 437:254 438:107 459:170 460:253 461:176 463:34 464:253 465:253 466:10 487:122 488:253 489:176 491:34 492:253 493:253 494:10 515:180 516:253 517:176 519:149 520:253 521:201 522:5 543:232 544:253 545:128 546:25 547:255 548:253 549:129 571:232 572:253 573:176 574:149 575:254 576:230 577:29 599:232 600:253 601:247 602:251 603:253 604:83 627:232 628:253 629:253 630:253 631:134 655:150 656:253 657:253 658:137 683:21 684:191 685:110 686:5 #
-8.0666838490447303e-007 156:29 157:141 158:170 159:198 160:255 161:141 182:29 183:170 184:255 185:255 186:255 187:255 188:255 189:255 190:29 209:141 210:255 211:255 212:114 213:86 214:255 215:255 216:255 217:226 218:141 236:114 237:255 238:198 239:57 240:86 241:255 242:255 243:141 244:29 245:198 246:170 263:29 264:255 265:170 267:57 268:255 269:255 270:141 273:198 274:226 291:114 292:226 294:57 295:255 296:226 297:141 300:29 301:255 302:170 320:114 321:57 322:226 323:226 324:141 328:29 329:226 330:57 348:29 349:198 350:255 351:114 355:29 356:170 357:198 376:114 377:255 378:198 383:29 384:255 385:86 403:141 404:255 405:226 411:226 412:198 430:29 431:255 432:255 433:86 438:29 439:255 440:170 457:29 458:198 459:255 460:141 461:29 466:141 467:255 468:114 485:141 486:255 487:198 494:226 495:255 496:29 512:114 513:255 514:226 521:114 522:255 523:57 539:86 540:255 541:226 547:29 548:198 549:255 550:114 567:255 568:255 569:29 575:226 576:255 577:170 594:170 595:255 596:114 601:114 602:198 603:255 604:141 621:57 622:255 623:170 627:29 628:198 629:255 630:255 631:114 649:170 650:255 651:141 652:86 653:114 654:170 655:255 656:255 657:198 658:86 676:29 677:255 678:255 679:255 680:255 681:255 682:255 683:226 684:141 #
-9.9999999999999995e-007 129:19 130:117 131:128 156:19 157:225 158:252 159:139 184:117 185:252 186:252 187:139 211:51 212:241 213:252 214:252 215:139 238:10 239:179 240:255 241:253 242:253 243:28 266:160 267:252 268:209 269:196 270:252 271:28 293:45 294:240 295:252 296:134 297:234 298:186 299:6 320:13 321:194 322:252 323:151 324:41 325:252 326:68 347:13 348:154 349:247 350:134 351:140 352:92 353:253 354:56 375:113 376:247 377:103 378:28 379:47 380:166 381:214 382:19 402:29 403:210 404:187 407:89 408:253 409:109 430:185 431:252 432:63 435:163 436:228 437:9 457:70 458:253 459:140 462:60 463:241 464:151 484:19 485:225 486:252 487:65 490:197 491:227 512:29 513:252 514:186 515:6 517:82 518:240 519:139 540:128 541:252 542:68 544:26 545:243 546:214 547:28 568:154 569:253 570:56 571:63 572:204 573:253 574:56 596:253 597:252 598:187 599:206 600:247 601:121 602:19 624:165 625:252 626:252 627:252 628:100 652:41 653:252 654:214 655:90 #
9.9999999999999995e-007 154:38 155:222 156:253 157:253 182:131 183:252 184:252 185:252 209:26 210:231 211:252 212:252 213:173 237:128 238:252 239:252 240:252 241:252 264:79 265:253 266:252 267:252 268:252 269:173 291:13 292:191 293:255 294:253 295:253 296:253 297:174 318:67 319:181 320:252 321:215 322:195 323:252 324:252 325:127 345:51 346:209 347:252 348:220 349:110 350:85 351:252 352:252 353:112 372:76 373:243 374:252 375:217 376:37 378:85 379:252 380:252 381:112 400:191 401:252 402:220 403:37 406:85 407:252 408:252 409:112 427:63 428:255 429:253 430:56 434:85 435:253 436:253 437:112 455:15 456:106 457:27 458:6 462:85 463:252 464:252 465:112 490:85 491:252 492:252 493:112 518:85 519:252 520:252 521:112 546:85 547:252 548:252 549:112 574:85 575:253 576:240 577:63 599:10 600:85 601:85 602:219 603:252 604:233 605:38 627:138 628:252 629:253 630:252 631:252 632:252 633:221 634:111 655:75 656:252 657:253 658:252 659:252 660:252 661:252 662:126 683:13 684:112 685:174 686:204 687:112 688:112 689:112 #
8.9499128918371198e-007 153:32 154:185 155:255 156:103 181:133 182:253 183:253 184:194 208:112 209:242 210:253 211:253 212:246 213:45 235:15 236:236 237:253 238:253 239:253 240:253 241:156 263:167 264:253 265:253 266:150 267:242 268:253 269:156 290:44 291:247 292:253 293:205 294:6 295:238 296:253 297:156 318:70 319:253 320:253 321:199 323:238 324:253 325:156 345:9 346:231 347:253 348:253 349:199 351:238 352:253 353:156 373:65 374:253 375:253 376:245 377:56 379:238 380:253 381:156 401:120 402:253 403:253 404:168 407:238 408:253 409:218 410:7 429:205 430:253 431:253 432:90 435:238 436:253 437:253 438:10 457:70 458:232 459:112 460:2 463:238 464:253 465:253 466:10 491:238 492:253 493:253 494:10 519:238 520:253 521:253 522:10 547:238 548:253 549:253 550:22 575:238 576:253 577:253 578:119 603:148 604:253 605:253 606:119 631:130 632:253 633:253 634:119 659:130 660:253 661:253 662:119 687:130 688:253 689:253 690:72 #
9.9999999999999995e-007 127:84 128:195 129:78 155:146 156:254 157:178 182:31 183:237 184:254 185:139 210:160 211:254 212:254 213:85 237:71 238:248 239:254 240:254 241:85 264:3 265:193 266:254 267:254 268:254 269:92 292:127 293:254 294:254 295:222 296:254 297:178 319:76 320:239 321:254 322:134 323:133 324:254 325:157 346:52 347:249 348:254 349:197 350:14 351:132 352:254 353:85 373:50 374:234 375:254 376:208 377:41 379:132 380:254 381:85 400:30 401:237 402:254 403:215 404:28 407:132 408:254 409:85 428:6 429:139 430:122 431:15 435:132 436:254 437:85 463:132 464:254 465:85 491:132 492:254 493:85 519:132 520:248 521:38 547:139 548:167 549:6 550:51 575:226 576:223 577:201 578:206 599:55 600:57 601:92 602:211 603:253 604:254 605:188 606:49 625:10 626:189 627:252 628:254 629:254 630:255 631:254 632:120 633:13 653:5 654:66 655:191 656:159 657:159 658:219 659:155 660:15 #
-9.9999999999999995e-007 153:36 154:219 155:255 156:238 157:33 181:155 182:254 183:243 184:254 185:135 208:65 209:245 210:254 211:130 212:247 213:219 236:178 237:254 238:254 239:139 240:235 241:244 263:10 264:214 265:231 266:231 267:213 268:244 269:244 291:89 292:254 293:136 294:137 295:254 296:254 297:244 319:171 320:254 321:110 322:91 323:254 324:254 325:187 347:211 348:254 349:103 350:8 351:217 352:217 353:25 374:18 375:225 376:227 377:10 379:142 380:241 381:37 402:72 403:254 404:154 407:77 408:254 409:52 430:149 431:254 432:77 435:77 436:254 437:94 458:214 459:254 460:77 463:77 464:254 465:148 486:245 487:250 488:64 491:77 492:254 493:148 514:245 515:234 519:77 520:254 521:109 541:25 542:247 543:171 547:140 548:254 549:52 569:87 570:254 571:138 574:65 575:246 576:214 577:5 597:85 598:253 599:213 601:58 602:204 603:254 604:134 626:245 627:247 628:128 629:214 630:254 631:204 632:7 654:183 655:254 656:254 657:254 658:197 659:51 682:13 683:149 684:254 685:144 686:35 #
-9.9999999999999995e-007 127:24 128:212 129:156 130:1 155:167 156:220 157:240 158:4 182:70 183:238 184:68 185:158 186:67 187:12 209:6 210:173 211:120 213:107 214:225 215:225 216:118 237:100 238:212 239:18 241:20 242:32 243:50 244:97 264:34 265:223 266:85 270:3 271:159 272:43 292:125 293:173 294:2 298:89 299:154 319:60 320:231 321:61 326:170 327:22 347:121 348:177 353:43 354:175 374:12 375:205 376:81 381:171 382:85 402:90 403:182 408:35 409:207 410:15 429:16 430:205 431:77 436:137 437:106 457:61 458:186 459:1 463:33 464:219 465:16 485:90 486:179 491:161 492:108 513:142 514:127 518:30 519:243 520:54 541:142 542:127 545:4 546:145 547:204 548:7 569:208 570:101 573:83 574:234 575:62 597:205 598:170 599:1 600:94 601:246 602:152 625:69 626:248 627:180 628:254 629:181 630:5 653:3 654:158 655:255 656:161 657:7 #
-4.0546653839422626e-007 154:47 155:200 156:255 157:254 158:123 181:43 182:226 183:253 184:184 185:214 186:194 208:11 209:214 210:221 211:93 212:5 213:125 214:208 215:5 236:164 237:241 238:63 240:68 241:253 242:253 243:92 263:31 264:253 265:127 269:112 270:254 271:98 291:174 292:222 297:34 298:247 299:97 318:50 319:244 320:48 326:215 327:79 346:209 347:205 353:25 354:238 355:19 373:34 374:242 375:43 381:118 382:165 401:129 402:196 403:5 409:177 410:117 429:195 430:75 436:35 437:235 438:42 456:13 457:231 458:39 464:122 465:166 484:26 485:208 491:7 492:229 493:102 512:98 513:136 519:91 520:198 540:98 541:94 546:14 547:203 548:115 568:98 569:58 574:131 575:205 576:6 596:99 597:89 600:2 601:80 602:231 603:85 624:98 625:202 626:6 628:80 629:247 630:93 652:56 653:253 654:220 655:215 656:243 657:99 680:2 681:139 682:223 683:151 684:42 #
2.6942025647727386e-007 128:33 129:164 130:255 131:255 132:167 155:3 156:132 157:253 158:253 159:253 160:166 183:127 184:253 185:253 186:253 187:247 188:94 210:5 211:187 212:253 213:253 214:253 215:160 237:6 238:135 239:253 240:253 241:253 242:229 243:43 265:44 266:253 267:253 268:253 269:253 270:55 292:7 293:140 294:253 295:253 296:253 297:208 298:19 320:123 321:253 322:253 323:253 324:241 325:89 347:7 348:182 349:253 350:253 351:253 352:191 374:7 375:146 376:253 377:253 378:253 379:253 380:101 402:25 403:253 404:253 405:253 406:253 407:177 408:17 414:170 415:192 416:192 417:9 429:6 430:153 431:253 432:253 433:253 434:239 435:52 442:49 443:55 444:55 445:3 457:59 458:253 459:253 460:253 461:239 462:79 485:143 486:253 487:253 488:253 489:210 512:5 513:183 514:253 515:253 516:253 517:104 540:13 541:253 542:253 543:253 544:172 545:11 568:13 569:253 570:253 571:253 572:93 596:7 597:204 598:253 599:253 600:242 601:215 602:112 603:172 604:91 625:143 626:253 627:253 628:253 629:253 630:253 631:169 632:36 653:12 654:141 655:253 656:253 657:232 658:105 659:2 #
6.1320347850245616e-007 183:25 184:201 185:182 186:12 210:122 211:218 212:252 213:252 214:151 236:3 237:104 238:253 239:252 240:252 241:252 242:177 264:116 265:252 266:253 267:252 268:252 269:252 270:177 290:40 291:128 292:245 293:252 294:222 295:142 296:173 297:252 298:177 316:9 317:48 318:217 319:252 320:252 321:234 322:44 323:43 324:226 325:252 326:177 344:75 345:252 346:252 347:252 348:148 349:49 351:60 352:252 353:252 354:177 372:49 373:226 374:252 375:220 376:38 378:38 379:216 380:252 381:252 382:37 401:42 402:59 403:38 406:130 407:252 408:252 409:160 410:7 434:253 435:252 436:252 437:132 462:255 463:253 464:247 465:79 489:36 490:253 491:252 492:237 517:149 518:253 519:252 520:140 544:22 545:197 546:253 547:252 548:88 572:45 573:252 574:253 575:199 576:10 600:150 601:252 602:253 603:192 628:193 629:252 630:253 631:192 656:193 657:252 658:253 659:192 684:193 685:252 686:253 687:165 712:106 713:252 714:191 715:18 #
-7.2536248606725934e-007 215:20 216:69 217:141 218:211 219:245 220:222 221:124 241:83 242:121 243:223 244:254 245:213 246:143 247:67 248:25 266:22 267:112 268:235 269:254 270:254 271:217 272:50 273:11 292:5 293:74 294:225 295:254 296:226 297:164 298:78 299:5 301:30 319:41 320:171 321:254 322:246 323:71 324:19 327:114 328:195 329:121 346:43 347:228 348:254 349:213 350:67 353:11 354:141 355:242 356:118 357:9 372:1 373:83 374:226 375:253 376:194 377:15 380:3 381:174 382:253 383:48 400:123 401:254 402:228 403:102 408:121 409:246 410:90 427:37 428:249 429:222 430:34 434:3 435:163 436:244 437:172 454:27 455:229 456:234 457:31 462:167 463:254 464:140 465:2 482:127 483:254 484:103 488:6 489:115 490:245 491:136 492:13 510:164 511:254 512:10 516:85 517:254 518:181 519:6 538:181 539:254 540:10 542:9 543:109 544:246 545:177 546:12 566:101 567:254 568:173 569:83 570:181 571:249 572:135 573:9 594:35 595:239 596:255 597:254 598:254 599:154 623:28 624:136 625:140 626:87 627:11 #
7.0437375751611853e-007 124:39 125:229 126:123 129:47 130:216 152:79 153:254 154:189 157:47 158:215 180:79 181:254 182:251 183:62 185:47 186:215 208:79 209:254 210:255 211:65 213:47 214:215 236:146 237:254 238:195 239:7 241:47 242:215 264:194 265:254 266:189 269:47 270:101 291:29 292:225 293:254 294:245 295:55 297:7 298:13 319:86 320:254 321:254 322:234 323:45 325:15 326:134 347:123 348:254 349:254 350:85 353:47 354:215 375:216 376:255 377:254 378:58 381:47 382:215 403:216 404:254 405:254 406:58 409:47 410:185 431:216 432:254 433:254 434:58 437:13 438:24 459:216 460:254 461:254 462:58 465:9 466:16 487:216 488:254 489:254 490:58 493:47 494:105 515:216 516:254 517:254 518:58 521:47 522:215 543:216 544:255 545:254 546:72 549:47 550:215 571:216 572:255 573:254 574:189 577:47 578:215 599:216 600:254 601:254 602:192 603:4 605:47 606:215 627:213 628:254 629:254 630:219 631:30 633:47 634:215 655:42 656:231 657:254 658:122 661:47 662:215 #
-1.333209793793141e-007 208:40 210:2 211:12 212:45 213:109 214:109 215:30 235:149 236:207 237:58 238:116 239:227 240:254 241:253 242:253 243:209 262:98 263:228 264:254 265:185 266:174 267:91 268:92 269:111 270:217 271:254 272:156 290:20 291:141 292:24 293:9 298:43 299:253 300:253 309:33 317:23 318:139 319:104 326:50 327:253 328:253 345:180 346:246 347:20 354:166 355:253 356:220 372:14 373:147 374:72 381:40 382:243 383:253 384:253 400:121 401:248 402:52 408:47 409:215 410:254 411:216 412:26 428:217 429:215 435:40 436:209 437:253 438:245 439:49 455:40 456:243 457:67 461:19 462:146 463:243 464:254 465:225 466:44 483:40 484:243 485:131 487:12 488:154 489:226 490:253 491:246 492:151 493:43 512:217 513:248 514:181 515:228 516:253 517:253 518:214 519:72 540:166 541:254 542:254 543:255 544:254 545:172 546:20 568:3 569:89 570:108 571:109 572:24 573:9 #
6.843863787416442e-008 121:7 122:68 123:131 124:105 149:161 150:254 151:58 158:36 159:15 177:208 178:254 179:11 185:102 186:253 187:186 205:208 206:254 207:11 211:56 212:171 213:249 214:254 215:225 233:166 234:254 235:207 236:90 237:90 238:118 239:244 240:254 241:254 242:254 243:128 261:90 262:254 263:254 264:254 265:254 266:254 267:254 268:254 269:254 270:254 271:107 289:4 290:61 291:244 292:249 293:249 294:165 295:94 296:105 297:254 298:243 299:5 323:8 324:218 325:254 326:176 351:97 352:254 353:254 354:105 379:196 380:255 381:254 382:5 406:19 407:214 408:254 409:220 410:4 434:60 435:254 436:255 437:98 462:168 463:254 464:168 465:3 489:22 490:217 491:254 492:159 517:56 518:255 519:254 520:91 522:16 523:100 524:148 525:148 526:87 544:5 545:178 546:254 547:254 548:180 549:166 550:212 551:254 552:246 553:176 554:19 568:49 569:66 570:66 571:69 572:191 573:254 574:254 575:254 576:254 577:254 578:221 579:120 580:58 595:137 596:241 597:254 598:254 599:254 600:254 601:254 602:254 603:254 604:184 605:64 606:26 623:49 624:229 625:254 626:254 627:254 628:254 629:254 630:231 631:62 632:6 652:13 653:17 654:17 655:17 656:150 657:235 658:49 #
-3.2000734226713705e-007 155:51 156:159 157:253 158:253 159:253 160:255 161:90 181:10 182:163 183:238 184:252 185:252 186:252 187:252 188:253 189:243 190:50 208:13 209:156 210:252 211:253 212:252 213:252 214:214 215:195 216:253 217:252 218:55 235:73 236:187 237:252 238:252 239:253 240:252 241:245 242:74 244:237 245:252 246:149 261:79 262:141 263:240 264:252 265:252 266:252 267:253 268:252 269:118 272:113 273:252 274:195 288:92 289:253 290:255 291:253 292:165 293:75 294:253 295:255 296:215 297:31 300:114 301:253 302:196 315:51 316:243 317:252 318:215 319:42 320:25 321:181 322:252 323:253 324:121 328:113 329:252 330:195 343:88 344:252 345:220 346:31 348:57 349:252 350:252 351:228 352:21 356:88 357:246 358:195 371:197 372:217 373:37 375:10 376:156 377:252 378:252 379:126 384:76 385:243 386:195 399:165 400:37 403:163 404:252 405:252 406:173 412:113 413:252 414:195 431:226 432:253 433:240 434:63 440:176 441:253 442:56 458:147 459:249 460:252 461:176 467:48 468:253 469:129 470:6 485:111 486:253 487:252 488:208 489:19 494:23 495:227 496:253 497:27 512:4 513:153 514:253 515:252 516:102 521:38 522:178 523:252 524:178 525:9 540:107 541:252 542:253 543:204 544:25 549:135 550:252 551:173 552:63 567:26 568:207 569:253 570:255 571:27 575:51 576:238 577:253 578:240 579:63 595:57 596:252 597:252 598:215 599:18 600:19 601:85 602:163 603:238 604:252 605:201 606:24 623:57 624:252 625:252 626:166 627:104 628:209 629:252 630:252 631:253 632:201 633:74 651:51 652:242 653:252 654:253 655:252 656:252 657:249 658:145 659:84 660:9 680:91 681:252 682:253 683:252 684:141 685:99 #
-1.6608643990444063e-007 149:84 150:202 151:79 152:35 153:177 154:123 158:36 159:48 160:48 161:44 177:84 178:254 179:254 180:231 181:254 182:253 183:177 184:134 185:198 186:241 187:254 188:254 189:241 190:31 205:38 206:229 207:254 208:254 209:254 210:254 211:254 212:254 213:254 214:254 215:254 216:254 217:254 218:192 219:6 234:88 235:254 236:254 237:254 238:254 239:254 240:254 241:172 242:171 243:171 244:197 245:254 246:254 247:36 261:43 262:237 263:254 264:254 265:254 266:196 267:20 268:20 269:1 272:39 273:231 274:254 275:142 289:84 290:254 291:255 292:254 293:254 294:145 301:96 302:254 303:244 316:3 317:179 318:254 319:254 320:254 321:254 322:237 323:7 329:12 330:216 331:253 332:82 344:37 345:254 346:254 347:237 348:247 349:254 350:254 351:99 358:146 359:254 360:94 372:125 373:254 374:254 375:139 376:95 377:254 378:254 379:143 386:68 387:254 388:94 400:162 401:254 402:254 403:181 404:121 405:254 406:254 407:202 414:27 415:233 416:157 427:37 428:249 429:254 430:254 431:181 432:121 433:254 434:254 435:202 443:219 444:114 455:154 456:254 457:254 458:254 459:223 460:240 461:254 462:254 463:84 470:39 471:239 472:94 483:198 484:254 485:254 486:254 487:254 488:254 489:254 490:170 497:8 498:175 499:254 500:94 511:198 512:254 513:254 514:254 515:254 516:254 517:208 518:26 524:10 525:178 526:254 527:232 528:6 539:198 540:254 541:254 542:254 543:232 544:170 545:25 551:55 552:205 553:254 554:254 555:66 567:189 568:254 569:220 570:44 571:18 577:21 578:136 579:243 580:254 581:253 582:135 583:4 595:70 596:252 597:254 598:201 599:68 600:41 601:68 602:68 603:90 604:172 605:253 606:254 607:254 608:254 609:135 624:198 625:254 626:254 627:254 628:240 629:254 630:254 631:254 632:254 633:254 634:247 635:188 636:66 637:4 652:52 653:188 654:254 655:254 656:254 657:254 658:254 659:254 660:254 661:181 662:23 681:16 682:142 683:150 684:242 685:254 686:167 687:129 688:46 689:1 #
-1.2719246827629894e-007 120:40 121:254 122:166 123:149 124:184 125:254 126:254 127:166 128:88 129:11 147:29 148:214 149:253 150:253 151:205 152:168 153:168 154:168 155:204 156:254 157:171 158:43 174:93 175:240 176:253 177:253 178:245 179:9 183:9 184:39 185:162 186:215 187:128 188:21 202:148 203:253 204:253 205:237 206:67 214:16 215:232 216:139 217:27 230:25 231:113 232:253 233:145 243:28 244:219 245:150 259:86 260:254 261:85 272:45 273:220 274:183 275:4 287:85 288:253 289:84 301:29 302:197 303:135 315:85 316:253 317:84 330:86 331:243 332:43 343:85 344:253 345:155 358:86 359:253 360:111 371:85 372:253 373:190 386:14 387:237 388:243 389:35 399:86 400:254 401:190 415:172 416:254 417:42 427:85 428:253 429:190 443:128 444:253 445:42 455:85 456:253 457:195 458:4 471:128 472:253 473:42 483:85 484:253 485:253 486:42 499:198 500:253 501:42 511:50 512:245 513:253 514:42 526:72 527:250 528:156 529:7 540:216 541:254 542:104 553:43 554:228 555:242 556:36 568:92 569:253 570:227 571:36 580:116 581:228 582:225 583:111 596:11 597:202 598:253 599:163 600:22 601:11 604:22 605:102 606:128 607:198 608:250 609:171 610:85 625:22 626:199 627:254 628:253 629:211 630:170 631:169 632:254 633:253 634:253 635:211 636:102 654:18 655:104 656:183 657:253 658:253 659:253 660:255 661:218 662:138 663:14 #
-2.4912055042455417e-007 150:26 151:213 152:254 153:176 154:57 178:54 179:253 180:253 181:253 182:247 183:57 206:174 207:253 208:243 209:214 210:253 211:242 212:11 234:128 235:228 236:235 237:107 238:215 239:254 240:159 241:9 263:174 264:253 265:250 266:123 267:219 268:253 269:132 291:174 292:253 293:253 294:120 295:96 296:251 297:159 318:37 319:228 320:253 321:253 322:120 324:241 325:224 326:49 346:54 347:253 348:253 349:253 350:190 352:145 353:250 354:173 374:54 375:253 376:238 377:114 378:191 381:228 382:219 383:31 402:125 403:253 404:226 406:64 409:157 410:253 411:53 430:125 431:254 432:228 437:95 438:254 439:53 458:54 459:253 460:226 465:94 466:253 467:53 486:174 487:253 488:226 493:94 494:253 495:53 514:145 515:253 516:226 521:94 522:253 523:53 542:54 543:253 544:226 549:200 550:253 551:53 570:43 571:236 572:246 573:107 576:108 577:247 578:236 579:42 599:174 600:253 601:242 602:19 603:20 604:243 605:253 606:151 627:86 628:243 629:253 630:204 631:206 632:253 633:194 634:15 656:82 657:248 658:253 659:255 660:247 661:81 685:70 686:190 687:191 688:69 #
-1.4510171548687599e-007 155:114 156:114 157:224 158:254 159:255 160:114 161:13 181:10 182:164 183:254 184:253 185:253 186:253 187:253 188:254 189:75 209:29 210:253 211:254 212:253 213:240 214:234 215:253 216:254 217:235 218:44 236:102 237:132 238:253 239:254 240:180 241:65 242:57 243:84 244:239 245:253 246:56 264:198 265:253 266:253 267:191 268:12 272:51 273:238 274:134 291:148 292:254 293:179 294:63 301:227 302:198 317:48 318:148 319:222 320:136 321:9 329:101 330:215 331:29 344:7 345:166 346:254 347:136 357:67 358:241 359:84 371:7 372:54 373:253 374:242 375:24 386:192 387:75 399:57 400:253 401:253 402:63 414:63 427:57 428:242 429:63 442:142 455:86 456:149 469:48 470:95 482:19 483:154 497:31 510:101 511:203 512:10 523:16 524:76 525:44 526:7 538:226 539:221 540:37 551:141 552:192 553:253 554:56 566:227 567:198 577:89 578:129 579:255 580:142 581:16 594:179 595:247 596:131 597:164 598:48 600:67 601:76 602:48 603:227 604:147 605:247 606:206 607:127 622:164 623:253 624:253 625:253 626:166 627:183 628:149 629:103 630:166 631:223 632:253 633:177 634:25 635:25 650:29 651:122 652:253 653:253 654:254 655:253 656:196 657:124 658:237 659:101 660:99 661:19 679:26 680:112 681:112 682:113 683:238 684:196 685:76 686:50 #
9.9999999999999995e-007 186:7 187:170 188:170 189:7 214:91 215:253 216:254 217:23 240:7 241:91 242:245 243:253 244:146 245:4 268:136 269:253 270:253 271:253 294:7 295:170 296:255 297:254 298:254 299:136 321:9 322:132 323:253 324:178 325:245 326:232 327:6 348:15 349:166 350:253 351:202 352:86 353:253 354:221 376:195 377:253 378:202 379:19 380:104 381:253 382:71 402:41 403:229 404:254 405:165 406:17 407:26 408:254 409:207 429:60 430:224 431:253 432:124 433:11 435:93 436:254 437:73 456:141 457:249 458:251 459:128 462:62 463:224 464:197 465:4 482:9 483:159 484:254 485:236 486:79 490:149 491:253 492:118 510:17 511:235 512:210 513:50 517:47 518:254 519:228 539:84 540:9 545:130 546:253 547:143 573:180 574:242 575:38 600:51 601:247 602:162 628:128 629:254 630:46 656:144 657:210 658:4 684:70 685:206 712:70 713:173 #
5.06404039094818e-007 159:13 160:67 161:200 162:254 163:255 164:115 185:55 186:132 187:154 188:253 189:253 190:253 191:253 192:253 212:2 213:110 214:253 215:253 216:253 217:253 218:253 219:253 220:106 240:95 241:253 242:253 243:253 244:253 245:253 246:253 247:216 248:46 267:90 268:241 269:253 270:253 271:253 272:253 273:253 274:221 275:58 293:17 294:90 295:236 296:253 297:253 298:253 299:253 300:244 301:101 302:36 320:51 321:229 322:253 323:253 324:253 325:253 326:253 327:237 328:93 346:12 347:151 348:212 349:253 350:253 351:253 352:253 353:253 354:253 355:94 373:16 374:46 375:253 376:253 377:253 378:253 379:253 380:253 381:241 382:98 383:3 400:29 401:183 402:253 403:253 404:253 405:253 406:253 407:253 408:168 409:94 427:6 428:188 429:253 430:253 431:253 432:253 433:253 434:253 435:151 436:10 455:38 456:253 457:253 458:253 459:253 460:253 461:248 462:144 463:10 482:55 483:220 484:253 485:253 486:253 487:253 488:253 489:147 510:132 511:253 512:253 513:253 514:253 515:253 516:151 517:12 537:62 538:244 539:253 540:253 541:253 542:249 543:142 544:7 565:150 566:253 567:253 568:253 569:253 570:234 593:255 594:253 595:253 596:253 597:253 598:234 621:212 622:253 623:253 624:253 625:253 626:234 649:67 650:253 651:253 652:253 653:253 654:234 677:17 678:65 679:212 680:253 681:253 682:94 #
2.9595714416302941e-007 185:32 186:171 187:61 212:7 213:183 214:253 215:180 240:146 241:253 242:253 243:195 266:10 267:129 268:247 269:253 270:237 271:53 294:209 295:253 296:253 297:253 298:155 320:47 321:231 322:255 323:254 324:254 325:254 326:96 346:2 347:118 348:235 349:253 350:241 351:250 352:253 353:212 354:9 373:49 374:129 375:253 376:253 377:253 378:30 379:214 380:253 381:117 400:16 401:209 402:253 403:253 404:216 405:41 406:32 407:235 408:253 409:64 428:135 429:254 430:253 431:154 432:27 434:97 435:253 436:192 437:5 456:38 457:196 458:142 462:217 463:254 464:78 489:46 490:254 491:236 492:42 516:13 517:183 518:254 519:106 544:55 545:253 546:222 547:18 572:174 573:253 574:157 599:49 600:246 601:254 602:38 627:18 628:238 629:253 630:38 655:109 656:253 657:154 682:8 683:205 684:253 685:58 711:71 712:215 713:14 #
-9.9999999999999995e-007 129:29 130:103 131:198 132:101 156:49 157:235 158:254 159:254 160:209 183:105 184:234 185:254 186:247 187:144 188:56 210:95 211:252 212:254 213:215 214:75 238:181 239:254 240:254 241:254 242:188 265:65 266:251 267:211 268:168 269:254 270:178 292:30 293:231 294:230 295:28 296:208 297:254 298:65 319:12 320:181 321:254 322:118 323:35 324:249 325:254 326:56 347:73 348:254 349:213 350:6 351:40 352:254 353:249 354:46 375:143 376:254 377:119 379:40 380:254 381:224 403:185 404:211 405:6 407:82 408:254 409:224 429:9 430:164 431:250 432:121 435:126 436:254 437:212 457:66 458:254 459:209 460:6 462:6 463:170 464:254 465:128 485:104 486:254 487:130 490:82 491:254 492:239 493:29 513:188 514:249 515:44 517:21 518:212 519:254 520:146 540:24 541:244 542:194 544:4 545:121 546:254 547:190 548:12 568:51 569:250 570:130 572:120 573:254 574:238 575:50 596:70 597:254 598:192 599:115 600:246 601:253 602:116 624:22 625:211 626:254 627:254 628:254 629:174 653:21 654:181 655:235 656:133 #
-1.17678523873654e-007 154:53 155:221 156:203 157:88 158:95 159:95 160:71 182:61 183:194 184:254 185:254 186:217 187:141 188:86 209:22 210:207 211:230 212:140 213:217 214:184 215:11 236:2 237:183 238:192 239:52 241:93 242:254 243:92 263:25 264:196 265:193 266:12 269:8 270:209 271:176 290:25 291:207 292:237 293:41 298:131 299:248 300:44 317:25 318:207 319:227 320:57 326:62 327:254 328:122 344:4 345:193 346:252 347:57 354:11 355:215 356:176 372:141 373:252 374:128 383:124 384:246 385:45 399:19 400:231 401:128 411:93 412:254 413:61 427:111 428:241 429:30 439:36 440:255 441:61 455:195 456:210 467:121 468:254 469:61 483:228 484:107 495:144 496:217 497:25 510:35 511:242 512:35 522:43 523:234 524:92 538:62 539:244 540:29 550:177 551:178 552:8 566:62 567:226 568:17 577:99 578:214 579:38 594:13 595:233 596:44 603:17 604:129 605:234 606:80 623:155 624:207 625:24 629:13 630:76 631:228 632:222 633:67 651:15 652:191 653:218 654:106 655:15 656:67 657:202 658:246 659:135 660:29 681:108 682:236 683:254 684:251 685:79 #
-5.2681343249706127e-008 153:63 154:222 155:254 156:255 157:254 158:196 159:8 178:5 179:97 180:248 181:252 182:254 183:172 184:6 185:37 186:235 187:80 206:155 207:240 208:242 209:143 210:143 211:27 214:119 215:188 233:55 234:241 235:106 236:15 242:72 243:245 244:26 260:5 261:203 262:161 263:5 270:12 271:233 272:39 288:97 289:238 290:25 299:198 300:96 315:14 316:227 317:125 327:156 328:159 343:43 344:244 345:34 355:156 356:169 371:139 372:169 383:156 384:169 399:169 400:123 411:156 412:169 427:170 428:92 439:157 440:169 455:169 456:91 467:187 468:155 483:170 484:75 494:15 495:236 496:76 511:169 512:91 522:94 523:243 524:23 539:169 540:91 549:16 550:208 551:160 567:170 568:131 577:127 578:235 579:29 595:127 596:231 597:41 604:105 605:248 606:94 623:7 624:176 625:196 626:16 630:7 631:121 632:252 633:137 652:29 653:218 654:201 655:84 656:72 657:123 658:228 659:237 660:109 661:4 681:43 682:200 683:254 684:254 685:237 686:124 687:33 #
-3.7668135454932267e-008 153:53 154:125 155:253 156:98 157:42 179:21 180:144 181:221 182:253 183:251 184:251 185:205 186:41 205:37 206:37 207:197 208:251 209:251 210:253 211:251 212:251 213:251 214:226 215:27 232:79 233:253 234:251 235:251 236:251 237:251 238:253 239:251 240:251 241:251 242:251 243:180 259:79 260:231 261:253 262:251 263:251 264:251 265:251 266:253 267:251 268:251 269:251 270:251 271:180 287:110 288:253 289:255 290:253 291:253 292:253 293:253 294:255 295:253 296:253 297:253 298:253 299:182 315:109 316:251 317:253 318:251 319:251 320:251 321:251 322:211 323:189 324:251 325:251 326:251 327:180 343:15 344:190 345:253 346:251 347:251 348:251 349:251 350:180 351:144 352:251 353:251 354:251 355:180 372:103 373:253 374:251 375:251 376:251 377:251 378:103 379:144 380:251 381:251 382:251 383:180 401:253 402:251 403:251 404:251 405:251 407:144 408:251 409:251 410:251 411:180 429:202 430:253 431:253 432:253 433:253 434:53 435:105 436:243 437:253 438:253 439:202 440:31 457:73 458:251 459:251 460:251 461:251 462:222 463:62 464:217 465:251 466:251 467:253 468:107 485:62 486:236 487:251 488:251 489:251 490:253 491:231 492:246 493:251 494:251 495:253 496:107 514:144 515:251 516:251 517:251 518:253 519:251 520:251 521:251 522:251 523:253 524:107 542:41 543:226 544:251 545:251 546:253 547:251 548:251 549:251 550:251 551:253 552:107 571:166 572:253 573:253 574:255 575:253 576:253 577:253 578:253 579:255 580:108 599:37 600:251 601:251 602:253 603:251 604:251 605:251 606:251 607:253 608:107 627:37 628:251 629:251 630:253 631:251 632:251 633:251 634:251 635:164 636:15 655:21 656:189 657:251 658:253 659:251 660:251 661:251 662:173 684:31 685:200 686:253 687:251 688:251 689:251 690:71 #
-3.2704777683926792e-007 158:29 159:114 160:170 161:226 162:170 163:29 185:29 186:255 187:255 188:255 189:198 190:255 191:114 212:29 213:255 214:255 215:226 216:86 217:29 218:226 219:141 237:57 238:86 239:141 240:226 241:226 242:114 246:170 247:198 263:57 264:141 265:226 266:255 267:255 268:255 269:170 274:141 275:226 290:141 291:226 292:255 293:141 294:141 295:255 296:226 297:114 302:226 303:170 316:57 317:198 318:255 319:141 320:57 322:170 323:255 324:86 330:226 331:114 343:57 344:226 345:255 346:86 350:255 351:141 357:114 358:255 359:86 371:226 372:255 373:29 377:86 378:255 379:86 385:170 386:198 398:226 399:226 400:29 405:170 406:198 412:170 413:255 414:57 425:114 426:255 427:86 433:114 434:141 439:29 440:255 441:226 452:29 453:226 454:198 461:141 462:170 467:170 468:255 469:86 480:114 481:255 482:86 489:114 490:170 494:170 495:255 496:114 508:226 509:170 517:86 518:198 520:29 521:198 522:255 523:198 536:255 537:170 546:114 547:29 548:198 549:255 550:170 564:255 565:170 574:57 575:226 576:226 577:114 592:198 593:198 600:29 601:170 602:255 603:170 604:29 620:114 621:255 622:170 623:57 626:29 627:114 628:226 629:255 630:170 631:29 649:170 650:255 651:226 652:226 653:255 654:255 655:255 656:198 657:86 678:57 679:170 680:170 681:170 682:141 683:57 #
9.2707250257037115e-008 128:8 129:127 130:181 131:14 156:42 157:254 158:254 159:73 184:115 185:242 186:120 187:33 211:74 212:253 213:131 239:152 240:233 241:31 266:67 267:239 268:183 293:1 294:162 295:255 296:60 321:74 322:254 323:230 324:4 349:197 350:253 351:67 376:13 377:222 378:138 403:7 404:180 405:255 406:99 431:16 432:254 433:232 434:2 459:53 460:254 461:67 486:9 487:222 488:247 489:36 514:74 515:254 516:160 542:74 543:247 544:45 570:101 571:239 598:177 599:239 601:5 602:52 626:154 627:249 628:161 629:200 630:115 654:44 655:242 656:254 657:122 #
8.1928812901037569e-008 155:17 156:116 157:255 158:107 183:89 184:253 185:253 186:233 210:38 211:222 212:253 213:253 214:233 238:145 239:253 240:253 241:253 242:156 266:241 267:253 268:253 269:253 270:34 293:69 294:252 295:253 296:253 297:253 298:25 320:4 321:193 322:253 323:211 324:247 325:253 326:25 347:2 348:144 349:253 350:243 351:160 352:253 353:234 354:19 375:53 376:253 377:253 378:157 379:244 380:240 381:58 402:39 403:238 404:253 405:171 406:108 407:253 408:222 430:103 431:253 432:233 433:74 434:63 435:253 436:222 456:12 457:98 458:252 459:253 460:84 462:161 463:253 464:104 483:46 484:178 485:253 486:232 487:77 489:75 490:252 491:253 492:15 511:228 512:245 513:216 514:47 517:99 518:253 519:206 520:7 539:67 540:52 545:130 546:253 547:133 572:5 573:207 574:253 575:62 600:80 601:253 602:225 603:20 628:156 629:253 630:212 656:156 657:253 658:212 684:93 685:192 686:126 #
9.9999999999999995e-007 126:106 127:255 128:67 153:4 154:173 155:253 156:176 181:24 182:253 183:253 184:176 209:24 210:253 211:253 212:143 237:121 238:253 239:253 240:59 264:6 265:241 266:253 267:228 268:34 272:13 273:107 274:30 292:6 293:253 294:253 295:194 299:15 300:244 301:253 302:70 320:73 321:253 322:253 323:194 327:130 328:253 329:253 330:70 348:199 349:253 350:253 351:120 355:185 356:253 357:253 358:70 375:75 376:250 377:253 378:244 379:59 383:185 384:253 385:242 386:54 403:107 404:253 405:253 406:176 411:91 412:185 413:115 431:107 432:253 433:253 434:94 440:5 441:14 459:214 460:253 461:253 462:94 486:148 487:253 488:253 489:230 490:2 514:207 515:253 516:253 517:160 541:14 542:216 543:253 544:252 545:91 569:72 570:253 571:253 572:247 597:110 598:253 599:253 600:209 625:189 626:253 627:253 628:27 653:189 654:253 655:154 656:1 #
-1.5969609540920522e-007 146:8 147:201 148:253 149:145 152:32 153:96 154:148 155:192 156:255 157:222 158:211 159:211 160:229 161:237 162:69 163:22 174:43 175:252 176:122 177:92 179:103 180:237 181:252 182:196 183:168 184:63 185:16 188:27 189:81 190:231 191:168 192:28 202:139 203:217 204:12 205:6 206:153 207:250 208:152 209:73 210:7 218:16 219:181 220:186 221:4 230:218 231:196 232:7 233:91 234:252 235:70 247:42 248:196 249:138 258:253 259:168 260:18 261:212 262:59 276:81 277:252 286:254 287:168 288:128 289:172 304:64 305:253 314:253 315:168 316:127 317:84 332:64 333:252 342:253 343:168 344:28 345:77 360:64 361:252 370:253 371:189 372:6 388:64 389:252 398:165 399:252 400:21 416:152 417:252 426:148 427:253 428:21 443:31 444:218 445:129 454:148 455:252 456:100 471:127 472:252 473:42 482:48 483:247 484:126 498:16 499:226 500:194 501:4 511:190 512:152 525:11 526:206 527:247 528:98 539:190 540:249 541:70 553:219 554:252 555:99 567:116 568:250 569:145 579:55 580:192 581:247 582:53 596:153 597:237 598:146 606:131 607:232 608:252 609:53 624:19 625:157 626:252 627:171 628:48 629:22 630:22 631:22 632:101 633:232 634:240 635:178 636:21 653:21 654:172 655:253 656:252 657:252 658:252 659:252 660:253 661:205 662:51 683:42 684:121 685:147 686:147 687:147 688:42 689:11 #
7.228598116822843e-007 68:15 69:245 70:59 96:126 97:254 98:219 99:11 124:150 125:254 126:254 127:102 151:114 152:252 153:254 154:254 155:162 177:26 178:131 179:249 180:254 181:254 182:254 183:119 202:8 203:179 204:226 205:234 206:254 207:254 208:254 209:254 210:254 211:195 230:18 231:254 232:254 233:254 234:254 235:254 236:254 237:254 238:254 239:195 258:18 259:254 260:254 261:254 262:254 263:254 264:243 265:254 266:254 267:195 286:15 287:238 288:254 289:254 290:220 291:163 292:51 293:184 294:254 295:233 296:37 315:119 316:139 317:107 318:14 321:60 322:254 323:255 324:87 349:17 350:226 351:254 352:177 378:46 379:226 380:242 381:169 382:9 407:126 408:254 409:254 410:76 435:2 436:192 437:254 438:252 439:72 456:21 457:119 458:108 459:30 460:30 461:28 464:92 465:254 466:254 467:250 468:62 483:7 484:188 485:254 486:254 487:254 488:254 489:246 490:166 491:166 492:234 493:254 494:254 495:254 496:203 497:166 498:81 499:33 511:27 512:233 513:254 514:254 515:254 516:254 517:254 518:254 519:254 520:254 521:254 522:254 523:254 524:254 525:254 526:254 527:232 528:112 540:172 541:254 542:254 543:254 544:254 545:254 546:254 547:254 548:254 549:254 550:254 551:254 552:254 553:254 554:254 555:254 556:153 568:24 569:152 570:172 571:243 572:254 573:254 574:254 575:254 576:254 577:254 578:254 579:254 580:254 581:254 582:254 583:221 584:93 597:5 598:4 599:15 600:20 601:135 602:135 603:135 604:172 605:154 606:135 607:135 608:205 609:254 610:168 611:36 #
-7.0763508466693046e-007 179:10 180:17 181:17 182:17 183:11 203:4 204:38 205:123 206:188 207:226 208:253 209:253 210:254 211:228 212:154 213:43 214:5 230:12 231:132 232:253 233:253 234:253 235:253 236:232 237:221 238:243 239:253 240:253 241:253 242:154 243:16 258:105 259:253 260:253 261:245 262:193 263:110 264:18 265:2 266:185 267:253 268:253 269:253 270:253 271:169 272:19 285:73 286:243 287:253 288:229 289:85 293:69 294:254 295:253 296:253 297:231 298:228 299:253 300:212 301:29 312:26 313:244 314:253 315:216 316:33 321:82 322:254 323:253 324:168 325:18 326:16 327:154 328:253 329:186 330:9 340:212 341:253 342:239 343:32 349:109 350:254 351:190 352:7 355:5 356:176 357:253 358:112 368:254 369:253 370:128 377:82 378:254 379:105 384:46 385:246 386:248 387:31 396:254 397:237 398:2 405:29 406:227 407:152 413:149 414:253 415:90 424:255 425:182 434:59 435:193 436:103 441:66 442:254 443:145 452:254 453:154 463:29 464:66 469:71 470:253 471:203 480:219 481:215 497:147 498:253 499:253 508:72 509:249 510:72 524:37 525:222 526:253 527:179 536:5 537:204 538:240 539:81 551:38 552:221 553:253 554:253 555:50 565:21 566:203 567:248 568:173 569:116 570:50 571:50 572:4 573:32 576:37 577:113 578:170 579:233 580:253 581:224 582:129 583:2 594:14 595:107 596:223 597:253 598:253 599:253 600:223 601:242 602:222 603:221 604:245 605:253 606:253 607:223 608:150 609:48 624:12 625:24 626:96 627:127 628:187 629:187 630:188 631:182 632:132 633:106 634:66 635:12 #
-6.2184512279399483e-008 147:11 148:60 149:69 150:134 151:43 174:85 175:202 176:253 177:254 178:253 179:248 180:204 181:164 182:113 183:28 184:1 201:77 202:228 203:253 204:253 205:209 206:208 207:250 208:253 209:253 210:254 211:253 212:193 213:85 214:19 228:49 229:248 230:253 231:160 232:38 235:28 236:30 237:96 238:188 239:253 240:253 241:253 242:236 243:120 244:14 256:157 257:254 258:155 268:124 269:229 270:254 271:255 272:236 273:50 284:223 285:239 286:24 297:8 298:111 299:236 300:253 301:233 302:32 312:179 313:124 327:50 328:181 329:252 330:180 331:2 340:179 341:119 357:181 358:253 359:65 368:179 369:119 385:55 386:253 387:170 396:128 397:179 398:2 414:194 415:254 424:88 425:253 426:32 442:194 443:253 452:2 453:158 454:164 455:4 469:1 470:197 471:253 481:14 482:229 483:108 497:108 498:253 499:218 510:121 511:248 512:48 524:58 525:239 526:253 527:134 539:112 540:232 541:157 542:179 543:152 544:105 545:83 546:31 547:30 548:30 549:66 550:127 551:210 552:254 553:254 554:248 555:26 567:8 568:229 569:254 570:253 571:253 572:253 573:253 574:254 575:253 576:253 577:253 578:253 579:254 580:253 581:232 582:116 596:35 597:223 598:253 599:221 600:199 601:238 602:249 603:253 604:253 605:253 606:253 607:248 608:159 609:14 625:34 626:133 627:65 630:42 631:60 632:129 633:133 634:112 635:35 #
4.0775661969313443e-007 130:49 131:162 132:222 133:99 157:48 158:236 159:254 160:254 161:160 184:48 185:234 186:254 187:254 188:254 189:75 211:52 212:228 213:254 214:254 215:254 216:177 217:18 237:10 238:62 239:226 240:254 241:254 242:254 243:254 244:55 258:46 259:37 264:62 265:180 266:254 267:245 268:166 269:254 270:254 271:205 272:22 286:147 287:61 291:128 292:242 293:254 294:229 295:43 296:7 297:254 298:254 299:101 313:95 314:254 315:61 316:16 317:119 318:249 319:254 320:254 321:224 322:42 324:7 325:254 326:209 327:19 341:98 342:254 343:234 344:232 345:254 346:254 347:215 348:116 349:20 351:10 352:169 353:254 354:151 369:18 370:163 371:185 372:185 373:185 374:115 375:27 379:140 380:254 381:221 382:35 406:10 407:183 408:253 409:106 433:8 434:146 435:255 436:248 461:70 462:254 463:254 464:168 489:137 490:254 491:241 492:56 517:207 518:254 519:96 544:124 545:248 546:239 547:60 572:228 573:254 574:206 576:34 577:31 578:119 579:200 580:92 581:19 595:137 596:180 597:180 598:109 599:102 600:247 601:254 602:240 603:180 604:220 605:216 606:254 607:218 608:105 609:22 623:182 624:254 625:254 626:254 627:254 628:254 629:254 630:254 631:252 632:234 633:166 634:96 635:13 651:26 652:135 653:254 654:254 655:254 656:254 657:217 658:117 659:104 #
-9.0546811459604291e-007 126:25 127:220 128:205 129:122 130:47 154:109 155:254 156:254 157:254 158:245 159:135 182:188 183:254 184:254 185:246 186:56 187:25 210:188 211:254 212:254 213:181 237:62 238:249 239:225 240:248 241:150 265:217 266:254 267:88 268:149 269:150 292:72 293:243 294:222 296:132 297:150 320:242 321:254 322:69 324:132 325:206 347:42 348:249 349:219 350:10 352:132 353:244 375:155 376:254 377:62 380:132 381:209 402:19 403:254 404:240 405:28 408:157 409:150 430:69 431:254 432:148 435:84 436:240 437:150 458:151 459:254 460:30 463:199 464:254 465:146 485:32 486:238 487:254 488:9 490:92 491:254 492:254 493:56 513:48 514:254 515:238 516:7 518:188 519:254 520:218 521:4 541:48 542:254 543:169 545:3 546:193 547:254 548:139 569:48 570:254 571:169 573:92 574:254 575:255 576:56 597:48 598:254 599:251 600:42 601:239 602:254 603:134 604:1 625:7 626:168 627:254 628:226 629:254 630:162 631:14 654:44 655:254 656:232 657:114 658:17 #
-9.9999999999999995e-007 98:129 99:254 100:71 125:34 126:222 127:253 128:71 152:35 153:218 154:253 155:197 156:4 180:132 181:253 182:253 183:74 184:49 185:126 208:209 209:253 210:177 211:40 212:53 213:249 214:76 235:75 236:248 237:253 238:58 240:34 241:225 242:130 263:196 264:253 265:253 266:58 269:176 270:214 291:215 292:253 293:231 294:40 297:176 298:214 319:215 320:253 321:181 325:176 326:214 347:215 348:253 349:181 353:176 354:224 355:24 375:215 376:253 377:151 381:176 382:253 383:91 402:67 403:243 404:253 405:51 409:176 410:253 411:91 430:28 431:227 432:253 433:51 436:10 437:190 438:226 439:28 459:215 460:253 461:51 464:53 465:253 466:214 487:215 488:253 489:68 492:53 493:253 494:214 515:215 516:253 517:189 518:6 519:7 520:140 521:253 522:214 543:215 544:253 545:253 546:58 547:69 548:253 549:253 550:136 571:141 572:253 573:253 574:168 575:225 576:253 577:221 578:37 599:39 600:226 601:253 602:253 603:253 604:252 605:76 628:39 629:227 630:253 631:253 632:133 #
4.7812706291738511e-007 100:47 101:233 102:217 127:42 128:233 129:252 130:215 154:6 155:160 156:253 157:252 158:215 181:1 182:120 183:252 184:253 185:252 186:215 209:73 210:252 211:252 212:253 213:252 214:71 236:32 237:207 238:252 239:252 240:253 241:252 242:71 264:212 265:252 266:246 267:236 268:253 269:252 270:71 291:84 292:253 293:210 294:92 295:144 296:253 297:210 298:31 317:73 318:253 319:253 320:255 321:119 323:145 324:255 325:180 345:52 346:231 347:252 348:119 349:5 351:144 352:253 353:179 374:51 375:71 379:144 380:253 381:179 407:144 408:253 409:97 435:145 436:255 437:35 462:11 463:175 464:253 465:77 488:37 489:37 490:68 491:252 492:253 493:231 494:181 495:181 496:105 511:1 512:144 513:144 514:144 515:144 516:253 517:252 518:252 519:252 520:253 521:252 522:231 523:108 524:62 539:145 540:253 541:253 542:253 543:253 544:255 545:253 546:253 547:253 548:255 549:35 567:20 568:252 569:252 570:252 571:252 572:222 573:200 574:252 575:252 576:222 577:25 595:1 596:252 597:252 598:205 599:71 600:41 601:21 602:201 603:252 604:125 623:1 624:108 625:108 626:31 630:98 631:252 #
9.9999999999999995e-007 130:103 131:227 132:254 133:80 157:40 158:231 159:253 160:253 161:80 184:40 185:224 186:253 187:253 188:205 189:8 211:39 212:224 213:253 214:253 215:253 216:157 238:36 239:227 240:253 241:253 242:253 243:164 244:14 265:39 266:222 267:255 268:253 269:253 270:165 271:14 292:5 293:164 294:253 295:255 296:253 297:167 298:13 319:5 320:122 321:253 322:253 323:254 324:185 325:10 347:41 348:253 349:253 350:253 351:254 352:69 375:112 376:253 377:253 378:253 379:191 380:6 402:118 403:255 404:254 405:254 406:254 430:187 431:253 432:253 433:253 434:126 457:61 458:247 459:253 460:253 461:121 462:13 485:180 486:253 487:253 488:245 489:73 512:22 513:215 514:253 515:253 516:226 540:109 541:253 542:253 543:253 544:246 545:107 568:193 569:253 570:253 571:253 572:253 573:249 574:174 596:30 597:206 598:253 599:253 600:253 601:174 602:93 625:68 626:253 627:253 628:253 629:248 630:70 653:32 654:218 655:253 656:253 657:246 658:57 #
1.9549273444583476e-007 68:14 69:216 70:48 96:137 97:254 98:133 99:2 124:115 125:254 126:254 127:49 152:54 153:254 154:254 155:111 180:63 181:156 182:189 183:111 208:149 209:175 210:178 211:111 236:169 237:46 238:178 239:111 264:242 265:40 266:134 267:190 291:28 292:164 294:114 295:206 318:14 319:219 320:51 322:124 323:116 346:25 347:254 348:9 350:119 351:146 374:91 375:195 376:3 378:83 379:111 401:44 402:192 403:40 406:38 407:103 434:35 435:103 462:110 463:111 490:178 491:111 493:15 494:22 495:39 496:39 497:39 498:24 516:5 517:5 518:180 519:222 520:161 521:219 522:229 523:254 524:254 525:250 526:115 541:16 542:77 543:164 544:251 545:254 546:254 547:242 548:187 549:158 550:91 551:91 552:91 553:9 569:156 570:255 571:254 572:255 573:255 574:163 575:28 597:251 598:254 599:254 600:254 601:130 602:19 #
-1.3615029126084672e-007 180:11 181:25 182:89 183:145 184:71 185:83 186:19 206:30 207:141 208:199 209:253 210:254 211:253 212:253 213:253 214:201 215:37 216:25 232:64 233:169 234:238 235:253 236:253 237:253 238:254 239:253 240:253 241:253 242:253 243:253 244:225 245:124 246:5 259:123 260:233 261:253 262:253 263:230 264:193 265:222 266:254 267:253 268:253 269:253 270:253 271:224 272:253 273:253 274:136 275:3 285:7 286:91 287:234 288:253 289:253 290:153 291:37 293:214 294:254 295:246 296:163 297:60 298:60 299:32 300:60 301:191 302:253 303:46 313:65 314:253 315:253 316:163 317:48 318:9 321:242 322:250 323:95 329:65 330:246 331:173 340:52 341:187 342:253 343:165 344:10 348:42 349:247 350:138 358:230 359:253 368:133 369:253 370:238 371:48 376:110 377:253 378:70 386:121 387:253 396:133 397:242 398:56 404:57 405:248 406:117 414:225 415:253 424:192 425:230 433:244 434:123 441:5 442:232 443:254 452:203 453:229 461:173 462:192 463:11 469:109 470:253 471:172 480:179 481:229 489:46 490:237 491:183 496:71 497:240 498:253 499:11 508:133 509:245 510:88 518:45 519:88 520:46 523:38 524:215 525:253 526:157 527:4 536:102 537:227 538:243 539:90 549:12 550:90 551:236 552:253 553:184 554:7 565:53 566:253 567:242 568:194 569:102 570:73 571:73 572:7 574:39 575:85 576:194 577:205 578:253 579:253 580:153 581:37 593:5 594:123 595:225 596:253 597:253 598:253 599:253 600:210 601:206 602:232 603:253 604:253 605:253 606:233 607:133 608:9 623:24 624:65 625:156 626:235 627:253 628:253 629:253 630:250 631:156 632:156 633:76 634:27 654:19 655:24 656:24 657:24 658:23 #
-1.788134329719142e-007 95:56 96:158 97:254 98:254 123:134 124:253 125:253 126:253 150:2 151:134 152:238 153:161 154:253 155:9 178:30 179:182 180:120 181:222 182:253 183:149 205:67 206:228 207:253 208:182 209:90 210:178 211:106 212:133 233:84 234:227 235:88 236:4 240:174 241:169 261:149 262:164 263:56 268:60 269:246 270:72 289:149 290:8 296:39 297:222 298:247 299:168 317:149 325:47 326:229 327:191 328:14 345:149 354:120 355:253 356:74 383:164 384:136 411:58 412:206 439:5 440:154 467:146 468:223 494:36 495:233 496:223 520:8 521:128 522:200 523:232 524:117 541:80 547:135 548:163 549:253 550:133 551:36 552:35 568:43 569:231 570:133 571:90 572:90 573:90 574:178 575:164 576:238 577:248 578:87 596:99 597:248 598:253 599:253 600:253 601:253 602:253 603:196 604:232 605:196 625:180 626:210 627:253 628:253 629:253 630:253 631:255 632:105 #
