SVM-light Version V6.02
0 # kernel type
3 # kernel parameter -d 
1 # kernel parameter -g 
1 # kernel parameter -s 
1 # kernel parameter -r 
empty# kernel parameter -u 
743 # highest feature index 
12665 # number of training documents 
144 # number of support vectors plus 1 
0.68019506 # threshold b, each following line is a SV (starting with alpha*y)
-93.367290401838702 121:0.0013325042 122:0.0067809657 123:0.0060110744 124:0.0018655059 148:0.0005626129 149:0.006662521 150:0.0074620238 151:0.0074620238 152:0.0026057861 176:0.0019543394 177:0.0074620238 178:0.0074620238 179:0.0048562377 204:0.0056557399 205:0.0074620238 206:0.0048562377 207:0.0023096739 208:0.00038494566 209:0.0055669066 210:0.006662521 211:0.006662521 212:0.0029907317 231:0.0033756774 232:0.007550857 233:0.0074916347 234:0.0016582275 236:0.0027242308 237:0.0074916347 238:0.0074916347 239:0.0074916347 240:0.0075212461 241:0.0074916347 242:0.0037902342 243:0.00047377928 259:0.0033460662 260:0.0074916347 261:0.0071066893 262:0.0012732818 264:0.0041751801 265:0.006336798 266:0.0032276213 267:0.0039382903 268:0.0060110744 269:0.0074620238 270:0.0074620238 271:0.0048858486 287:0.0033460662 288:0.0074916347 289:0.0046785702 292:0.00091794733 293:0.0005626129 296:0.0019543394 297:0.0074620238 298:0.0074620238 299:0.0074620238 300:0.0026353972 315:0.0063071866 316:0.0074916347 317:0.0024873412 323:0.0029907317 324:0.0071363002 325:0.0074620238 326:0.0074620238 327:0.0074620238 328:0.0063071866 343:0.0066921324 344:0.0075212461 345:0.0024873412 350:0.0017766723 351:0.0071363002 352:0.0075212461 353:0.0061887419 354:0.0018655059 355:0.0070474669 356:0.0066921324 370:0.0016878387 371:0.007195523 372:0.0073139677 373:0.0019247283 377:0.00038494566 378:0.0061887419 379:0.0074620238 380:0.0069290218 381:0.00082911376 383:0.006662521 384:0.006662521 398:0.0025169523 399:0.0074620238 400:0.006662521 404:0.00029611206 405:0.005093127 406:0.0074620238 407:0.0074620238 408:0.004056735 410:0.00085872493 411:0.0069290218 412:0.006662521 426:0.0025169523 427:0.0074620238 428:0.006662521 432:0.0023392851 433:0.0074620238 434:0.0074620238 435:0.0059814635 436:0.00038494566 438:0.0025169523 439:0.0074620238 440:0.006662521 454:0.0025169523 455:0.0074916347 456:0.0071659116 457:0.0013917267 459:0.00038494566 460:0.0060406858 461:0.0074916347 462:0.0072251339 463:0.00074028014 466:0.0043528471 467:0.0074916347 468:0.0066921324 482:0.00082911376 483:0.0069290218 484:0.0074916347 485:0.0032276213 487:0.0033460662 488:0.0074916347 489:0.0074620238 490:0.0027538422 494:0.0058334074 495:0.0074620238 496:0.0044416809 511:0.006662521 512:0.0074916347 513:0.005803796 515:0.0059222411 516:0.0074916347 517:0.0068994109 518:0.0010956146 521:0.0024281188 522:0.0071066893 523:0.0074620238 524:0.0022504516 539:0.0037014007 540:0.0074916347 541:0.0072843563 542:0.0037014007 543:0.00737319 544:0.0074916347 545:0.0042936248 548:0.00076989131 549:0.007195523 550:0.0074620238 551:0.0044712918 567:0.0015101715 568:0.0071659116 569:0.0074916347 570:0.0074916347 571:0.0071363002 572:0.0059518521 575:0.00038494566 576:0.0060406858 577:0.0074916347 578:0.0072251339 579:0.0022208404 596:0.0019543394 597:0.0074620238 598:0.0074620238 599:0.0063664089 600:0.0016878387 601:0.0016878387 602:0.0042640134 603:0.0060999081 604:0.0074916347 605:0.0074620238 606:0.0027538422 624:0.00020727844 625:0.0038494566 626:0.0069290218 627:0.0074620238 628:0.0074916347 629:0.0074620238 630:0.0074620238 631:0.0074620238 632:0.0072251339 633:0.004204791 634:0.00038494566 654:0.00065144652 655:0.0052707945 656:0.0074916347 657:0.0074620238 658:0.0074620238 659:0.0044712918 660:0.0022208404 #
93.367290401838702 120:0.00028955532 121:0.0028128233 122:0.0054188212 123:0.0043433299 148:0.0066597727 149:0.010506722 150:0.0023991726 157:0.0014891417 158:0.00062047568 176:0.0086039295 177:0.010506722 178:0.00045501551 184:0.0042192349 185:0.010465357 186:0.0076938989 204:0.0086039295 205:0.010506722 206:0.00045501551 210:0.0023164426 211:0.0070734229 212:0.010299897 213:0.010506722 214:0.0093071358 232:0.0068665976 233:0.010506722 234:0.0085625648 235:0.0037228542 236:0.0037228542 237:0.0048810756 238:0.010093071 239:0.010506722 240:0.010506722 241:0.010506722 242:0.0052947258 260:0.0037228542 261:0.010506722 262:0.010506722 263:0.010506722 264:0.010506722 265:0.010506722 266:0.010506722 267:0.010506722 268:0.010506722 269:0.010506722 270:0.0044260598 288:0.00016546018 289:0.0025232679 290:0.010093071 291:0.010299897 292:0.010299897 293:0.0068252329 294:0.0038883144 295:0.0043433299 296:0.010506722 297:0.010051706 298:0.00020682524 322:0.00033092036 323:0.0090175802 324:0.010506722 325:0.0072802482 350:0.0040124096 351:0.010506722 352:0.010506722 353:0.0043433299 378:0.0081075495 379:0.010548087 380:0.010506722 381:0.00020682524 405:0.0007859359 406:0.0088521196 407:0.010506722 408:0.0091003105 409:0.00016546018 433:0.0024819027 434:0.010506722 435:0.010548087 436:0.0040537748 461:0.0069493279 462:0.010506722 463:0.0069493279 464:0.00012409514 488:0.00091003103 489:0.0089762155 490:0.010506722 491:0.0065770424 516:0.0023164426 517:0.010548087 518:0.010506722 519:0.0037642193 521:0.00066184072 522:0.0041365046 523:0.0061220271 524:0.0061220271 525:0.003598759 543:0.00020682524 544:0.0073629781 545:0.010506722 546:0.010506722 547:0.0074457084 548:0.0068665976 549:0.0087693902 550:0.010506722 551:0.010175802 552:0.0072802482 553:0.0007859359 567:0.0020268874 568:0.002730093 569:0.002730093 570:0.0028541882 571:0.0079007242 572:0.010506722 573:0.010506722 574:0.010506722 575:0.010506722 576:0.010506722 577:0.0091416752 578:0.0049638054 579:0.0023991726 594:0.0056670113 595:0.0099689765 596:0.010506722 597:0.010506722 598:0.010506722 599:0.010506722 600:0.010506722 601:0.010506722 602:0.010506722 603:0.0076111685 604:0.0026473629 605:0.0010754912 622:0.0020268874 623:0.0094725955 624:0.010506722 625:0.010506722 626:0.010506722 627:0.010506722 628:0.010506722 629:0.0095553258 630:0.0025646328 631:0.00024819028 651:0.0005377456 652:0.00070320582 653:0.00070320582 654:0.00070320582 655:0.0062047569 656:0.0097207855 657:0.0020268874 #
-93.367290401838702 179:0.00034213555 180:0.00077758078 181:0.0027681876 182:0.0045099687 183:0.0022083295 184:0.0025815682 185:0.00059096143 205:0.00093309698 206:0.0043855556 207:0.0061895433 208:0.0078691179 209:0.0079002213 210:0.0078691179 211:0.0078691179 212:0.0078691179 213:0.0062517496 214:0.0011508196 215:0.00077758078 231:0.0019906068 232:0.0052564461 233:0.0074025691 234:0.0078691179 235:0.0078691179 236:0.0078691179 237:0.0079002213 238:0.0078691179 239:0.0078691179 240:0.0078691179 241:0.0078691179 242:0.0078691179 243:0.006998227 244:0.0038568007 245:0.00015551616 258:0.0038256976 259:0.0072470531 260:0.0078691179 261:0.0078691179 262:0.0071537434 263:0.0060029235 264:0.0069049173 265:0.0079002213 266:0.0078691179 267:0.0078691179 268:0.0078691179 269:0.0078691179 270:0.0069671241 271:0.0078691179 272:0.0078691179 273:0.0042300397 274:9.3309696e-005 284:0.00021772263 285:0.0028303941 286:0.007278156 287:0.0078691179 288:0.0078691179 289:0.0047587943 290:0.0011508196 292:0.0066560917 293:0.0079002213 294:0.0076513952 295:0.0050698267 296:0.001866194 297:0.001866194 298:0.00099530339 299:0.001866194 300:0.0059407172 301:0.0078691179 302:0.0014307486 312:0.0020217102 313:0.0078691179 314:0.0078691179 315:0.0050698267 316:0.0014929551 317:0.00027992908 320:0.0075269821 321:0.0077758078 322:0.0029548069 328:0.0020217102 329:0.0076513952 330:0.0053808591 339:0.0016173681 340:0.0058163041 341:0.0078691179 342:0.005132033 343:0.00031103232 347:0.0013063357 348:0.0076824981 349:0.004292246 357:0.0071537434 358:0.0078691179 367:0.00413673 368:0.0078691179 369:0.0074025691 370:0.0014929551 375:0.0034213555 376:0.0078691179 377:0.0021772261 385:0.0037634911 386:0.0078691179 395:0.00413673 396:0.0075269821 397:0.001741781 403:0.0017728842 404:0.0077136015 405:0.003639078 413:0.006998227 414:0.0078691179 423:0.0059718206 424:0.0071537434 432:0.0075891884 433:0.0038256976 440:0.00015551616 441:0.0072159497 442:0.0079002213 451:0.0063139559 452:0.00712264 460:0.0053808591 461:0.0059718206 462:0.00034213555 468:0.0033902524 469:0.0078691179 470:0.0053497558 479:0.0055674785 480:0.00712264 488:0.0014307486 489:0.0073714657 490:0.0056918915 495:0.0022083295 496:0.0074647758 497:0.0078691179 498:0.00034213555 507:0.00413673 508:0.0076202918 509:0.0027370844 517:0.0013996455 518:0.0027370844 519:0.0014307486 522:0.0011819229 523:0.0066871946 524:0.0078691179 525:0.0048832074 526:0.00012441292 535:0.0031725296 536:0.0070604337 537:0.0075580855 538:0.0027992909 548:0.00037323878 549:0.0027992909 550:0.0073403628 551:0.0078691179 552:0.0057229945 553:0.00021772263 564:0.0016484712 565:0.0078691179 566:0.0075269821 567:0.0060340269 568:0.0031725296 569:0.0022705358 570:0.0022705358 571:0.00021772263 573:0.001213026 574:0.0026437747 575:0.0060340269 576:0.0063761626 577:0.0078691179 578:0.0078691179 579:0.0047587943 580:0.0011508196 592:0.00015551616 593:0.0038256976 594:0.006998227 595:0.0078691179 596:0.0078691179 597:0.0078691179 598:0.0078691179 599:0.0065316786 600:0.0064072656 601:0.0072159497 602:0.0078691179 603:0.0078691179 604:0.0078691179 605:0.0072470531 606:0.00413673 607:0.00027992908 622:0.00074647757 623:0.0020217102 624:0.004852104 625:0.0073092594 626:0.0078691179 627:0.0078691179 628:0.0078691179 629:0.0077758078 630:0.004852104 631:0.004852104 632:0.0023638457 633:0.00083978724 653:0.00059096143 654:0.00074647757 655:0.00074647757 656:0.00074647757 657:0.00071537431 #
-93.367290401838702 155:0.00029363931 156:0.0026653416 157:0.0026653416 158:0.0026653416 159:0.0026653416 160:0.0026653416 161:0.00079056743 178:0.0011293821 179:0.0021910011 180:0.0021910011 181:0.0030041561 182:0.005285508 183:0.0053306832 184:0.0057146731 185:0.0057146731 186:0.0057146731 187:0.0057146731 188:0.0057146731 189:0.0053984458 190:0.0033429707 191:0.0010164438 203:0.001061619 204:0.0048111673 205:0.0048111673 206:0.005285508 207:0.0057146731 208:0.0057146731 209:0.0057146731 210:0.0057146731 211:0.0055339718 212:0.0039980123 213:0.0039980123 214:0.004698229 215:0.0057146731 216:0.0057146731 217:0.0057146731 218:0.0057146731 219:0.0035236718 230:0.0019877122 231:0.0046530538 232:0.0057146731 233:0.0057146731 234:0.0057146731 235:0.0044949404 236:0.0033655583 237:0.001377846 238:0.001377846 239:0.0012423202 241:0.00060986629 242:0.0047434042 243:0.0057146731 244:0.0057146731 245:0.0057146731 246:0.0057146731 247:0.0057146731 257:0.00031622697 258:0.0049466933 259:0.0057146731 260:0.0056017349 261:0.0030719191 262:0.0018521865 263:4.5175279e-005 267:9.0350557e-005 268:0.00088091794 269:0.0047885799 270:0.0057146731 271:0.0054662088 272:0.0025072279 273:0.0028912178 274:0.0057146731 275:0.0057146731 285:0.0040206001 286:0.0057146731 287:0.0049692807 288:0.0020103001 295:0.00081315503 296:0.0057146731 297:0.0057146731 298:0.0056017349 299:0.0019651246 301:0.0040431875 302:0.0057146731 303:0.0057146731 313:0.005285508 314:0.0057146731 315:0.0044723526 322:0.0021910011 323:0.0047434042 324:0.0057146731 325:0.0042690639 326:0.0016488978 328:0.00074539211 329:0.0049015181 330:0.0057146731 331:0.0041109505 340:0.0025975786 341:0.0057146731 342:0.0057146731 343:0.0044723526 350:0.0042013009 351:0.0057146731 352:0.0056469101 353:0.0016714854 356:0.0014230213 357:0.0057146731 358:0.0057146731 359:0.0026201662 368:0.0026653416 369:0.0057146731 370:0.0057146731 371:0.001694073 376:0.00072280446 377:0.0045401156 378:0.0055565597 379:0.0054887966 380:0.0035914348 384:0.0025072279 385:0.0057146731 386:0.0042013009 387:0.00027105169 396:0.0026653416 397:0.0057146731 398:0.0057146731 399:0.001377846 404:0.0028912178 405:0.0057146731 406:0.0057146731 407:0.0051048067 411:0.0013552584 412:0.0048337551 413:0.0057146731 414:0.0021684135 424:0.0032300325 425:0.0057146731 426:0.0057146731 427:0.001377846 431:0.0024394651 432:0.0055565597 433:0.0057146731 434:0.005511384 435:0.0024620527 439:0.0049692807 440:0.0057146731 441:0.0044497652 442:0.00058727863 452:0.0057372604 453:0.0057146731 454:0.0047885799 455:0.00063245394 458:0.001942537 459:0.0056694974 460:0.0057146731 461:0.0055565597 462:0.0024620527 466:0.0018747741 467:0.0054662088 468:0.0048111673 469:0.00058727863 480:0.0057372604 481:0.0057146731 482:0.0057146731 483:0.001377846 485:0.00027105169 486:0.0045175282 487:0.0057146731 488:0.0056694974 489:0.0023717021 492:9.0350557e-005 493:0.001694073 494:0.0056017349 495:0.0056694974 496:0.0025298158 508:0.0057372604 509:0.0057146731 510:0.0057146731 511:0.0028912178 513:0.0034107335 514:0.0057146731 515:0.0057146731 516:0.003704373 519:0.00031622697 520:0.0044497652 521:0.0057146731 522:0.0057146731 523:0.0023491145 536:0.0044723526 537:0.0057146731 538:0.0057146731 539:0.0044723526 541:0.0034107335 542:0.0057146731 543:0.0057146731 544:0.00074539211 546:0.0017166607 547:0.0043820022 548:0.0057146731 549:0.0045852908 550:0.0021458259 551:4.5175279e-005 564:0.0026653416 565:0.0057146731 566:0.0057146731 567:0.0055565597 568:0.0049692807 569:0.0054210336 570:0.0057146731 571:0.0057146731 572:0.0022813517 573:0.0027331044 574:0.005511384 575:0.0057146731 576:0.0056694974 577:0.0019877122 592:0.00056469103 593:0.0046078786 594:0.0057146731 595:0.0057146731 596:0.0057146731 597:0.0057146731 598:0.0057146731 599:0.0057146731 600:0.0057146731 601:0.0057146731 602:0.0057146731 603:0.0044723526 604:0.001197145 621:0.00065504154 622:0.0045627034 623:0.0057146731 624:0.0057146731 625:0.0057146731 626:0.0057146731 627:0.0057146731 628:0.0057146731 629:0.0054662088 630:0.0025298158 631:0.00058727863 650:0.00065504154 651:0.0028460426 652:0.0048337551 653:0.0039980123 654:0.0052403323 655:0.0039076619 656:0.0021684135 657:0.0015811349 #
-93.367290401838702 154:0.0014542344 155:0.0045337896 156:0.0072141429 157:0.0072141429 158:0.0072141429 159:0.007271172 160:0.0025662959 180:0.00028514399 181:0.0046478473 182:0.006786427 183:0.0071856286 184:0.0071856286 185:0.0071856286 186:0.0071856286 187:0.0072141429 188:0.006928999 189:0.0014257199 207:0.00037068719 208:0.0044482462 209:0.0071856286 210:0.0072141429 211:0.0071856286 212:0.0071856286 213:0.0061020814 214:0.0055603078 215:0.0072141429 216:0.0071856286 217:0.001568292 234:0.0020815511 235:0.0053321929 236:0.0071856286 237:0.0071856286 238:0.0072141429 239:0.0071856286 240:0.006986028 241:0.0021100657 243:0.0067579127 244:0.0071856286 245:0.0042486456 260:0.0022526376 261:0.0040205303 262:0.0068434561 263:0.0071856286 264:0.0071856286 265:0.0071856286 266:0.0072141429 267:0.0071856286 268:0.0033646992 271:0.0032221272 272:0.0071856286 273:0.0055603078 287:0.0026233247 288:0.0072141429 289:0.007271172 290:0.0072141429 291:0.0047048759 292:0.00213858 293:0.0072141429 294:0.007271172 295:0.0061305962 296:0.00088394637 299:0.0032506415 300:0.0072141429 301:0.0055888225 314:0.0014542344 315:0.006928999 316:0.0071856286 317:0.0061305962 318:0.0011976048 319:0.00071285997 320:0.0051611066 321:0.0071856286 322:0.0072141429 323:0.0034502423 327:0.0032221272 328:0.0071856286 329:0.0055603078 342:0.0025092671 343:0.0071856286 344:0.0062731681 345:0.00088394637 347:0.0016253208 348:0.0071856286 349:0.0071856286 350:0.006501283 351:0.00059880241 355:0.0025092671 356:0.0070145424 357:0.0055603078 370:0.0056173368 371:0.0061876248 372:0.0010550328 374:0.00028514399 375:0.0044482462 376:0.0071856286 377:0.0071856286 378:0.0035928143 383:0.0021670945 384:0.006928999 385:0.0055603078 398:0.0047048759 399:0.0010550328 402:0.0046478473 403:0.0071856286 404:0.0071856286 405:0.0049329912 411:0.0032221272 412:0.0071856286 413:0.0055603078 430:0.0064442544 431:0.0072141429 432:0.0068434561 433:0.0017964072 439:0.0050185341 440:0.0072141429 441:0.0015968063 457:0.0041916166 458:0.0071000857 459:0.0071856286 460:0.0050185341 466:0.0013686912 467:0.0072141429 468:0.0036783575 469:0.0001710864 484:0.0031650984 485:0.0072141429 486:0.0071856286 487:0.0059309951 488:0.00054177362 493:0.00065583119 494:0.0064727687 495:0.0072141429 496:0.00076988881 511:0.0001140576 512:0.0043627033 513:0.0072141429 514:0.0071856286 515:0.0029084687 520:0.0010835472 521:0.0050755632 522:0.0071856286 523:0.0050755632 524:0.0002566296 539:0.0030510407 540:0.0071856286 541:0.0072141429 542:0.0058169374 543:0.00071285997 548:0.003849444 549:0.0071856286 550:0.0049329912 551:0.0017964072 566:0.00074137439 567:0.0059024808 568:0.0072141429 569:0.007271172 570:0.00076988881 574:0.0014542344 575:0.006786427 576:0.0072141429 577:0.0068434561 578:0.0017964072 594:0.0016253208 595:0.0071856286 596:0.0071856286 597:0.0061305962 598:0.00051325921 599:0.00054177362 600:0.0024237239 601:0.0046478473 602:0.006786427 603:0.0071856286 604:0.0057313945 605:0.00068434561 622:0.0016253208 623:0.0071856286 624:0.0071856286 625:0.0047333902 626:0.0029654976 627:0.0059595094 628:0.0071856286 629:0.0071856286 630:0.0072141429 631:0.0057313945 632:0.0021100657 650:0.0014542344 651:0.0069004847 652:0.0071856286 653:0.0072141429 654:0.0071856286 655:0.0071856286 656:0.0071000857 657:0.0041345879 658:0.0023952096 659:0.0002566296 679:0.0025948104 680:0.0071856286 681:0.0072141429 682:0.0071856286 683:0.0040205303 684:0.0028229256 #
93.367290401838702 99:0.0019650473 100:0.0097416174 101:0.0090726651 126:0.0017559996 127:0.0097416174 128:0.010535998 129:0.0089890463 153:0.00025085709 154:0.0066895224 155:0.010577807 156:0.010535998 157:0.0089890463 180:4.1809515e-005 181:0.0050171418 182:0.010535998 183:0.010577807 184:0.010535998 185:0.0089890463 208:0.0030520947 209:0.010535998 210:0.010535998 211:0.010577807 212:0.010535998 213:0.0029684757 235:0.0013379045 236:0.0086545702 237:0.010535998 238:0.010535998 239:0.010577807 240:0.010535998 241:0.0029684757 263:0.0088636177 264:0.010535998 265:0.010285141 266:0.009867046 267:0.010577807 268:0.010535998 269:0.0029684757 290:0.0035119993 291:0.010577807 292:0.0087799979 293:0.0038464754 294:0.0060205702 295:0.010577807 296:0.0087799979 297:0.001296095 316:0.0030520947 317:0.010577807 318:0.010577807 319:0.010661427 320:0.0049753324 322:0.0060623796 323:0.010661427 324:0.0075257127 344:0.0021740948 345:0.0096579986 346:0.010535998 347:0.0049753324 348:0.00020904758 350:0.0060205702 351:0.010577807 352:0.0074839033 373:0.0021322854 374:0.0029684757 378:0.0060205702 379:0.010577807 380:0.0074839033 406:0.0060205702 407:0.010577807 408:0.0040555228 434:0.0060623796 435:0.010661427 436:0.001463333 461:0.00045990467 462:0.0073166653 463:0.010577807 464:0.0032193328 487:0.0015469521 488:0.0015469521 489:0.002843047 490:0.010535998 491:0.010577807 492:0.0096579986 493:0.0075675226 494:0.0075675226 495:0.004389999 510:4.1809515e-005 511:0.0060205702 512:0.0060205702 513:0.0060205702 514:0.0060205702 515:0.010577807 516:0.010535998 517:0.010535998 518:0.010535998 519:0.010577807 520:0.010535998 521:0.0096579986 522:0.0045154276 523:0.0025921899 538:0.0060623796 539:0.010577807 540:0.010577807 541:0.010577807 542:0.010577807 543:0.010661427 544:0.010577807 545:0.010577807 546:0.010577807 547:0.010661427 548:0.001463333 566:0.0008361903 567:0.010535998 568:0.010535998 569:0.010535998 570:0.010535998 571:0.0092817126 572:0.008361903 573:0.010535998 574:0.010535998 575:0.0092817126 576:0.0010452379 594:4.1809515e-005 595:0.010535998 596:0.010535998 597:0.0085709505 598:0.0029684757 599:0.0017141901 600:0.00087799982 601:0.0084037129 602:0.010535998 603:0.0052261893 622:4.1809515e-005 623:0.0045154276 624:0.0045154276 625:0.001296095 629:0.0040973327 630:0.010535998 #
93.367290401838702 124:0.001427025 125:0.0079224482 126:0.012547977 127:0.0089066038 128:9.8415512e-005 151:0.00044286979 152:0.006249385 153:0.012449562 154:0.012449562 155:0.012449562 156:0.0057080998 178:0.00019683102 179:0.0088573955 180:0.012449562 181:0.012252731 182:0.012252731 183:0.012449562 184:0.0084637338 205:0.00019683102 206:0.0062001771 207:0.012449562 208:0.010825706 209:0.0038874126 210:0.0094478894 211:0.012449562 212:0.0084637338 233:0.0018698947 234:0.012449562 235:0.012154316 236:0.0055604763 238:0.0094478894 239:0.012449562 240:0.0084637338 261:0.0018698947 262:0.012449562 263:0.011563823 264:0.0032477118 266:0.0094478894 267:0.012449562 268:0.0084637338 289:0.0006397008 290:0.0082669025 291:0.011809861 292:0.0096939281 294:0.0094478894 295:0.012449562 296:0.0084637338 319:0.0027064264 320:0.0031000886 322:0.0094478894 323:0.012449562 324:0.0072827479 350:0.0094478894 351:0.011662238 352:0.0018698947 377:0.0007873241 378:0.010186005 379:0.0088081881 405:0.0015746482 406:0.01097333 407:0.0088081881 433:0.0031000886 434:0.012449562 435:0.0088081881 461:0.0031000886 462:0.012449562 463:0.0088081881 489:0.0031000886 490:0.012449562 491:0.0088081881 495:0.0037889972 496:0.0043302826 497:0.0024111799 517:0.00044286979 518:0.0098907584 519:0.0088081881 521:0.003838205 522:0.0097923437 523:0.012252731 524:0.012449562 525:0.0069382936 546:0.0094478894 547:0.012006693 548:0.01097333 549:0.012203523 550:0.012449562 551:0.01053046 552:0.005068399 553:0.00083653186 571:0.0010333628 572:0.005216022 573:0.0096939281 574:0.012203523 575:0.012449562 576:0.012449562 577:0.0081192795 578:0.0020667256 579:0.00073811633 594:0.0031492964 595:0.0055112685 596:0.0055112685 597:0.0055112685 598:0.0095463041 599:0.011760654 600:0.012449562 601:0.012449562 602:0.012449562 603:0.0081192795 604:0.0020667256 605:0.00014762327 622:0.0070367088 623:0.012449562 624:0.012449562 625:0.012449562 626:0.012449562 627:0.012449562 628:0.01117016 629:0.0066430471 630:0.0020667256 631:0.00014762327 650:0.0035921661 651:0.0069382936 652:0.0087097725 653:0.010235213 654:0.0084145265 655:0.0051668142 656:0.00019683102 #
3.5550965666871477 161:0.00040375491 162:0.017664278 163:0.017159585 188:0.00040375491 189:0.018471787 190:0.025335621 191:0.012617341 216:0.016251136 217:0.025638437 218:0.013929545 242:0.0023215909 243:0.020490563 244:0.024225295 245:0.015342687 246:0.0007065711 269:0.0028262844 270:0.017260524 271:0.02543656 272:0.012516403 273:0.00050469366 296:0.0022206521 297:0.015241749 298:0.022004643 299:0.012920157 319:0.011305138 320:0.012617341 321:0.00020187745 323:0.0022206521 324:0.017058646 325:0.020490563 326:0.0068638339 347:0.0039366107 348:0.0025234683 349:0.0029272232 350:0.017462401 351:0.018774604 352:0.017866155 378:0.0092863636 379:0.010093873 380:0.00020187745 404:0.00060563238 405:0.01594832 431:0.0084788529 432:0.020187747 433:0.011507016 457:0.0016150196 458:0.017058646 459:0.025537498 460:0.023518724 461:0.0024225295 484:0.0023215909 485:0.019884929 486:0.025638437 487:0.019985868 488:0.0049459976 511:0.0036337944 512:0.014232361 513:0.024830928 514:0.014030484 515:0.0015140809 538:0.0033309781 539:0.025739376 540:0.025638437 541:0.011204199 564:0.00080750982 565:0.012314525 566:0.023619663 567:0.025638437 568:0.017563339 592:0.021701828 593:0.025638437 594:0.025032805 595:0.0072675887 596:0.00060563238 620:0.017159585 621:0.017058646 622:0.0060563236 #
-93.367290401838702 129:0.005393187 130:0.010112226 131:0.01007257 132:0.0051552523 156:0.0054328428 157:0.010032915 158:0.0090018641 159:0.01007257 160:0.0063052704 183:0.0033310861 184:0.0099932589 185:0.0085259946 186:0.0017448546 187:0.01007257 188:0.0063052704 210:0.0017845104 211:0.0091208313 212:0.0097949794 213:0.0030534957 214:0.0028155609 215:0.01007257 216:0.0063052704 238:0.0056707775 239:0.0097553236 240:0.004441448 242:0.0041242018 243:0.01007257 244:0.0042828252 265:0.0025379704 266:0.0092794541 267:0.0068604513 270:0.0041242018 271:0.0095967008 272:0.00023793473 291:0.0044017923 292:0.0090811756 293:0.0098742908 294:0.01007257 295:0.0035293652 297:0.00019827894 298:0.0077328784 299:0.0088035846 318:0.0036879883 319:0.0099139465 320:0.01007257 321:0.01007257 322:0.0081294365 323:0.00023793473 325:0.0027362492 326:0.01007257 327:0.0054328428 345:0.0018241663 346:0.0090415198 347:0.0090811756 348:0.0068207956 349:0.01007257 350:0.0052742199 353:0.0060673356 354:0.0099139465 355:0.002220724 372:0.00043621365 373:0.0075345999 374:0.01007257 375:0.0047983504 376:0.0051155966 377:0.01007257 378:0.0052742199 380:0.0014672641 381:0.0097156679 382:0.0064638932 400:0.0052345642 401:0.01007257 402:0.0085259946 403:0.0012689852 404:0.0051155966 405:0.01007257 406:0.0052742199 408:0.0049966294 409:0.0099139465 410:0.0038862673 427:0.00083277153 428:0.0087242732 429:0.0097553236 430:0.0028155609 432:0.0051155966 433:0.01007257 434:0.0052742199 435:0.0026172821 436:0.0096363565 437:0.0063845818 455:0.0063845818 456:0.01007257 457:0.0062656146 460:0.002220724 461:0.0098742908 462:0.007455288 463:0.0082880594 464:0.009160487 465:0.0019827895 482:0.0036879883 483:0.0099139465 484:0.0086449618 485:0.001308641 489:0.0068604513 490:0.01007257 491:0.0099536031 492:0.0038862673 510:0.0076139113 511:0.01007257 512:0.003965579 516:0.00047586946 517:0.0065432051 518:0.01007257 519:0.0065432051 537:0.0024190031 538:0.0099536031 539:0.0090018641 540:0.00051552523 543:0.00039655788 544:0.0066225166 545:0.01007257 546:0.0078518456 547:0.0056311218 548:0.00075345999 565:0.0063052704 566:0.01007257 567:0.0050362851 570:0.0003172463 571:0.006701828 572:0.01007257 573:0.0074156323 574:0.00051552523 593:0.0063052704 594:0.01007257 595:0.0042035137 596:0.0003172463 597:0.0030534957 598:0.0087639289 599:0.01007257 600:0.0062656146 601:0.00051552523 621:0.0062656146 622:0.01007257 623:0.0092794541 624:0.0097949794 625:0.01007257 626:0.0099536031 627:0.007455288 628:0.00047586946 649:0.00095173891 650:0.0085656503 651:0.01007257 652:0.01007257 653:0.0081294365 654:0.0019034778 #
-93.367290401838702 127:0.0077955429 128:0.0058390144 129:0.0039130566 154:0.0019565283 155:0.0077955429 156:0.0077955429 157:0.0077955429 158:0.0039130566 159:0.0019565283 183:0.0077955429 184:0.0077955429 185:0.0077955429 186:0.0077955429 187:0.0058390144 211:0.0039130566 212:0.0077955429 213:0.0077955429 214:0.0077955429 215:0.0077955429 216:0.0039130566 238:0.0019565283 239:0.0077955429 240:0.0077955429 241:0.0058390144 242:0.0077955429 243:0.0077955429 244:0.0039130566 265:0.0019565283 266:0.0077955429 267:0.0077955429 268:0.0077955429 270:0.0077955429 271:0.0077955429 272:0.0039130566 292:0.0058390144 293:0.0077955429 294:0.0077955429 295:0.0077955429 296:0.0077955429 297:0.0058390144 298:0.0077955429 299:0.0077955429 300:0.0019565283 319:0.0039130566 320:0.0077955429 321:0.0077955429 322:0.0077955429 323:0.0077955429 324:0.0077955429 325:0.0077955429 326:0.0077955429 327:0.0058390144 346:0.0039130566 347:0.0077955429 348:0.0077955429 349:0.0077955429 350:0.0077955429 351:0.0077955429 352:0.0077955429 353:0.0077955429 354:0.0077955429 355:0.0039130566 374:0.0058390144 375:0.0077955429 376:0.0077955429 377:0.0077955429 378:0.0077955429 379:0.0077955429 380:0.0077955429 381:0.0077955429 382:0.0058390144 401:0.0058390144 402:0.0077955429 403:0.0077955429 404:0.0077955429 405:0.0077955429 406:0.0077955429 407:0.0077955429 408:0.0077955429 409:0.0077955429 429:0.0077955429 430:0.0077955429 431:0.0077955429 432:0.0077955429 433:0.0077955429 434:0.0077955429 435:0.0077955429 436:0.0077955429 437:0.0058390144 456:0.0039130566 457:0.0077955429 458:0.0077955429 459:0.0077955429 460:0.0077955429 461:0.0077955429 462:0.0077955429 463:0.0077955429 464:0.0058390144 483:0.0019565283 484:0.0077955429 485:0.0077955429 486:0.0077955429 487:0.0077955429 488:0.0077955429 489:0.0077955429 490:0.0077955429 491:0.0077955429 492:0.0019565283 511:0.0039130566 512:0.0077955429 513:0.0077955429 514:0.0077955429 515:0.0077955429 516:0.0077955429 517:0.0077955429 518:0.0077955429 539:0.0039130566 540:0.0077955429 541:0.0077955429 542:0.0077955429 543:0.0077955429 544:0.0077955429 545:0.0077955429 546:0.0077955429 567:0.0039130566 568:0.0077955429 569:0.0077955429 570:0.0077955429 571:0.0077955429 572:0.0077955429 573:0.0077955429 574:0.0019565283 595:0.0019565283 596:0.0077955429 597:0.0077955429 598:0.0077955429 599:0.0077955429 600:0.0077955429 601:0.0039130566 624:0.0039130566 625:0.0077955429 626:0.0077955429 627:0.0077955429 628:0.0019565283 653:0.0058390144 654:0.0077955429 655:0.0019565283 #
-93.367290401838702 152:0.0020788505 153:0.0091907075 154:0.0090448232 180:0.0057259565 181:0.0092636496 182:0.0091907075 183:0.0040847589 208:0.0057259565 209:0.0092636496 210:0.0092636496 211:0.0071847988 212:0.0039388747 213:0.0021517926 235:0.0018964951 236:0.0084977569 237:0.0092636496 238:0.0092636496 239:0.0092636496 240:0.0092636496 241:0.0083518727 242:0.0013859003 263:0.0053247749 264:0.0092636496 265:0.0092636496 266:0.0092636496 267:0.0092636496 268:0.0092636496 269:0.0092636496 270:0.0017870819 291:0.0084248148 292:0.0092636496 293:0.0092636496 294:0.0092636496 295:0.0092636496 296:0.0092636496 297:0.0092636496 298:0.0017870819 318:0.0028447427 319:0.008898939 320:0.0092636496 321:0.0092636496 322:0.0092636496 323:0.0092636496 324:0.0092636496 325:0.0092636496 326:0.0017870819 346:0.0051059485 347:0.0092636496 348:0.0092636496 349:0.0092636496 350:0.0092636496 351:0.0092636496 352:0.0092636496 353:0.0092636496 354:0.0017870819 374:0.0051059485 375:0.0092636496 376:0.0092636496 377:0.0074036252 378:0.0037565192 379:0.0092636496 380:0.0092636496 381:0.0092636496 382:0.0017870819 402:0.0051059485 403:0.0092636496 404:0.0092636496 405:0.00040118166 406:0.00032823955 407:0.0092636496 408:0.0092636496 409:0.0092636496 410:0.0017870819 430:0.0051059485 431:0.0092636496 432:0.0053612459 433:0.00010941318 434:0.0044494695 435:0.0092636496 436:0.0092636496 437:0.0063824356 438:0.00058353698 458:0.0051059485 459:0.0092636496 460:0.0035741639 462:0.0063094934 463:0.0092636496 464:0.0092636496 465:0.0050694775 485:0.0013859003 486:0.00824246 487:0.0092636496 488:0.0035741639 490:0.0063094934 491:0.0092636496 492:0.0091907075 493:0.0045953537 513:0.001823553 514:0.0092636496 515:0.0092636496 516:0.0035741639 518:0.0063094934 519:0.0092636496 520:0.0083883442 541:0.001823553 542:0.0092636496 543:0.0092636496 544:0.0035741639 545:0.0024800322 546:0.0087165833 547:0.0092636496 548:0.0035012218 569:0.001823553 570:0.0092636496 571:0.0092636496 572:0.0065283198 573:0.0062730224 574:0.0092636496 575:0.0092636496 576:0.002370619 597:0.0014223714 598:0.0083518727 599:0.0092636496 600:0.0092636496 601:0.0092636496 602:0.0092636496 603:0.0092636496 604:0.002370619 626:0.0051059485 627:0.0092636496 628:0.0092636496 629:0.0092636496 630:0.0092636496 631:0.0071483278 632:0.00098471867 654:0.003647106 655:0.0090448232 656:0.0092636496 657:0.0092636496 658:0.0072212699 659:0.00036471061 683:0.0045588827 684:0.0092636496 685:0.0073306831 686:0.0010576608 #
-93.367290401838702 124:0.0032134603 125:0.0092071053 126:0.0091709998 127:0.0054520508 128:0.00028885037 152:0.0031773541 153:0.0091348933 154:0.0091348933 155:0.0091348933 156:0.0048382436 180:0.0031773541 181:0.0091348933 182:0.0091348933 183:0.0091348933 184:0.0072212592 208:0.0031773541 209:0.0091348933 210:0.0091348933 211:0.0091348933 212:0.0072212592 236:0.0031773541 237:0.0091348933 238:0.0091348933 239:0.0091348933 240:0.0072212592 263:0.00018053148 264:0.0060658581 265:0.0091348933 266:0.0091348933 267:0.0091348933 268:0.0072212592 290:0.00039716926 291:0.0056325821 292:0.0091348933 293:0.0091348933 294:0.0091348933 295:0.0091348933 296:0.0074017909 297:0.00046938186 318:0.0038272676 319:0.0091348933 320:0.0091348933 321:0.0091348933 322:0.0091348933 323:0.0091348933 324:0.0091348933 325:0.0044049681 345:3.6106296e-005 346:0.0040077991 347:0.0091348933 348:0.009026574 349:0.0088099362 350:0.0090987869 351:0.0091348933 352:0.0077267475 353:0.0011915078 373:0.0031773541 374:0.0091348933 375:0.0091348933 376:0.0059575392 378:0.0088821491 379:0.0091348933 380:0.0072212592 401:0.0072934721 402:0.0091348933 403:0.0091348933 404:0.0059575392 406:0.0088821491 407:0.0091348933 408:0.0084849801 409:0.0029246102 428:0.0043327557 429:0.0090626804 430:0.0091348933 431:0.009026574 432:0.0043327557 434:0.0088821491 435:0.0091348933 436:0.0072573656 437:0.00014442518 456:0.004477181 457:0.0091348933 458:0.0091348933 459:0.0088099362 462:0.0088821491 463:0.0091348933 464:0.0072212592 484:0.00043327556 485:0.0074740034 486:0.0091348933 487:0.009026574 488:0.0041522239 489:0.0054159444 490:0.0090987869 491:0.0091348933 492:0.008954362 493:0.0039716926 513:0.0072934721 514:0.0091348933 515:0.0088099362 517:0.0060297516 518:0.0091348933 519:0.0091348933 520:0.0081239166 521:0.0021302716 541:0.0072934721 542:0.0091348933 543:0.0088460427 544:0.0012998267 545:0.0064630271 546:0.0091348933 547:0.0091348933 548:0.00194974 569:0.0072934721 570:0.0091348933 571:0.0091348933 572:0.0091348933 573:0.0091348933 574:0.0091348933 575:0.0066796648 576:0.00050548813 597:0.0072934721 598:0.0091348933 599:0.0091348933 600:0.0091348933 601:0.0091348933 602:0.0091348933 603:0.0037550549 625:0.0072934721 626:0.0091348933 627:0.0091348933 628:0.0091348933 629:0.0091348933 630:0.008160023 631:0.0023469094 653:0.0022385905 654:0.0028162911 655:0.0074017909 656:0.0091348933 657:0.0049465625 658:0.0020219525 #
-93.367290401838702 128:0.0010396717 129:0.0064021889 130:0.0070041041 155:0.0010396717 156:0.012311902 157:0.01378933 158:0.0076060193 183:0.0064021889 184:0.01378933 185:0.01378933 186:0.0076060193 210:0.0027906976 211:0.013187414 212:0.01378933 213:0.01378933 214:0.0076060193 237:0.00054719561 238:0.0097948015 239:0.013953488 240:0.01384405 241:0.01384405 242:0.0015321478 265:0.0087551298 266:0.01378933 267:0.011436389 268:0.010725034 269:0.01378933 270:0.0015321478 292:0.0024623803 293:0.013132695 294:0.01378933 295:0.0073324214 296:0.012804378 297:0.010177839 298:0.00032831737 319:0.00071135431 320:0.010615595 321:0.01378933 322:0.0082626538 323:0.0022435021 324:0.01378933 325:0.0037209303 346:0.00071135431 347:0.0084268125 348:0.013515732 349:0.0073324214 350:0.0076607387 351:0.0050341999 352:0.01384405 353:0.0030642955 374:0.0061833104 375:0.013515732 376:0.0056361151 377:0.0015321478 378:0.0025718194 379:0.009083447 380:0.011709986 381:0.0010396717 401:0.0015868673 402:0.011491108 403:0.010232558 406:0.0048700408 407:0.01384405 408:0.0059644324 429:0.010123119 430:0.01378933 431:0.0034473324 434:0.0089192884 435:0.012476061 436:0.00049247604 456:0.0038303693 457:0.01384405 458:0.0076607387 461:0.0032831738 462:0.013187414 463:0.0082626538 483:0.0010396717 484:0.012311902 485:0.01378933 486:0.0035567714 489:0.010779753 490:0.012421341 511:0.0015868673 512:0.01378933 513:0.010177839 514:0.00032831737 516:0.0044870041 517:0.013132695 518:0.0076060193 539:0.0070041041 540:0.01378933 541:0.0037209303 543:0.0014227086 544:0.013296854 545:0.011709986 546:0.0015321478 567:0.0084268125 568:0.01384405 569:0.0030642955 570:0.0034473324 571:0.01116279 572:0.01384405 573:0.0030642955 595:0.01384405 596:0.01378933 597:0.010232558 598:0.01127223 599:0.013515732 600:0.0066210669 601:0.0010396717 623:0.0090287281 624:0.01378933 625:0.01378933 626:0.01378933 627:0.0054719565 651:0.0022435021 652:0.01378933 653:0.011709986 654:0.0049247607 #
-93.367290401838702 126:0.00084388186 127:0.003750586 128:0.007969995 129:0.0079387408 130:0.0014064697 154:0.0057508987 155:0.0079074856 156:0.0079074856 157:0.0079074856 158:0.0067823096 159:0.00096890138 181:0.0017190186 182:0.0078762304 183:0.0079074856 184:0.0079074856 185:0.0079074856 186:0.0079074856 187:0.0025941553 208:0.00056258793 209:0.0060009374 210:0.0079074856 211:0.0079074856 212:0.0079074856 213:0.0079074856 214:0.0079074856 215:0.0025941553 235:0.00015627441 236:0.0074386625 237:0.0079074856 238:0.0079074856 239:0.0079074856 240:0.0079074856 241:0.0079074856 242:0.0079074856 243:0.0053133303 244:0.00059384276 263:6.2509767e-005 264:0.0035630567 265:0.0079074856 266:0.0079074856 267:0.0079074856 268:0.0079074856 269:0.0079074856 270:0.0079074856 271:0.0041881544 272:0.00034380372 291:9.3764647e-005 292:0.0059071728 293:0.0079074856 294:0.0079074856 295:0.0065947804 296:0.0077199563 297:0.0079074856 298:0.0076261917 299:0.0013752149 319:0.0023128614 320:0.0079074856 321:0.0079074856 322:0.0075949365 323:0.0041881544 324:0.0079074856 325:0.0079074856 326:0.006469761 346:0.00084388186 347:0.006688545 348:0.0079074856 349:0.0079074856 350:0.0039068605 351:0.0054696044 352:0.0079074856 353:0.0079074856 354:0.0026566652 373:0.00012501953 374:0.0045007034 375:0.0079074856 376:0.0079074856 377:0.0079074856 378:0.0048445067 379:0.0071886233 380:0.0079074856 381:0.0079074856 382:0.00078137207 401:0.0030942336 402:0.0079074856 403:0.0079074856 404:0.0079074856 405:0.0066572903 406:0.0079074856 407:0.0079074856 408:0.0079074856 409:0.0059696827 410:0.00018752929 428:0.0018440381 429:0.0074699172 430:0.0079074856 431:0.007813721 432:0.0027191748 433:0.00059384276 434:0.007813721 435:0.0079074856 436:0.0077512111 437:0.0032817628 456:0.0055008596 457:0.0079074856 458:0.0079074856 459:0.0066260351 461:0.0042194091 462:0.0079074856 463:0.0079074856 464:0.0058134082 483:0.0011876855 484:0.0077824658 485:0.0079074856 486:0.0076887012 487:0.0026566652 489:0.0063134865 490:0.0079074856 491:0.0075949365 492:0.0019378028 511:0.0063759964 512:0.0079074856 513:0.0079074856 514:0.0059696827 515:6.2509767e-005 516:0.0031254883 517:0.0074699172 518:0.0079074856 519:0.0041568996 538:0.0015627441 539:0.0075949365 540:0.0079074856 541:0.0079074856 542:0.0042506643 543:0.0066260351 544:0.0079074856 545:0.0079074856 546:0.0051570558 547:0.00021878419 565:0.00078137207 566:0.0072511332 567:0.0079074856 568:0.0079074856 569:0.0079074856 570:0.0079074856 571:0.0079074856 572:0.0079074856 573:0.0062197219 574:0.0011564307 593:0.0026254102 594:0.0079074856 595:0.0079074856 596:0.0079074856 597:0.0079074856 598:0.0079074856 599:0.0078449761 600:0.0037193312 601:0.00025003907 621:0.0043756836 622:0.0079074856 623:0.0079074856 624:0.0079074856 625:0.0070636035 626:0.005344585 627:0.0028441944 649:0.0017502735 650:0.0079074856 651:0.0079074856 652:0.0070010941 653:0.0025003906 #
93.367290401838702 127:0.004597228 128:0.016742144 129:0.0038424591 154:0.004391382 155:0.016742144 156:0.011733224 157:0.00048030738 181:0.0017839989 182:0.016399067 183:0.015575683 184:0.0025387676 208:0.0011664608 209:0.013448607 210:0.017428298 211:0.010978455 236:0.0051461505 237:0.017428298 238:0.017428298 239:0.00048030738 263:0.00048030738 264:0.013242761 265:0.017428298 266:0.011595993 291:0.0058323042 292:0.017428298 293:0.01605599 294:0.0013723068 300:0.0048030741 301:0.0059009194 302:0.004597228 318:0.00034307671 319:0.013174145 320:0.017428298 321:0.0078221494 326:0.0011664608 327:0.013517222 328:0.017291067 329:0.017428298 330:0.013517222 346:0.0044599972 347:0.017428298 348:0.015507068 349:0.0013723068 354:0.0052147661 355:0.017428298 356:0.016536297 357:0.015438452 358:0.0072732265 374:0.0078221494 375:0.017428298 376:0.013517222 382:0.0032935364 383:0.0073418417 384:0.0025387676 401:0.0020584604 402:0.016261837 403:0.017496912 404:0.0054206122 429:0.0089886095 430:0.017428298 431:0.012213531 432:6.8615343e-005 456:0.00020584602 457:0.012350761 458:0.017428298 459:0.0089199943 484:0.0094689168 485:0.017428298 486:0.014615068 487:0.0017153836 512:0.011664608 513:0.017428298 514:0.0085083023 539:0.0010292302 540:0.016330451 541:0.017153835 542:0.0029504597 550:0.0023329216 551:0.0010978455 567:0.0092630712 568:0.017428298 569:0.0096061481 578:0.0052147661 579:0.0098119937 595:0.013585838 596:0.017428298 597:0.0063126115 606:0.0052147661 607:0.017291067 608:0.0069301496 623:0.013585838 624:0.017428298 625:0.0012350761 634:0.0052147661 635:0.017428298 636:0.0089199943 651:0.0064498424 652:0.015438452 653:0.00082338409 662:0.0052147661 663:0.01619322 664:0.0020584604 #
93.367290401838702 130:0.003030519 131:0.0064532231 132:0.0020678837 156:0.0027452938 157:0.0070949802 158:0.0089845974 159:0.0090559041 160:0.0087350253 174:0.005383628 175:0.0055262409 182:0.00074871647 183:0.0047062179 184:0.0089132916 185:0.0090559041 186:0.0090559041 187:0.0090559041 188:0.0067741014 201:0.0015687393 202:0.0085567599 203:0.0038861951 208:0.0028166 209:0.0047062179 210:0.008521107 211:0.0090559041 212:0.0090559041 213:0.0090559041 214:0.0090559041 215:0.0088776387 216:0.0024600686 229:0.0037792355 230:0.0090559041 231:0.0065958356 232:0.0035296634 233:0.0035296634 234:0.0035296634 235:0.0071306331 236:0.0088419849 237:0.0090559041 238:0.0090559041 239:0.0067027952 240:0.0025670279 241:0.0059540789 242:0.0090559041 243:0.0085924128 257:0.0024244152 258:0.0087350253 259:0.0090559041 260:0.0090559041 261:0.0090559041 262:0.0090559041 263:0.0090559041 264:0.0090559041 265:0.0084141474 266:0.00495579 267:0.00039218483 268:0.00042783798 269:0.0068454077 270:0.0090559041 271:0.0069167144 286:0.0012478608 287:0.0054549342 288:0.0070593269 289:0.0081289215 290:0.0060253851 291:0.0048131775 292:0.0013904735 293:0.0011052481 296:0.0011765545 297:0.0090559041 298:0.0084854532 299:0.0006061038 316:0.00053479749 317:0.0011052481 324:0.0050270963 325:0.0090559041 326:0.0045279521 351:0.0024600686 352:0.0084141474 353:0.008806332 354:0.0026739875 379:0.006061038 380:0.0090559041 381:0.0069167144 406:0.00039218483 407:0.0067741014 408:0.008806332 409:0.0026739875 434:0.0049914434 435:0.0090559041 436:0.0079150032 461:0.00035653167 462:0.0068097548 463:0.0090559041 464:0.0046349117 489:0.0018896178 490:0.0090559041 491:0.0088419849 492:0.0027452938 517:0.0048844838 518:0.0090559041 519:0.0076654307 544:0.0018183115 545:0.0080932686 546:0.0090559041 547:0.005383628 548:0.0009626355 549:0.0009626355 550:0.0009626355 551:0.00089132914 563:0.00035653167 564:0.00071306335 565:0.00071306335 566:0.0025313748 567:0.005383628 568:0.005383628 569:0.005383628 570:0.005383628 571:0.005383628 572:0.0081289215 573:0.0090559041 574:0.0090559041 575:0.0090559041 576:0.0090559041 577:0.009091557 578:0.0090559041 579:0.0085924128 591:0.0068454077 592:0.0090559041 593:0.0090559041 594:0.0090559041 595:0.0090559041 596:0.0090559041 597:0.0090559041 598:0.0090559041 599:0.0090559041 600:0.0090559041 601:0.0090559041 602:0.0090559041 603:0.0089845974 604:0.0085924128 605:0.0085924128 606:0.0058114659 607:0.0037435824 619:0.0086637195 620:0.0088419849 621:0.0088419849 622:0.0088419849 623:0.0088419849 624:0.0088419849 625:0.0088419849 626:0.0088419849 627:0.0089132916 628:0.0090559041 629:0.0080576157 630:0.0041714204 631:0.0035296634 655:0.0011409014 656:0.0078793494 657:0.0047775242 #
93.367290401838702 155:0.0032033636 156:0.0077080936 157:0.0051554134 158:5.0052557e-005 183:0.0098103005 184:0.012713349 185:0.012713349 186:0.00025026279 210:0.0039040993 211:0.012012613 212:0.012713349 213:0.012713349 214:0.00025026279 236:0.00045047299 237:0.0054557286 238:0.012062666 239:0.012713349 240:0.012713349 241:0.010761299 242:0.00020021023 264:0.003703889 265:0.012713349 266:0.012713349 267:0.012713349 268:0.010711247 269:0.001351419 291:0.00045047299 292:0.0098603535 293:0.012713349 294:0.012713349 295:0.012713349 296:0.0051053604 318:0.00055057812 319:0.012262876 320:0.012713349 321:0.012713349 322:0.012713349 323:0.0072075678 324:0.00090094598 345:0.00075078831 346:0.0093598282 347:0.012713349 348:0.012713349 349:0.012713349 350:0.0098603535 351:0.0011011562 372:0.00085089344 373:0.0064067272 374:0.012713349 375:0.012713349 376:0.012713349 377:0.011261825 378:0.0011512088 400:0.0081585664 401:0.012713349 402:0.012713349 403:0.012713349 404:0.010561089 405:0.0046548876 426:0.00070073578 427:0.006056359 428:0.012212823 429:0.012713349 430:0.012713349 431:0.012613244 432:0.0035537314 454:0.001801892 455:0.012713349 456:0.012713349 457:0.012713349 458:0.012713349 459:0.0044046249 470:0.0038540468 471:0.0092597231 472:0.0030532058 481:0.00075078831 482:0.010210721 483:0.012713349 484:0.012713349 485:0.012713349 486:0.0072075678 487:5.0052557e-005 498:0.0042044148 499:0.012713349 500:0.012613244 509:0.0068572001 510:0.012713349 511:0.012713349 512:0.012713349 513:0.010110616 514:0.00060063065 526:0.0042044148 527:0.012713349 528:0.012763401 537:0.0096100904 538:0.012713349 539:0.012713349 540:0.012062666 541:0.0039541516 554:0.0042044148 555:0.012713349 556:0.012713349 565:0.0068572001 566:0.012713349 567:0.012713349 568:0.010811352 569:0.0011011562 582:0.0042044148 583:0.012713349 584:0.0084088296 593:0.0018519445 594:0.011111667 595:0.012713349 596:0.0044546775 610:0.0042044148 611:0.011061614 612:0.001801892 622:0.0010511037 623:0.0017518394 624:0.00045047299 638:0.00060063065 639:0.0010511037 #
93.367290401838702 99:0.0065402226 100:0.010246349 101:0.0005995204 126:0.0067037279 127:0.013352954 128:0.01384347 129:0.0019075648 153:0.0096468283 154:0.013788969 155:0.01384347 156:0.01384347 157:0.0019075648 179:0.0056136907 180:0.010954873 181:0.013897972 182:0.0051231743 183:0.0086657945 184:0.01384347 185:0.0019075648 204:0.0011990408 205:0.0029431002 206:0.0074667539 207:0.013298452 208:0.01384347 209:0.0068672337 210:0.0001090037 211:0.0081207762 212:0.01384347 213:0.0019075648 230:0.00043601482 231:0.010191847 232:0.012589928 233:0.01384347 234:0.01384347 235:0.012262917 236:0.0038696316 239:0.0081207762 240:0.012426423 241:0.00098103331 258:0.0005995204 259:0.011118378 260:0.012862437 261:0.010246349 262:0.0039786352 263:0.00081752782 267:0.0081207762 268:0.012916939 269:0.0013080444 288:0.0011445389 295:0.0081207762 296:0.010954873 323:0.0081207762 324:0.010954873 351:0.0081207762 352:0.0076302593 379:0.0081207762 380:0.0062132115 407:0.0081207762 408:0.0062132115 435:0.0081207762 436:0.0062132115 463:0.009101809 464:0.0062132115 491:0.012916939 492:0.0062132115 519:0.012262917 520:0.0062132115 539:0.0012535426 540:0.00076302595 547:0.0081207762 548:0.0099738389 564:0.0019620666 565:0.0085567906 566:0.010518857 567:0.013352954 568:0.012208415 569:0.010518857 570:0.010518857 571:0.0071942448 572:0.0071942448 573:0.004142141 574:0.0057771965 575:0.012153913 576:0.013134947 577:0.0064312187 578:0.0013080444 592:0.0086112926 593:0.01384347 594:0.01384347 595:0.01384347 596:0.01384347 597:0.013625463 598:0.013734467 599:0.01384347 600:0.01384347 601:0.01384347 602:0.01384347 603:0.01384347 604:0.01384347 605:0.01384347 606:0.011990407 607:0.010028341 608:0.0093743186 609:0.00016350555 620:0.0040331371 621:0.0046326574 622:0.0043056463 623:0.0043056463 624:0.0043056463 625:0.0023980816 626:0.0032701113 627:0.0044691521 628:0.0057771965 629:0.0043056463 630:0.0043056463 631:0.0043056463 632:0.0043056463 633:0.0059407018 634:0.006594724 635:0.012862437 636:0.01384347 637:0.0038151296 #
93.367290401838702 131:0.0019689214 132:0.0050283223 133:0.0038772605 134:0.0012116439 146:0.00051494868 147:0.0014236816 148:0.0039681336 149:0.00036349316 157:0.00066640414 158:0.0025747432 159:0.0070881168 160:0.0076636476 161:0.0076636476 162:0.0029988186 173:0.0026050343 174:0.0056038531 175:0.0076636476 176:0.0052100685 177:0.00018174658 184:0.00027261989 185:0.005906764 186:0.0076636476 187:0.0076636476 188:0.0076636476 189:0.0067246235 190:0.0012722261 200:0.00087844185 201:0.0063914214 202:0.0076636476 203:0.0072395722 204:0.0022112501 210:0.0013933905 211:0.0040892982 212:0.007481901 213:0.0076636476 214:0.0076636476 215:0.0076636476 216:0.0076636476 217:0.0014842638 229:0.0037863872 230:0.0076333564 231:0.0066640414 232:0.00054523977 236:0.0010904795 237:0.0044527915 238:0.0067246235 239:0.0076636476 240:0.0076636476 241:0.0076636476 242:0.0076636476 243:0.0076636476 244:0.0071486989 245:0.0011510617 258:0.007481901 259:0.0076636476 260:0.0057553085 261:0.0016660104 262:0.0042104623 263:0.0042104623 264:0.0073607368 265:0.0076636476 266:0.0076636476 267:0.0076636476 268:0.0050889044 269:0.0076636476 270:0.0076636476 271:0.007542483 272:0.0019992124 286:0.0021506678 287:0.0054826885 288:0.0076636476 289:0.0073910276 290:0.0076636476 291:0.0076636476 292:0.0076636476 293:0.0058461819 294:0.0050889044 295:0.00096931512 296:0.0021809591 297:0.0076636476 298:0.0076636476 299:0.0030291097 315:0.00033320207 316:0.0020597947 317:0.0064822948 318:0.0061490927 319:0.0020597947 320:0.0020597947 321:0.00063611305 323:0.00027261989 324:0.0054523977 325:0.0076636476 326:0.0074213189 327:0.0024535789 351:0.0021203768 352:0.0076636476 353:0.0076636476 354:0.0057855998 379:0.0035440584 380:0.0076636476 381:0.0066034594 382:0.0011813528 406:0.00036349316 407:0.0068457881 408:0.0076636476 409:0.0041498803 433:0.00036349316 434:0.0056341439 435:0.0076636476 436:0.0076636476 437:0.0041498803 461:0.00072698633 462:0.0076636476 463:0.0076636476 464:0.005967346 465:0.00048465756 489:0.0038469695 490:0.0076636476 491:0.007542483 492:0.0023929968 517:0.0053615244 518:0.0076636476 519:0.0055432706 544:0.003150274 545:0.0073304456 546:0.0076636476 547:0.0055432706 564:0.00021203769 565:0.00024232878 566:0.00024232878 567:0.00024232878 568:0.002817072 569:0.0049071577 570:0.0049071577 571:0.0049071577 572:0.0074213189 573:0.0076636476 574:0.0076636476 575:0.0069063702 576:0.0049071577 577:0.0049071577 578:0.0037863872 579:0.00024232878 580:0.00024232878 581:6.0582195e-005 591:0.0033017297 592:0.0067549148 593:0.0076636476 594:0.0076636476 595:0.0076636476 596:0.0076636476 597:0.0076636476 598:0.0076636476 599:0.0076636476 600:0.0076636476 601:0.0076636476 602:0.0076636476 603:0.0076636476 604:0.0076636476 605:0.0076636476 606:0.0076636476 607:0.0076636476 608:0.0076636476 609:0.0013630994 619:0.0077242297 620:0.0076636476 621:0.0076636476 622:0.0076636476 623:0.0076636476 624:0.0076636476 625:0.0076636476 626:0.0076636476 627:0.0076636476 628:0.0076636476 629:0.0076636476 630:0.0076636476 631:0.0062096748 632:0.0060279286 633:0.0060279286 634:0.0060279286 635:0.0030594009 636:0.0013630994 637:0.00024232878 647:0.0030291097 648:0.0029988186 649:0.0029988186 650:0.0029988186 651:0.0029988186 652:0.0029988186 653:0.0029988186 654:0.0029988186 655:0.0054221065 656:0.0076636476 657:0.004392209 658:0.0029988186 659:0.00036349316 #
93.367290401838702 124:0.0051558916 125:0.0068835202 126:0.0068835202 127:0.0068835202 128:0.0051558916 129:0.0017276285 151:0.0017276285 152:0.0068835202 153:0.0068835202 154:0.0068835202 155:0.0068835202 156:0.0068835202 157:0.003455257 179:0.003455257 180:0.0068835202 181:0.0068835202 182:0.0068835202 183:0.0068835202 184:0.0068835202 185:0.0068835202 207:0.0068835202 208:0.0068835202 209:0.0068835202 210:0.0068835202 211:0.0068835202 212:0.0068835202 213:0.0068835202 235:0.0068835202 236:0.0068835202 237:0.0068835202 238:0.0068835202 239:0.0068835202 240:0.0068835202 241:0.0068835202 262:0.003455257 263:0.0068835202 264:0.0068835202 265:0.0068835202 266:0.0068835202 267:0.0068835202 268:0.0068835202 269:0.0068835202 290:0.003455257 291:0.0068835202 292:0.0068835202 293:0.0068835202 294:0.0068835202 295:0.0068835202 296:0.0068835202 297:0.0068835202 318:0.003455257 319:0.0068835202 320:0.0068835202 321:0.0068835202 322:0.0068835202 323:0.0068835202 324:0.0068835202 325:0.0068835202 346:0.003455257 347:0.0068835202 348:0.0068835202 349:0.0068835202 350:0.0068835202 351:0.0068835202 352:0.0068835202 353:0.0068835202 373:0.0017276285 374:0.0068835202 375:0.0068835202 376:0.0068835202 377:0.0068835202 378:0.0068835202 379:0.0068835202 380:0.0068835202 381:0.0068835202 401:0.0051558916 402:0.0068835202 403:0.0068835202 404:0.0068835202 405:0.0068835202 406:0.0068835202 407:0.0068835202 408:0.0068835202 409:0.0051558916 429:0.0068835202 430:0.0068835202 431:0.0068835202 432:0.0068835202 433:0.0068835202 434:0.0068835202 435:0.0068835202 436:0.0068835202 437:0.003455257 456:0.003455257 457:0.0068835202 458:0.0068835202 459:0.0068835202 460:0.0068835202 461:0.0068835202 462:0.0068835202 463:0.0068835202 464:0.0051558916 484:0.0051558916 485:0.0068835202 486:0.0068835202 487:0.0068835202 488:0.0068835202 489:0.0068835202 490:0.0068835202 491:0.0068835202 492:0.003455257 512:0.0068835202 513:0.0068835202 514:0.0068835202 515:0.0068835202 516:0.0068835202 517:0.0068835202 518:0.0068835202 519:0.0068835202 520:0.003455257 540:0.0068835202 541:0.0068835202 542:0.0068835202 543:0.0068835202 544:0.0068835202 545:0.0068835202 546:0.0068835202 547:0.0068835202 548:0.003455257 568:0.0068835202 569:0.0068835202 570:0.0068835202 571:0.0068835202 572:0.0068835202 573:0.0068835202 574:0.0068835202 575:0.0068835202 576:0.003455257 596:0.0017276285 597:0.0068835202 598:0.0068835202 599:0.0068835202 600:0.0068835202 601:0.0068835202 602:0.0068835202 603:0.0068835202 604:0.0017276285 625:0.0051558916 626:0.0068835202 627:0.0068835202 628:0.0068835202 629:0.0068835202 630:0.0068835202 631:0.0017276285 654:0.003455257 655:0.0051558916 656:0.0068835202 657:0.0068835202 658:0.0017276285 #
71.334973042450613 126:0.003767353 127:0.012850286 128:0.0083604269 153:0.0037157454 154:0.012592249 155:0.013108324 156:0.0039221756 157:0.00051607576 180:0.0036641378 181:0.012489033 182:0.013108324 183:0.011353667 184:0.013108324 185:0.0044382517 207:0.0037157454 208:0.012798679 209:0.012953501 210:0.0067605926 211:0.0045930743 212:0.013108324 213:0.0093409717 234:0.0055736182 235:0.012540641 236:0.012901894 237:0.0055736182 239:0.0022707332 240:0.013108324 241:0.0089281108 261:0.0072250608 262:0.012540641 263:0.011714919 264:0.0051607578 267:0.005831656 268:0.013108324 269:0.0044382517 288:0.0055736182 289:0.012953501 290:0.011869743 291:0.0052123652 295:0.012024566 296:0.013108324 297:0.0044382517 315:0.0014450122 316:0.012540641 317:0.0095990095 318:0.002064303 323:0.012179388 324:0.012695463 325:0.00077411364 343:0.0062445165 344:0.013108324 345:0.0038705682 350:0.0028384167 351:0.012850286 352:0.011044022 371:0.0027352015 372:0.0021159106 373:5.1607574e-005 377:0.00015482273 378:0.0075863139 379:0.013108324 380:0.0048511121 405:0.00077411364 406:0.013108324 407:0.01300511 408:0.0025803789 433:0.0041802134 434:0.013108324 435:0.010889199 461:0.0084636426 462:0.013108324 463:0.0035609228 488:0.0020126954 489:0.012643856 490:0.013108324 491:0.0009805439 516:0.0018062652 517:0.012437426 518:0.011611705 519:0.00061929092 544:0.0013417969 545:0.011972957 546:0.011044022 547:0.00046446818 567:0.0025803789 568:0.0034577076 572:0.0026319863 573:0.013108324 574:0.007173453 595:0.0098570473 596:0.011560097 597:0.0074314908 598:0.0035093152 599:0.0035093152 600:0.0089797182 601:0.013108324 602:0.0066057695 603:0.0043866439 604:0.0084636426 605:0.0084636426 606:0.007173453 623:0.0035609228 624:0.012643856 625:0.013159932 626:0.013159932 627:0.013159932 628:0.013159932 629:0.013108324 630:0.013108324 631:0.013159932 632:0.013159932 633:0.011972957 634:0.0077927439 652:0.0023223408 653:0.0061413017 654:0.01042473 655:0.013108324 656:0.013108324 657:0.009082933 658:0.0081539974 659:0.0081539974 660:0.0042318213 661:0.0010837591 #
-17.486619495354834 117:0.0013014732 118:0.0020823572 119:0.00093706074 144:0.0013014732 145:0.0056483941 146:0.0065854546 147:0.005205893 148:0.0041126553 149:0.0021344163 172:0.0063511897 173:0.0065854546 174:0.0065854546 175:0.0065854546 176:0.0065854546 177:0.0063772192 178:0.0057004527 179:0.0016138268 180:0.0016138268 181:0.0010672081 200:0.0066114841 201:0.0065854546 202:0.0065854546 203:0.0065854546 204:0.0065854546 205:0.0065854546 206:0.0065854546 207:0.0065854546 208:0.0065854546 209:0.0055703055 210:0.0036441251 211:0.00010411786 228:0.0066114841 229:0.0065854546 230:0.0065854546 231:0.0059347181 232:0.0054401583 233:0.0059867771 234:0.0065854546 235:0.0065854546 236:0.0065854546 237:0.0065854546 238:0.0065854546 239:0.0044510388 240:0.00049455982 256:0.0066114841 257:0.0065854546 258:0.0058045709 259:0.0015097089 261:0.0016658858 262:0.0059347181 263:0.0065854546 264:0.0065854546 265:0.0065854546 266:0.0065854546 267:0.0065854546 268:0.004581186 269:0.0025508876 284:0.0066375136 285:0.0065854546 286:0.0051538344 287:0.00031235357 290:0.0010672081 291:0.0032536832 292:0.005882659 293:0.0061429539 294:0.0065854546 295:0.0065854546 296:0.0065854546 297:0.0062991306 298:0.005257952 299:0.0013795616 312:0.0047113332 313:0.0065854546 314:0.0065854546 315:0.0029413295 321:0.0013535322 322:0.0038263313 323:0.0046072155 324:0.0065854546 325:0.0065854546 326:0.0065854546 327:0.0060388357 328:0.0027591232 329:0.00065073662 340:0.0020823572 341:0.0065854546 342:0.0065854546 343:0.0029413295 351:0.0005205893 352:0.0017960331 353:0.0059607476 354:0.0065854546 355:0.0065854546 356:0.0065854546 357:0.0048935395 358:0.00015617679 368:0.0020823572 369:0.0065854546 370:0.0065854546 371:0.0029413295 381:0.00091103127 382:0.0042948616 383:0.0061950129 384:0.0065854546 385:0.0065854546 386:0.0049455985 387:0.00070279557 396:0.00070279557 397:0.0049455985 398:0.0065854546 399:0.0029413295 411:0.0018741215 412:0.0041907439 413:0.0065854546 414:0.0065854546 415:0.0050236867 425:0.0041126553 426:0.0065854546 427:0.0039304495 428:0.00026029465 440:0.00010411786 441:0.0050757458 442:0.0065854546 443:0.0065854546 453:0.0041126553 454:0.0065854546 455:0.0065854546 456:0.0035660367 469:0.0023426518 470:0.0065854546 471:0.0065854546 481:0.0032797127 482:0.005544276 483:0.0065854546 484:0.0064553074 485:0.0037222134 486:0.0012494143 497:0.00046853037 498:0.0065854546 499:0.0065854546 510:0.00078088394 511:0.0050497162 512:0.0065854546 513:0.0065854546 514:0.0062470715 515:0.0020042688 525:0.0028632411 526:0.0065854546 527:0.0065854546 539:0.0031755948 540:0.0064553074 541:0.0065854546 542:0.0065854546 543:0.0061169243 544:0.0054922174 545:0.0038783904 546:0.00093706074 547:0.0006767661 548:0.00054661877 549:0.00093706074 550:0.00093706074 551:0.0015617679 552:0.0054922174 553:0.0063251602 554:0.0065854546 555:0.0059347181 568:0.0031495653 569:0.0050497162 570:0.0065854546 571:0.0065854546 572:0.0065854546 573:0.0065854546 574:0.0065854546 575:0.0055703055 576:0.0051017753 577:0.0065854546 578:0.0065854546 579:0.0065854546 580:0.0065854546 581:0.0065854546 582:0.0054401583 583:0.001119267 597:0.00078088394 598:0.005205893 599:0.0061169243 600:0.0064553074 601:0.0065854546 602:0.0065854546 603:0.0065854546 604:0.0065854546 605:0.0065854546 606:0.0065854546 607:0.0065854546 608:0.0065854546 609:0.0059086885 610:0.00096309022 628:0.0029933886 629:0.0049455985 630:0.004919569 631:0.0047633923 632:0.0065854546 633:0.0065854546 634:0.005257952 635:0.0040605967 636:0.0040605967 637:0.00096309022 657:0.00070279557 658:0.00070279557 659:0.00057264825 660:0.0020302983 661:0.0020302983 662:0.00098911964 #
-29.754338261573366 149:0.00034346557 150:0.0026332361 151:0.0067262007 152:0.001087641 153:0.00042933197 154:0.0027763466 155:0.0041215867 156:0.0041215867 157:0.0024042591 177:0.0033774115 178:0.007241399 179:0.007241399 180:0.0024615033 181:0.0056099375 182:0.0072700214 183:0.007241399 184:0.007241399 185:0.0070696664 186:0.0026046138 204:0.0013166181 205:0.0069837999 206:0.007241399 207:0.007241399 208:0.0067262007 209:0.007241399 210:0.0056671817 211:0.0044078082 212:0.0055240714 213:0.007241399 214:0.0062968689 215:0.00062968687 232:0.0046081631 233:0.007241399 234:0.0072127767 235:0.0046654074 236:0.0062682466 237:0.0042074532 238:0.00014311065 239:0.00017173278 240:0.0020035491 241:0.0071269106 242:0.007241399 243:0.0059247809 244:0.00034346557 259:0.00042933197 260:0.006382735 261:0.007241399 262:0.004150209 264:0.0028335908 265:0.0018318164 266:0.00062968687 267:0.0054095825 268:0.007241399 269:0.0065544681 270:0.007241399 271:0.007241399 272:0.00062968687 287:0.00174595 288:0.007241399 289:0.0063541131 290:0.00040070983 294:0.0045509189 295:0.007241399 296:0.0062682466 297:0.0012879958 298:0.006382735 299:0.007241399 300:0.0017173279 315:0.0039212317 316:0.007241399 317:0.0047226516 321:0.0030625679 322:0.0072700214 323:0.0071555325 324:0.0014597287 326:0.0047512739 327:0.007241399 328:0.0037494991 343:0.0069551775 344:0.007241399 345:0.0047226516 348:0.0019176827 349:0.0068979333 350:0.0071269106 351:0.0030625679 354:0.0028335908 355:0.007241399 356:0.0037494991 371:0.0069551775 372:0.007241399 373:0.0047226516 375:0.00040070983 376:0.0059534032 377:0.007241399 378:0.0053523383 382:0.0016028393 383:0.007241399 384:0.0037494991 399:0.0069551775 400:0.007241399 401:0.0047226516 402:0.00014311065 403:0.0052664722 404:0.007241399 405:0.0058675366 406:0.00042933197 410:0.0016028393 411:0.007241399 412:0.0037494991 427:0.0069837999 428:0.0072700214 429:0.0047226516 430:0.0007441754 431:0.0072700214 432:0.0072986432 433:0.0036922549 438:0.0020321712 439:0.0072700214 440:0.0037781212 455:0.0069551775 456:0.007241399 457:0.0047226516 458:0.0043219416 459:0.007241399 460:0.0066689565 461:0.00068693113 466:0.0047512739 467:0.007241399 468:0.0037494991 483:0.0069551775 484:0.007241399 485:0.0068120672 486:0.0071555325 487:0.007241399 488:0.0024328812 494:0.0047512739 495:0.007241399 496:0.0011448852 511:0.0069551775 512:0.007241399 513:0.007241399 514:0.007241399 515:0.007241399 516:0.0018890606 521:0.00088728603 522:0.0071555325 523:0.007241399 524:0.00062968687 539:0.0062682466 540:0.007241399 541:0.007241399 542:0.007241399 543:0.0064113573 544:0.00065830903 549:0.0044936747 550:0.007241399 551:0.0055813156 552:0.00022897705 567:0.0027191024 568:0.007241399 569:0.007241399 570:0.0070124222 571:0.0012879958 576:0.0033774115 577:0.0071841548 578:0.0066975784 579:0.0017173279 595:0.00034346557 596:0.0060392697 597:0.007241399 598:0.0070982883 599:0.0015169729 602:5.7244262e-005 603:0.0025473696 604:0.0066117123 605:0.0072127767 606:0.0040357206 624:0.0025473696 625:0.0069837999 626:0.007241399 627:0.006754823 628:0.0034918999 629:0.0012879958 630:0.0034632778 631:0.007241399 632:0.007241399 633:0.0041215867 653:0.0033774115 654:0.007241399 655:0.007241399 656:0.007241399 657:0.007241399 658:0.0072700214 659:0.007241399 660:0.004150209 661:8.5866392e-005 681:0.00034346557 682:0.0024615033 683:0.004636785 684:0.007241399 685:0.007241399 686:0.0068693114 687:0.0032629229 688:0.00017173278 #
-93.367290401838702 158:0.00025052953 159:0.0019814607 160:0.0031430067 161:0.0031430067 162:0.0020042362 179:0.00029608034 180:0.0031885577 181:0.00034163118 185:0.0018448083 186:0.0046234084 187:0.0057621794 188:0.0057394039 189:0.0057394039 190:0.0049878149 191:0.0012981985 206:0.00029608034 207:0.0039173709 208:0.0057394039 209:0.0035985149 212:0.0018903592 213:0.0054660989 214:0.0057394039 215:0.0057621794 216:0.0057394039 217:0.0057394039 218:0.0057394039 219:0.0057394039 233:0.0002049787 234:0.0039629214 235:0.0057394039 236:0.0057394039 237:0.0021864395 239:0.0018448083 240:0.0054660989 241:0.0057394039 242:0.0057394039 243:0.0057621794 244:0.0053522219 245:0.0036440659 246:0.0044184299 247:0.0057394039 261:0.0041223494 262:0.0057394039 263:0.0057394039 264:0.0057394039 265:0.00050105905 266:0.0028924772 267:0.0055572004 268:0.0057394039 269:0.0057394039 270:0.0057394039 271:0.0040995739 272:0.0004099574 274:0.0021181132 275:0.0057394039 288:0.0016853805 289:0.0058077299 290:0.0057621794 291:0.0056255269 292:0.0021408887 293:0.0016853805 294:0.0058077299 295:0.0057621794 296:0.0057621794 297:0.0055799759 298:0.0016626051 301:0.00086546567 302:0.0053066709 303:0.0057621794 315:0.0013665247 316:0.0055572004 317:0.0057621794 318:0.0057394039 319:0.0041679004 320:0.00038718199 321:0.0053294464 322:0.0057621794 323:0.0057394039 324:0.0057394039 325:0.0019814607 329:0.0032341084 330:0.0057394039 331:0.0057394039 343:0.0040084724 344:0.0057394039 345:0.0057621794 346:0.0054660989 347:0.0018448083 348:0.0040084724 349:0.0057394039 350:0.0057621794 351:0.0054660989 352:0.0022775412 353:0.00029608034 356:0.0015031772 357:0.0053294464 358:0.0057394039 359:0.0038262692 370:0.0022775412 371:0.0055572004 372:0.0057394039 373:0.0057621794 374:0.0025508462 376:0.0047145104 377:0.0057394039 378:0.0057621794 379:0.0037351674 383:0.0014120755 384:0.0053749969 385:0.0057394039 386:0.0057394039 387:0.0021864395 397:0.00050105905 398:0.0048967134 399:0.0057394039 400:0.0057394039 401:0.0052838954 402:0.00018220329 404:0.0047145104 405:0.0057394039 406:0.0055344249 407:0.0011387706 410:0.0012070969 411:0.0055344249 412:0.0057394039 413:0.0057394039 414:0.0038262692 415:4.5550823e-005 424:6.8326233e-005 425:0.0026874985 426:0.0057621794 427:0.0057621794 428:0.0057621794 429:0.0012070969 432:0.0047372854 433:0.0057621794 434:0.0053066709 435:0.00054660987 436:0.00054660987 437:0.0026874985 438:0.0055344249 439:0.0058077299 440:0.0057621794 441:0.0046689594 442:0.00047828365 452:0.00054660987 453:0.0057394039 454:0.0057394039 455:0.0057394039 456:0.0052611199 460:0.0042362264 461:0.0057394039 462:0.0057621794 463:0.0057394039 464:0.0057394039 465:0.0057394039 466:0.0057394039 467:0.0056710774 468:0.0042134509 469:0.0005693853 480:0.0024597445 481:0.0057394039 482:0.0057394039 483:0.0051700184 484:0.0010932197 488:0.001548728 489:0.0056027514 490:0.0057621794 491:0.0057394039 492:0.0057394039 493:0.0057394039 494:0.0050333659 495:0.0026191724 508:0.0053066709 509:0.0057394039 510:0.0057394039 511:0.0036440659 516:0.00077436399 517:0.0054205479 518:0.0057621794 519:0.0057394039 520:0.0057394039 521:0.0049650399 522:0.0020042362 536:0.0057621794 537:0.0057394039 538:0.0057394039 539:0.0036440659 542:0.00050105905 543:0.0045323069 544:0.0054205479 545:0.0057394039 546:0.0057621794 547:0.0057394039 548:0.0038262692 549:0.00079713942 564:0.0043501034 565:0.0057621794 566:0.0057621794 567:0.0014804017 568:0.00054660987 569:0.0033935364 570:0.0057621794 571:0.0057621794 572:0.0057621794 573:0.0057621794 574:0.0052611199 575:0.0021636642 592:0.0031430067 593:0.0057394039 594:0.0057394039 595:0.0057394039 596:0.0057394039 597:0.0057621794 598:0.0057394039 599:0.0057394039 600:0.0057394039 601:0.0047828364 602:0.0009565673 620:0.0012526476 621:0.0057394039 622:0.0057394039 623:0.0057394039 624:0.0057394039 625:0.0057621794 626:0.0057394039 627:0.0046006329 628:0.0020270117 629:0.00013665247 648:0.00011387706 649:0.002710274 650:0.0051700184 651:0.0057394039 652:0.0038262692 653:0.0036668412 654:0.0019814607 655:0.00029608034 678:0.00038718199 679:0.00050105905 680:4.5550823e-005 #
93.367290401838702 185:0.00044520767 186:0.010812186 187:0.010812186 188:0.00044520767 213:0.0057876995 214:0.016091077 215:0.016154679 216:0.0014628251 239:0.00044520767 240:0.0057876995 241:0.015582268 242:0.016091077 243:0.0092857601 244:0.00025440438 267:0.0086497488 268:0.016091077 269:0.016091077 270:0.016091077 293:0.00044520767 294:0.010812186 295:0.016218279 296:0.016154679 297:0.016154679 298:0.0086497488 320:0.00057240983 321:0.008395344 322:0.016091077 323:0.011320995 324:0.015582268 325:0.014755454 326:0.00038160657 347:0.0009540164 348:0.010557782 349:0.016091077 350:0.012847421 351:0.0054696943 352:0.016091077 353:0.014055842 375:0.012402213 376:0.016091077 377:0.012847421 378:0.0012084208 379:0.0066145137 380:0.016091077 381:0.0045156777 401:0.0026076448 402:0.01456465 403:0.016154679 404:0.010494181 405:0.0010812186 406:0.0016536284 407:0.016154679 408:0.013165426 428:0.0038160656 429:0.014246645 430:0.016091077 431:0.0078865355 432:0.00069961202 434:0.0059149018 435:0.016154679 436:0.0046428801 455:0.0089677544 456:0.015836673 457:0.015963875 458:0.0081409402 461:0.0039432677 462:0.014246645 463:0.012529415 464:0.00025440438 481:0.00057240983 482:0.010112574 483:0.016154679 484:0.015009858 485:0.0050244862 489:0.009476563 490:0.016091077 491:0.0075049289 509:0.0010812186 510:0.014946257 511:0.013356229 512:0.0031800547 516:0.0029892514 517:0.016154679 518:0.014501049 538:0.0053424919 539:0.00057240983 544:0.0082681421 545:0.016091077 546:0.0090949563 572:0.011448197 573:0.015391464 574:0.0024168417 599:0.0032436559 600:0.015709471 601:0.010303377 627:0.0081409402 628:0.016154679 629:0.0029256502 655:0.0091585573 656:0.013356229 657:0.00025440438 683:0.0044520767 684:0.013101825 711:0.0044520767 712:0.011002989 #
10.205061679534751 184:0.0018925952 185:0.010113556 186:0.0036077597 211:0.00041400522 212:0.010823279 213:0.014963331 214:0.010645848 239:0.0086349659 240:0.014963331 241:0.014963331 242:0.011533002 265:0.00059143599 266:0.0076295245 267:0.01460847 268:0.014963331 269:0.014017033 270:0.0031346108 293:0.012361012 294:0.014963331 295:0.014963331 296:0.014963331 297:0.0091672577 319:0.0027797492 320:0.013662172 321:0.015081618 322:0.015022474 323:0.015022474 324:0.015022474 325:0.0056777857 345:0.0001182872 346:0.0069789449 347:0.013898746 348:0.014963331 349:0.014253608 350:0.0147859 351:0.014963331 352:0.012538443 353:0.00053229241 372:0.0028980365 373:0.0076295245 374:0.014963331 375:0.014963331 376:0.014963331 377:0.001774308 378:0.012656731 379:0.014963331 380:0.0069198012 399:0.0009462976 400:0.012361012 401:0.014963331 402:0.014963331 403:0.012775018 404:0.0024248876 405:0.0018925952 406:0.013898746 407:0.014963331 408:0.0037851904 427:0.0079843858 428:0.015022474 429:0.014963331 430:0.0091081141 431:0.0015968772 433:0.0057369294 434:0.014963331 435:0.011355571 436:0.000295718 455:0.0022474569 456:0.011592146 457:0.0083983913 461:0.012834162 462:0.015022474 463:0.0046132007 488:0.0027206056 489:0.015022474 490:0.01395789 491:0.0024840313 515:0.0007688668 516:0.010823279 517:0.015022474 518:0.0062692217 543:0.0032528981 544:0.014963331 545:0.01312988 546:0.0010645848 571:0.010290987 572:0.014963331 573:0.009285545 598:0.0028980365 599:0.014549326 600:0.015022474 601:0.0022474569 626:0.0010645848 627:0.014076177 628:0.014963331 629:0.0022474569 654:0.0064466526 655:0.014963331 656:0.0091081141 681:0.0004731488 682:0.012124438 683:0.014963331 684:0.0034303288 710:0.0041991957 711:0.012715874 712:0.00082801044 #
93.367290401838702 187:0.014607022 188:0.017262843 199:0.01551996 200:0.016349904 201:0.00091293885 214:0.0078014773 215:0.02058262 216:0.010374305 227:0.014607022 228:0.021163583 229:0.0029877999 241:0.00091293885 242:0.019420698 243:0.020167649 255:0.018009793 256:0.019337704 257:0.001327911 269:0.011204249 270:0.021080587 271:0.0098763378 283:0.018009793 284:0.012034194 296:0.0030707943 297:0.020167649 298:0.019752676 299:0.0017428832 311:0.018009793 312:0.0086314213 324:0.010706282 325:0.020997593 326:0.0094613656 339:0.017262843 340:0.0017428832 351:0.0043987054 352:0.021080587 353:0.020167649 354:0.0017428832 367:0.012034194 379:0.0095443605 380:0.021080587 381:0.0098763378 395:0.0069715329 406:0.001327911 407:0.019337704 408:0.021080587 409:0.0064735664 434:0.0048136776 435:0.020997593 436:0.015021994 437:0.00041497219 462:0.014192049 463:0.021080587 464:0.0095443605 490:0.021080587 491:0.017511826 492:0.00091293885 517:0.0095443605 518:0.021080587 519:0.014192049 545:0.018009793 546:0.019337704 547:0.0021578553 572:0.0039007387 573:0.021080587 574:0.01551996 600:0.014192049 601:0.020997593 602:0.0034857665 627:0.0052286498 628:0.021080587 629:0.015851937 655:0.012034194 656:0.021080587 657:0.0038177443 683:0.014607022 684:0.014607022 711:0.016349904 712:0.0060585942 #
93.367290401838702 102:0.0047274483 103:0.0071394113 104:0.0032481106 120:0.00093262584 121:0.0037626629 122:0.0024119634 129:0.0072680498 130:0.0080077183 131:0.0081041967 132:0.0071715708 148:0.0062389453 149:0.0076861233 150:0.0020903682 155:0.0012220615 156:0.0043415339 157:0.0081363562 158:0.0081041967 159:0.0081041967 160:0.0061746263 175:0.0029586749 176:0.0078147613 177:0.0057887118 181:0.00032159511 182:0.0044380124 183:0.0072037303 184:0.0081041967 185:0.0081363562 186:0.0081041967 187:0.0081041967 188:0.0027013989 203:0.0081363562 204:0.0065605403 205:0.00080398779 209:0.0052420003 210:0.0081041967 211:0.0081041967 212:0.0081041967 213:0.0055957548 214:0.0081041967 215:0.0070750923 216:0.001189902 231:0.0082006752 232:0.0066248593 233:0.0028300369 234:0.0024441229 235:0.0061424668 236:0.0082006752 237:0.0081363562 238:0.0081363562 239:0.0052098408 241:0.0082006752 242:0.0081363562 243:0.0042772149 259:0.0081363562 260:0.0081041967 261:0.0079112398 262:0.0078147613 263:0.0081041967 264:0.0054027978 265:0.0038913009 266:0.00086830679 267:0.00028943561 268:0.0015436566 269:0.0081363562 270:0.0071715708 271:0.001189902 287:0.0018009326 288:0.0033124296 289:0.0062711048 290:0.0032802701 291:0.0017687731 295:0.0017366136 296:0.0073002093 297:0.0081363562 298:0.0053706383 323:0.0054349573 324:0.0081041967 325:0.0081363562 326:0.0023798039 350:0.0010291043 351:0.0069142948 352:0.0081041967 353:0.0061103073 354:0.00038591414 378:0.0038591414 379:0.0081363562 380:0.0081363562 405:0.0024441229 406:0.0079112398 407:0.0081041967 408:0.0081041967 433:0.0037626629 434:0.0081041967 435:0.0078790803 436:0.0037948224 461:0.0072358898 462:0.0081041967 463:0.0066891783 488:0.0020260492 489:0.0077182828 490:0.0081041967 491:0.0027013989 515:0.0020260492 516:0.0082006752 517:0.0081363562 518:0.0081363562 519:0.0027013989 539:0.0012220615 540:0.0027335584 541:0.0027335584 542:0.0032481106 543:0.0077182828 544:0.0081363562 545:0.0081041967 546:0.0081041967 547:0.0075253258 548:0.0072358898 549:0.0072680498 550:0.0057243928 551:0.0027335584 552:0.0024441229 562:0.0018330922 563:0.0018330922 564:0.0028300369 565:0.0063354238 566:0.0063354238 567:0.0071394113 568:0.0081041967 569:0.0081041967 570:0.0081041967 571:0.0081041967 572:0.0081363562 573:0.0081041967 574:0.0081041967 575:0.0081041967 576:0.0081041967 577:0.0081363562 578:0.0081041967 579:0.0081041967 580:0.0079112398 581:0.0063354238 590:0.0081363562 591:0.0081041967 592:0.0081041967 593:0.0081041967 594:0.0081041967 595:0.0081363562 596:0.0081041967 597:0.0081041967 598:0.0081041967 599:0.0081041967 600:0.0072358898 601:0.0071715708 602:0.0071715708 603:0.0071715708 604:0.0071715708 605:0.0027013989 606:0.0027013989 607:0.0027013989 608:0.0027013989 609:0.0027013989 618:0.0036018651 619:0.0050812028 620:0.0045344909 621:0.0036018651 622:0.0036018651 623:0.0036018651 624:0.0036018651 625:0.0071072518 626:0.0081041967 627:0.0055635953 #
52.696922307757767 160:0.0040318663 161:0.005246284 187:0.0053434372 188:0.011998446 189:0.012241329 190:0.0077236956 214:0.005392014 215:0.011901292 216:0.012289906 217:0.012289906 218:0.012289906 240:0.001311571 241:0.0090352669 242:0.011901292 243:0.012289906 244:0.012289906 245:0.012095599 246:0.0096181873 267:0.0048090937 268:0.010298261 269:0.012289906 270:0.012289906 271:0.012289906 272:0.011124065 273:0.0061692414 293:0.00014573011 294:0.005051977 295:0.010152531 296:0.012289906 297:0.012289906 298:0.012289906 299:0.012144175 300:0.0034489459 321:0.0023802584 322:0.012289906 323:0.012289906 324:0.012289906 325:0.012289906 326:0.010201108 327:0.0045176335 348:0.0062178178 349:0.012095599 350:0.012289906 351:0.012289906 352:0.012289906 353:0.0045176335 354:0.00019430681 374:0.0018944914 375:0.0067035849 376:0.012047023 377:0.012289906 378:0.012289906 379:0.012192752 380:0.00471194 381:9.7153403e-005 401:0.0017487613 402:0.010881182 403:0.012289906 404:0.012289906 405:0.012289906 406:0.009375304 407:0.0022345283 428:0.00053434371 429:0.010686874 430:0.012289906 431:0.012289906 432:0.012289906 433:0.010589722 434:0.0011658409 455:0.0018459148 456:0.0082580391 457:0.012289906 458:0.012289906 459:0.012289906 460:0.0057806275 461:0.0034975226 482:9.7153403e-005 483:0.0084523465 484:0.012289906 485:0.012289906 486:0.012289906 487:0.011998446 488:0.0022345283 510:0.0059749344 511:0.012289906 512:0.012289906 513:0.012289906 514:0.0096667642 515:0.00068007386 537:0.0035460992 538:0.012144175 539:0.012289906 540:0.012047023 541:0.0072865053 542:0.00053434371 564:0.0037404061 565:0.010103954 566:0.012289906 567:0.011755562 568:0.0042261733 591:0.0030603323 592:0.011609832 593:0.012289906 594:0.0100068 595:0.0044204798 619:0.01238706 620:0.012289906 621:0.0097153401 622:0.00087438064 647:0.011804138 648:0.012289906 649:0.010638298 650:0.0016030312 675:0.002623142 676:0.0056348974 677:0.0039832895 #
-93.367290401838702 128:0.00041360769 129:0.010133388 130:0.012511632 131:0.0024816461 156:0.006669424 157:0.013132044 158:0.013132044 159:0.0046013854 183:0.0074966396 184:0.012770138 185:0.013132044 186:0.013132044 187:0.0046013854 210:0.0011374211 211:0.011632716 212:0.013132044 213:0.011425912 214:0.013183746 215:0.0046013854 237:0.0010857201 238:0.010081688 239:0.013132044 240:0.011115707 241:0.0069279289 242:0.012615034 243:0.0029986557 265:0.0031020576 266:0.013132044 267:0.011064006 268:0.001395926 269:0.006772826 270:0.0090476684 292:0.0012408231 293:0.010908903 294:0.013080344 295:0.0023265432 297:0.0097714821 298:0.0053769001 319:0.00015510288 320:0.0087374626 321:0.013132044 322:0.0085823592 324:0.0033088615 325:0.01240823 346:5.1700961e-005 347:0.0061007133 348:0.013132044 349:0.011219108 350:0.0011374211 352:0.0058939098 353:0.012563334 374:0.00031020577 375:0.013132044 376:0.013132044 377:0.0057905079 380:0.0058939098 381:0.012563334 402:0.0022231413 403:0.013132044 404:0.0096163787 405:0.00093061733 408:0.010598697 409:0.007806845 429:0.0021197395 430:0.01183952 431:0.013132044 432:0.0049115913 435:0.0064626201 436:0.012976942 437:0.0041360771 457:0.005583704 458:0.013132044 459:0.0093061728 460:0.00046530867 463:0.011064006 464:0.007806845 465:5.1700961e-005 484:0.00025850482 485:0.011632716 486:0.012976942 487:0.002843553 490:0.0070830318 491:0.013132044 492:0.0070313308 512:0.0046530864 513:0.013132044 514:0.012149726 517:0.0018095337 518:0.011891222 519:0.012563334 520:0.0010340193 540:0.0086340606 541:0.013132044 542:0.005583704 545:0.0042394791 546:0.013132044 547:0.0042394791 568:0.0107538 569:0.013132044 570:0.00056871056 572:0.0031537586 573:0.012046324 574:0.013132044 575:0.0021197395 596:0.0107538 597:0.013132044 598:0.0077034431 599:0.010443594 600:0.012149726 601:0.012149726 602:0.0069796299 603:0.00046530867 624:0.0083238548 625:0.013132044 626:0.013132044 627:0.013132044 628:0.013132044 629:0.0076517425 652:0.00031020577 653:0.008892565 654:0.013028642 655:0.0069796299 656:0.0031537586 657:0.00025850482 #
-93.367290401838702 155:0.0004082188 156:0.0076200846 157:0.008345807 179:0.0018596634 180:0.0067129317 181:0.0080283033 182:0.0052614869 183:0.0074386536 184:0.011475484 185:0.010477616 206:0.00022678822 207:0.0087540252 208:0.011475484 209:0.011475484 210:0.011520842 211:0.011475484 212:0.011475484 213:0.010477616 234:0.00054429175 235:0.011475484 236:0.011475484 237:0.010613689 238:0.006123282 239:0.011203338 240:0.011475484 241:0.010477616 262:0.0038100423 263:0.011475484 264:0.011475484 265:0.0014968023 267:0.0047625527 268:0.011475484 269:0.010477616 290:0.0033564658 291:0.011475484 292:0.0087086679 293:0.00031750352 295:0.0030389621 296:0.011475484 297:0.010477616 318:0.0055336328 319:0.011475484 320:0.0079829451 323:0.0032657504 324:0.011475484 325:0.010477616 346:0.0046718377 347:0.011475484 348:0.0079829451 351:0.0071665081 352:0.011475484 353:0.0096158208 374:0.00054429175 375:0.011475484 376:0.0079829451 379:0.0067129317 380:0.011475484 381:0.0054882751 402:0.00054429175 403:0.011475484 404:0.0079829451 407:0.0080283033 408:0.011475484 409:0.0054882751 430:0.0055789906 431:0.011520842 432:0.0080283033 434:0.00022678822 435:0.008527237 436:0.011520842 437:0.0048532682 458:0.0077107996 459:0.011475484 460:0.0079829451 462:0.0015421599 463:0.011475484 464:0.011475484 465:0.00045357645 486:0.0055336328 487:0.011475484 488:0.0079829451 490:0.0015421599 491:0.011475484 492:0.011475484 493:0.00045357645 514:0.008164376 515:0.011475484 516:0.0079829451 518:0.0067582889 519:0.011475484 520:0.0091168871 521:0.00022678822 542:0.010522974 543:0.011475484 544:0.0058057788 545:0.0011339411 546:0.011566199 547:0.011475484 548:0.0058511361 570:0.010522974 571:0.011475484 572:0.0079829451 573:0.0067582889 574:0.011520842 575:0.010432258 576:0.0013153717 598:0.010522974 599:0.011475484 600:0.011203338 601:0.011384769 602:0.011475484 603:0.0037646845 626:0.010522974 627:0.011475484 628:0.011475484 629:0.011475484 630:0.0060779243 654:0.0068036467 655:0.011475484 656:0.011475484 657:0.0062139975 682:0.00095251057 683:0.0086633097 684:0.0049893409 685:0.00022678822 #
-93.367290401838702 128:0.0014137377 129:0.0050212061 130:0.0096524153 131:0.0049237069 155:0.002388729 156:0.01145615 157:0.012382392 158:0.012382392 159:0.010188661 182:0.0051187053 183:0.0114074 184:0.012382392 185:0.012041145 186:0.0070199384 187:0.0027299761 209:0.0046312097 210:0.012284893 211:0.012382392 212:0.010481158 213:0.0036562181 237:0.0088236732 238:0.012382392 239:0.012382392 240:0.012382392 241:0.0091649201 264:0.0031687224 265:0.012236143 266:0.01028616 267:0.0081899287 268:0.012382392 269:0.0086774239 291:0.0014624872 292:0.011261151 293:0.011212402 294:0.001364988 295:0.010139911 296:0.012382392 297:0.0031687224 318:0.00058499491 319:0.0088236732 320:0.012382392 321:0.0057524499 322:0.0017062351 323:0.012138644 324:0.012382392 325:0.0027299761 346:0.0035587188 347:0.012382392 348:0.010383659 349:0.00029249745 350:0.001949983 351:0.012382392 352:0.012138644 353:0.0022424804 374:0.0069711888 375:0.012382392 376:0.0058011995 378:0.001949983 379:0.012382392 380:0.010919904 402:0.0090186708 403:0.01028616 404:0.00029249745 406:0.0039974651 407:0.012382392 408:0.010919904 428:0.00043874615 429:0.0079949303 430:0.012187393 431:0.0058986982 434:0.0061424463 435:0.012382392 436:0.01033491 456:0.0032174718 457:0.012382392 458:0.010188661 459:0.00029249745 461:0.00029249745 462:0.0082874279 463:0.012382392 464:0.0062399455 484:0.0050699557 485:0.012382392 486:0.0063374448 489:0.0039974651 490:0.012382392 491:0.011651148 492:0.0014137377 512:0.0091649201 513:0.012138644 514:0.0021449812 516:0.0010237411 517:0.01033491 518:0.012382392 519:0.0071174377 539:0.0011699898 540:0.011894896 541:0.0094574168 543:0.0001949983 544:0.0058986982 545:0.012382392 546:0.0092624193 547:0.00058499491 567:0.0024862282 568:0.012187393 569:0.0063374448 571:0.0058499486 572:0.012382392 573:0.011602399 574:0.0024374786 595:0.0034124702 596:0.012382392 597:0.0093599185 598:0.005606201 599:0.011992395 600:0.012333642 601:0.0056549506 623:0.0010724906 624:0.01028616 625:0.012382392 626:0.012382392 627:0.012382392 628:0.0084824255 652:0.0010237411 653:0.0088236732 654:0.01145615 655:0.0064836931 #
-93.367290401838702 129:0.001251163 130:0.0072824098 131:0.007250329 132:0.0032722724 156:0.006961599 157:0.0078598699 158:0.0081165181 159:0.0081165181 160:0.0068332744 183:0.0028872991 184:0.0037534889 185:0.0038497322 186:0.0049404898 187:0.0081165181 188:0.0029835424 209:0.0013794873 210:0.0068974369 211:0.0080523565 212:0.0081165181 213:0.0081165181 214:0.0081165181 215:0.0052933819 216:0.00041705431 236:0.0015078117 237:0.0073465724 238:0.0081485994 239:0.0081165181 240:0.0081165181 241:0.0081165181 242:0.0081165181 243:0.0021173526 263:0.0015719739 264:0.007250329 265:0.0081165181 266:0.0081485994 267:0.0081165181 268:0.0081165181 269:0.0081165181 270:0.0065124636 271:0.00057745981 290:0.0002245677 291:0.0056141927 292:0.0081165181 293:0.0081165181 294:0.0054858681 295:0.0049084085 296:0.0081165181 297:0.0081165181 298:0.0059670848 318:0.0017644606 319:0.0081165181 320:0.0081165181 321:0.0076673832 322:0.0015719739 323:0.0039138943 324:0.0081165181 325:0.0081165181 326:0.0032722724 345:0.0010265952 346:0.0070578423 347:0.0081165181 348:0.0078598699 349:0.0016040551 350:0.0002245677 351:0.0077636265 352:0.0081165181 353:0.007988194 354:0.0016040551 373:0.0040101376 374:0.0081165181 375:0.0081165181 376:0.0076994644 378:0.0038818133 379:0.0081165181 380:0.0081165181 381:0.0055500306 400:0.0010265952 401:0.0070578423 402:0.0081485994 403:0.0081485994 404:0.0034326778 406:0.0039138943 407:0.0081485994 408:0.0081485994 409:0.0055821114 428:0.0062237335 429:0.0081165181 430:0.0081165181 431:0.0054858681 432:0.00019248661 434:0.0056783548 435:0.0081165181 436:0.0081165181 437:0.0037534889 455:0.00096243306 456:0.0070578423 457:0.0081165181 458:0.0081165181 459:0.0029835424 461:0.0016040551 462:0.0081485994 463:0.0081165181 464:0.0069936798 465:0.00080202753 483:0.0039780564 484:0.0081165181 485:0.0081165181 486:0.0076994644 487:0.0020531905 488:0.0001604055 489:0.0055179494 490:0.0081485994 491:0.0081165181 492:0.0051008952 510:0.0024060826 511:0.0078598699 512:0.0081165181 513:0.0076673832 514:0.0027589747 516:0.0004491354 517:0.0081165181 518:0.0081485994 519:0.0081165181 520:0.0051008952 538:0.0030156234 539:0.0081165181 540:0.0081165181 541:0.0063841389 544:0.0013474062 545:0.0081165181 546:0.0081485994 547:0.0081165181 548:0.0019569471 566:0.0030156234 567:0.0081165181 568:0.0081165181 569:0.006672869 570:0.0013153251 571:0.0017644606 572:0.0070578423 573:0.0081165181 574:0.0081806807 575:0.0050688139 576:0.00025664881 594:0.0030156234 595:0.0081165181 596:0.0081165181 597:0.0081165181 598:0.0081165181 599:0.0081165181 600:0.0081165181 601:0.0081165181 602:0.005710436 603:0.0001604055 622:0.001283244 623:0.0048763272 624:0.0081165181 625:0.0081165181 626:0.0081165181 627:0.0081165181 628:0.0081165181 629:0.0078919511 630:0.0018286228 651:0.0012190818 652:0.0072182477 653:0.0081165181 654:0.0081165181 655:0.0081165181 656:0.0078919511 657:0.0018286228 #
-93.367290401838702 128:0.0012130598 129:0.0028132661 130:0.0054716738 131:0.0065298746 132:0.004955478 133:0.00038714672 155:0.0010840108 156:0.0060136793 157:0.0065040649 158:0.0065040649 159:0.0065040649 160:0.0065298746 161:0.0041037551 182:0.0012130598 183:0.0057039619 184:0.0065298746 185:0.0065040649 186:0.0065040649 187:0.0065040649 188:0.0061169183 189:0.0018324945 208:2.5809783e-005 209:0.0032262227 210:0.0057039619 211:0.0065040649 212:0.0065298746 213:0.0065040649 214:0.0065040649 215:0.0065040649 216:0.0016002065 235:0.0016260162 236:0.0044134725 237:0.0065040649 238:0.0065040649 239:0.0065040649 240:0.0065298746 241:0.0065040649 242:0.0065040649 243:0.0065040649 263:0.0037166085 264:0.0065298746 265:0.0065040649 266:0.0065040649 267:0.0065040649 268:0.0065298746 269:0.0065040649 270:0.0065040649 271:0.0065040649 290:0.00015485869 291:0.0041295653 292:0.0065298746 293:0.0065040649 294:0.0065040649 295:0.0065040649 296:0.0065298746 297:0.0065040649 298:0.0065040649 299:0.0065040649 318:0.0030971738 319:0.0065040649 320:0.0065298746 321:0.0065040649 322:0.0065040649 323:0.0065040649 324:0.0065298746 325:0.0065040649 326:0.0065040649 327:0.0043360433 345:0.0018841141 346:0.0065298746 347:0.0065298746 348:0.0065814946 349:0.0065298746 350:0.0065298746 351:0.0065298746 352:0.0065814946 353:0.0065298746 354:0.0065298746 355:0.0027874564 373:0.0050845272 374:0.0065040649 375:0.0065040649 376:0.0065298746 377:0.0065040649 378:0.0065040649 379:0.0065040649 380:0.0065298746 381:0.0065040649 382:0.0062201573 383:0.0019873532 399:2.5809783e-005 400:0.0025551685 401:0.006245967 402:0.0065040649 403:0.0065040649 404:0.0059878696 405:0.0065040649 406:0.0065040649 407:0.0065040649 408:0.0065298746 409:0.0065040649 410:0.0028906956 427:2.5809783e-005 428:0.0065040649 429:0.0065040649 430:0.0065040649 431:0.0043360433 432:0.0012130598 433:0.0059878696 434:0.0065040649 435:0.0065040649 436:0.0065298746 437:0.0065040649 438:0.0018324945 455:0.0037424185 456:0.0065298746 457:0.0065298746 458:0.0061169183 459:0.0016002065 461:0.0056265322 462:0.0065298746 463:0.0065298746 464:0.0065814946 465:0.0065298746 466:0.0018583043 482:0.0018841141 483:0.0061169183 484:0.0065040649 485:0.0059620598 486:0.0018324945 489:0.0056007225 490:0.0065040649 491:0.0065040649 492:0.0065298746 493:0.0065040649 494:0.0018324945 510:0.0046715704 511:0.0065040649 512:0.0065040649 513:0.0046199509 516:0.0025551685 517:0.006245967 518:0.0065040649 519:0.0065040649 520:0.0061169183 521:0.0044909022 522:0.00051619567 538:0.0046715704 539:0.0065040649 540:0.0065040649 541:0.0046199509 542:0.00054200541 543:0.0037166085 544:0.0065298746 545:0.0065040649 546:0.0065040649 547:0.0065040649 548:0.0016002065 566:0.0046973801 567:0.0065298746 568:0.0065298746 569:0.0054458641 570:0.0054716738 571:0.0065298746 572:0.0065814946 573:0.0065298746 574:0.0056007225 594:0.0035875598 595:0.0065040649 596:0.0065040649 597:0.0065040649 598:0.0065040649 599:0.0065040649 600:0.0065298746 601:0.0048780488 602:0.0018324945 622:0.00082591304 623:0.005549103 624:0.0065040649 625:0.0065040649 626:0.0065040649 627:0.0065040649 628:0.0056007225 629:0.00077429344 651:2.5809783e-005 652:0.0027874564 653:0.0059878696 654:0.0059620598 655:0.0027874564 #
93.367290401838702 71:0.0046047582 72:0.010789581 73:0.0025732473 91:0.00081260438 92:0.00072231505 97:0.00027086813 98:0.0051464946 99:0.011015304 100:0.011466751 101:0.0061848224 119:0.006952282 120:0.009660963 121:0.0041533113 122:0.0041533113 123:0.0041533113 124:0.0071780053 125:0.0090289377 126:0.011466751 127:0.011466751 128:0.011466751 129:0.0055979416 147:0.010247844 148:0.011466751 149:0.011466751 150:0.011466751 151:0.011466751 152:0.011466751 153:0.011015304 154:0.0067265588 155:0.0036115751 156:0.011466751 157:0.0066814139 175:0.0020315109 176:0.0080808997 177:0.010789581 178:0.010428423 179:0.010383278 180:0.0073585841 181:0.0032955622 183:0.0018509323 184:0.011105593 185:0.0066814139 205:0.0011286172 206:0.00013543406 211:0.0012189066 212:0.010925015 213:0.0066814139 239:0.0027989708 240:0.011331317 241:0.0066814139 268:0.010338134 269:0.0031149834 296:0.0093449503 297:0.0067717033 324:0.010654147 325:0.0085774912 352:0.010654147 353:0.0064556906 380:0.010654147 381:0.0023926685 408:0.010654147 409:0.0023926685 436:0.010654147 437:0.0023926685 464:0.010654147 465:0.0023926685 492:0.010654147 493:0.0023926685 509:4.514469e-005 510:0.0018057876 511:0.0046047582 512:0.0025281026 513:0.00022572344 514:0.00018057876 515:0.00022572344 516:0.00018057876 518:0.00018057876 519:0.0015800641 520:0.010970159 521:0.0024378132 537:0.0052819285 538:0.011466751 539:0.011466751 540:0.011466751 541:0.011466751 542:0.0099318316 543:0.011466751 544:0.010157555 545:0.007403729 546:0.010744436 547:0.011466751 548:0.011466751 549:0.0097963978 550:0.0061396775 551:0.0053722179 552:0.007403729 553:0.007403729 554:0.0031601281 565:0.010022121 566:0.011466751 567:0.011466751 568:0.011466751 569:0.011466751 570:0.011466751 571:0.011466751 572:0.011466751 573:0.011466751 574:0.011466751 575:0.011466751 576:0.011466751 577:0.011466751 578:0.011466751 579:0.011511896 580:0.011466751 581:0.011466751 582:0.0099769766 593:0.0062299669 594:0.008712925 595:0.0071780053 596:0.0071328608 597:0.0071328608 598:0.0087580699 599:0.0087580699 600:0.0071328608 601:0.0038824433 602:0.0071328608 603:0.0071328608 604:0.0071328608 605:0.0071328608 606:0.0042887456 607:0.0044693244 608:0.0045596138 609:0.0071328608 610:0.0045596138 #
93.367290401838702 151:0.0035775127 152:0.014366837 153:0.0044293017 179:0.0035775127 180:0.014423623 181:0.011470756 207:0.0068710959 208:0.014423623 209:0.011470756 235:0.009483248 236:0.014423623 237:0.011470756 241:0.0093128905 242:0.0032935832 262:0.00011357183 263:0.0099943215 264:0.014423623 265:0.010902897 269:0.01362862 270:0.014082908 271:0.0049971608 290:0.0026121521 291:0.014423623 292:0.014423623 293:0.0056218058 297:0.010221465 298:0.014423623 299:0.013287905 318:0.0068710959 319:0.014423623 320:0.01419648 321:0.00068143103 325:0.00096536061 326:0.012549688 327:0.013287905 346:0.0068710959 347:0.014423623 348:0.014139693 354:0.010335037 355:0.013287905 374:0.009369676 375:0.014423623 376:0.011584327 381:0.0015332197 382:0.013798978 383:0.013287905 401:0.00085178873 402:0.013060761 403:0.014423623 404:0.0082339579 409:0.0030096537 410:0.014423623 411:0.013287905 429:0.0042021577 430:0.014423623 431:0.014423623 432:0.0059625213 437:0.0099943215 438:0.014423623 439:0.013287905 457:0.009937535 458:0.014423623 459:0.012436116 460:0.0010221465 465:0.01362862 466:0.014423623 467:0.0040885862 485:0.010051107 486:0.014423623 487:0.010902897 493:0.01362862 494:0.009028961 495:0.00039750143 512:0.00022714367 513:0.010618966 514:0.014423623 515:0.010164679 521:0.011925043 522:0.00028392958 540:0.0015332197 541:0.014423623 542:0.014423623 543:0.0049971608 549:0.0057921633 568:0.0072685974 569:0.014480409 570:0.014026121 571:0.0025553664 596:0.01334469 597:0.014423623 598:0.011981828 624:0.01334469 625:0.014423623 626:0.0076093129 652:0.01334469 653:0.014423623 654:0.0076093129 680:0.0060760933 681:0.014480409 682:0.0076093129 #
93.367290401838702 67:0.00043343831 68:0.0070794928 69:0.0017048575 95:0.003640882 96:0.0073395558 97:0.0063281995 98:0.00031785478 123:0.0043343832 124:0.0073395558 125:0.0073395558 126:0.0029473805 150:0.0032941313 151:0.0072817639 152:0.0073395558 153:0.0073395558 154:0.0046811337 176:0.00075129309 177:0.0037853613 178:0.007195076 179:0.0073395558 180:0.0073395558 181:0.0073395558 182:0.0034386106 201:0.0002311671 202:0.0051723639 203:0.0065304707 204:0.006761638 205:0.0073395558 206:0.0073395558 207:0.0073395558 208:0.0073395558 209:0.0073395558 210:0.0056346981 229:0.00052012596 230:0.0073395558 231:0.0073395558 232:0.0073395558 233:0.0073395558 234:0.0073395558 235:0.0073395558 236:0.0073395558 237:0.0073395558 238:0.0056346981 257:0.00052012596 258:0.0073395558 259:0.0073395558 260:0.0073395558 261:0.0073395558 262:0.0073395558 263:0.007021701 264:0.0073395558 265:0.0073395558 266:0.0056346981 285:0.00043343831 286:0.0068772212 287:0.0073395558 288:0.0073395558 289:0.0063570952 290:0.0047100298 291:0.0014736903 292:0.0053168433 293:0.0073395558 294:0.0067327418 295:0.0010691478 314:0.0034386106 315:0.0040165284 316:0.0030918601 317:0.00040454243 320:0.0017337532 321:0.0073395558 322:0.0073684515 323:0.0025139423 348:0.00049123011 349:0.0065304707 350:0.0073395558 351:0.0051145721 377:0.0013292108 378:0.0065304707 379:0.0069928048 380:0.0048834053 381:0.00026006298 406:0.003640882 407:0.0073395558 408:0.0073395558 409:0.0021960875 434:5.7791774e-005 435:0.0055480106 436:0.0073395558 437:0.0072817639 438:0.0020805039 455:0.00060681364 456:0.0034386106 457:0.003120756 458:0.00086687662 459:0.00086687662 460:0.00080908486 463:0.0026584216 464:0.0073395558 465:0.0073395558 466:0.0072239721 467:0.0017915451 482:0.00020227121 483:0.0054324269 484:0.0073395558 485:0.0073395558 486:0.0073395558 487:0.0073395558 488:0.0071083885 489:0.0047967173 490:0.0047967173 491:0.006761638 492:0.0073395558 493:0.0073395558 494:0.0073395558 495:0.0058658654 496:0.0047967173 497:0.0023405668 498:0.0009535643 510:0.000780189 511:0.0067327418 512:0.0073395558 513:0.0073395558 514:0.0073395558 515:0.0073395558 516:0.0073395558 517:0.0073395558 518:0.0073395558 519:0.0073395558 520:0.0073395558 521:0.0073395558 522:0.0073395558 523:0.0073395558 524:0.0073395558 525:0.0073395558 526:0.0067038462 527:0.0032363394 539:0.0049700928 540:0.0073395558 541:0.0073395558 542:0.0073395558 543:0.0073395558 544:0.0073395558 545:0.0073395558 546:0.0073395558 547:0.0073395558 548:0.0073395558 549:0.0073395558 550:0.0073395558 551:0.0073395558 552:0.0073395558 553:0.0073395558 554:0.0073395558 555:0.0044210707 567:0.00069350132 568:0.004392175 569:0.0049700928 570:0.007021701 571:0.0073395558 572:0.0073395558 573:0.0073395558 574:0.0073395558 575:0.0073395558 576:0.0073395558 577:0.0073395558 578:0.0073395558 579:0.0073395558 580:0.0073395558 581:0.0073395558 582:0.0063859913 583:0.0026873176 596:0.00014447945 597:0.00011558355 598:0.00043343831 599:0.00057791779 600:0.003900945 601:0.003900945 602:0.003900945 603:0.0049700928 604:0.0044499668 605:0.003900945 606:0.003900945 607:0.0059236572 608:0.0073395558 609:0.0048545091 610:0.0010402519 #
93.367290401838702 125:0.002768724 126:0.0066940035 127:0.0089370199 128:0.0073949462 129:0.0010864612 152:0.0036799496 153:0.0084814075 154:0.0088318791 155:0.0088669257 156:0.0080958894 157:0.0017874041 179:0.002768724 180:0.0084814075 181:0.0088318791 182:0.0088318791 183:0.0088669257 184:0.0062734378 207:0.0038201381 208:0.0088318791 209:0.0088318791 210:0.0088318791 211:0.0088669257 212:0.0062734378 235:0.0059930608 236:0.0088318791 237:0.0088318791 238:0.0088318791 239:0.0088669257 240:0.0062734378 263:0.0088669257 264:0.0088318791 265:0.0088318791 266:0.0088318791 267:0.0088669257 268:0.0062734378 289:0.00021028283 290:0.0042056567 291:0.0088669257 292:0.0088318791 293:0.0088318791 294:0.0088318791 295:0.0088669257 296:0.0062734378 317:0.0042056567 318:0.0088318791 319:0.0088669257 320:0.0088318791 321:0.0088318791 322:0.0088318791 323:0.0088669257 324:0.0062734378 344:0.0047313636 345:0.0088669257 346:0.0088669257 347:0.0089370199 348:0.0066940035 349:0.0088669257 350:0.0088669257 351:0.0089370199 352:0.0012266499 372:0.007605229 373:0.0088318791 374:0.0088318791 375:0.0055724951 376:0.0027336767 377:0.0088318791 378:0.0088318791 379:0.0055724951 380:0.00017523569 399:0.00056075421 400:0.0077804648 401:0.0088318791 402:0.0088318791 403:0.0043808925 404:0.0025584411 405:0.0088318791 406:0.0088318791 407:0.0050467881 427:0.0038201381 428:0.0088318791 429:0.0088318791 430:0.0058879191 432:0.0025584411 433:0.0088318791 434:0.0088318791 435:0.0050467881 455:0.0038551851 456:0.0088669257 457:0.0088669257 458:0.003785091 460:0.0047313636 461:0.0088669257 462:0.0088669257 463:0.0050818352 483:0.0038201381 484:0.0088318791 485:0.0077103702 486:0.00052570709 488:0.007605229 489:0.0088318791 490:0.0088318791 491:0.00070094276 511:0.0038201381 512:0.0070094275 513:0.0021378754 515:0.002768724 516:0.0084814075 517:0.0088318791 518:0.0088318791 539:0.0016472155 540:0.0055724951 543:0.0038201381 544:0.0088318791 545:0.0088318791 546:0.0088318791 571:0.0038551851 572:0.0088669257 573:0.0088669257 574:0.0088669257 575:0.0038551851 576:0.0052570705 577:0.0052220235 578:0.0016472155 597:0.0011215084 598:0.007605229 599:0.0081659835 600:0.0088318791 601:0.0088318791 602:0.0088318791 603:0.0088669257 604:0.0088318791 605:0.0088318791 606:0.003785091 625:0.0012967441 626:0.0088318791 627:0.0088669257 628:0.0088318791 629:0.0088318791 630:0.0088318791 631:0.007605229 632:0.0075351349 633:0.0068341922 634:0.0010864612 653:0.00056075421 654:0.003785091 655:0.0059580137 656:0.0088318791 657:0.0051869764 658:0.003785091 #
