SVM-light Version V6.02
0 # kernel type
3 # kernel parameter -d 
1 # kernel parameter -g 
1 # kernel parameter -s 
1 # kernel parameter -r 
empty# kernel parameter -u 
744 # highest feature index 
12665 # number of training documents 
178 # number of support vectors plus 1 
-0.55174625 # threshold b, each following line is a SV (starting with alpha*y)
9.9999999999999995e-008 68:14 69:216 70:48 96:137 97:254 98:133 99:2 124:115 125:254 126:254 127:49 152:54 153:254 154:254 155:111 180:63 181:156 182:189 183:111 208:149 209:175 210:178 211:111 236:169 237:46 238:178 239:111 264:242 265:40 266:134 267:190 291:28 292:164 294:114 295:206 318:14 319:219 320:51 322:124 323:116 346:25 347:254 348:9 350:119 351:146 374:91 375:195 376:3 378:83 379:111 401:44 402:192 403:40 406:38 407:103 434:35 435:103 462:110 463:111 490:178 491:111 493:15 494:22 495:39 496:39 497:39 498:24 516:5 517:5 518:180 519:222 520:161 521:219 522:229 523:254 524:254 525:250 526:115 541:16 542:77 543:164 544:251 545:254 546:254 547:242 548:187 549:158 550:91 551:91 552:91 553:9 569:156 570:255 571:254 572:255 573:255 574:163 575:28 597:251 598:254 599:254 600:254 601:130 602:19 #
-1.7350816789760261e-008 120:32 121:97 122:157 123:156 124:89 125:28 147:37 148:229 149:254 150:254 151:252 152:234 153:224 154:140 175:109 176:254 177:254 178:236 179:87 181:42 182:183 183:136 202:110 203:248 204:254 205:201 206:15 210:99 211:250 212:235 213:205 214:137 215:62 230:193 231:254 232:238 233:58 238:99 239:171 240:186 241:185 242:155 243:231 244:136 245:53 257:120 258:254 259:254 260:192 265:25 266:209 267:76 268:8 269:30 272:159 273:238 274:71 285:156 286:254 287:254 288:34 293:6 294:24 301:125 302:242 303:69 313:156 314:254 315:199 316:6 329:6 330:200 331:226 332:18 341:156 342:246 343:55 358:124 359:254 360:58 369:156 370:246 371:48 386:79 387:254 388:133 397:195 398:247 399:71 414:79 415:255 416:179 425:156 426:254 427:175 442:79 443:254 444:254 453:127 454:254 455:175 470:79 471:254 472:223 481:5 482:203 483:187 484:3 498:94 499:254 500:155 510:80 511:254 512:147 513:23 525:8 526:206 527:254 528:155 539:61 540:250 541:217 553:103 554:254 555:255 556:96 568:104 569:241 570:193 571:35 572:6 579:16 580:140 581:248 582:254 583:235 584:32 597:30 598:176 599:242 600:200 601:124 602:79 603:79 604:79 605:79 606:94 607:236 608:254 609:254 610:229 611:111 627:62 628:184 629:220 630:254 631:255 632:254 633:254 634:254 635:254 636:230 637:161 638:13 657:9 658:58 659:81 660:148 661:58 662:96 663:58 664:23 #
-9.9999999999999995e-008 124:60 125:225 126:23 151:7 152:234 153:171 154:161 179:142 180:241 181:217 182:245 183:194 184:74 206:4 207:240 208:173 209:68 210:31 211:116 212:205 213:91 214:1 234:156 235:200 240:44 241:229 242:66 261:10 262:226 263:50 269:88 270:194 271:15 289:42 290:234 291:10 298:174 299:88 317:172 318:136 326:81 327:211 328:17 345:193 346:52 354:3 355:204 356:38 373:193 374:38 383:193 384:86 400:11 401:237 402:39 411:140 412:146 428:16 429:255 430:38 439:117 440:192 456:16 457:255 458:38 467:117 468:192 484:16 485:217 486:2 495:168 496:90 512:4 513:199 514:29 522:24 523:240 524:38 541:193 542:38 550:177 551:179 552:6 569:191 570:136 577:97 578:219 579:46 597:79 598:233 599:21 604:77 605:238 606:75 626:184 627:197 628:55 629:27 630:57 631:162 632:204 633:66 654:6 655:124 656:231 657:243 658:246 659:140 660:12 #
-2.321127733253165e-008 147:11 148:60 149:69 150:134 151:43 174:85 175:202 176:253 177:254 178:253 179:248 180:204 181:164 182:113 183:28 184:1 201:77 202:228 203:253 204:253 205:209 206:208 207:250 208:253 209:253 210:254 211:253 212:193 213:85 214:19 228:49 229:248 230:253 231:160 232:38 235:28 236:30 237:96 238:188 239:253 240:253 241:253 242:236 243:120 244:14 256:157 257:254 258:155 268:124 269:229 270:254 271:255 272:236 273:50 284:223 285:239 286:24 297:8 298:111 299:236 300:253 301:233 302:32 312:179 313:124 327:50 328:181 329:252 330:180 331:2 340:179 341:119 357:181 358:253 359:65 368:179 369:119 385:55 386:253 387:170 396:128 397:179 398:2 414:194 415:254 424:88 425:253 426:32 442:194 443:253 452:2 453:158 454:164 455:4 469:1 470:197 471:253 481:14 482:229 483:108 497:108 498:253 499:218 510:121 511:248 512:48 524:58 525:239 526:253 527:134 539:112 540:232 541:157 542:179 543:152 544:105 545:83 546:31 547:30 548:30 549:66 550:127 551:210 552:254 553:254 554:248 555:26 567:8 568:229 569:254 570:253 571:253 572:253 573:253 574:254 575:253 576:253 577:253 578:253 579:254 580:253 581:232 582:116 596:35 597:223 598:253 599:221 600:199 601:238 602:249 603:253 604:253 605:253 606:253 607:248 608:159 609:14 625:34 626:133 627:65 630:42 631:60 632:129 633:133 634:112 635:35 #
9.9999999999999995e-008 100:120 101:188 102:11 127:123 128:245 129:254 130:35 154:177 155:253 156:254 157:254 158:35 180:103 181:201 182:255 183:94 184:159 185:254 186:35 205:22 206:54 207:137 208:244 209:254 210:126 211:2 212:149 213:254 214:35 231:8 232:187 233:231 234:254 235:254 236:225 237:71 240:149 241:228 242:18 259:11 260:204 261:236 262:188 263:73 264:15 268:149 269:237 270:24 289:21 296:149 297:201 324:149 325:201 352:149 353:140 380:149 381:114 408:149 409:114 436:149 437:114 464:167 465:114 492:237 493:114 520:225 521:114 540:23 541:14 548:149 549:183 565:36 566:157 567:193 568:245 569:224 570:193 571:193 572:132 573:132 574:76 575:106 576:223 577:241 578:118 579:24 593:158 594:254 595:254 596:254 597:254 598:250 599:252 600:254 601:254 602:254 603:254 604:254 605:254 606:254 607:220 608:184 609:172 610:3 621:74 622:85 623:79 624:79 625:79 626:44 627:60 628:82 629:106 630:79 631:79 632:79 633:79 634:109 635:121 636:236 637:254 638:70 #
-6.9877157260729815e-008 128:45 129:234 130:254 131:130 155:46 156:232 157:253 158:253 159:251 160:76 183:157 184:253 185:253 186:253 187:233 188:50 210:215 211:251 212:253 213:253 214:253 215:217 216:26 237:107 238:254 239:253 240:253 241:253 242:253 243:253 244:80 264:39 265:222 266:255 267:253 268:253 269:253 270:253 271:253 272:80 291:5 292:164 293:253 294:255 295:236 296:163 297:226 298:253 299:253 300:80 318:5 319:122 320:253 321:253 322:254 323:146 324:10 325:218 326:253 327:253 328:80 346:48 347:253 348:253 349:253 350:177 351:62 352:102 353:253 354:253 355:253 356:80 373:29 374:216 375:253 376:253 377:253 379:57 380:241 381:253 382:253 383:253 384:80 401:188 402:255 403:254 404:254 405:191 407:171 408:254 409:254 410:254 411:137 428:64 429:250 430:253 431:253 432:114 433:6 434:108 435:246 436:253 437:253 438:189 439:4 455:30 456:207 457:253 458:253 459:229 460:11 461:50 462:254 463:253 464:253 465:223 466:47 483:81 484:253 485:253 486:240 487:84 488:54 489:235 490:254 491:253 492:253 493:60 511:81 512:253 513:253 514:213 515:57 516:231 517:253 518:254 519:253 520:179 521:9 539:109 540:253 541:253 542:172 543:229 544:253 545:253 546:254 547:230 548:55 567:214 568:253 569:253 570:253 571:253 572:253 573:253 574:235 575:124 595:214 596:253 597:253 598:253 599:253 600:253 601:239 602:49 623:214 624:253 625:253 626:253 627:253 628:167 629:50 651:143 652:253 653:253 654:253 655:168 656:50 #
-9.9999999999999995e-008 121:11 122:255 123:154 148:17 149:193 150:253 151:132 152:13 153:89 154:161 155:162 156:161 157:129 158:47 159:5 176:93 177:252 178:236 179:38 180:172 181:252 182:252 183:253 184:252 185:252 186:252 187:137 204:187 205:252 206:188 207:140 208:252 209:218 210:108 211:46 212:83 213:252 214:252 215:252 216:136 232:207 233:252 234:116 235:161 236:252 237:56 240:47 241:252 242:210 243:189 244:241 245:42 259:70 260:253 261:253 263:95 264:167 267:24 268:212 269:253 270:46 271:53 272:244 273:154 287:70 288:252 289:252 295:159 296:252 297:240 298:37 300:138 301:236 302:44 315:70 316:252 317:252 322:32 323:253 324:252 325:151 328:138 329:252 330:69 343:164 344:252 345:252 350:210 351:253 352:235 353:44 356:138 357:252 358:69 371:184 372:252 373:252 377:43 378:240 379:253 380:206 384:138 385:252 386:69 399:185 400:253 401:253 404:7 405:160 406:253 407:231 408:42 412:202 413:207 427:184 428:252 429:252 432:70 433:252 434:252 435:116 439:22 440:253 441:206 455:184 456:252 457:252 460:101 461:252 462:252 463:84 467:116 468:253 469:174 483:142 484:252 485:252 487:17 488:209 489:252 490:210 494:34 495:218 496:245 497:58 511:70 512:252 513:252 515:99 516:252 517:252 518:85 522:197 523:252 524:230 539:32 540:229 541:253 542:181 543:170 544:253 545:203 546:11 548:26 549:170 550:253 551:243 552:53 568:133 569:252 570:253 571:252 572:240 573:79 575:57 576:178 577:252 578:235 579:113 596:68 597:215 598:253 599:252 600:202 601:70 602:174 603:253 604:252 605:233 606:64 625:21 626:211 627:252 628:252 629:252 630:252 631:253 632:172 633:33 654:13 655:96 656:221 657:252 658:147 659:75 660:8 #
-9.9999999999999995e-008 150:26 151:213 152:254 153:176 154:57 178:54 179:253 180:253 181:253 182:247 183:57 206:174 207:253 208:243 209:214 210:253 211:242 212:11 234:128 235:228 236:235 237:107 238:215 239:254 240:159 241:9 263:174 264:253 265:250 266:123 267:219 268:253 269:132 291:174 292:253 293:253 294:120 295:96 296:251 297:159 318:37 319:228 320:253 321:253 322:120 324:241 325:224 326:49 346:54 347:253 348:253 349:253 350:190 352:145 353:250 354:173 374:54 375:253 376:238 377:114 378:191 381:228 382:219 383:31 402:125 403:253 404:226 406:64 409:157 410:253 411:53 430:125 431:254 432:228 437:95 438:254 439:53 458:54 459:253 460:226 465:94 466:253 467:53 486:174 487:253 488:226 493:94 494:253 495:53 514:145 515:253 516:226 521:94 522:253 523:53 542:54 543:253 544:226 549:200 550:253 551:53 570:43 571:236 572:246 573:107 576:108 577:247 578:236 579:42 599:174 600:253 601:242 602:19 603:20 604:243 605:253 606:151 627:86 628:243 629:253 630:204 631:206 632:253 633:194 634:15 656:82 657:248 658:253 659:255 660:247 661:81 685:70 686:190 687:191 688:69 #
-9.9999999999999995e-008 43:90 44:246 45:117 72:45 73:2 208:1 209:90 210:216 211:244 212:191 213:64 214:3 235:14 236:118 237:254 238:254 239:254 240:254 241:254 242:175 243:9 263:142 264:254 265:254 266:254 267:254 268:254 269:254 270:254 271:89 290:5 291:221 292:254 293:255 294:254 295:255 296:254 297:254 298:255 299:117 318:134 319:254 320:254 321:254 322:254 323:254 324:254 325:254 326:254 327:207 345:41 346:248 347:254 348:254 349:255 350:181 351:239 352:254 353:254 354:254 355:207 372:82 373:241 374:254 375:254 376:236 377:114 378:6 379:106 380:254 381:254 382:254 383:207 400:150 401:254 402:254 403:253 404:147 407:101 408:254 409:254 410:254 411:207 428:208 429:254 430:254 431:161 434:60 435:238 436:254 437:254 438:255 439:207 456:208 457:254 458:254 459:134 460:31 461:76 462:234 463:254 464:254 465:254 466:254 467:185 484:208 485:254 486:254 487:248 488:229 489:254 490:254 491:254 492:254 493:254 494:147 495:25 512:208 513:254 514:254 515:254 516:254 517:254 518:254 519:254 520:254 521:167 522:22 540:106 541:254 542:254 543:254 544:254 545:254 546:254 547:254 548:110 549:1 568:48 569:135 570:249 571:254 572:254 573:254 574:163 575:92 576:2 #
-9.290510399033242e-008 125:59 126:106 127:39 128:140 129:179 130:128 131:61 151:50 152:183 153:243 154:254 155:247 156:154 157:167 158:204 159:254 160:148 161:11 178:73 179:234 180:186 181:160 182:172 183:35 186:3 187:103 188:232 189:185 205:49 206:210 207:108 208:4 216:83 217:240 218:11 232:93 233:233 234:136 244:13 245:228 246:15 259:24 260:255 261:201 273:201 274:15 287:147 288:212 289:62 301:74 302:94 315:239 316:134 329:4 330:10 343:240 344:99 357:11 358:16 371:239 372:60 385:83 386:90 399:240 400:60 413:157 414:81 427:222 428:95 441:196 442:32 455:165 456:225 457:11 469:210 470:85 483:151 484:254 485:30 496:94 497:233 498:12 511:20 512:236 513:118 524:246 525:128 540:133 541:254 542:9 550:6 551:119 552:203 553:14 568:22 569:238 570:183 571:11 577:4 578:138 579:254 580:132 597:79 598:246 599:224 600:68 601:8 604:13 605:96 606:251 607:150 608:5 626:34 627:184 628:254 629:226 630:172 631:195 632:243 633:251 634:150 655:7 656:61 657:214 658:254 659:210 660:174 661:32 #
-7.4258760380886251e-008 126:37 127:145 128:197 129:194 130:94 153:50 154:232 155:254 156:254 157:254 158:251 159:75 180:12 181:221 182:248 183:99 184:27 185:115 186:253 187:112 207:36 208:218 209:248 210:66 214:246 215:112 235:182 236:254 237:100 241:72 242:253 243:104 262:34 263:252 264:177 265:8 266:2 267:9 268:73 269:173 270:252 271:21 289:7 290:201 291:254 292:46 293:46 294:169 295:254 296:254 297:254 298:233 299:15 317:66 318:254 319:158 320:38 321:242 322:254 323:254 324:254 325:254 326:254 327:135 344:14 345:221 346:254 347:27 348:229 349:254 350:227 351:90 352:188 353:128 354:195 355:180 372:23 373:254 374:164 375:73 376:254 377:183 378:32 380:23 381:11 382:157 383:199 384:7 400:86 401:253 402:71 403:115 404:254 405:47 410:157 411:229 412:19 428:99 429:246 431:161 432:254 433:31 438:157 439:163 455:26 456:240 457:181 459:97 460:254 461:129 462:3 466:221 467:112 483:36 484:254 485:128 487:24 488:186 489:254 490:165 493:83 494:252 495:52 511:36 512:254 513:122 516:2 517:56 518:20 520:27 521:222 522:166 523:1 539:36 540:254 541:175 547:4 548:128 549:237 550:46 567:18 568:227 569:247 570:27 574:5 575:150 576:254 577:128 596:151 597:254 598:238 599:149 600:117 601:164 602:212 603:254 604:202 605:46 624:14 625:223 626:254 627:254 628:254 629:254 630:253 631:197 632:18 653:33 654:165 655:165 656:248 657:175 658:82 #
-2.446015802748195e-008 126:192 127:233 128:84 153:42 154:254 155:253 156:186 181:197 182:254 183:254 184:145 208:53 209:248 210:254 211:253 212:207 236:181 237:253 238:254 239:253 240:165 263:42 264:244 265:253 266:254 267:253 268:197 269:11 291:125 292:255 293:254 294:234 295:254 296:254 297:88 319:207 320:254 321:191 322:37 323:243 324:254 325:191 346:47 347:254 348:255 349:36 350:11 351:135 352:223 353:254 354:53 374:109 375:253 376:254 377:36 380:120 381:253 382:115 402:120 403:254 404:228 405:21 408:58 409:254 410:156 430:223 431:253 432:104 436:37 437:253 438:197 457:63 458:254 459:254 460:63 464:37 465:254 466:218 485:145 486:254 487:232 492:37 493:253 494:176 513:166 514:254 515:150 520:140 521:254 522:187 540:11 541:217 542:254 543:109 547:42 548:244 549:253 550:125 568:37 569:254 570:254 571:109 574:27 575:213 576:254 577:212 578:21 596:37 597:253 598:254 599:149 600:73 601:135 602:233 603:253 604:243 605:57 625:156 626:254 627:254 628:254 629:254 630:254 631:243 632:84 653:11 654:150 655:253 656:254 657:232 658:139 659:26 #
-9.9999999999999995e-008 183:32 184:201 185:209 186:7 210:3 211:147 212:255 213:254 214:34 238:16 239:246 240:254 241:254 242:93 267:46 268:115 269:249 270:137 294:90 295:205 296:203 297:210 298:169 320:16 321:134 322:227 323:116 324:46 325:169 326:169 347:5 348:182 349:206 350:23 353:169 354:169 375:123 376:209 377:22 381:169 382:169 402:63 403:241 404:55 409:170 410:156 429:5 430:221 431:131 436:7 437:235 438:75 457:98 458:216 459:7 464:137 465:242 466:23 485:170 486:132 491:73 492:254 493:129 513:238 514:48 518:40 519:241 520:218 521:9 541:174 542:199 543:66 544:48 545:129 546:238 547:190 548:27 569:105 570:252 571:254 572:254 573:252 574:150 575:7 598:71 599:131 600:105 601:44 710:10 711:136 #
-9.9999999999999995e-008 292:7 293:139 294:179 295:180 296:179 297:179 298:166 299:105 300:75 301:23 317:36 318:113 319:174 320:154 321:253 322:134 323:120 324:119 325:119 326:154 327:193 328:201 329:243 330:182 331:89 343:15 344:138 345:247 346:239 347:176 348:59 349:15 350:2 356:2 357:32 358:141 359:243 360:151 369:6 370:125 371:232 372:232 373:121 387:63 388:253 397:140 398:253 399:108 400:16 415:112 416:187 425:255 426:67 441:8 442:153 443:248 444:92 453:192 454:116 455:4 467:36 468:113 469:206 470:227 471:54 481:103 482:250 483:187 484:77 485:15 486:16 487:15 488:11 489:11 490:11 491:16 492:33 493:117 494:164 495:239 496:243 497:137 498:14 510:49 511:134 512:216 513:253 514:254 515:253 516:236 517:236 518:236 519:254 520:242 521:204 522:133 523:68 524:18 540:6 541:30 542:83 543:104 544:104 545:104 546:104 547:30 548:23 #
-2.2595663432477504e-008 151:8 152:157 153:247 154:252 155:247 156:247 157:247 158:172 159:120 160:4 177:3 178:128 179:235 180:163 181:57 182:48 184:5 185:74 186:111 187:224 188:184 189:8 204:4 205:168 206:225 207:40 215:24 216:194 217:148 232:160 233:235 234:41 244:27 245:205 246:75 247:3 258:56 259:84 260:238 261:99 273:30 274:242 275:56 286:180 287:254 288:136 302:171 303:140 313:8 314:244 315:213 316:8 330:93 331:220 332:5 341:62 342:254 343:147 358:66 359:254 360:8 369:6 370:232 371:71 386:5 387:239 388:8 398:180 399:144 414:43 415:248 416:8 426:100 427:177 442:67 443:255 444:8 454:94 455:247 456:46 470:45 471:196 472:3 482:10 483:226 484:139 498:101 499:111 511:151 512:176 525:8 526:215 527:16 539:94 540:247 541:53 553:111 554:161 555:3 567:12 568:208 569:146 580:58 581:227 582:33 596:70 597:248 598:81 606:8 607:125 608:236 609:80 624:4 625:162 626:241 627:114 628:7 633:57 634:188 635:254 636:114 637:4 653:8 654:128 655:244 656:218 657:156 658:77 659:130 660:161 661:250 662:186 663:32 664:3 683:7 684:82 685:166 686:225 687:225 688:166 689:56 690:2 #
9.9999999999999995e-008 132:65 133:166 134:128 135:40 147:17 148:47 149:131 150:12 158:22 159:85 160:234 161:253 162:253 163:99 174:86 175:185 176:253 177:172 178:6 185:9 186:195 187:253 188:253 189:253 190:222 191:42 201:29 202:211 203:253 204:239 205:73 211:46 212:135 213:247 214:253 215:253 216:253 217:253 218:49 230:125 231:252 232:220 233:18 237:36 238:147 239:222 240:253 241:253 242:253 243:253 244:253 245:236 246:38 259:247 260:253 261:190 262:55 263:139 264:139 265:243 266:253 267:253 268:253 269:168 270:253 271:253 272:249 273:66 287:71 288:181 289:253 290:244 291:253 292:253 293:253 294:193 295:168 296:32 297:72 298:253 299:253 300:100 316:11 317:68 318:214 319:203 320:68 321:68 322:21 324:9 325:180 326:253 327:245 328:81 352:70 353:253 354:253 355:191 380:117 381:253 382:218 383:39 407:12 408:226 409:253 410:137 434:12 435:186 436:253 437:253 438:137 462:24 463:253 464:253 465:197 466:16 490:127 491:253 492:249 493:79 518:177 519:253 520:183 545:104 546:242 547:253 548:183 565:7 566:8 567:8 568:8 569:93 570:162 571:162 572:162 573:245 574:253 575:253 576:228 577:162 578:162 579:125 580:8 581:8 582:2 592:109 593:223 594:253 595:253 596:253 597:253 598:253 599:253 600:253 601:253 602:253 603:253 604:253 605:253 606:253 607:253 608:253 609:253 610:45 620:255 621:253 622:253 623:253 624:253 625:253 626:253 627:253 628:253 629:253 630:253 631:253 632:205 633:199 634:199 635:199 636:101 637:45 638:8 648:100 649:99 650:99 651:99 652:99 653:99 654:99 655:99 656:179 657:253 658:145 659:99 660:12 #
9.9999999999999995e-008 96:2 97:55 98:255 99:133 100:5 124:44 125:253 126:253 127:253 128:222 129:30 152:19 153:208 154:253 155:253 156:253 157:55 179:4 180:25 181:181 182:253 183:253 184:253 185:116 202:20 203:149 204:14 206:20 207:125 208:253 209:253 210:253 211:253 212:253 213:55 230:130 231:253 232:201 233:101 234:218 235:253 236:253 237:253 238:253 239:253 240:253 241:55 258:130 259:253 260:253 261:253 262:253 263:253 264:253 265:253 266:253 267:253 268:253 269:55 286:215 287:253 288:253 289:253 290:253 291:253 292:253 293:253 294:253 295:253 296:253 297:140 314:227 315:253 316:253 317:253 318:253 319:253 320:253 321:253 322:253 323:253 324:253 325:151 342:130 343:253 344:249 345:228 346:215 347:113 348:68 349:195 350:253 351:253 352:253 353:86 370:35 371:185 372:210 373:65 374:24 377:67 378:233 379:253 380:253 381:235 382:71 400:143 401:202 406:180 407:253 408:253 409:253 410:172 427:11 428:192 429:228 434:140 435:253 436:253 437:253 438:198 439:14 455:3 456:22 457:39 462:10 463:155 464:253 465:253 466:253 467:145 491:63 492:253 493:253 494:253 495:166 519:38 520:229 521:253 522:253 523:166 524:86 525:12 541:11 542:93 544:19 545:106 546:194 547:230 548:248 549:253 550:253 551:245 552:250 553:184 554:218 555:175 556:106 557:3 569:80 570:251 571:236 572:239 573:253 574:253 575:253 576:253 577:253 578:253 579:253 580:253 581:253 582:253 583:253 584:253 585:60 597:149 598:253 599:253 600:253 601:253 602:253 603:253 604:253 605:253 606:253 607:253 608:253 609:253 610:253 611:253 612:253 613:248 625:16 626:129 627:129 628:129 629:129 630:129 631:129 632:129 633:129 634:129 635:129 636:129 637:129 638:129 639:129 640:129 641:129 #
9.9999999999999995e-008 131:85 132:181 133:58 157:77 158:199 159:252 160:254 161:245 175:151 176:155 183:21 184:132 185:250 186:254 187:254 188:254 189:190 202:44 203:240 204:109 209:79 210:132 211:239 212:254 213:254 214:254 215:254 216:249 217:69 230:106 231:254 232:185 233:99 234:99 235:99 236:200 237:248 238:254 239:254 240:188 241:72 242:167 243:254 244:241 258:68 259:245 260:254 261:254 262:254 263:254 264:254 265:254 266:236 267:139 268:11 269:12 270:192 271:254 272:194 287:35 288:153 289:198 290:228 291:169 292:135 293:39 294:31 297:33 298:254 299:238 300:17 317:15 318:31 325:141 326:254 327:127 352:69 353:236 354:247 355:75 380:170 381:254 382:194 407:11 408:190 409:247 410:75 435:140 436:254 437:222 462:10 463:191 464:254 465:130 490:53 491:254 492:248 493:77 518:137 519:254 520:215 545:51 546:227 547:254 548:151 549:27 550:27 551:27 552:25 564:10 565:20 566:20 567:71 568:151 569:151 570:151 571:151 572:151 573:228 574:254 575:254 576:254 577:254 578:255 579:254 580:241 592:192 593:254 594:254 595:254 596:254 597:254 598:254 599:254 600:254 601:254 602:254 603:254 604:252 605:241 606:241 607:163 608:105 620:243 621:248 622:248 623:248 624:248 625:248 626:248 627:248 628:250 629:254 630:226 631:117 632:99 656:32 657:221 658:134 #
9.9999999999999995e-008 154:32 155:202 156:255 157:253 158:253 159:253 160:253 161:255 162:253 163:164 181:21 182:190 183:251 184:253 185:251 186:251 187:251 188:251 189:253 190:168 191:15 209:63 210:251 211:251 212:253 213:251 214:251 215:251 216:251 217:253 218:107 236:63 237:231 238:251 239:251 240:253 241:251 242:251 243:251 244:251 245:221 246:61 264:144 265:251 266:251 267:251 268:253 269:251 270:251 271:251 272:122 273:51 291:73 292:253 293:253 294:253 295:253 296:255 297:253 298:253 299:253 300:72 319:73 320:251 321:251 322:251 323:251 324:253 325:251 326:251 327:251 328:71 347:99 348:251 349:251 350:251 351:251 352:253 353:251 354:251 355:235 356:61 375:253 376:251 377:251 378:251 379:251 380:253 381:251 382:251 383:142 403:253 404:251 405:251 406:251 407:251 408:253 409:251 410:251 411:142 430:182 431:255 432:253 433:253 434:253 435:253 436:255 437:253 438:242 439:103 457:63 458:221 459:253 460:251 461:251 462:251 463:251 464:253 465:251 466:112 484:6 485:129 486:251 487:253 488:251 489:251 490:251 491:251 492:253 493:251 494:35 512:37 513:251 514:251 515:253 516:251 517:251 518:251 519:251 520:253 521:251 522:35 540:166 541:251 542:251 543:253 544:251 545:251 546:251 547:251 548:253 549:147 550:10 567:145 568:253 569:253 570:253 571:255 572:253 573:253 574:253 575:253 576:234 577:77 595:144 596:251 597:251 598:251 599:253 600:251 601:251 602:251 603:251 604:180 623:124 624:246 625:251 626:251 627:253 628:251 629:251 630:251 631:251 632:180 652:138 653:251 654:251 655:253 656:251 657:251 658:251 659:251 660:103 680:11 681:148 682:251 683:253 684:251 685:251 686:251 687:122 #
9.9999999999999995e-008 130:63 131:176 132:90 157:10 158:178 159:253 160:243 161:50 185:60 186:252 187:253 188:252 189:133 207:7 208:26 212:7 213:178 214:252 215:253 216:195 217:19 234:48 235:165 236:239 237:63 240:135 241:252 242:252 243:253 244:167 261:114 262:159 263:253 264:225 266:51 267:159 268:253 269:253 270:253 271:255 272:106 289:253 290:252 291:252 292:233 293:163 294:238 295:252 296:252 297:252 298:252 299:106 300:3 317:253 318:252 319:252 320:252 321:252 322:253 323:252 324:252 325:252 326:252 345:146 346:233 347:252 348:233 349:223 350:162 351:84 352:215 353:252 354:252 374:38 375:112 376:37 379:48 380:227 381:252 382:173 407:85 408:253 409:253 410:112 435:85 436:252 437:226 438:12 463:194 464:252 465:114 491:225 492:252 493:84 519:225 520:220 521:37 546:51 547:238 548:196 565:29 566:85 567:85 568:85 569:85 570:85 571:85 572:85 573:85 574:159 575:252 576:246 577:225 578:225 579:226 580:72 593:85 594:252 595:252 596:252 597:253 598:252 599:252 600:252 601:252 602:253 603:252 604:252 605:252 606:252 607:196 608:130 621:76 622:223 623:242 624:252 625:253 626:252 627:252 628:252 629:252 630:253 631:242 632:223 633:129 634:84 651:75 652:112 653:112 654:112 655:142 656:236 657:112 658:112 659:74 #
-9.9999999999999995e-008 153:57 154:252 155:248 181:157 182:254 183:252 184:112 209:157 210:254 211:254 212:197 213:108 214:59 236:52 237:233 238:254 239:254 240:254 241:254 242:229 243:38 264:146 265:254 266:254 267:254 268:254 269:254 270:254 271:49 292:231 293:254 294:254 295:254 296:254 297:254 298:254 299:49 319:78 320:244 321:254 322:254 323:254 324:254 325:254 326:254 327:49 347:140 348:254 349:254 350:254 351:254 352:254 353:254 354:254 355:49 375:140 376:254 377:254 378:203 379:103 380:254 381:254 382:254 383:49 403:140 404:254 405:254 406:11 407:9 408:254 409:254 410:254 411:49 431:140 432:254 433:147 434:3 435:122 436:254 437:254 438:175 439:16 459:140 460:254 461:98 463:173 464:254 465:254 466:139 486:38 487:226 488:254 489:98 491:173 492:254 493:252 494:126 514:50 515:254 516:254 517:98 519:173 520:254 521:230 542:50 543:254 544:254 545:98 546:68 547:239 548:254 549:96 570:50 571:254 572:254 573:179 574:172 575:254 576:254 577:65 598:39 599:229 600:254 601:254 602:254 603:254 604:254 605:65 627:140 628:254 629:254 630:254 631:254 632:196 633:27 655:100 656:248 657:254 658:254 659:198 660:10 684:125 685:254 686:201 687:29 #
-9.9999999999999995e-008 128:255 129:191 130:128 155:64 156:255 157:255 158:255 159:128 160:64 184:255 185:255 186:255 187:255 188:191 212:128 213:255 214:255 215:255 216:255 217:128 239:64 240:255 241:255 242:191 243:255 244:255 245:128 266:64 267:255 268:255 269:255 271:255 272:255 273:128 293:191 294:255 295:255 296:255 297:255 298:191 299:255 300:255 301:64 320:128 321:255 322:255 323:255 324:255 325:255 326:255 327:255 328:191 347:128 348:255 349:255 350:255 351:255 352:255 353:255 354:255 355:255 356:128 375:191 376:255 377:255 378:255 379:255 380:255 381:255 382:255 383:191 402:191 403:255 404:255 405:255 406:255 407:255 408:255 409:255 410:255 430:255 431:255 432:255 433:255 434:255 435:255 436:255 437:255 438:191 457:128 458:255 459:255 460:255 461:255 462:255 463:255 464:255 465:191 484:64 485:255 486:255 487:255 488:255 489:255 490:255 491:255 492:255 493:64 512:128 513:255 514:255 515:255 516:255 517:255 518:255 519:255 540:128 541:255 542:255 543:255 544:255 545:255 546:255 547:255 568:128 569:255 570:255 571:255 572:255 573:255 574:255 575:64 596:64 597:255 598:255 599:255 600:255 601:255 602:128 625:128 626:255 627:255 628:255 629:64 654:191 655:255 656:64 #
-9.9999999999999995e-008 153:53 154:125 155:253 156:98 157:42 179:21 180:144 181:221 182:253 183:251 184:251 185:205 186:41 205:37 206:37 207:197 208:251 209:251 210:253 211:251 212:251 213:251 214:226 215:27 232:79 233:253 234:251 235:251 236:251 237:251 238:253 239:251 240:251 241:251 242:251 243:180 259:79 260:231 261:253 262:251 263:251 264:251 265:251 266:253 267:251 268:251 269:251 270:251 271:180 287:110 288:253 289:255 290:253 291:253 292:253 293:253 294:255 295:253 296:253 297:253 298:253 299:182 315:109 316:251 317:253 318:251 319:251 320:251 321:251 322:211 323:189 324:251 325:251 326:251 327:180 343:15 344:190 345:253 346:251 347:251 348:251 349:251 350:180 351:144 352:251 353:251 354:251 355:180 372:103 373:253 374:251 375:251 376:251 377:251 378:103 379:144 380:251 381:251 382:251 383:180 401:253 402:251 403:251 404:251 405:251 407:144 408:251 409:251 410:251 411:180 429:202 430:253 431:253 432:253 433:253 434:53 435:105 436:243 437:253 438:253 439:202 440:31 457:73 458:251 459:251 460:251 461:251 462:222 463:62 464:217 465:251 466:251 467:253 468:107 485:62 486:236 487:251 488:251 489:251 490:253 491:231 492:246 493:251 494:251 495:253 496:107 514:144 515:251 516:251 517:251 518:253 519:251 520:251 521:251 522:251 523:253 524:107 542:41 543:226 544:251 545:251 546:253 547:251 548:251 549:251 550:251 551:253 552:107 571:166 572:253 573:253 574:255 575:253 576:253 577:253 578:253 579:255 580:108 599:37 600:251 601:251 602:253 603:251 604:251 605:251 606:251 607:253 608:107 627:37 628:251 629:251 630:253 631:251 632:251 633:251 634:251 635:164 636:15 655:21 656:189 657:251 658:253 659:251 660:251 661:251 662:173 684:31 685:200 686:253 687:251 688:251 689:251 690:71 #
-9.9999999999999995e-008 127:27 128:120 129:255 130:254 131:45 155:184 156:253 157:253 158:253 159:217 160:31 182:55 183:252 184:253 185:253 186:253 187:253 188:83 209:18 210:192 211:253 212:253 213:253 214:253 215:253 216:83 236:5 237:238 238:253 239:253 240:253 241:253 242:253 243:253 244:170 245:19 264:2 265:114 266:253 267:253 268:253 269:253 270:253 271:253 272:134 273:11 292:3 293:189 294:253 295:253 296:211 297:247 298:253 299:244 300:44 320:74 321:253 322:253 323:243 324:134 325:253 326:253 327:207 347:27 348:214 349:253 350:253 351:125 352:175 353:253 354:253 355:85 374:4 375:144 376:253 377:253 378:253 379:155 380:230 381:253 382:253 383:25 402:99 403:253 404:253 405:253 406:213 407:253 408:253 409:253 410:191 411:6 429:59 430:239 431:253 432:250 433:87 434:19 435:250 436:253 437:248 438:105 457:176 458:253 459:253 460:212 462:135 463:253 464:253 465:186 484:38 485:249 486:253 487:246 488:85 490:202 491:253 492:243 493:62 512:204 513:253 514:253 515:191 516:2 517:100 518:239 519:253 520:133 539:50 540:243 541:253 542:253 543:136 544:212 545:253 546:253 547:165 548:7 566:25 567:232 568:253 569:253 570:253 571:253 572:253 573:253 574:199 575:37 594:84 595:253 596:253 597:253 598:253 599:253 600:251 601:119 602:8 622:140 623:253 624:253 625:253 626:226 627:171 628:91 650:56 651:253 652:253 653:224 654:80 #
-9.9999999999999995e-008 149:93 150:254 151:113 152:131 153:166 154:63 176:98 177:240 178:253 179:253 180:253 181:253 182:174 183:11 203:8 204:226 205:253 206:253 207:253 208:253 209:253 210:254 211:56 212:6 231:64 232:240 233:182 234:253 235:253 236:253 237:253 238:254 239:253 240:89 260:70 261:56 262:148 263:253 264:253 265:253 266:254 267:253 268:234 269:119 290:134 291:253 292:253 293:253 294:254 295:253 296:253 297:218 298:127 317:16 318:198 319:253 320:253 321:253 322:254 323:253 324:253 325:253 326:178 345:172 346:253 347:253 348:253 349:253 350:254 351:253 352:253 353:253 354:249 355:70 373:179 374:253 375:253 376:253 377:138 378:139 379:253 380:253 381:253 382:253 383:162 401:179 402:253 403:253 404:253 405:192 406:43 407:227 408:253 409:253 410:253 411:162 429:181 430:254 431:254 432:254 433:254 435:149 436:254 437:254 438:254 439:224 457:179 458:253 459:253 460:242 461:105 463:60 464:253 465:253 466:253 467:230 468:29 485:171 486:253 487:253 488:211 489:15 490:104 491:160 492:253 493:253 494:253 495:251 496:112 513:30 514:253 515:253 516:253 517:253 518:254 519:225 520:211 521:253 522:253 523:223 541:4 542:148 543:253 544:253 545:253 546:254 547:246 548:243 549:253 550:253 551:223 570:134 571:253 572:253 573:253 574:254 575:253 576:253 577:253 578:253 579:117 598:64 599:166 600:253 601:253 602:254 603:253 604:253 605:253 606:213 607:35 627:59 628:232 629:253 630:255 631:253 632:253 633:253 634:37 656:168 657:226 658:254 659:253 660:224 661:208 662:24 684:19 685:43 686:166 687:217 688:37 #
9.9999999999999995e-008 128:67 129:244 130:56 155:64 156:244 157:171 158:7 182:26 183:239 184:227 185:37 209:17 210:196 211:254 212:160 237:75 238:254 239:254 240:7 264:7 265:193 266:254 267:169 292:85 293:254 294:234 295:20 301:70 302:86 303:67 319:5 320:192 321:254 322:114 327:17 328:197 329:252 330:254 331:197 347:65 348:254 349:226 350:20 355:76 356:254 357:241 358:225 359:106 375:114 376:254 377:197 383:48 384:107 385:37 402:30 403:237 404:255 405:79 430:131 431:254 432:178 433:1 457:3 458:180 459:254 460:130 485:138 486:254 487:213 488:25 513:170 514:254 515:124 540:15 541:238 542:250 543:43 551:34 552:16 568:135 569:254 570:140 579:76 580:143 596:198 597:254 598:92 607:76 608:252 609:101 624:198 625:254 626:18 635:76 636:254 637:130 652:94 653:225 654:12 663:76 664:236 665:30 #
9.9999999999999995e-008 156:64 157:154 158:103 159:1 184:196 185:254 186:254 187:5 211:78 212:240 213:254 214:254 215:5 237:9 238:109 239:241 240:254 241:254 242:215 243:4 265:74 266:254 267:254 268:254 269:214 270:27 292:9 293:197 294:254 295:254 296:254 297:102 319:11 320:245 321:254 322:254 323:254 324:144 325:18 346:15 347:187 348:254 349:254 350:254 351:197 352:22 373:17 374:128 375:254 376:254 377:254 378:225 379:23 401:163 402:254 403:254 404:254 405:211 406:93 427:14 428:121 429:244 430:254 431:254 432:252 433:71 455:36 456:254 457:254 458:254 459:254 460:88 471:77 472:185 473:61 482:15 483:204 484:254 485:254 486:254 487:144 488:1 499:84 500:254 501:252 510:137 511:254 512:254 513:254 514:202 515:12 527:84 528:254 529:255 538:192 539:254 540:254 541:241 542:79 555:84 556:254 557:254 566:137 567:254 568:254 569:216 570:22 583:84 584:254 585:168 594:37 595:222 596:254 597:89 611:84 612:221 613:36 623:21 624:35 625:9 639:12 640:21 #
9.9999999999999995e-008 152:63 153:253 154:78 180:63 181:254 182:202 208:121 209:254 210:202 236:167 237:254 238:202 242:164 243:58 263:2 264:176 265:254 266:192 270:240 271:248 272:88 291:46 292:254 293:254 294:99 298:180 299:254 300:234 319:121 320:254 321:250 322:12 326:17 327:221 328:234 347:121 348:254 349:249 355:182 356:234 375:165 376:254 377:204 382:27 383:243 384:234 402:15 403:230 404:254 405:145 410:53 411:254 412:234 430:74 431:254 432:254 433:105 438:176 439:254 440:234 458:175 459:254 460:219 461:18 466:240 467:254 468:72 486:177 487:254 488:192 494:240 495:159 496:7 513:4 514:187 515:254 516:179 522:210 523:5 541:27 542:254 543:254 544:88 550:102 569:128 570:255 571:247 572:45 597:235 598:254 599:211 625:235 626:254 627:134 653:235 654:254 655:134 681:107 682:255 683:134 #
9.9999999999999995e-008 155:6 156:122 157:171 158:19 177:74 178:191 179:50 183:131 184:254 185:254 186:75 205:37 206:248 207:227 208:121 209:121 210:212 211:248 212:254 213:250 214:62 234:85 235:219 236:254 237:254 238:238 239:205 240:254 241:142 263:6 264:9 265:9 266:8 267:204 268:254 269:59 294:48 295:247 296:146 297:4 322:175 323:250 324:56 349:16 350:244 351:167 376:2 377:128 378:254 379:48 404:20 405:254 406:222 407:16 432:126 433:254 434:65 459:43 460:246 461:217 462:8 464:7 465:10 466:10 467:10 468:61 469:107 470:107 471:107 472:103 487:144 488:254 489:194 490:169 491:169 492:227 493:254 494:254 495:254 496:254 497:254 498:208 499:182 500:77 511:29 512:133 513:144 514:231 515:254 516:254 517:254 518:254 519:254 520:228 521:216 522:139 523:120 524:106 525:24 526:9 537:66 538:185 539:240 540:254 541:252 542:250 543:193 544:153 545:123 546:57 547:57 548:19 565:188 566:187 567:152 568:91 569:48 #
9.9999999999999995e-008 128:102 129:212 133:121 155:24 156:244 157:211 161:193 183:145 184:254 185:140 189:193 210:30 211:236 212:237 213:16 217:3 238:130 239:254 240:177 266:177 267:254 268:109 293:100 294:254 295:246 296:34 321:178 322:254 323:160 348:45 349:232 350:254 351:77 357:63 376:207 377:254 378:227 379:21 385:193 403:86 404:247 405:254 406:123 413:193 431:215 432:254 433:230 434:10 441:193 458:98 459:254 460:254 461:84 469:193 485:11 486:213 487:254 488:195 489:16 497:193 513:89 514:254 515:239 516:31 525:193 540:9 541:214 542:255 543:187 553:55 568:60 569:254 570:254 571:31 596:180 597:254 598:199 599:4 624:251 625:242 626:46 652:214 653:194 #
-9.9999999999999995e-008 179:10 180:17 181:17 182:17 183:11 203:4 204:38 205:123 206:188 207:226 208:253 209:253 210:254 211:228 212:154 213:43 214:5 230:12 231:132 232:253 233:253 234:253 235:253 236:232 237:221 238:243 239:253 240:253 241:253 242:154 243:16 258:105 259:253 260:253 261:245 262:193 263:110 264:18 265:2 266:185 267:253 268:253 269:253 270:253 271:169 272:19 285:73 286:243 287:253 288:229 289:85 293:69 294:254 295:253 296:253 297:231 298:228 299:253 300:212 301:29 312:26 313:244 314:253 315:216 316:33 321:82 322:254 323:253 324:168 325:18 326:16 327:154 328:253 329:186 330:9 340:212 341:253 342:239 343:32 349:109 350:254 351:190 352:7 355:5 356:176 357:253 358:112 368:254 369:253 370:128 377:82 378:254 379:105 384:46 385:246 386:248 387:31 396:254 397:237 398:2 405:29 406:227 407:152 413:149 414:253 415:90 424:255 425:182 434:59 435:193 436:103 441:66 442:254 443:145 452:254 453:154 463:29 464:66 469:71 470:253 471:203 480:219 481:215 497:147 498:253 499:253 508:72 509:249 510:72 524:37 525:222 526:253 527:179 536:5 537:204 538:240 539:81 551:38 552:221 553:253 554:253 555:50 565:21 566:203 567:248 568:173 569:116 570:50 571:50 572:4 573:32 576:37 577:113 578:170 579:233 580:253 581:224 582:129 583:2 594:14 595:107 596:223 597:253 598:253 599:253 600:223 601:242 602:222 603:221 604:245 605:253 606:253 607:223 608:150 609:48 624:12 625:24 626:96 627:127 628:187 629:187 630:188 631:182 632:132 633:106 634:66 635:12 #
-9.9999999999999995e-008 129:19 130:117 131:128 156:19 157:225 158:252 159:139 184:117 185:252 186:252 187:139 211:51 212:241 213:252 214:252 215:139 238:10 239:179 240:255 241:253 242:253 243:28 266:160 267:252 268:209 269:196 270:252 271:28 293:45 294:240 295:252 296:134 297:234 298:186 299:6 320:13 321:194 322:252 323:151 324:41 325:252 326:68 347:13 348:154 349:247 350:134 351:140 352:92 353:253 354:56 375:113 376:247 377:103 378:28 379:47 380:166 381:214 382:19 402:29 403:210 404:187 407:89 408:253 409:109 430:185 431:252 432:63 435:163 436:228 437:9 457:70 458:253 459:140 462:60 463:241 464:151 484:19 485:225 486:252 487:65 490:197 491:227 512:29 513:252 514:186 515:6 517:82 518:240 519:139 540:128 541:252 542:68 544:26 545:243 546:214 547:28 568:154 569:253 570:56 571:63 572:204 573:253 574:56 596:253 597:252 598:187 599:206 600:247 601:121 602:19 624:165 625:252 626:252 627:252 628:100 652:41 653:252 654:214 655:90 #
-9.9999999999999995e-008 130:2 131:78 132:64 133:43 134:1 158:106 159:254 160:254 161:254 162:48 184:8 185:121 186:241 187:254 188:195 189:209 190:139 191:1 211:13 212:173 213:226 214:168 215:57 216:26 217:34 218:231 219:45 238:71 239:198 240:143 241:27 246:156 247:90 264:15 265:129 266:227 267:112 274:73 275:130 291:15 292:168 293:235 294:85 302:110 303:216 318:34 319:202 320:211 321:46 330:177 331:158 345:15 346:168 347:139 348:17 357:41 358:248 359:40 372:27 373:208 374:119 375:1 385:145 386:179 387:3 399:26 400:184 401:119 411:5 412:73 413:194 414:37 426:50 427:212 428:120 439:190 440:199 441:39 453:13 454:214 455:120 465:12 466:131 467:172 468:30 480:2 481:128 482:192 491:38 492:76 493:204 494:174 495:28 508:9 509:246 510:50 518:55 519:147 520:168 521:165 522:10 536:136 537:195 543:13 544:76 545:182 546:241 547:187 548:58 564:255 565:155 570:32 571:135 572:254 573:235 574:113 575:10 592:212 593:207 594:66 595:66 596:80 597:190 598:243 599:194 600:114 601:17 620:40 621:254 622:254 623:254 624:242 625:164 626:80 627:2 648:1 649:8 650:8 651:8 652:7 #
-4.6204558309973355e-008 152:8 153:36 154:96 155:35 178:12 179:52 180:222 181:253 182:253 183:225 184:38 185:16 186:77 187:161 188:136 189:42 190:6 205:95 206:199 207:253 208:253 209:253 210:253 211:254 212:232 213:230 214:253 215:253 216:254 217:238 218:200 219:31 232:76 233:251 234:254 235:253 236:241 237:205 238:253 239:254 240:253 241:253 242:253 243:253 244:254 245:253 246:253 247:180 259:55 260:237 261:253 262:249 263:129 264:13 265:89 266:253 267:254 268:243 269:134 270:95 271:95 272:70 273:95 274:199 275:249 276:40 286:2 287:210 288:254 289:249 290:50 293:198 294:249 295:154 296:45 303:213 304:179 314:77 315:253 316:245 317:53 321:214 322:128 331:36 332:246 342:190 343:253 344:86 349:95 360:238 369:34 370:245 371:206 372:14 377:10 388:238 397:170 398:253 399:52 415:40 416:247 425:225 426:162 443:69 444:254 453:199 454:63 471:177 472:228 481:226 482:12 498:69 499:247 500:148 509:238 524:4 525:158 526:247 527:237 528:22 537:163 551:25 552:215 553:253 554:238 555:31 565:175 566:98 577:8 578:61 579:145 580:255 581:254 582:72 593:81 594:245 595:150 596:42 597:32 599:24 600:26 601:28 602:57 603:112 604:146 605:222 606:253 607:253 608:202 609:83 610:12 621:3 622:172 623:253 624:253 625:253 626:207 627:241 628:244 629:247 630:253 631:254 632:253 633:229 634:185 635:77 636:15 650:4 651:111 652:189 653:249 654:254 655:253 656:253 657:253 658:213 659:135 660:101 661:16 681:15 682:95 683:60 684:40 685:16 686:6 #
-9.9999999999999995e-008 129:8 130:196 131:242 132:48 157:129 158:254 159:254 160:89 184:145 185:247 186:254 187:254 188:89 211:22 212:225 213:254 214:221 215:255 216:89 238:21 239:195 240:254 241:215 242:134 243:244 244:58 266:60 267:254 268:214 269:27 270:131 271:175 293:24 294:211 295:253 296:45 298:189 299:104 320:3 321:169 322:254 323:166 325:64 326:240 347:1 348:118 349:254 350:217 351:22 353:114 354:243 375:6 376:254 377:254 378:112 381:114 382:243 403:43 404:254 405:186 406:18 409:205 410:151 430:41 431:229 432:254 433:95 436:125 437:251 438:80 458:108 459:254 460:180 461:9 464:214 465:151 466:1 485:5 486:225 487:251 488:55 491:137 492:254 493:136 513:90 514:254 515:235 518:35 519:230 520:243 521:20 541:167 542:254 543:108 546:82 547:254 548:82 569:208 570:254 571:11 573:61 574:233 575:254 576:41 597:208 598:254 599:149 600:202 601:235 602:235 603:135 604:9 625:161 626:254 627:254 628:254 629:254 630:148 653:6 654:172 655:252 656:135 657:61 658:5 #
-9.9999999999999995e-008 155:51 156:159 157:253 158:253 159:253 160:255 161:90 181:10 182:163 183:238 184:252 185:252 186:252 187:252 188:253 189:243 190:50 208:13 209:156 210:252 211:253 212:252 213:252 214:214 215:195 216:253 217:252 218:55 235:73 236:187 237:252 238:252 239:253 240:252 241:245 242:74 244:237 245:252 246:149 261:79 262:141 263:240 264:252 265:252 266:252 267:253 268:252 269:118 272:113 273:252 274:195 288:92 289:253 290:255 291:253 292:165 293:75 294:253 295:255 296:215 297:31 300:114 301:253 302:196 315:51 316:243 317:252 318:215 319:42 320:25 321:181 322:252 323:253 324:121 328:113 329:252 330:195 343:88 344:252 345:220 346:31 348:57 349:252 350:252 351:228 352:21 356:88 357:246 358:195 371:197 372:217 373:37 375:10 376:156 377:252 378:252 379:126 384:76 385:243 386:195 399:165 400:37 403:163 404:252 405:252 406:173 412:113 413:252 414:195 431:226 432:253 433:240 434:63 440:176 441:253 442:56 458:147 459:249 460:252 461:176 467:48 468:253 469:129 470:6 485:111 486:253 487:252 488:208 489:19 494:23 495:227 496:253 497:27 512:4 513:153 514:253 515:252 516:102 521:38 522:178 523:252 524:178 525:9 540:107 541:252 542:253 543:204 544:25 549:135 550:252 551:173 552:63 567:26 568:207 569:253 570:255 571:27 575:51 576:238 577:253 578:240 579:63 595:57 596:252 597:252 598:215 599:18 600:19 601:85 602:163 603:238 604:252 605:201 606:24 623:57 624:252 625:252 626:166 627:104 628:209 629:252 630:252 631:253 632:201 633:74 651:51 652:242 653:252 654:253 655:252 656:252 657:249 658:145 659:84 660:9 680:91 681:252 682:253 683:252 684:141 685:99 #
9.9999999999999995e-008 68:15 69:245 70:59 96:126 97:254 98:219 99:11 124:150 125:254 126:254 127:102 151:114 152:252 153:254 154:254 155:162 177:26 178:131 179:249 180:254 181:254 182:254 183:119 202:8 203:179 204:226 205:234 206:254 207:254 208:254 209:254 210:254 211:195 230:18 231:254 232:254 233:254 234:254 235:254 236:254 237:254 238:254 239:195 258:18 259:254 260:254 261:254 262:254 263:254 264:243 265:254 266:254 267:195 286:15 287:238 288:254 289:254 290:220 291:163 292:51 293:184 294:254 295:233 296:37 315:119 316:139 317:107 318:14 321:60 322:254 323:255 324:87 349:17 350:226 351:254 352:177 378:46 379:226 380:242 381:169 382:9 407:126 408:254 409:254 410:76 435:2 436:192 437:254 438:252 439:72 456:21 457:119 458:108 459:30 460:30 461:28 464:92 465:254 466:254 467:250 468:62 483:7 484:188 485:254 486:254 487:254 488:254 489:246 490:166 491:166 492:234 493:254 494:254 495:254 496:203 497:166 498:81 499:33 511:27 512:233 513:254 514:254 515:254 516:254 517:254 518:254 519:254 520:254 521:254 522:254 523:254 524:254 525:254 526:254 527:232 528:112 540:172 541:254 542:254 543:254 544:254 545:254 546:254 547:254 548:254 549:254 550:254 551:254 552:254 553:254 554:254 555:254 556:153 568:24 569:152 570:172 571:243 572:254 573:254 574:254 575:254 576:254 577:254 578:254 579:254 580:254 581:254 582:254 583:221 584:93 597:5 598:4 599:15 600:20 601:135 602:135 603:135 604:172 605:154 606:135 607:135 608:205 609:254 610:168 611:36 #
9.9999999999999995e-008 125:191 126:255 127:255 128:255 129:191 130:64 152:64 153:255 154:255 155:255 156:255 157:255 158:128 180:128 181:255 182:255 183:255 184:255 185:255 186:255 208:255 209:255 210:255 211:255 212:255 213:255 214:255 236:255 237:255 238:255 239:255 240:255 241:255 242:255 263:128 264:255 265:255 266:255 267:255 268:255 269:255 270:255 291:128 292:255 293:255 294:255 295:255 296:255 297:255 298:255 319:128 320:255 321:255 322:255 323:255 324:255 325:255 326:255 347:128 348:255 349:255 350:255 351:255 352:255 353:255 354:255 374:64 375:255 376:255 377:255 378:255 379:255 380:255 381:255 382:255 402:191 403:255 404:255 405:255 406:255 407:255 408:255 409:255 410:191 430:255 431:255 432:255 433:255 434:255 435:255 436:255 437:255 438:128 457:128 458:255 459:255 460:255 461:255 462:255 463:255 464:255 465:191 485:191 486:255 487:255 488:255 489:255 490:255 491:255 492:255 493:128 513:255 514:255 515:255 516:255 517:255 518:255 519:255 520:255 521:128 541:255 542:255 543:255 544:255 545:255 546:255 547:255 548:255 549:128 569:255 570:255 571:255 572:255 573:255 574:255 575:255 576:255 577:128 597:64 598:255 599:255 600:255 601:255 602:255 603:255 604:255 605:64 626:191 627:255 628:255 629:255 630:255 631:255 632:64 655:128 656:191 657:255 658:255 659:64 #
9.9999999999999995e-008 98:18 99:210 100:253 101:83 126:141 127:253 128:252 129:126 153:68 154:249 155:253 156:252 157:126 180:41 181:225 182:252 183:227 184:252 185:126 208:171 209:252 210:208 211:148 212:252 213:126 235:146 236:253 237:216 238:18 239:166 240:253 241:214 262:68 263:237 264:245 265:82 267:253 268:252 269:126 289:9 290:245 291:252 292:126 295:253 296:252 297:126 317:132 318:253 319:169 320:7 323:253 324:252 325:126 344:54 345:246 346:236 347:37 351:253 352:252 353:126 371:4 372:183 373:253 374:45 379:255 380:253 381:127 399:22 400:252 401:173 407:253 408:252 409:126 427:11 428:170 429:29 434:9 435:253 436:252 437:126 462:106 463:253 464:252 465:126 490:106 491:253 492:252 493:82 519:255 520:253 521:127 547:253 548:252 549:126 569:194 570:233 571:153 572:119 573:22 574:22 575:253 576:252 577:180 578:22 579:110 580:66 581:15 597:185 598:253 599:252 600:252 601:252 602:252 603:253 604:252 605:252 606:252 607:252 608:253 609:168 625:18 626:104 627:147 628:200 629:252 630:164 631:147 632:147 633:147 634:147 635:59 636:42 637:28 #
9.9999999999999995e-008 126:79 127:191 128:255 129:211 130:31 153:105 154:242 155:252 156:253 157:231 158:51 180:79 181:242 182:252 183:252 184:253 185:179 208:109 209:252 210:252 211:252 212:253 213:179 236:171 237:252 238:252 239:252 240:253 241:179 264:253 265:252 266:252 267:252 268:253 269:179 290:6 291:120 292:253 293:252 294:252 295:252 296:253 297:179 318:120 319:252 320:253 321:252 322:252 323:252 324:253 325:179 345:135 346:253 347:253 348:255 349:191 350:253 351:253 352:255 353:35 373:217 374:252 375:252 376:159 377:78 378:252 379:252 380:159 381:5 400:16 401:222 402:252 403:252 404:125 405:73 406:252 407:252 408:144 428:109 429:252 430:252 431:168 433:73 434:252 435:252 436:144 456:110 457:253 458:253 459:108 461:135 462:253 463:253 464:145 484:109 485:252 486:220 487:15 489:217 490:252 491:252 492:20 512:109 513:200 514:61 516:79 517:242 518:252 519:252 540:47 541:159 544:109 545:252 546:252 547:252 572:110 573:253 574:253 575:253 576:110 577:150 578:149 579:47 598:32 599:217 600:233 601:252 602:252 603:252 604:253 605:252 606:252 607:108 626:37 627:252 628:253 629:252 630:252 631:252 632:217 633:215 634:195 635:31 654:16 655:108 656:170 657:252 658:148 659:108 #
-9.9999999999999995e-008 125:89 126:255 127:254 128:151 129:8 153:88 154:253 155:253 156:253 157:134 181:88 182:253 183:253 184:253 185:200 209:88 210:253 211:253 212:253 213:200 237:88 238:253 239:253 240:253 241:200 264:5 265:168 266:253 267:253 268:253 269:200 291:11 292:156 293:253 294:253 295:253 296:253 297:205 298:13 319:106 320:253 321:253 322:253 323:253 324:253 325:253 326:122 346:1 347:111 348:253 349:250 350:244 351:252 352:253 353:214 354:33 374:88 375:253 376:253 377:165 379:246 380:253 381:200 402:202 403:253 404:253 405:165 407:246 408:253 409:235 410:81 429:120 430:251 431:253 432:250 433:120 435:246 436:253 437:201 438:4 457:124 458:253 459:253 460:244 463:246 464:253 465:200 485:12 486:207 487:253 488:250 489:115 490:150 491:252 492:253 493:248 494:110 514:202 515:253 516:244 518:167 519:253 520:253 521:225 522:59 542:202 543:253 544:245 545:36 546:179 547:253 548:253 549:54 570:202 571:253 572:253 573:253 574:253 575:253 576:185 577:14 598:202 599:253 600:253 601:253 602:253 603:253 604:104 626:202 627:253 628:253 629:253 630:253 631:226 632:65 654:62 655:78 656:205 657:253 658:137 659:56 #
9.9999999999999995e-008 154:13 155:165 156:166 157:29 181:14 182:193 183:254 184:254 185:243 186:39 209:98 210:254 211:254 212:229 213:254 214:115 236:53 237:236 238:254 239:145 240:120 241:254 242:176 263:31 264:235 265:254 266:144 267:4 268:139 269:254 270:95 290:14 291:188 292:254 293:194 294:4 295:21 296:233 297:239 298:26 318:57 319:254 320:228 321:26 323:35 324:254 325:228 346:45 347:155 348:36 351:129 352:254 353:152 379:208 380:254 381:68 406:34 407:247 408:239 409:28 434:40 435:254 436:224 462:122 463:254 464:183 489:6 490:217 491:239 492:46 517:44 518:254 519:220 545:110 546:254 547:212 573:136 574:254 575:141 576:4 600:3 601:218 602:254 603:254 604:115 625:8 626:87 627:172 628:195 629:254 630:254 631:253 632:104 653:234 654:254 655:255 656:251 657:235 658:163 659:113 681:184 682:168 683:122 684:11 #
-9.9999999999999995e-008 126:85 127:254 128:255 129:245 130:55 153:90 154:237 155:253 156:253 157:253 158:229 159:30 181:231 182:253 183:253 184:253 185:253 186:253 187:127 207:87 208:247 209:252 210:253 211:253 212:253 213:253 214:253 215:135 235:185 236:253 237:253 238:253 239:253 240:253 241:253 242:165 243:9 262:47 263:222 264:253 265:253 266:253 267:253 268:253 269:244 270:63 290:136 291:253 292:253 293:253 294:253 295:253 296:253 297:186 317:102 318:249 319:253 320:253 321:253 322:253 323:253 324:253 325:196 345:139 346:253 347:253 348:253 349:253 350:253 351:253 352:253 353:246 354:72 372:36 373:243 374:253 375:253 376:253 377:42 378:43 379:253 380:253 381:253 382:137 400:39 401:253 402:253 403:253 404:253 405:22 406:24 407:253 408:253 409:253 410:137 428:39 429:253 430:253 431:253 432:189 433:12 434:24 435:253 436:253 437:253 438:137 456:82 457:253 458:253 459:253 460:123 462:66 463:253 464:253 465:253 466:137 484:193 485:253 486:253 487:232 488:41 490:177 491:253 492:253 493:253 494:137 512:123 513:253 514:253 515:222 518:177 519:253 520:253 521:253 522:137 540:39 541:253 542:253 543:230 544:62 545:203 546:242 547:253 548:253 549:253 550:137 568:14 569:180 570:253 571:253 572:253 573:253 574:253 575:253 576:253 577:253 578:137 597:139 598:253 599:253 600:253 601:253 602:253 603:253 604:253 605:246 606:79 625:25 626:190 627:238 628:253 629:253 630:253 631:253 632:238 633:93 655:185 656:253 657:253 658:253 659:178 660:72 #
-9.9999999999999995e-008 124:110 125:253 126:202 127:73 128:99 129:253 130:253 131:182 152:109 153:251 154:253 155:251 156:251 157:251 158:251 159:77 180:15 181:164 182:253 183:251 184:251 185:251 186:225 210:253 211:251 212:251 213:251 214:71 237:130 238:253 239:251 240:251 241:251 242:71 264:110 265:253 266:255 267:253 268:253 269:253 270:72 291:21 292:190 293:251 294:253 295:251 296:251 297:251 298:71 318:21 319:197 320:251 321:251 322:253 323:251 324:251 325:251 326:71 346:144 347:251 348:251 349:251 350:221 351:205 352:251 353:251 354:71 374:144 375:251 376:251 377:251 378:103 379:221 380:251 381:251 382:71 401:73 402:253 403:253 404:221 405:51 406:73 407:253 408:253 409:253 410:72 429:176 430:251 431:251 432:142 434:73 435:251 436:251 437:251 438:71 457:253 458:251 459:251 460:142 462:73 463:251 464:251 465:157 466:10 484:79 485:253 486:251 487:251 488:142 490:73 491:251 492:251 493:142 512:180 513:253 514:251 515:251 516:142 518:202 519:251 520:225 521:41 540:182 541:255 542:253 543:227 544:42 545:53 546:255 547:253 548:216 568:77 569:253 570:251 571:251 572:205 573:221 574:253 575:251 576:215 597:98 598:251 599:251 600:251 601:251 602:253 603:230 604:55 625:42 626:205 627:251 628:251 629:251 630:253 631:107 654:144 655:251 656:251 657:251 658:201 659:30 #
-3.7272039001252663e-009 126:191 127:255 128:128 153:255 154:255 155:255 156:255 157:191 180:64 181:255 182:255 183:255 184:255 185:255 186:191 208:255 209:255 210:255 211:255 212:255 213:255 214:255 215:128 235:128 236:255 237:255 238:255 239:191 240:128 241:255 242:255 243:255 263:128 264:255 265:255 266:191 268:128 269:255 270:255 271:255 291:255 292:255 293:255 294:128 296:64 297:255 298:255 299:255 319:255 320:255 321:255 322:64 325:255 326:255 327:255 346:128 347:255 348:255 349:255 353:255 354:255 355:128 374:255 375:255 376:255 377:255 380:128 381:255 382:255 383:64 402:255 403:255 404:255 405:191 408:255 409:255 410:255 430:255 431:255 432:255 433:128 436:255 437:255 438:255 458:255 459:255 460:255 461:128 463:128 464:255 465:255 466:128 486:255 487:255 488:255 489:128 490:128 491:255 492:255 493:255 494:128 514:255 515:255 516:255 517:191 518:255 519:255 520:255 521:255 542:255 543:255 544:255 545:255 546:255 547:255 548:255 549:191 550:64 570:255 571:255 572:255 573:255 574:255 575:255 576:255 577:255 578:128 598:255 599:255 600:255 601:255 602:255 603:255 604:255 605:128 627:128 628:255 629:255 630:255 631:191 655:64 656:191 657:255 658:64 #
9.9999999999999995e-008 188:176 189:208 200:187 201:197 202:11 215:94 216:248 217:125 228:176 229:255 230:36 242:11 243:234 244:243 256:217 257:233 258:16 270:135 271:254 272:119 284:217 285:145 297:37 298:243 299:238 300:21 312:217 313:104 325:129 326:253 327:114 340:208 341:21 352:53 353:254 354:243 355:21 368:145 380:115 381:254 382:119 396:84 407:16 408:233 409:254 410:78 435:58 436:253 437:181 438:5 463:171 464:254 465:115 491:254 492:211 493:11 518:115 519:254 520:171 546:217 547:233 548:26 573:47 574:254 575:187 601:171 602:253 603:42 628:63 629:254 630:191 656:145 657:254 658:46 684:176 685:176 712:197 713:73 #
9.9999999999999995e-008 130:49 131:162 132:222 133:99 157:48 158:236 159:254 160:254 161:160 184:48 185:234 186:254 187:254 188:254 189:75 211:52 212:228 213:254 214:254 215:254 216:177 217:18 237:10 238:62 239:226 240:254 241:254 242:254 243:254 244:55 258:46 259:37 264:62 265:180 266:254 267:245 268:166 269:254 270:254 271:205 272:22 286:147 287:61 291:128 292:242 293:254 294:229 295:43 296:7 297:254 298:254 299:101 313:95 314:254 315:61 316:16 317:119 318:249 319:254 320:254 321:224 322:42 324:7 325:254 326:209 327:19 341:98 342:254 343:234 344:232 345:254 346:254 347:215 348:116 349:20 351:10 352:169 353:254 354:151 369:18 370:163 371:185 372:185 373:185 374:115 375:27 379:140 380:254 381:221 382:35 406:10 407:183 408:253 409:106 433:8 434:146 435:255 436:248 461:70 462:254 463:254 464:168 489:137 490:254 491:241 492:56 517:207 518:254 519:96 544:124 545:248 546:239 547:60 572:228 573:254 574:206 576:34 577:31 578:119 579:200 580:92 581:19 595:137 596:180 597:180 598:109 599:102 600:247 601:254 602:240 603:180 604:220 605:216 606:254 607:218 608:105 609:22 623:182 624:254 625:254 626:254 627:254 628:254 629:254 630:254 631:252 632:234 633:166 634:96 635:13 651:26 652:135 653:254 654:254 655:254 656:254 657:217 658:117 659:104 #
9.9999999999999995e-008 186:7 187:170 188:170 189:7 214:91 215:253 216:254 217:23 240:7 241:91 242:245 243:253 244:146 245:4 268:136 269:253 270:253 271:253 294:7 295:170 296:255 297:254 298:254 299:136 321:9 322:132 323:253 324:178 325:245 326:232 327:6 348:15 349:166 350:253 351:202 352:86 353:253 354:221 376:195 377:253 378:202 379:19 380:104 381:253 382:71 402:41 403:229 404:254 405:165 406:17 407:26 408:254 409:207 429:60 430:224 431:253 432:124 433:11 435:93 436:254 437:73 456:141 457:249 458:251 459:128 462:62 463:224 464:197 465:4 482:9 483:159 484:254 485:236 486:79 490:149 491:253 492:118 510:17 511:235 512:210 513:50 517:47 518:254 519:228 539:84 540:9 545:130 546:253 547:143 573:180 574:242 575:38 600:51 601:247 602:162 628:128 629:254 630:46 656:144 657:210 658:4 684:70 685:206 712:70 713:173 #
9.9999999999999995e-008 129:24 130:150 131:233 132:38 155:14 156:89 157:253 158:254 159:254 160:71 182:78 183:203 184:254 185:254 186:254 187:232 188:77 189:54 190:8 208:12 209:155 210:240 211:254 212:223 213:76 214:254 215:254 216:254 217:254 218:68 234:3 235:101 236:216 237:254 238:227 239:122 240:26 241:110 242:254 243:254 244:254 245:184 246:100 261:46 262:222 263:254 264:254 265:179 266:48 269:181 270:254 271:254 272:146 273:6 287:2 288:145 289:248 290:254 291:182 292:111 293:4 296:3 297:250 298:254 299:206 300:3 314:6 315:144 316:254 317:254 318:171 324:125 325:254 326:252 327:80 341:6 342:142 343:254 344:179 345:95 346:4 351:61 352:246 353:254 354:150 369:64 370:254 371:177 372:14 379:124 380:254 381:246 382:32 397:108 398:97 399:15 406:24 407:226 408:254 409:116 434:177 435:255 436:254 437:5 462:196 463:254 464:99 465:1 489:3 490:199 491:254 492:79 517:129 518:254 519:254 520:23 545:178 546:254 547:192 548:8 549:3 550:43 572:11 573:198 574:254 575:128 576:66 577:130 578:225 594:137 595:202 596:106 597:84 598:84 599:84 600:112 601:254 602:254 603:254 604:254 605:212 606:151 622:172 623:254 624:254 625:254 626:254 627:254 628:254 629:254 630:254 631:254 632:162 633:75 650:12 651:106 652:177 653:254 654:254 655:254 656:235 657:135 658:100 659:17 660:2 #
9.9999999999999995e-008 162:4 163:175 164:170 189:4 190:183 191:251 192:125 217:161 218:254 219:138 243:23 244:203 245:240 246:152 247:7 270:28 271:171 272:252 273:124 274:5 297:22 298:151 299:218 300:128 320:112 321:125 322:2 324:22 325:169 326:203 327:68 348:39 349:25 350:29 351:173 352:186 353:177 379:92 380:100 381:2 405:6 406:158 432:84 433:200 434:114 458:16 459:169 460:253 461:233 462:24 485:23 486:197 487:254 488:198 489:49 512:36 513:141 514:246 515:139 516:15 539:33 540:255 541:254 542:111 565:8 566:122 567:234 568:254 569:174 593:215 594:254 595:248 596:72 597:6 621:170 622:169 623:60 #
-9.9999999999999995e-008 150:65 151:179 152:254 153:254 154:255 155:196 156:79 157:7 177:8 178:219 179:170 180:106 181:45 182:54 183:119 184:228 185:184 186:16 205:149 206:123 207:1 212:14 213:184 214:218 215:5 233:236 234:45 241:11 242:217 243:145 260:89 261:227 262:6 270:40 271:241 272:27 288:180 289:120 299:193 300:150 315:55 316:230 317:36 327:65 328:243 329:12 343:120 344:174 355:30 356:253 357:85 371:177 372:104 383:30 384:253 385:89 398:5 399:211 400:38 411:30 412:253 413:89 426:46 427:235 428:18 439:31 440:254 441:90 454:90 455:208 467:30 468:253 469:89 482:90 483:235 484:18 495:30 496:253 497:41 510:90 511:208 523:30 524:242 525:12 538:90 539:221 540:9 551:97 552:193 566:16 567:254 568:30 579:157 580:194 594:3 595:204 596:91 607:241 608:153 623:120 624:223 625:5 634:5 635:254 636:71 651:11 652:195 653:145 661:35 662:150 663:240 664:24 680:40 681:228 682:144 683:5 686:53 687:154 688:224 689:246 690:253 691:115 #
-9.9999999999999995e-008 146:8 147:201 148:253 149:145 152:32 153:96 154:148 155:192 156:255 157:222 158:211 159:211 160:229 161:237 162:69 163:22 174:43 175:252 176:122 177:92 179:103 180:237 181:252 182:196 183:168 184:63 185:16 188:27 189:81 190:231 191:168 192:28 202:139 203:217 204:12 205:6 206:153 207:250 208:152 209:73 210:7 218:16 219:181 220:186 221:4 230:218 231:196 232:7 233:91 234:252 235:70 247:42 248:196 249:138 258:253 259:168 260:18 261:212 262:59 276:81 277:252 286:254 287:168 288:128 289:172 304:64 305:253 314:253 315:168 316:127 317:84 332:64 333:252 342:253 343:168 344:28 345:77 360:64 361:252 370:253 371:189 372:6 388:64 389:252 398:165 399:252 400:21 416:152 417:252 426:148 427:253 428:21 443:31 444:218 445:129 454:148 455:252 456:100 471:127 472:252 473:42 482:48 483:247 484:126 498:16 499:226 500:194 501:4 511:190 512:152 525:11 526:206 527:247 528:98 539:190 540:249 541:70 553:219 554:252 555:99 567:116 568:250 569:145 579:55 580:192 581:247 582:53 596:153 597:237 598:146 606:131 607:232 608:252 609:53 624:19 625:157 626:252 627:171 628:48 629:22 630:22 631:22 632:101 633:232 634:240 635:178 636:21 653:21 654:172 655:253 656:252 657:252 658:252 659:252 660:253 661:205 662:51 683:42 684:121 685:147 686:147 687:147 688:42 689:11 #
-9.9999999999999995e-008 122:4 123:111 124:132 125:190 126:132 127:133 128:64 129:11 150:85 151:252 152:252 153:252 154:252 155:253 156:252 157:237 158:145 159:53 178:193 179:252 180:238 181:164 182:96 183:96 184:164 185:221 186:252 187:229 188:113 205:64 206:233 207:252 208:75 213:12 214:164 215:238 216:228 217:55 233:181 234:252 235:203 236:27 242:12 243:198 244:252 245:228 246:26 260:38 261:235 262:197 263:12 269:28 270:204 271:252 272:252 273:252 274:36 287:13 288:174 289:252 290:180 296:9 297:166 298:252 299:162 300:82 301:236 302:76 315:37 316:252 317:252 318:133 324:128 325:252 326:234 327:45 329:205 330:155 343:37 344:252 345:252 346:60 351:11 352:242 353:236 354:117 357:205 358:243 359:21 371:37 372:252 373:194 374:3 379:243 380:252 381:158 385:205 386:252 387:23 399:157 400:253 401:72 405:58 406:248 407:255 408:165 412:39 413:231 414:156 427:157 428:252 429:72 433:121 434:252 435:252 436:98 440:73 441:252 442:144 454:4 455:170 456:252 457:72 460:78 461:243 462:252 463:224 468:90 469:252 470:36 482:25 483:252 484:252 485:72 488:217 489:252 490:252 491:40 495:64 496:233 497:252 498:36 510:25 511:252 512:252 513:72 515:61 516:242 517:252 518:223 522:12 523:198 524:252 525:162 526:10 538:25 539:252 540:252 541:72 543:177 544:252 545:221 546:37 549:11 550:164 551:252 552:197 553:12 566:17 567:220 568:252 569:112 571:79 572:167 573:38 576:49 577:166 578:252 579:191 580:62 595:111 596:252 597:244 598:98 603:160 604:237 605:252 606:187 607:45 623:21 624:216 625:252 626:245 627:229 628:126 629:218 630:229 631:253 632:242 633:127 634:8 652:8 653:98 654:224 655:252 656:252 657:252 658:252 659:132 660:62 #
9.9999999999999995e-008 157:41 158:203 162:21 185:183 186:20 189:41 190:141 212:163 213:254 214:91 217:255 218:151 239:82 240:243 241:253 242:50 245:253 246:111 266:62 267:214 268:253 269:123 273:183 274:20 294:183 295:253 296:212 321:72 322:253 323:224 324:61 349:193 350:252 351:122 376:163 377:254 378:192 403:21 404:223 405:253 406:151 413:123 414:122 431:132 432:253 433:203 434:20 441:254 442:151 458:41 459:253 460:252 461:61 469:192 470:50 485:11 486:173 487:254 488:192 513:51 514:252 515:253 516:70 540:21 541:214 542:253 543:82 568:142 569:253 570:130 595:72 596:253 597:183 623:152 624:252 625:61 651:123 652:81 665:72 666:131 693:253 694:151 #
-7.2425624507397248e-008 150:7 151:37 152:31 153:132 154:195 155:155 156:119 178:118 179:240 180:235 181:254 182:254 183:254 184:244 185:158 205:49 206:246 207:254 208:254 209:204 210:91 211:90 212:152 213:239 214:81 233:123 234:254 235:240 236:85 237:8 241:82 242:245 243:34 260:84 261:230 262:234 263:22 269:5 270:167 271:129 288:171 289:254 290:173 298:62 299:219 300:9 315:22 316:232 317:229 318:44 327:225 328:75 343:66 344:254 345:179 355:76 356:181 357:4 371:66 372:254 373:142 383:6 384:197 385:57 399:125 400:235 401:2 412:160 413:120 427:165 428:193 440:79 441:160 455:165 456:134 469:222 470:41 482:1 483:170 484:134 497:235 498:71 510:7 511:219 512:107 525:196 526:164 538:10 539:246 540:35 553:235 554:76 567:165 568:106 580:26 581:241 582:65 595:151 596:187 607:4 608:183 609:208 610:5 623:17 624:188 625:134 634:25 635:185 636:254 637:84 652:13 653:136 654:229 655:73 656:46 657:46 658:46 659:46 660:69 661:151 662:248 663:205 664:39 665:1 682:61 683:154 684:154 685:231 686:254 687:213 688:154 689:70 690:55 691:7 #
9.9999999999999995e-008 130:103 131:227 132:254 133:80 157:40 158:231 159:253 160:253 161:80 184:40 185:224 186:253 187:253 188:205 189:8 211:39 212:224 213:253 214:253 215:253 216:157 238:36 239:227 240:253 241:253 242:253 243:164 244:14 265:39 266:222 267:255 268:253 269:253 270:165 271:14 292:5 293:164 294:253 295:255 296:253 297:167 298:13 319:5 320:122 321:253 322:253 323:254 324:185 325:10 347:41 348:253 349:253 350:253 351:254 352:69 375:112 376:253 377:253 378:253 379:191 380:6 402:118 403:255 404:254 405:254 406:254 430:187 431:253 432:253 433:253 434:126 457:61 458:247 459:253 460:253 461:121 462:13 485:180 486:253 487:253 488:245 489:73 512:22 513:215 514:253 515:253 516:226 540:109 541:253 542:253 543:253 544:246 545:107 568:193 569:253 570:253 571:253 572:253 573:249 574:174 596:30 597:206 598:253 599:253 600:253 601:174 602:93 625:68 626:253 627:253 628:253 629:248 630:70 653:32 654:218 655:253 656:253 657:246 658:57 #
9.9999999999999995e-008 128:33 129:164 130:255 131:255 132:167 155:3 156:132 157:253 158:253 159:253 160:166 183:127 184:253 185:253 186:253 187:247 188:94 210:5 211:187 212:253 213:253 214:253 215:160 237:6 238:135 239:253 240:253 241:253 242:229 243:43 265:44 266:253 267:253 268:253 269:253 270:55 292:7 293:140 294:253 295:253 296:253 297:208 298:19 320:123 321:253 322:253 323:253 324:241 325:89 347:7 348:182 349:253 350:253 351:253 352:191 374:7 375:146 376:253 377:253 378:253 379:253 380:101 402:25 403:253 404:253 405:253 406:253 407:177 408:17 414:170 415:192 416:192 417:9 429:6 430:153 431:253 432:253 433:253 434:239 435:52 442:49 443:55 444:55 445:3 457:59 458:253 459:253 460:253 461:239 462:79 485:143 486:253 487:253 488:253 489:210 512:5 513:183 514:253 515:253 516:253 517:104 540:13 541:253 542:253 543:253 544:172 545:11 568:13 569:253 570:253 571:253 572:93 596:7 597:204 598:253 599:253 600:242 601:215 602:112 603:172 604:91 625:143 626:253 627:253 628:253 629:253 630:253 631:169 632:36 653:12 654:141 655:253 656:253 657:232 658:105 659:2 #
9.9999999999999995e-008 100:47 101:233 102:217 127:42 128:233 129:252 130:215 154:6 155:160 156:253 157:252 158:215 181:1 182:120 183:252 184:253 185:252 186:215 209:73 210:252 211:252 212:253 213:252 214:71 236:32 237:207 238:252 239:252 240:253 241:252 242:71 264:212 265:252 266:246 267:236 268:253 269:252 270:71 291:84 292:253 293:210 294:92 295:144 296:253 297:210 298:31 317:73 318:253 319:253 320:255 321:119 323:145 324:255 325:180 345:52 346:231 347:252 348:119 349:5 351:144 352:253 353:179 374:51 375:71 379:144 380:253 381:179 407:144 408:253 409:97 435:145 436:255 437:35 462:11 463:175 464:253 465:77 488:37 489:37 490:68 491:252 492:253 493:231 494:181 495:181 496:105 511:1 512:144 513:144 514:144 515:144 516:253 517:252 518:252 519:252 520:253 521:252 522:231 523:108 524:62 539:145 540:253 541:253 542:253 543:253 544:255 545:253 546:253 547:253 548:255 549:35 567:20 568:252 569:252 570:252 571:252 572:222 573:200 574:252 575:252 576:222 577:25 595:1 596:252 597:252 598:205 599:71 600:41 601:21 602:201 603:252 604:125 623:1 624:108 625:108 626:31 630:98 631:252 #
1.755804390658895e-008 131:49 132:179 133:254 134:18 158:5 159:162 160:253 161:248 162:17 185:6 186:160 187:253 188:246 189:77 213:94 214:253 215:253 216:142 240:61 241:234 242:253 243:242 244:27 267:11 268:207 269:253 270:240 271:76 294:11 295:161 296:253 297:239 298:78 322:87 323:253 324:253 325:148 349:128 350:234 351:253 352:173 353:15 376:68 377:234 378:253 379:236 380:42 403:34 404:234 405:253 406:236 407:75 430:48 431:166 432:253 433:200 434:75 457:10 458:191 459:253 460:237 461:51 484:9 485:168 486:253 487:238 488:74 512:71 513:253 514:253 515:164 539:8 540:190 541:253 542:172 543:11 567:10 568:202 569:253 570:204 595:19 596:253 597:253 598:216 623:19 624:253 625:253 626:252 627:242 628:137 651:1 652:18 653:205 654:235 655:109 656:2 #
-9.9999999999999995e-008 129:29 130:103 131:198 132:101 156:49 157:235 158:254 159:254 160:209 183:105 184:234 185:254 186:247 187:144 188:56 210:95 211:252 212:254 213:215 214:75 238:181 239:254 240:254 241:254 242:188 265:65 266:251 267:211 268:168 269:254 270:178 292:30 293:231 294:230 295:28 296:208 297:254 298:65 319:12 320:181 321:254 322:118 323:35 324:249 325:254 326:56 347:73 348:254 349:213 350:6 351:40 352:254 353:249 354:46 375:143 376:254 377:119 379:40 380:254 381:224 403:185 404:211 405:6 407:82 408:254 409:224 429:9 430:164 431:250 432:121 435:126 436:254 437:212 457:66 458:254 459:209 460:6 462:6 463:170 464:254 465:128 485:104 486:254 487:130 490:82 491:254 492:239 493:29 513:188 514:249 515:44 517:21 518:212 519:254 520:146 540:24 541:244 542:194 544:4 545:121 546:254 547:190 548:12 568:51 569:250 570:130 572:120 573:254 574:238 575:50 596:70 597:254 598:192 599:115 600:246 601:253 602:116 624:22 625:211 626:254 627:254 628:254 629:174 653:21 654:181 655:235 656:133 #
-9.9999999999999995e-008 129:47 130:109 131:212 132:253 133:192 134:15 156:42 157:233 158:252 159:252 160:252 161:253 162:159 183:47 184:221 185:253 186:252 187:252 188:252 189:237 190:71 209:1 210:125 211:221 212:252 213:253 214:252 215:252 216:252 217:62 236:63 237:171 238:252 239:252 240:252 241:253 242:252 243:252 244:252 264:144 265:253 266:252 267:252 268:252 269:253 270:252 271:252 272:252 291:6 292:160 293:253 294:252 295:252 296:252 297:253 298:252 299:252 300:252 319:120 320:252 321:253 322:252 323:252 324:252 325:253 326:252 327:252 328:168 346:73 347:253 348:253 349:255 350:253 351:253 352:253 353:255 354:253 355:253 356:108 374:197 375:252 376:252 377:253 378:252 379:252 380:252 381:253 382:252 383:241 384:77 400:1 401:99 402:242 403:252 404:252 405:232 406:252 407:252 408:252 409:253 410:252 411:112 428:1 429:252 430:252 431:252 432:168 433:47 434:232 435:252 436:252 437:253 438:252 439:71 456:145 457:253 458:253 459:237 460:62 462:218 463:253 464:253 465:255 466:253 467:72 483:73 484:237 485:252 486:231 487:71 490:217 491:252 492:252 493:253 494:252 495:71 511:181 512:252 513:252 514:179 517:99 518:242 519:252 520:252 521:237 522:174 523:20 539:181 540:252 541:252 542:179 543:21 544:144 545:253 546:252 547:252 548:252 549:62 567:182 568:253 569:253 570:211 571:212 572:253 573:255 574:253 575:217 595:139 596:252 597:252 598:252 599:252 600:252 601:253 602:189 603:71 623:32 624:215 625:252 626:252 627:252 628:252 629:217 630:30 652:1 653:108 654:232 655:231 656:108 #
-9.9999999999999995e-008 189:111 190:235 191:148 192:45 213:6 214:214 215:214 216:214 217:246 218:254 219:254 220:157 238:46 239:82 240:119 241:195 242:254 243:254 244:254 245:254 246:245 247:113 248:61 265:62 266:239 267:254 268:254 269:254 270:254 271:254 272:254 273:254 274:120 291:8 292:14 293:174 294:254 295:254 296:254 297:254 298:254 299:254 300:254 301:221 302:42 318:79 319:195 320:254 321:254 322:254 323:254 324:254 325:254 326:254 327:254 328:254 329:254 330:141 346:152 347:254 348:254 349:254 350:254 351:254 352:254 353:254 354:254 355:254 356:218 357:144 358:43 373:13 374:188 375:254 376:254 377:254 378:206 379:254 380:254 381:254 382:254 383:113 384:18 400:16 401:95 402:254 403:254 404:254 405:192 406:141 407:218 408:179 409:253 410:185 411:85 428:157 429:254 430:254 431:254 432:233 433:65 434:179 435:254 436:254 437:221 454:11 455:70 456:233 457:254 458:253 459:155 460:137 461:245 462:255 463:254 464:221 465:39 482:98 483:254 484:254 485:254 486:159 487:79 488:252 489:254 490:254 491:227 492:39 510:164 511:254 512:254 513:220 514:14 515:254 516:254 517:254 518:254 519:138 537:113 538:254 539:254 540:254 541:234 542:187 543:254 544:254 545:254 546:132 547:4 565:162 566:254 567:254 568:254 569:254 570:254 571:254 572:254 573:131 574:7 593:222 594:254 595:254 596:254 597:254 598:254 599:222 600:58 601:6 621:35 622:241 623:254 624:254 625:249 626:130 627:37 650:89 651:96 652:96 653:83 #
-9.9999999999999995e-008 130:39 131:227 132:226 133:102 157:217 158:245 159:253 160:253 161:213 184:90 185:117 186:120 187:154 188:253 189:93 210:43 211:215 212:251 213:253 214:253 215:253 216:165 217:13 237:47 238:229 239:254 240:253 241:253 242:253 243:253 244:66 264:49 265:226 266:253 267:254 268:253 269:253 270:253 271:203 272:18 291:7 292:175 293:253 294:253 295:171 296:153 297:253 298:253 299:186 319:55 320:253 321:253 322:239 323:49 324:122 325:253 326:253 327:102 346:32 347:220 348:253 349:245 350:50 351:7 352:242 353:253 354:249 355:50 374:125 375:253 376:253 377:240 379:121 380:253 381:253 382:173 401:32 402:220 403:254 404:254 405:107 407:122 408:254 409:254 410:174 429:194 430:253 431:253 432:171 433:6 435:177 436:253 437:253 438:117 456:30 457:220 458:253 459:253 460:93 462:50 463:254 464:253 465:218 466:25 484:124 485:253 486:253 487:240 488:64 489:5 490:172 491:254 492:253 493:159 511:75 512:245 513:253 514:239 515:86 517:14 518:253 519:254 520:253 521:159 539:94 540:253 541:253 542:199 545:42 546:253 547:254 548:253 549:61 567:94 568:253 569:253 570:208 571:41 572:55 573:220 574:253 575:255 576:158 577:8 595:94 596:253 597:253 598:253 599:253 600:253 601:253 602:253 603:178 604:5 623:40 624:152 625:253 626:253 627:253 628:253 629:253 630:246 631:57 652:38 653:225 654:253 655:253 656:253 657:246 658:57 #
-9.9999999999999995e-008 154:8 155:157 156:236 157:32 182:157 183:252 184:252 185:210 186:14 209:150 210:253 211:252 212:252 213:252 214:95 236:43 237:239 238:253 239:252 240:252 241:252 242:147 263:9 264:187 265:252 266:253 267:252 268:252 269:252 270:147 291:22 292:253 293:253 294:168 295:199 296:253 297:253 298:86 319:101 320:252 321:252 322:27 323:85 324:252 325:205 326:11 347:180 348:252 349:199 351:85 352:252 353:189 374:57 375:246 376:252 377:77 379:28 380:239 381:189 402:85 403:252 404:226 405:24 407:36 408:241 409:215 410:18 429:8 430:201 431:253 432:84 435:71 436:250 437:243 438:35 457:123 458:252 459:236 460:21 463:64 464:247 465:189 485:148 486:252 487:178 491:85 492:252 493:136 513:148 514:252 515:126 518:38 519:171 520:247 521:63 541:192 542:252 543:38 546:148 547:252 548:231 569:255 570:253 571:21 573:36 574:210 575:253 576:109 597:253 598:252 599:21 600:22 601:225 602:253 603:189 604:5 625:156 626:252 627:190 628:237 629:252 630:223 631:40 653:148 654:252 655:252 656:252 657:199 658:35 681:42 682:226 683:252 684:182 685:24 #
9.9999999999999995e-008 72:102 73:239 74:57 92:18 93:16 98:6 99:114 100:244 101:254 102:137 120:154 121:214 122:92 123:92 124:92 125:159 126:200 127:254 128:254 129:254 130:124 148:227 149:254 150:254 151:254 152:254 153:254 154:244 155:149 156:80 157:254 158:148 176:45 177:179 178:239 179:231 180:230 181:163 182:73 184:41 185:246 186:148 206:25 207:3 212:27 213:242 214:148 240:62 241:251 242:148 269:229 270:69 297:207 298:150 325:236 326:190 353:236 354:143 381:236 382:53 409:236 410:53 437:236 438:53 465:236 466:53 493:236 494:53 510:1 511:40 512:102 513:56 514:5 515:4 516:5 517:4 519:4 520:35 521:243 522:54 538:117 539:254 540:254 541:254 542:254 543:220 544:254 545:225 546:164 547:238 548:254 549:254 550:217 551:136 552:119 553:164 554:164 555:70 566:222 567:254 568:254 569:254 570:254 571:254 572:254 573:254 574:254 575:254 576:254 577:254 578:254 579:254 580:255 581:254 582:254 583:221 594:138 595:193 596:159 597:158 598:158 599:194 600:194 601:158 602:86 603:158 604:158 605:158 606:158 607:95 608:99 609:101 610:158 611:101 #
9.9999999999999995e-008 153:32 154:185 155:255 156:103 181:133 182:253 183:253 184:194 208:112 209:242 210:253 211:253 212:246 213:45 235:15 236:236 237:253 238:253 239:253 240:253 241:156 263:167 264:253 265:253 266:150 267:242 268:253 269:156 290:44 291:247 292:253 293:205 294:6 295:238 296:253 297:156 318:70 319:253 320:253 321:199 323:238 324:253 325:156 345:9 346:231 347:253 348:253 349:199 351:238 352:253 353:156 373:65 374:253 375:253 376:245 377:56 379:238 380:253 381:156 401:120 402:253 403:253 404:168 407:238 408:253 409:218 410:7 429:205 430:253 431:253 432:90 435:238 436:253 437:253 438:10 457:70 458:232 459:112 460:2 463:238 464:253 465:253 466:10 491:238 492:253 493:253 494:10 519:238 520:253 521:253 522:10 547:238 548:253 549:253 550:22 575:238 576:253 577:253 578:119 603:148 604:253 605:253 606:119 631:130 632:253 633:253 634:119 659:130 660:253 661:253 662:119 687:130 688:253 689:253 690:72 #
9.9999999999999995e-008 154:38 155:222 156:253 157:253 182:131 183:252 184:252 185:252 209:26 210:231 211:252 212:252 213:173 237:128 238:252 239:252 240:252 241:252 264:79 265:253 266:252 267:252 268:252 269:173 291:13 292:191 293:255 294:253 295:253 296:253 297:174 318:67 319:181 320:252 321:215 322:195 323:252 324:252 325:127 345:51 346:209 347:252 348:220 349:110 350:85 351:252 352:252 353:112 372:76 373:243 374:252 375:217 376:37 378:85 379:252 380:252 381:112 400:191 401:252 402:220 403:37 406:85 407:252 408:252 409:112 427:63 428:255 429:253 430:56 434:85 435:253 436:253 437:112 455:15 456:106 457:27 458:6 462:85 463:252 464:252 465:112 490:85 491:252 492:252 493:112 518:85 519:252 520:252 521:112 546:85 547:252 548:252 549:112 574:85 575:253 576:240 577:63 599:10 600:85 601:85 602:219 603:252 604:233 605:38 627:138 628:252 629:253 630:252 631:252 632:252 633:221 634:111 655:75 656:252 657:253 658:252 659:252 660:252 661:252 662:126 683:13 684:112 685:174 686:204 687:112 688:112 689:112 #
-9.9999999999999995e-008 156:9 157:168 158:184 180:41 181:148 182:177 183:116 184:164 185:253 186:231 207:5 208:193 209:253 210:253 211:254 212:253 213:253 214:231 235:12 236:253 237:253 238:234 239:135 240:247 241:253 242:231 263:84 264:253 265:253 266:33 268:105 269:253 270:231 291:74 292:253 293:192 294:7 296:67 297:253 298:231 319:122 320:253 321:176 324:72 325:253 326:231 347:103 348:253 349:176 352:158 353:253 354:212 375:12 376:253 377:176 380:148 381:253 382:121 403:12 404:253 405:176 408:177 409:253 410:121 431:123 432:254 433:177 435:5 436:188 437:254 438:107 459:170 460:253 461:176 463:34 464:253 465:253 466:10 487:122 488:253 489:176 491:34 492:253 493:253 494:10 515:180 516:253 517:176 519:149 520:253 521:201 522:5 543:232 544:253 545:128 546:25 547:255 548:253 549:129 571:232 572:253 573:176 574:149 575:254 576:230 577:29 599:232 600:253 601:247 602:251 603:253 604:83 627:232 628:253 629:253 630:253 631:134 655:150 656:253 657:253 658:137 683:21 684:191 685:110 686:5 #
-9.9999999999999995e-008 152:24 153:161 154:204 155:151 156:19 179:31 180:193 181:234 182:196 183:254 184:152 206:11 207:186 208:185 209:5 210:5 211:148 212:240 213:21 234:169 235:254 236:201 237:105 239:76 240:249 241:32 262:248 263:249 264:221 265:60 267:22 268:243 269:97 290:248 291:98 296:222 297:108 318:242 319:27 324:201 325:108 345:4 346:191 352:140 353:146 373:64 374:197 380:172 381:143 401:38 402:204 408:183 409:197 429:55 430:186 436:142 437:177 457:64 458:201 464:136 465:162 485:38 486:182 492:167 493:108 514:151 515:10 520:152 521:167 542:178 543:31 548:224 549:126 570:143 571:85 575:61 576:254 577:101 598:17 599:212 603:128 604:237 605:17 627:216 628:26 631:196 632:177 655:152 656:170 657:64 658:129 659:229 660:14 683:23 684:239 685:254 686:252 687:106 #
-9.9999999999999995e-008 153:36 154:219 155:255 156:238 157:33 181:155 182:254 183:243 184:254 185:135 208:65 209:245 210:254 211:130 212:247 213:219 236:178 237:254 238:254 239:139 240:235 241:244 263:10 264:214 265:231 266:231 267:213 268:244 269:244 291:89 292:254 293:136 294:137 295:254 296:254 297:244 319:171 320:254 321:110 322:91 323:254 324:254 325:187 347:211 348:254 349:103 350:8 351:217 352:217 353:25 374:18 375:225 376:227 377:10 379:142 380:241 381:37 402:72 403:254 404:154 407:77 408:254 409:52 430:149 431:254 432:77 435:77 436:254 437:94 458:214 459:254 460:77 463:77 464:254 465:148 486:245 487:250 488:64 491:77 492:254 493:148 514:245 515:234 519:77 520:254 521:109 541:25 542:247 543:171 547:140 548:254 549:52 569:87 570:254 571:138 574:65 575:246 576:214 577:5 597:85 598:253 599:213 601:58 602:204 603:254 604:134 626:245 627:247 628:128 629:214 630:254 631:204 632:7 654:183 655:254 656:254 657:254 658:197 659:51 682:13 683:149 684:254 685:144 686:35 #
-9.9999999999999995e-008 98:129 99:254 100:71 125:34 126:222 127:253 128:71 152:35 153:218 154:253 155:197 156:4 180:132 181:253 182:253 183:74 184:49 185:126 208:209 209:253 210:177 211:40 212:53 213:249 214:76 235:75 236:248 237:253 238:58 240:34 241:225 242:130 263:196 264:253 265:253 266:58 269:176 270:214 291:215 292:253 293:231 294:40 297:176 298:214 319:215 320:253 321:181 325:176 326:214 347:215 348:253 349:181 353:176 354:224 355:24 375:215 376:253 377:151 381:176 382:253 383:91 402:67 403:243 404:253 405:51 409:176 410:253 411:91 430:28 431:227 432:253 433:51 436:10 437:190 438:226 439:28 459:215 460:253 461:51 464:53 465:253 466:214 487:215 488:253 489:68 492:53 493:253 494:214 515:215 516:253 517:189 518:6 519:7 520:140 521:253 522:214 543:215 544:253 545:253 546:58 547:69 548:253 549:253 550:136 571:141 572:253 573:253 574:168 575:225 576:253 577:221 578:37 599:39 600:226 601:253 602:253 603:253 604:252 605:76 628:39 629:227 630:253 631:253 632:133 #
-9.9999999999999995e-008 95:56 96:158 97:254 98:254 123:134 124:253 125:253 126:253 150:2 151:134 152:238 153:161 154:253 155:9 178:30 179:182 180:120 181:222 182:253 183:149 205:67 206:228 207:253 208:182 209:90 210:178 211:106 212:133 233:84 234:227 235:88 236:4 240:174 241:169 261:149 262:164 263:56 268:60 269:246 270:72 289:149 290:8 296:39 297:222 298:247 299:168 317:149 325:47 326:229 327:191 328:14 345:149 354:120 355:253 356:74 383:164 384:136 411:58 412:206 439:5 440:154 467:146 468:223 494:36 495:233 496:223 520:8 521:128 522:200 523:232 524:117 541:80 547:135 548:163 549:253 550:133 551:36 552:35 568:43 569:231 570:133 571:90 572:90 573:90 574:178 575:164 576:238 577:248 578:87 596:99 597:248 598:253 599:253 600:253 601:253 602:253 603:196 604:232 605:196 625:180 626:210 627:253 628:253 629:253 630:253 631:255 632:105 #
9.9999999999999995e-008 159:13 160:67 161:200 162:254 163:255 164:115 185:55 186:132 187:154 188:253 189:253 190:253 191:253 192:253 212:2 213:110 214:253 215:253 216:253 217:253 218:253 219:253 220:106 240:95 241:253 242:253 243:253 244:253 245:253 246:253 247:216 248:46 267:90 268:241 269:253 270:253 271:253 272:253 273:253 274:221 275:58 293:17 294:90 295:236 296:253 297:253 298:253 299:253 300:244 301:101 302:36 320:51 321:229 322:253 323:253 324:253 325:253 326:253 327:237 328:93 346:12 347:151 348:212 349:253 350:253 351:253 352:253 353:253 354:253 355:94 373:16 374:46 375:253 376:253 377:253 378:253 379:253 380:253 381:241 382:98 383:3 400:29 401:183 402:253 403:253 404:253 405:253 406:253 407:253 408:168 409:94 427:6 428:188 429:253 430:253 431:253 432:253 433:253 434:253 435:151 436:10 455:38 456:253 457:253 458:253 459:253 460:253 461:248 462:144 463:10 482:55 483:220 484:253 485:253 486:253 487:253 488:253 489:147 510:132 511:253 512:253 513:253 514:253 515:253 516:151 517:12 537:62 538:244 539:253 540:253 541:253 542:249 543:142 544:7 565:150 566:253 567:253 568:253 569:253 570:234 593:255 594:253 595:253 596:253 597:253 598:234 621:212 622:253 623:253 624:253 625:253 626:234 649:67 650:253 651:253 652:253 653:253 654:234 677:17 678:65 679:212 680:253 681:253 682:94 #
9.9999999999999995e-008 158:9 159:13 160:198 161:255 162:254 163:23 186:170 187:252 188:252 189:252 190:252 191:22 213:23 214:181 215:252 216:252 217:252 218:252 219:22 239:26 240:49 241:176 242:252 243:252 244:252 245:252 246:252 247:22 267:133 268:252 269:252 270:252 271:252 272:252 273:252 274:252 275:22 294:36 295:167 296:252 297:252 298:252 299:252 300:252 301:252 302:189 303:16 321:37 322:165 323:252 324:252 325:252 326:252 327:252 328:252 329:183 330:23 348:38 349:164 350:252 351:252 352:252 353:252 354:252 355:252 356:177 357:29 375:37 376:164 377:252 378:252 379:252 380:252 381:252 382:252 383:173 384:34 401:30 402:122 403:165 404:252 405:252 406:252 407:252 408:252 409:252 410:170 411:37 429:61 430:252 431:252 432:252 433:252 434:252 435:252 436:252 437:169 438:39 456:29 457:171 458:252 459:252 460:252 461:252 462:252 463:252 464:168 465:41 482:16 483:157 484:176 485:252 486:252 487:252 488:252 489:252 490:252 491:169 492:41 510:25 511:252 512:252 513:252 514:252 515:252 516:252 517:252 518:170 519:39 538:25 539:252 540:252 541:252 542:252 543:252 544:252 545:173 546:37 566:25 567:252 568:252 569:252 570:252 571:252 572:177 573:34 594:25 595:252 596:252 597:252 598:252 599:183 600:29 621:11 622:221 623:252 624:252 625:252 626:252 627:167 649:2 650:45 651:252 652:252 653:252 654:186 655:15 678:25 679:252 680:252 681:194 682:7 #
9.9999999999999995e-008 126:106 127:255 128:67 153:4 154:173 155:253 156:176 181:24 182:253 183:253 184:176 209:24 210:253 211:253 212:143 237:121 238:253 239:253 240:59 264:6 265:241 266:253 267:228 268:34 272:13 273:107 274:30 292:6 293:253 294:253 295:194 299:15 300:244 301:253 302:70 320:73 321:253 322:253 323:194 327:130 328:253 329:253 330:70 348:199 349:253 350:253 351:120 355:185 356:253 357:253 358:70 375:75 376:250 377:253 378:244 379:59 383:185 384:253 385:242 386:54 403:107 404:253 405:253 406:176 411:91 412:185 413:115 431:107 432:253 433:253 434:94 440:5 441:14 459:214 460:253 461:253 462:94 486:148 487:253 488:253 489:230 490:2 514:207 515:253 516:253 517:160 541:14 542:216 543:253 544:252 545:91 569:72 570:253 571:253 572:247 597:110 598:253 599:253 600:209 625:189 626:253 627:253 628:27 653:189 654:253 655:154 656:1 #
9.9999999999999995e-008 131:141 132:255 133:253 134:196 158:151 159:240 160:253 161:252 162:195 184:176 185:197 186:234 187:252 188:253 189:252 190:195 211:170 212:243 213:252 214:252 215:252 216:253 217:195 218:65 239:253 240:252 241:252 242:252 243:252 244:253 245:167 265:13 266:113 267:255 268:253 269:253 270:253 271:253 272:204 273:94 291:29 292:85 293:104 294:252 295:253 296:252 297:252 298:252 299:204 300:94 319:85 320:252 321:252 322:252 323:253 324:252 325:252 326:214 327:87 346:13 347:104 348:252 349:252 350:252 351:253 352:252 353:252 354:84 374:113 375:252 376:252 377:252 378:252 379:253 380:252 381:252 382:84 401:141 402:255 403:253 404:253 405:253 406:253 407:255 408:253 409:56 428:151 429:240 430:253 431:252 432:252 433:252 434:252 435:253 436:51 437:6 456:169 457:252 458:253 459:252 460:252 461:252 462:252 463:56 464:6 484:169 485:252 486:253 487:252 488:252 489:252 490:252 511:111 512:215 513:252 514:253 515:252 516:252 517:236 518:112 539:198 540:253 541:253 542:255 543:253 544:228 545:126 566:76 567:215 568:252 569:252 570:253 571:252 572:195 594:225 595:252 596:252 597:252 598:253 599:233 600:152 622:200 623:246 624:252 625:252 626:253 627:167 651:197 652:252 653:252 654:253 655:167 #
9.9999999999999995e-008 161:11 162:51 163:51 164:10 188:82 189:132 190:250 191:250 192:130 216:202 217:252 218:250 219:250 220:250 243:123 244:241 245:252 246:250 247:250 248:250 268:41 269:92 270:252 271:252 272:252 273:255 274:252 275:252 276:212 295:62 296:221 297:252 298:250 299:250 300:250 301:252 302:210 303:149 304:29 323:151 324:250 325:252 326:250 327:250 328:250 329:222 330:60 349:41 350:202 351:231 352:250 353:252 354:250 355:250 356:88 357:40 376:41 377:254 378:252 379:252 380:252 381:254 382:232 383:202 384:40 402:41 403:102 404:221 405:252 406:250 407:250 408:250 409:232 410:90 429:31 430:191 431:250 432:250 433:252 434:250 435:250 436:250 437:80 457:213 458:250 459:250 460:250 461:252 462:250 463:250 464:88 483:31 484:213 485:254 486:252 487:252 488:252 489:244 490:202 491:80 510:41 511:191 512:250 513:252 514:250 515:250 516:250 517:121 537:31 538:191 539:250 540:250 541:252 542:250 543:250 544:128 565:51 566:250 567:250 568:250 569:252 570:169 571:49 572:10 593:254 594:252 595:252 596:252 597:244 598:121 621:252 622:250 623:250 624:169 625:121 649:252 650:250 651:159 652:20 677:49 678:49 679:20 #
-9.9999999999999995e-008 132:13 133:202 134:249 135:58 158:19 159:202 160:250 161:255 162:248 163:57 186:108 187:254 188:254 189:254 190:184 191:6 213:164 214:239 215:254 216:254 217:168 218:8 239:23 240:193 241:247 242:254 243:254 244:254 245:117 267:174 268:254 269:254 270:254 271:254 272:241 273:51 294:167 295:245 296:254 297:254 298:254 299:254 300:241 301:51 321:168 322:244 323:254 324:227 325:69 326:144 327:254 328:165 329:19 347:25 348:180 349:244 350:254 351:238 352:88 353:53 354:211 355:254 356:124 374:48 375:206 376:254 377:254 378:204 379:45 380:28 381:187 382:254 383:229 384:23 401:23 402:174 403:245 404:254 405:200 406:48 408:40 409:235 410:254 411:124 429:193 430:254 431:254 432:130 433:51 435:43 436:198 437:254 438:158 439:26 455:58 456:174 457:247 458:254 459:195 460:54 463:150 464:254 465:255 466:125 483:75 484:248 485:254 486:207 487:62 490:132 491:233 492:254 493:136 494:28 510:61 511:202 512:254 513:254 514:112 515:14 516:51 517:164 518:234 519:254 520:153 521:28 538:140 539:250 540:254 541:127 542:13 543:67 544:187 545:254 546:255 547:150 548:78 566:186 567:254 568:254 569:147 570:151 571:239 572:254 573:254 574:216 575:80 594:186 595:254 596:254 597:254 598:254 599:254 600:254 601:214 602:82 622:186 623:254 624:254 625:254 626:254 627:249 628:140 629:84 650:186 651:254 652:254 653:254 654:139 655:19 #
-9.9999999999999995e-008 130:136 131:255 132:254 133:130 157:137 158:253 159:227 160:254 161:159 184:84 185:252 186:215 187:44 188:254 189:159 211:45 212:230 213:247 214:77 215:71 216:254 217:159 239:143 240:246 241:112 243:104 244:254 245:108 266:64 267:234 268:173 271:104 272:242 273:6 292:111 293:229 294:249 295:254 296:89 298:5 299:195 300:222 319:93 320:250 321:254 322:254 323:205 324:6 326:69 327:254 328:137 346:46 347:228 348:229 349:172 350:254 351:133 354:153 355:250 356:56 373:11 374:190 375:254 376:121 377:129 378:254 379:133 381:37 382:245 383:163 401:132 402:254 403:215 404:32 405:129 406:254 407:133 409:126 410:250 411:98 428:21 429:220 430:246 431:71 433:129 434:254 435:133 436:66 437:243 438:161 456:161 457:254 458:158 461:56 462:249 463:188 464:209 465:231 466:50 483:93 484:250 485:218 486:33 490:173 491:254 492:251 493:98 511:192 512:254 513:100 517:12 518:165 519:254 520:165 538:61 539:251 540:227 541:13 544:10 545:167 546:254 547:198 548:142 549:19 566:159 567:254 568:127 571:8 572:169 573:254 574:187 575:13 594:159 595:254 596:106 597:8 598:77 599:221 600:254 601:158 602:13 622:158 623:254 624:234 625:247 626:254 627:251 628:188 629:12 650:24 651:216 652:254 653:254 654:205 655:48 #
-6.4618340602854226e-008 186:5 187:69 188:235 189:245 190:241 191:75 192:22 213:142 214:196 215:254 216:254 217:254 218:254 219:254 220:108 239:21 240:188 241:250 242:254 243:254 244:233 245:125 246:236 247:254 248:150 266:15 267:218 268:254 269:254 270:254 271:202 272:50 274:176 275:254 276:163 293:61 294:230 295:254 296:254 297:206 298:80 299:9 301:39 302:236 303:221 304:25 320:67 321:240 322:254 323:254 324:244 325:90 328:6 329:149 330:254 331:135 346:4 347:146 348:240 349:254 350:254 351:252 352:81 356:24 357:254 358:244 359:15 373:27 374:193 375:254 376:254 377:254 378:244 379:124 383:17 384:151 385:254 386:119 400:33 401:221 402:254 403:254 404:254 405:254 406:162 411:120 412:254 413:228 414:22 427:81 428:224 429:254 430:254 431:177 432:254 433:232 434:2 437:15 438:153 439:253 440:243 441:37 455:177 456:254 457:245 458:136 459:18 460:224 461:145 464:88 465:189 466:254 467:227 468:110 481:6 482:151 483:254 484:244 485:116 488:146 489:140 490:53 491:219 492:254 493:231 494:155 495:11 509:122 510:254 511:254 512:128 513:9 514:109 515:133 516:146 517:213 518:254 519:254 520:225 521:18 537:194 538:254 539:254 540:212 541:224 542:255 543:254 544:254 545:254 546:212 547:129 548:23 565:222 566:254 567:254 568:254 569:254 570:254 571:250 572:187 573:98 593:55 594:221 595:244 596:244 597:233 598:140 599:46 #
-9.9999999999999995e-008 161:43 162:77 163:44 189:141 190:254 191:241 213:17 214:7 215:44 216:8 217:141 218:254 219:236 238:30 239:75 241:67 242:196 243:254 244:43 245:141 246:232 247:53 265:31 266:215 267:252 268:82 270:193 271:254 272:188 273:124 274:52 292:32 293:220 294:254 295:254 296:232 297:30 298:69 299:254 300:254 301:5 320:126 321:254 322:254 323:254 324:234 325:32 326:28 327:254 328:254 329:5 340:7 347:180 348:244 349:254 350:254 351:244 352:53 354:134 355:254 356:254 357:5 368:86 374:55 375:233 376:254 377:254 378:254 379:209 381:63 382:251 383:254 384:232 385:4 401:9 402:234 403:254 404:249 405:162 406:77 407:27 409:137 410:254 411:254 412:112 428:7 429:171 430:254 431:247 432:126 435:77 436:202 437:252 438:254 439:137 440:3 456:108 457:254 458:254 459:142 461:13 462:146 463:249 464:254 465:254 466:222 467:62 484:190 485:254 486:254 487:134 488:106 489:217 490:254 491:254 492:254 493:217 494:27 511:5 512:197 513:254 514:254 515:254 516:254 517:254 518:254 519:254 520:248 521:94 539:44 540:254 541:254 542:254 543:254 544:254 545:255 546:254 547:221 548:99 567:44 568:254 569:254 570:254 571:254 572:254 573:232 574:66 575:21 595:1 596:86 597:211 598:222 599:222 600:161 601:4 #
9.9999999999999995e-008 127:84 128:195 129:78 155:146 156:254 157:178 182:31 183:237 184:254 185:139 210:160 211:254 212:254 213:85 237:71 238:248 239:254 240:254 241:85 264:3 265:193 266:254 267:254 268:254 269:92 292:127 293:254 294:254 295:222 296:254 297:178 319:76 320:239 321:254 322:134 323:133 324:254 325:157 346:52 347:249 348:254 349:197 350:14 351:132 352:254 353:85 373:50 374:234 375:254 376:208 377:41 379:132 380:254 381:85 400:30 401:237 402:254 403:215 404:28 407:132 408:254 409:85 428:6 429:139 430:122 431:15 435:132 436:254 437:85 463:132 464:254 465:85 491:132 492:254 493:85 519:132 520:248 521:38 547:139 548:167 549:6 550:51 575:226 576:223 577:201 578:206 599:55 600:57 601:92 602:211 603:253 604:254 605:188 606:49 625:10 626:189 627:252 628:254 629:254 630:255 631:254 632:120 633:13 653:5 654:66 655:191 656:159 657:159 658:219 659:155 660:15 #
9.9999999999999995e-008 125:29 126:161 127:255 128:181 129:2 152:9 153:127 154:253 155:253 156:253 157:116 179:4 180:180 181:253 182:249 183:249 184:253 185:172 206:4 207:126 208:253 209:220 210:79 211:192 212:253 213:172 234:38 235:253 236:247 237:113 239:192 240:253 241:172 262:38 263:253 264:235 265:66 267:192 268:253 269:172 290:13 291:168 292:240 293:197 295:192 296:253 297:172 320:55 321:63 323:192 324:253 325:148 351:192 352:237 353:38 378:16 379:207 380:179 406:32 407:223 408:179 434:63 435:253 436:179 462:63 463:253 464:179 490:63 491:253 492:179 496:77 497:88 498:49 518:9 519:201 520:179 522:78 523:199 524:249 525:253 526:141 547:192 548:244 549:223 550:248 551:253 552:214 553:103 554:17 572:21 573:106 574:197 575:248 576:253 577:253 578:165 579:42 580:15 595:64 596:112 597:112 598:112 599:194 600:239 601:253 602:253 603:253 604:165 605:42 606:3 623:143 624:253 625:253 626:253 627:253 628:253 629:227 630:135 631:42 632:3 651:73 652:141 653:177 654:208 655:171 656:105 657:4 #
9.9999999999999995e-008 97:155 98:201 124:45 125:236 126:252 127:95 152:153 153:252 154:252 155:247 156:67 180:184 181:252 182:252 183:253 184:92 207:95 208:246 209:252 210:252 211:253 212:92 234:34 235:253 236:253 237:253 238:253 239:255 240:92 260:17 261:99 262:212 263:252 264:252 265:252 266:252 267:253 268:92 288:176 289:252 290:253 291:252 292:252 293:252 294:252 295:253 296:92 316:207 317:252 318:253 319:252 320:252 321:210 322:252 323:253 324:92 344:113 345:242 346:253 347:252 348:136 349:97 350:252 351:253 352:143 373:53 374:116 375:42 378:168 379:255 380:253 381:69 406:116 407:253 408:252 409:141 434:84 435:253 436:252 437:183 463:253 464:252 465:240 466:37 491:201 492:252 493:252 494:150 519:22 520:245 521:253 522:211 523:13 542:110 543:140 544:47 545:47 546:47 547:47 548:178 549:252 550:252 551:117 569:85 570:253 571:252 572:252 573:252 574:252 575:253 576:252 577:252 578:252 579:252 580:174 581:57 597:116 598:253 599:252 600:252 601:252 602:252 603:253 604:252 605:252 606:252 607:252 608:253 609:206 625:116 626:253 627:252 628:252 629:252 630:252 631:253 632:252 633:252 634:252 635:252 636:253 637:206 #
9.9999999999999995e-008 97:16 98:191 99:44 125:54 126:252 127:187 128:7 153:229 154:252 155:252 156:116 180:151 181:253 182:252 183:252 184:240 205:4 206:54 207:178 208:253 209:255 210:253 211:253 212:140 232:51 233:179 234:252 235:252 236:252 237:253 238:252 239:252 240:139 259:67 260:246 261:253 262:252 263:252 264:252 265:253 266:252 267:224 268:94 287:185 288:252 289:253 290:252 291:252 292:252 293:253 294:252 295:205 296:13 315:198 316:253 317:254 318:253 319:206 320:113 321:192 322:253 323:253 324:140 343:122 344:252 345:197 346:171 347:56 349:216 350:252 351:252 352:165 371:19 372:56 377:128 378:252 379:252 380:252 405:16 406:215 407:252 408:252 409:51 434:170 435:253 436:253 437:179 438:10 462:56 463:215 464:252 465:253 466:171 467:13 491:110 492:252 493:253 494:252 495:143 513:76 514:150 515:25 519:10 520:78 521:253 522:252 523:243 524:75 541:154 542:253 543:253 544:253 545:254 546:178 547:141 548:141 549:254 550:253 551:253 552:253 553:13 569:253 570:252 571:252 572:252 573:253 574:252 575:252 576:252 577:253 578:252 579:252 580:252 581:194 582:19 597:253 598:252 599:252 600:252 601:253 602:252 603:252 604:252 605:253 606:252 607:252 608:252 609:253 610:84 625:40 626:215 627:202 628:252 629:253 630:252 631:252 632:252 633:253 634:252 635:252 636:252 637:241 638:47 #
9.9999999999999995e-008 124:39 125:229 126:123 129:47 130:216 152:79 153:254 154:189 157:47 158:215 180:79 181:254 182:251 183:62 185:47 186:215 208:79 209:254 210:255 211:65 213:47 214:215 236:146 237:254 238:195 239:7 241:47 242:215 264:194 265:254 266:189 269:47 270:101 291:29 292:225 293:254 294:245 295:55 297:7 298:13 319:86 320:254 321:254 322:234 323:45 325:15 326:134 347:123 348:254 349:254 350:85 353:47 354:215 375:216 376:255 377:254 378:58 381:47 382:215 403:216 404:254 405:254 406:58 409:47 410:185 431:216 432:254 433:254 434:58 437:13 438:24 459:216 460:254 461:254 462:58 465:9 466:16 487:216 488:254 489:254 490:58 493:47 494:105 515:216 516:254 517:254 518:58 521:47 522:215 543:216 544:255 545:254 546:72 549:47 550:215 571:216 572:255 573:254 574:189 577:47 578:215 599:216 600:254 601:254 602:192 603:4 605:47 606:215 627:213 628:254 629:254 630:219 631:30 633:47 634:215 655:42 656:231 657:254 658:122 661:47 662:215 #
-9.9999999999999995e-008 180:11 181:25 182:89 183:145 184:71 185:83 186:19 206:30 207:141 208:199 209:253 210:254 211:253 212:253 213:253 214:201 215:37 216:25 232:64 233:169 234:238 235:253 236:253 237:253 238:254 239:253 240:253 241:253 242:253 243:253 244:225 245:124 246:5 259:123 260:233 261:253 262:253 263:230 264:193 265:222 266:254 267:253 268:253 269:253 270:253 271:224 272:253 273:253 274:136 275:3 285:7 286:91 287:234 288:253 289:253 290:153 291:37 293:214 294:254 295:246 296:163 297:60 298:60 299:32 300:60 301:191 302:253 303:46 313:65 314:253 315:253 316:163 317:48 318:9 321:242 322:250 323:95 329:65 330:246 331:173 340:52 341:187 342:253 343:165 344:10 348:42 349:247 350:138 358:230 359:253 368:133 369:253 370:238 371:48 376:110 377:253 378:70 386:121 387:253 396:133 397:242 398:56 404:57 405:248 406:117 414:225 415:253 424:192 425:230 433:244 434:123 441:5 442:232 443:254 452:203 453:229 461:173 462:192 463:11 469:109 470:253 471:172 480:179 481:229 489:46 490:237 491:183 496:71 497:240 498:253 499:11 508:133 509:245 510:88 518:45 519:88 520:46 523:38 524:215 525:253 526:157 527:4 536:102 537:227 538:243 539:90 549:12 550:90 551:236 552:253 553:184 554:7 565:53 566:253 567:242 568:194 569:102 570:73 571:73 572:7 574:39 575:85 576:194 577:205 578:253 579:253 580:153 581:37 593:5 594:123 595:225 596:253 597:253 598:253 599:253 600:210 601:206 602:232 603:253 604:253 605:253 606:233 607:133 608:9 623:24 624:65 625:156 626:235 627:253 628:253 629:253 630:250 631:156 632:156 633:76 634:27 654:19 655:24 656:24 657:24 658:23 #
